~o
<STREAMINFO> 1 39
<VECSIZE> 39<NULLD><MFCC_D_A_0><DIAGC>
~s "silst"
<MEAN> 39
 -9.638827e+00 6.737585e-01 -1.175464e+00 2.257666e+00 1.610653e+00 1.559041e+00 4.207214e-01 3.991080e-01 2.330709e-01 -4.380897e-01 4.003521e-01 -1.558491e-01 4.946077e+01 -1.085177e-01 -5.422339e-02 -4.653586e-02 -2.801650e-04 -2.620748e-02 3.102705e-02 3.159256e-02 2.530760e-03 1.345434e-02 -3.273698e-02 -3.980872e-02 6.202913e-02 -9.154622e-02 2.227441e-02 1.733764e-02 1.925813e-02 1.201428e-03 -7.446311e-03 -2.570211e-02 -5.709582e-03 1.546455e-02 -5.201995e-03 8.611347e-04 -3.411932e-05 -7.274563e-03 2.497954e-02
<VARIANCE> 39
 4.741093e+00 5.307018e+00 8.285404e+00 1.357998e+01 1.370830e+01 1.514228e+01 1.538126e+01 1.541321e+01 1.663329e+01 1.734987e+01 1.456578e+01 1.253105e+01 9.133536e+00 1.881501e-01 3.632014e-01 6.252300e-01 9.455915e-01 1.126603e+00 1.308706e+00 1.428346e+00 1.539569e+00 1.613496e+00 1.727948e+00 1.542794e+00 1.314090e+00 6.170136e-02 3.346334e-02 6.954680e-02 1.235647e-01 1.907436e-01 2.238047e-01 2.552923e-01 2.862817e-01 3.065406e-01 3.255744e-01 3.492785e-01 3.107975e-01 2.713705e-01 1.122741e-02
<GCONST> 7.618457e+01
~h "c"
<BEGINHMM>
<NUMSTATES> 5
<STATE> 2
<MEAN> 39
 -1.569046e+01 1.631394e+00 1.968415e+00 -4.897850e+00 4.457488e+00 1.608789e-01 -4.102309e+00 6.392805e+00 -2.276451e+00 -3.359327e-01 2.892547e+00 -7.769295e-01 5.629652e+01 -3.035553e+00 7.348896e-01 1.362389e+00 -2.731534e+00 4.592240e-01 1.367901e-01 -1.150869e+00 1.370783e+00 -1.709128e+00 1.628090e-01 6.529974e-01 -5.093856e-01 2.195190e+00 -7.306087e-02 2.214009e-01 3.330070e-01 2.373385e-01 -5.063832e-01 -1.621096e-01 1.765504e-01 -2.951910e-01 -2.580613e-01 -2.832806e-02 -9.813389e-02 -1.953064e-01 2.858162e-01
<VARIANCE> 39
 5.163570e+01 1.959725e+01 2.802175e+01 6.608690e+01 2.952163e+01 4.423680e+01 3.631577e+01 4.872808e+01 4.996302e+01 2.178667e+01 2.918391e+01 2.338453e+01 4.945229e+01 3.683975e+00 2.400247e+00 2.016123e+00 4.942997e+00 3.299530e+00 2.846786e+00 3.687848e+00 4.362100e+00 3.171658e+00 2.029015e+00 3.102197e+00 2.225549e+00 1.978723e+00 1.809548e+00 4.304627e-01 3.453503e-01 2.307544e+00 8.120227e-01 6.391096e-01 8.648450e-01 1.272607e+00 6.332991e-01 4.311558e-01 6.510229e-01 3.734078e-01 5.030984e-01
<GCONST> 1.277301e+02
<STATE> 3
<MEAN> 39
 -2.447196e+01 5.279143e+00 9.767891e+00 -8.778221e+00 6.950105e-01 -1.379323e-01 -4.052748e+00 6.394324e+00 -9.401980e+00 -1.700441e-01 3.829368e+00 -4.168993e+00 6.424846e+01 2.637018e+00 8.749177e-01 3.255039e+00 3.035844e+00 -3.535939e+00 -2.347444e+00 5.621812e-01 -2.101993e+00 -2.565095e+00 -8.839158e-01 -3.988540e-01 -1.136766e+00 8.796072e-01 1.632079e+00 -1.459081e-01 2.815120e-01 1.042355e+00 -9.269778e-01 -9.377463e-01 -1.012235e-01 -2.539736e-01 -2.921786e-01 -2.927295e-01 4.441400e-02 3.112425e-02 -2.490176e-01
<VARIANCE> 39
 3.138762e+01 1.823223e+01 4.557943e+01 3.886908e+01 2.592878e+01 3.694296e+01 2.865751e+01 3.928277e+01 3.770223e+01 2.417740e+01 2.124318e+01 2.232560e+01 1.863490e+01 4.476837e+00 1.268565e+00 2.029630e+00 2.509829e+00 3.070207e+00 4.829132e+00 3.150405e+00 2.151854e+00 3.920873e+00 1.712368e+00 1.775072e+00 9.794279e-01 4.880457e-01 9.110572e-01 3.764932e-01 4.674622e-01 1.055550e+00 4.308700e-01 4.589677e-01 6.453573e-01 7.922338e-01 5.647777e-01 3.853709e-01 5.158214e-01 3.275774e-01 2.099609e-01
<GCONST> 1.160827e+02
<STATE> 4
<MEAN> 39
 -1.154686e+01 7.701221e+00 2.051118e+01 1.606345e+00 -1.438545e+01 -1.242891e+01 -5.811885e+00 1.573294e+00 -1.853961e+01 -3.341093e+00 4.548660e+00 -7.251570e+00 6.717936e+01 2.457936e+00 -1.459908e-02 2.070041e+00 2.168199e+00 -4.194744e+00 -2.390517e+00 1.795072e-01 -4.628111e-01 -1.903008e+00 -7.223195e-01 7.956366e-01 -4.521118e-01 1.293729e+00 -9.886065e-01 -2.716995e-01 -8.394693e-01 -8.363208e-01 9.245520e-01 9.218445e-01 1.952238e-01 4.568958e-01 7.312821e-01 2.948033e-01 8.745352e-02 3.294029e-01 -7.782511e-02
<VARIANCE> 39
 1.230662e+01 6.605967e+00 1.890733e+01 1.995670e+01 3.573943e+01 1.685966e+01 2.470643e+01 3.963848e+01 3.378399e+01 1.745706e+01 2.651521e+01 2.128691e+01 1.326877e+01 2.397328e+00 8.574722e-01 2.325519e+00 1.863100e+00 3.216522e+00 4.355376e+00 2.473049e+00 2.590170e+00 2.322448e+00 2.041334e+00 1.968475e+00 1.783760e+00 2.016135e-01 1.246097e-01 1.293496e-01 2.040998e-01 1.914484e-01 5.154303e-01 3.715667e-01 2.752488e-01 3.831646e-01 3.858482e-01 3.167516e-01 2.926716e-01 2.516694e-01 5.190488e-02
<GCONST> 9.955102e+01
<TRANSP> 5
 0.000000e+00 1.000000e+00 0.000000e+00 0.000000e+00 0.000000e+00
 0.000000e+00 8.014215e-01 1.985785e-01 0.000000e+00 0.000000e+00
 0.000000e+00 0.000000e+00 6.567769e-01 3.432231e-01 0.000000e+00
 0.000000e+00 0.000000e+00 0.000000e+00 6.325375e-01 3.674626e-01
 0.000000e+00 0.000000e+00 0.000000e+00 0.000000e+00 0.000000e+00
<ENDHMM>
~h "g"
<BEGINHMM>
<NUMSTATES> 5
<STATE> 2
<MEAN> 39
 -1.285220e+00 4.970492e+00 3.666817e+00 7.186394e+00 -6.706736e+00 -1.134802e+01 -7.041419e+00 1.876784e+00 -4.100717e-01 -1.500942e+00 7.989104e-01 -8.108786e-01 5.820837e+01 1.722885e+00 -9.565684e-01 9.743790e-01 1.600721e+00 -2.151065e+00 -2.611324e+00 -1.501011e+00 3.844032e-01 -6.575345e-02 -3.620307e-01 7.605889e-02 -8.915021e-02 2.309371e+00 -3.601361e-01 -7.828922e-01 1.490245e-02 -1.333634e-01 3.764005e-02 4.188771e-01 2.268176e-01 4.164319e-02 -6.231529e-03 4.722154e-02 4.186700e-02 9.798198e-02 8.050578e-02
<VARIANCE> 39
 1.452445e+01 1.579559e+01 2.715296e+01 3.859861e+01 3.359274e+01 5.718772e+01 4.484982e+01 5.103028e+01 3.494972e+01 3.108320e+01 2.896047e+01 2.510292e+01 2.345072e+01 2.874968e+00 3.354353e+00 1.953934e+00 3.817447e+00 3.930899e+00 8.069086e+00 5.701123e+00 5.000575e+00 2.649583e+00 3.859625e+00 2.766932e+00 3.434326e+00 1.645509e+00 4.643591e-01 3.990029e-01 3.660407e-01 6.109812e-01 6.190304e-01 1.599384e+00 7.876014e-01 8.057461e-01 4.879973e-01 6.087568e-01 6.448722e-01 3.966697e-01 2.805730e-01
<GCONST> 1.247593e+02
<STATE> 3
<MEAN> 39
 1.178111e+00 -2.495430e+00 6.778873e+00 1.188568e+01 -1.264876e+01 -1.386803e+01 -8.587957e+00 1.052362e+00 -1.880984e+00 -2.407174e+00 -2.869365e-01 3.724680e-01 6.368822e+01 1.758863e-01 -2.086035e+00 1.224882e+00 6.555822e-02 -1.355590e+00 -4.739587e-01 -1.153949e+00 5.242878e-01 7.434745e-02 -4.839230e-01 5.073600e-01 3.162041e-01 1.705949e+00 -3.013656e-01 2.951829e-01 -3.471526e-01 -5.774845e-01 4.285559e-01 -5.586601e-02 2.364431e-02 1.763432e-01 7.623015e-02 -1.394024e-01 6.583338e-01 -4.100578e-02 -6.207189e-02
<VARIANCE> 39
 5.800785e+00 1.791716e+01 2.521389e+01 2.996500e+01 2.540598e+01 4.308078e+01 4.556157e+01 6.259426e+01 2.666163e+01 4.115192e+01 2.979839e+01 3.389312e+01 1.335345e+01 7.327579e-01 2.065764e+00 1.618732e+00 2.447146e+00 2.243768e+00 5.994160e+00 4.095761e+00 4.299486e+00 2.411351e+00 2.955889e+00 4.470043e+00 1.681180e+00 1.600505e+00 2.802982e-01 4.012902e-01 3.732715e-01 5.050823e-01 5.382279e-01 1.329520e+00 8.953595e-01 8.300461e-01 5.166430e-01 6.682887e-01 7.215484e-01 5.159696e-01 3.303651e-01
<GCONST> 1.184779e+02
<STATE> 4
<MEAN> 39
 1.262862e+00 -6.940723e+00 8.181677e+00 9.764758e+00 -1.543740e+01 -1.741156e+01 -1.415265e+01 5.558061e+00 -6.693454e-01 -4.534566e+00 6.365213e+00 6.065167e-01 6.984540e+01 -3.794089e-01 -1.439610e-01 -7.810089e-01 -8.174928e-01 3.671566e-01 -1.855562e+00 3.904824e-01 6.027272e-01 4.782167e-01 -8.950751e-01 2.321589e+00 -4.466889e-02 1.727589e+00 -2.881405e-01 7.554200e-01 -4.659618e-01 -3.878891e-02 7.001315e-01 -1.380788e-01 1.044540e+00 -3.675162e-01 1.396590e-01 2.986037e-02 -3.455974e-01 5.316677e-02 -3.756266e-01
<VARIANCE> 39
 3.978631e+00 6.909925e+00 1.479664e+01 3.293916e+01 2.559534e+01 2.979746e+01 3.526869e+01 7.761295e+01 2.639759e+01 5.362085e+01 2.518866e+01 3.699972e+01 9.601758e+00 7.646248e-01 1.262584e+00 1.240014e+00 1.557498e+00 1.819156e+00 3.586432e+00 4.034742e+00 4.302014e+00 4.033380e+00 3.285597e+00 2.221900e+00 2.439303e+00 5.644102e-01 8.392614e-02 1.910663e-01 2.087778e-01 3.056561e-01 3.095083e-01 6.431517e-01 4.344751e-01 6.144095e-01 4.182773e-01 4.797384e-01 5.186694e-01 4.108759e-01 9.317487e-02
<GCONST> 1.057961e+02
<TRANSP> 5
 0.000000e+00 1.000000e+00 0.000000e+00 0.000000e+00 0.000000e+00
 0.000000e+00 7.087378e-01 2.912621e-01 0.000000e+00 0.000000e+00
 0.000000e+00 0.000000e+00 6.469186e-01 3.530814e-01 0.000000e+00
 0.000000e+00 0.000000e+00 0.000000e+00 6.142160e-01 3.857839e-01
 0.000000e+00 0.000000e+00 0.000000e+00 0.000000e+00 0.000000e+00
<ENDHMM>
~h "j"
<BEGINHMM>
<NUMSTATES> 5
<STATE> 2
<MEAN> 39
 -3.291969e+00 7.661752e-01 -3.930713e+00 6.412572e-01 4.305510e+00 -6.298725e+00 -6.998366e-01 2.783885e+00 4.617666e-01 3.258398e+00 -2.368985e+00 -6.285192e+00 6.508846e+01 -1.689732e+00 1.010750e+00 2.172147e-01 -1.359175e+00 1.310712e+00 6.465713e-01 -4.741397e-01 6.654422e-01 -4.699412e-01 1.305234e-01 6.536153e-01 -7.106562e-02 -3.315768e-01 -5.085151e-01 1.115672e-01 1.589413e-01 -3.742898e-01 9.882242e-02 7.038550e-03 -3.482060e-01 3.989327e-01 -7.352673e-02 -7.107659e-02 1.593914e-01 6.948937e-02 3.154940e-01
<VARIANCE> 39
 1.707669e+01 1.635546e+01 1.708069e+01 2.170245e+01 3.164274e+01 4.647640e+01 2.876807e+01 4.167212e+01 2.872372e+01 2.552596e+01 2.455208e+01 2.543863e+01 2.448779e+01 3.505585e+00 2.634890e+00 1.425565e+00 2.938699e+00 2.832545e+00 3.576226e+00 3.812193e+00 5.277757e+00 3.123680e+00 2.879452e+00 1.996866e+00 2.781018e+00 1.281085e+00 6.402367e-01 5.445886e-01 2.961681e-01 4.960269e-01 6.637213e-01 6.578218e-01 6.393347e-01 7.221902e-01 5.916262e-01 6.030405e-01 3.500702e-01 5.915830e-01 2.357975e-01
<GCONST> 1.183486e+02
<STATE> 3
<MEAN> 39
 -1.911910e+01 5.356156e+00 2.701771e+00 -1.145667e+01 8.641224e+00 -2.124674e+00 -8.683319e+00 1.257760e+01 -2.095248e+00 3.593394e-01 4.194006e+00 -4.450502e+00 6.643272e+01 -1.637795e+00 -5.362133e-01 1.023776e+00 -2.870216e-01 -9.901263e-01 -3.421990e-02 -4.222971e-01 1.183799e+00 4.872423e-01 -9.230090e-01 7.423756e-01 1.119878e+00 3.981441e-01 9.198864e-01 -5.264638e-01 -1.768734e-01 7.874973e-01 -4.591285e-01 -2.100851e-01 5.770568e-01 -4.106821e-01 2.549858e-01 6.732227e-02 -2.143053e-01 7.367170e-02 -3.667287e-01
<VARIANCE> 39
 2.513918e+01 2.013012e+01 6.251199e+01 6.589813e+01 4.000962e+01 4.125857e+01 3.222409e+01 3.434009e+01 2.667640e+01 2.928768e+01 2.266193e+01 2.986653e+01 1.977428e+01 5.054230e+00 2.956611e+00 1.422500e+00 5.921455e+00 4.372578e+00 3.356544e+00 3.880795e+00 3.044264e+00 2.221326e+00 2.672142e+00 2.029545e+00 1.856578e+00 1.075212e+00 3.948520e-01 4.782037e-01 2.623215e-01 6.440406e-01 9.072090e-01 5.962267e-01 5.419320e-01 5.454268e-01 4.874206e-01 5.713308e-01 4.354471e-01 4.306434e-01 1.430138e-01
<GCONST> 1.198034e+02
<STATE> 4
<MEAN> 39
 -1.488042e+01 -1.661887e-01 1.663947e+00 -4.517562e+00 3.120821e+00 -2.380792e+00 -4.342173e+00 1.107620e+01 4.558787e-01 -1.017539e+00 3.249530e+00 -1.988325e+00 5.888954e+01 5.834534e-01 -1.094644e-01 -2.132338e-01 4.441658e-01 6.128250e-03 2.954136e-01 3.263620e-01 -4.692657e-01 -7.652947e-02 8.854035e-02 -1.929907e-01 -5.099329e-02 -8.557848e-01 -2.933683e-02 9.743567e-02 -1.242547e-02 -6.479239e-02 6.394890e-02 5.337100e-02 -2.285802e-02 -6.832654e-02 -4.570823e-02 3.673249e-02 -1.060855e-02 -4.722257e-02 3.579255e-02
<VARIANCE> 39
 1.293777e+01 1.073329e+01 2.190149e+01 3.103881e+01 2.305621e+01 3.401970e+01 2.651099e+01 2.670375e+01 1.983326e+01 2.472492e+01 1.993623e+01 2.071975e+01 3.369324e+01 4.109244e-01 8.115402e-01 1.068620e+00 1.332838e+00 1.682618e+00 1.810825e+00 1.604503e+00 1.862681e+00 1.974424e+00 2.148386e+00 1.508988e+00 1.548143e+00 2.253932e-01 7.650709e-02 1.382879e-01 1.665862e-01 2.230208e-01 3.633581e-01 3.442153e-01 3.168097e-01 3.955656e-01 4.194471e-01 4.370697e-01 3.080913e-01 3.334380e-01 3.058792e-02
<GCONST> 9.490733e+01
<TRANSP> 5
 0.000000e+00 1.000000e+00 0.000000e+00 0.000000e+00 0.000000e+00
 0.000000e+00 8.447261e-01 1.552739e-01 0.000000e+00 0.000000e+00
 0.000000e+00 0.000000e+00 8.013452e-01 1.986548e-01 0.000000e+00
 0.000000e+00 0.000000e+00 0.000000e+00 9.277533e-01 7.224669e-02
 0.000000e+00 0.000000e+00 0.000000e+00 0.000000e+00 0.000000e+00
<ENDHMM>
~h "k"
<BEGINHMM>
<NUMSTATES> 5
<STATE> 2
<MEAN> 39
 -7.961910e+00 8.550920e-01 1.337854e+00 4.600653e+00 -1.609344e+00 -6.979239e+00 1.601935e-01 3.498897e+00 -1.312987e+00 2.943330e-01 2.993888e+00 4.070579e-01 5.768964e+01 -3.147172e-01 -6.251974e-01 -1.287382e+00 -6.815190e-01 9.259585e-01 -9.541984e-02 -5.261537e-01 -2.452734e-01 8.412154e-03 1.460066e+00 -1.602685e-01 1.082868e-02 6.049272e-01 3.750598e-02 -1.868338e-01 -4.090712e-01 -2.066121e-01 1.742728e-01 -4.413680e-01 -3.783776e-01 -1.705408e-01 -1.093786e-01 4.412354e-01 -6.881447e-02 -7.035334e-02 5.246441e-01
<VARIANCE> 39
 3.328143e+01 1.755400e+01 2.518462e+01 3.340182e+01 3.784678e+01 6.830422e+01 3.651043e+01 3.282182e+01 3.609298e+01 2.682178e+01 3.625621e+01 2.511672e+01 4.710385e+01 1.431136e+00 1.938258e+00 6.227156e+00 2.539284e+00 6.228044e+00 5.584392e+00 4.035941e+00 5.091900e+00 4.625160e+00 4.677314e+00 3.133717e+00 2.404683e+00 2.688566e+00 1.860465e-01 2.774938e-01 7.209178e-01 3.549012e-01 7.826052e-01 7.417171e-01 6.894442e-01 6.500667e-01 6.420826e-01 7.123283e-01 5.865284e-01 4.390104e-01 2.428328e-01
<GCONST> 1.244785e+02
<STATE> 3
<MEAN> 39
 -7.734043e+00 -3.218606e+00 -5.544120e+00 -5.647180e-01 1.029464e+00 -1.320302e+01 -5.729419e+00 1.695157e+00 -3.985460e+00 8.574777e+00 3.182715e+00 -2.250931e-01 6.409037e+01 8.050268e-01 -1.445667e-01 -7.803421e-01 -6.345374e-01 5.221859e-02 -1.663486e+00 -9.120552e-01 -1.586413e-01 3.646291e-01 8.151093e-01 4.074657e-01 -2.954158e-01 1.709498e+00 2.808750e-01 9.850599e-02 5.923755e-01 2.549765e-01 -4.887026e-01 2.092600e-01 4.482655e-01 2.886259e-01 3.512411e-01 -7.526284e-01 2.545549e-01 -2.896480e-01 -2.851638e-01
<VARIANCE> 39
 3.726007e+01 3.250172e+01 1.446186e+02 4.627898e+01 1.231411e+02 8.115464e+01 4.726495e+01 8.774210e+01 7.164197e+01 5.368745e+01 4.546146e+01 4.195240e+01 3.190875e+01 3.422815e+00 2.937396e+00 8.320720e+00 2.754015e+00 7.445607e+00 6.865579e+00 4.629679e+00 5.138299e+00 5.563217e+00 7.708404e+00 4.714468e+00 3.117701e+00 3.222740e+00 6.948462e-01 7.783537e-01 1.937576e+00 6.690237e-01 1.749799e+00 1.107101e+00 6.886044e-01 1.032658e+00 1.042494e+00 1.184817e+00 1.113909e+00 7.722104e-01 3.439660e-01
<GCONST> 1.435143e+02
<STATE> 4
<MEAN> 39
 -4.642913e+00 -1.628134e+00 -5.708851e+00 -6.920355e-01 -6.352499e-01 -6.780930e+00 -3.245294e+00 -4.007184e-01 2.275218e+00 8.327147e+00 5.434222e+00 -3.481801e+00 6.011137e+01 -1.283961e-01 -6.685640e-02 3.559606e-01 1.717369e-01 -2.581044e-01 4.421660e-01 2.036651e-01 1.896678e-01 1.810306e-01 -3.275306e-01 -6.503002e-02 -2.593143e-02 -4.036818e-01 -4.921220e-02 -7.949948e-02 4.799332e-02 -5.363976e-03 -2.118648e-02 -2.382221e-02 6.756249e-02 7.350845e-02 -1.686179e-01 -1.197848e-01 -1.322856e-02 -9.370292e-03 9.305993e-02
<VARIANCE> 39
 1.917078e+01 1.647060e+01 2.512614e+01 2.368419e+01 4.239502e+01 4.955083e+01 3.285978e+01 3.383950e+01 3.454185e+01 2.970518e+01 2.546481e+01 3.229917e+01 4.310396e+01 8.896832e-01 8.570431e-01 1.956585e+00 1.644678e+00 2.355226e+00 2.609522e+00 1.932473e+00 2.215291e+00 2.407448e+00 2.556454e+00 2.559457e+00 2.229404e+00 8.713049e-01 1.392840e-01 1.970769e-01 2.884909e-01 2.721781e-01 3.865335e-01 5.397857e-01 4.335469e-01 4.389250e-01 4.805089e-01 5.824068e-01 3.787654e-01 3.608046e-01 1.718251e-01
<GCONST> 1.090917e+02
<TRANSP> 5
 0.000000e+00 1.000000e+00 0.000000e+00 0.000000e+00 0.000000e+00
 0.000000e+00 6.797816e-01 3.202184e-01 0.000000e+00 0.000000e+00
 0.000000e+00 0.000000e+00 6.252818e-01 3.747182e-01 0.000000e+00
 0.000000e+00 0.000000e+00 0.000000e+00 8.031154e-01 1.968845e-01
 0.000000e+00 0.000000e+00 0.000000e+00 0.000000e+00 0.000000e+00
<ENDHMM>
~h "l"
<BEGINHMM>
<NUMSTATES> 5
<STATE> 2
<MEAN> 39
 -1.656043e+00 4.825827e+00 3.162561e+00 1.895005e+00 -1.975498e+00 -7.196107e+00 -4.174636e+00 -2.902305e+00 -2.999824e+00 1.190788e+00 2.236286e-01 -1.379937e+00 5.997257e+01 6.801006e-01 1.325038e-01 8.713698e-01 3.890806e-01 -7.729672e-01 -6.347067e-01 -1.149508e+00 -2.839124e-01 3.494014e-01 -1.789877e-02 -3.919936e-01 -2.423599e-01 4.880842e-01 -4.034847e-02 -2.306835e-01 -6.183517e-02 2.838688e-04 1.062580e-02 -4.801583e-02 -1.582224e-01 8.831198e-02 2.188892e-01 7.485527e-02 9.299089e-02 -9.649643e-02 1.230420e-01
<VARIANCE> 39
 2.987078e+01 1.971709e+01 3.500814e+01 5.150481e+01 3.618724e+01 5.977314e+01 3.873610e+01 3.738531e+01 6.482556e+01 3.854801e+01 3.048389e+01 2.021425e+01 4.262930e+01 1.591664e+00 2.266190e+00 2.067426e+00 2.816531e+00 3.072967e+00 5.964386e+00 2.697618e+00 3.200309e+00 2.404841e+00 2.948924e+00 2.094343e+00 2.152938e+00 1.211500e+00 2.742187e-01 3.594171e-01 4.219796e-01 5.358439e-01 6.547433e-01 9.166349e-01 4.494493e-01 5.018399e-01 3.776625e-01 5.760118e-01 4.649025e-01 3.428802e-01 9.808297e-02
<GCONST> 1.187883e+02
<STATE> 3
<MEAN> 39
 1.544181e-02 9.717235e-01 3.222660e+00 5.658662e+00 -3.223020e+00 -1.128291e+01 -7.123044e+00 -6.884963e-02 2.189430e+00 8.669204e-01 4.246654e-01 -2.219267e+00 6.517638e+01 -3.614886e-01 -3.678914e-01 2.872943e-01 -3.049180e-01 1.451908e-01 6.388584e-01 -3.128207e-01 6.729590e-01 5.736752e-01 7.495926e-02 2.516515e-01 5.596120e-02 -2.961075e-01 -4.178065e-02 -3.186667e-02 -2.411279e-01 -2.036316e-01 1.832954e-01 -7.303810e-02 1.612946e-01 3.825167e-02 -3.603035e-02 1.644011e-01 1.510664e-01 -1.492127e-01 2.549935e-02
<VARIANCE> 39
 1.136194e+01 1.425859e+01 1.764798e+01 2.393533e+01 2.704585e+01 4.196299e+01 4.079512e+01 5.301983e+01 3.065602e+01 2.932385e+01 2.685797e+01 3.265931e+01 1.515600e+01 4.864734e-01 1.173666e+00 1.690978e+00 1.773546e+00 1.609340e+00 2.893918e+00 2.907355e+00 2.650466e+00 1.585876e+00 2.568170e+00 1.593957e+00 1.726903e+00 9.592159e-01 9.156140e-02 1.848677e-01 2.696689e-01 3.580556e-01 3.475691e-01 4.861146e-01 4.911212e-01 6.112598e-01 3.307312e-01 4.710990e-01 3.159466e-01 3.808478e-01 8.283642e-02
<GCONST> 1.044487e+02
<STATE> 4
<MEAN> 39
 -3.392286e+00 2.468972e-01 1.307192e+00 3.891003e+00 -1.515098e+00 -6.343330e+00 -3.365234e+00 2.754394e+00 5.995321e+00 2.386998e+00 1.564172e+00 -1.552136e-01 5.777055e+01 -2.578010e-01 -3.809367e-02 -2.619560e-01 -2.766122e-01 1.515727e-01 1.306130e-01 6.088258e-02 1.306420e-01 1.122851e-01 1.541785e-01 1.361088e-01 -1.129215e-01 -5.727214e-01 -1.785075e-02 1.939763e-02 -6.185937e-02 -1.027989e-02 1.090068e-02 -1.001084e-02 7.110070e-02 -4.842697e-02 -8.177522e-02 -5.157737e-02 -1.374281e-02 -5.029006e-02 4.792056e-02
<VARIANCE> 39
 1.024002e+01 9.046818e+00 1.527118e+01 1.605052e+01 2.598283e+01 3.553457e+01 3.221404e+01 2.473767e+01 2.171892e+01 2.598444e+01 1.855372e+01 1.864007e+01 2.301089e+01 3.204636e-01 6.569195e-01 1.080700e+00 1.109860e+00 1.346399e+00 1.595021e+00 1.873966e+00 2.141835e+00 1.718360e+00 1.917647e+00 1.794276e+00 1.768525e+00 4.414406e-01 5.644171e-02 1.092428e-01 1.813247e-01 2.306704e-01 2.535519e-01 3.218475e-01 4.668345e-01 3.793384e-01 3.211103e-01 3.546434e-01 3.422443e-01 3.092049e-01 2.230157e-02
<GCONST> 9.211953e+01
<TRANSP> 5
 0.000000e+00 1.000000e+00 0.000000e+00 0.000000e+00 0.000000e+00
 0.000000e+00 7.198243e-01 2.801758e-01 0.000000e+00 0.000000e+00
 0.000000e+00 0.000000e+00 7.155871e-01 2.844130e-01 0.000000e+00
 0.000000e+00 0.000000e+00 0.000000e+00 8.656889e-01 1.343112e-01
 0.000000e+00 0.000000e+00 0.000000e+00 0.000000e+00 0.000000e+00
<ENDHMM>
~h "m"
<BEGINHMM>
<NUMSTATES> 5
<STATE> 2
<MEAN> 39
 1.405993e+00 -1.648741e+00 -1.782662e+00 2.338696e+00 -2.832212e+00 -1.094752e+01 -5.898048e+00 -4.667758e+00 -7.120603e+00 5.355174e+00 7.229717e+00 -5.714448e+00 6.929992e+01 3.792688e-01 -7.576384e-01 -1.183928e+00 -5.273131e-01 6.224944e-02 5.302556e-01 2.811932e-01 9.310901e-01 5.421851e-01 6.267909e-01 4.629728e-01 -9.561347e-01 4.952814e-01 -9.084944e-02 5.857454e-03 5.318668e-02 1.665493e-02 -5.646957e-02 -3.578522e-02 1.478992e-01 3.593289e-01 1.585646e-01 -3.320840e-01 -2.139850e-01 1.073020e-02 -4.973527e-02
<VARIANCE> 39
 7.494721e+00 1.466143e+01 2.358313e+01 3.423973e+01 2.152435e+01 5.400330e+01 2.673028e+01 5.810794e+01 6.392966e+01 5.140109e+01 2.674450e+01 3.276772e+01 1.574717e+01 3.590011e-01 5.650848e-01 1.839260e+00 1.007153e+00 1.145668e+00 2.762234e+00 1.404127e+00 3.527240e+00 1.669885e+00 2.726197e+00 1.841629e+00 2.234115e+00 4.098576e-01 7.025474e-02 1.154569e-01 4.371339e-01 2.653707e-01 2.318528e-01 2.393024e-01 2.478777e-01 4.245324e-01 2.686256e-01 6.092306e-01 4.213128e-01 4.754387e-01 9.966971e-02
<GCONST> 1.010825e+02
<STATE> 3
<MEAN> 39
 1.787987e+00 -4.975746e+00 -5.437047e+00 2.177941e+00 -2.871344e+00 -1.039357e+01 -3.479019e+00 2.846425e+00 -2.192747e+00 1.057865e+00 5.310167e+00 -8.510685e+00 7.136777e+01 -4.206636e-02 -1.573289e-01 6.482787e-01 4.447602e-01 1.060215e-01 -1.100687e-01 3.906297e-01 6.351933e-01 2.341641e-01 -1.491803e+00 -7.266374e-01 6.617224e-01 -2.186071e-01 -1.938700e-02 1.560095e-01 2.943268e-01 1.264169e-01 -1.323073e-02 -1.936341e-01 -8.023040e-02 -1.867955e-01 -1.632886e-01 4.718156e-03 2.895462e-02 3.148851e-01 -1.478391e-01
<VARIANCE> 39
 6.446093e+00 1.482256e+01 1.855307e+01 2.373759e+01 2.705984e+01 4.448160e+01 1.775346e+01 7.609917e+01 5.688502e+01 6.192308e+01 2.396013e+01 4.429052e+01 2.116435e+01 3.276630e-01 4.841347e-01 1.070203e+00 6.115581e-01 1.122548e+00 1.344844e+00 8.862997e-01 2.732198e+00 1.548470e+00 1.149521e+00 1.128127e+00 2.380084e+00 4.390861e-01 4.898630e-02 5.117847e-02 1.421678e-01 1.267581e-01 1.826199e-01 2.224041e-01 1.577386e-01 2.687268e-01 2.655706e-01 3.042664e-01 2.162687e-01 3.904966e-01 1.751049e-02
<GCONST> 8.918356e+01
<STATE> 4
<MEAN> 39
 2.317356e-01 2.499368e-01 2.327311e+00 6.341925e+00 -1.439277e+00 -6.065584e+00 -2.366950e+00 -1.004867e+00 -2.135387e+00 -2.287797e+00 3.065553e+00 -1.704926e+00 6.202091e+01 -3.039523e-01 2.902956e-01 2.952007e-01 1.519587e-01 1.433346e-01 2.384983e-01 1.591415e-01 3.017163e-01 3.053381e-01 -2.353991e-02 -1.324640e-01 1.766774e-01 -7.424132e-01 -2.544936e-02 -2.790437e-02 -9.352529e-02 -5.900721e-02 -4.334690e-02 4.367583e-02 2.101609e-02 8.220114e-03 1.571854e-02 1.036466e-01 5.189113e-02 -3.540969e-02 -3.384590e-04
<VARIANCE> 39
 7.566612e+00 3.150373e+01 1.391405e+01 1.739425e+01 2.305330e+01 4.549763e+01 2.181660e+01 5.738068e+01 2.814610e+01 3.225047e+01 2.802387e+01 2.256327e+01 4.217812e+01 2.205193e-01 4.145963e-01 9.528872e-01 9.876828e-01 1.582026e+00 1.698338e+00 1.314541e+00 1.729285e+00 1.942380e+00 1.486819e+00 1.792298e+00 1.845892e+00 1.305673e-01 2.554117e-02 7.254454e-02 1.324574e-01 1.540338e-01 3.005290e-01 2.827514e-01 2.523540e-01 3.164579e-01 3.557700e-01 3.001160e-01 3.714211e-01 3.230887e-01 1.710150e-02
<GCONST> 8.970613e+01
<TRANSP> 5
 0.000000e+00 1.000000e+00 0.000000e+00 0.000000e+00 0.000000e+00
 0.000000e+00 8.037184e-01 1.962816e-01 0.000000e+00 0.000000e+00
 0.000000e+00 0.000000e+00 8.157905e-01 1.842095e-01 0.000000e+00
 0.000000e+00 0.000000e+00 0.000000e+00 8.943073e-01 1.056928e-01
 0.000000e+00 0.000000e+00 0.000000e+00 0.000000e+00 0.000000e+00
<ENDHMM>
~h "n"
<BEGINHMM>
<NUMSTATES> 5
<STATE> 2
<MEAN> 39
 -1.085231e-02 3.729057e+00 5.417493e+00 7.940211e+00 -4.869159e+00 -9.710592e+00 -5.455207e+00 -3.803176e+00 -1.022198e+00 -1.350886e+00 -1.918091e-01 -2.787890e+00 6.270547e+01 7.587489e-01 -4.550797e-01 6.487119e-01 1.036459e+00 -1.321375e+00 -1.146506e+00 -7.812327e-01 -4.614636e-01 -1.455446e-01 2.158522e-01 -1.933063e-01 1.256606e-01 1.139443e+00 -2.488677e-01 -3.755452e-01 -2.867504e-01 -9.702480e-02 4.478882e-03 4.207660e-01 5.982743e-02 1.274584e-01 6.624716e-02 1.071081e-01 1.576317e-01 3.667407e-02 2.824176e-03
<VARIANCE> 39
 1.926434e+01 4.219028e+01 5.344689e+01 4.900697e+01 3.242877e+01 5.388542e+01 2.501344e+01 8.322418e+01 5.252411e+01 5.210296e+01 4.665583e+01 2.314189e+01 6.693133e+01 2.036251e+00 2.828639e+00 3.005349e+00 1.593518e+00 3.101331e+00 4.997133e+00 2.931578e+00 3.531786e+00 3.675459e+00 3.513156e+00 2.033654e+00 2.337260e+00 1.255458e+00 2.275613e-01 3.599023e-01 3.790513e-01 2.918125e-01 5.401803e-01 6.150931e-01 4.603842e-01 6.791472e-01 5.312330e-01 5.837545e-01 3.717290e-01 2.632364e-01 1.339338e-01
<GCONST> 1.207236e+02
<STATE> 3
<MEAN> 39
 -1.062707e-02 -3.764092e+00 1.912707e+00 1.054821e+01 -1.084068e+01 -1.201116e+01 -7.482682e+00 -2.179075e+00 1.965317e+00 1.084899e-01 2.289104e+00 -4.070397e+00 7.135763e+01 -1.363479e-02 2.724842e-03 1.925902e-01 -4.501388e-01 -4.996093e-02 1.012289e+00 -9.423888e-02 -1.202312e+00 -2.515327e-01 1.017904e-01 1.273518e-01 5.956354e-01 1.963458e-01 9.271820e-02 2.732261e-01 -1.562467e-02 -3.487582e-01 2.901555e-01 2.527563e-01 3.276166e-01 -4.485694e-01 2.670160e-02 7.991293e-03 -2.553047e-02 -1.073767e-01 -2.070366e-01
<VARIANCE> 39
 5.500723e+00 1.020616e+01 3.927293e+01 3.828080e+01 3.127732e+01 6.779331e+01 3.771341e+01 8.020856e+01 6.450337e+01 5.485804e+01 3.340366e+01 3.372906e+01 2.047421e+01 5.657993e-01 1.452868e+00 6.633992e+00 1.810163e+00 2.451522e+00 2.669469e+00 3.141763e+00 6.401370e+00 3.483068e+00 2.696137e+00 4.121356e+00 2.959024e+00 1.966560e+00 7.963473e-02 1.723957e-01 5.697324e-01 3.359802e-01 4.351675e-01 5.337371e-01 5.750732e-01 1.002460e+00 8.228613e-01 5.452832e-01 5.607679e-01 5.765660e-01 1.050838e-01
<GCONST> 1.173630e+02
<STATE> 4
<MEAN> 39
 -7.851308e-01 1.574737e+00 6.560127e+00 7.070078e+00 -4.474428e+00 -7.953186e+00 -3.281420e+00 -4.711894e+00 1.482189e+00 -2.432339e+00 -3.811159e-01 -2.123826e+00 6.257557e+01 -2.288738e-01 2.547505e-01 -1.060039e-01 -1.558704e-01 2.392858e-01 3.856544e-01 2.384023e-01 1.292139e-01 -3.837049e-02 3.608779e-02 -6.713486e-02 1.363401e-01 -5.947582e-01 -3.522568e-02 -4.880915e-02 -6.334419e-02 -2.773328e-03 -2.560858e-02 -2.661317e-02 -5.520966e-03 1.152988e-01 -9.528416e-03 1.782907e-04 2.872243e-02 4.508110e-04 1.115230e-02
<VARIANCE> 39
 1.385756e+01 1.866662e+01 1.336502e+01 2.449631e+01 3.030583e+01 4.483538e+01 2.179414e+01 5.075656e+01 3.525484e+01 2.994263e+01 2.547746e+01 2.090476e+01 4.796731e+01 2.537953e-01 4.320146e-01 6.156176e-01 9.684719e-01 1.195149e+00 1.665036e+00 1.624068e+00 1.970310e+00 1.657470e+00 1.321108e+00 1.358638e+00 1.495817e+00 1.453533e-01 3.029030e-02 6.139708e-02 1.120940e-01 1.632199e-01 2.153815e-01 3.287582e-01 3.050935e-01 3.892231e-01 2.975980e-01 2.540083e-01 2.894180e-01 2.576705e-01 1.786332e-02
<GCONST> 8.877475e+01
<TRANSP> 5
 0.000000e+00 1.000000e+00 0.000000e+00 0.000000e+00 0.000000e+00
 0.000000e+00 7.530416e-01 2.469585e-01 0.000000e+00 0.000000e+00
 0.000000e+00 0.000000e+00 7.898941e-01 2.101059e-01 0.000000e+00
 0.000000e+00 0.000000e+00 0.000000e+00 9.366540e-01 6.334601e-02
 0.000000e+00 0.000000e+00 0.000000e+00 0.000000e+00 0.000000e+00
<ENDHMM>
~h "o"
<BEGINHMM>
<NUMSTATES> 5
<STATE> 2
<MEAN> 39
 2.042799e+00 -1.158754e+00 -5.242251e+00 -2.069360e+00 -7.043885e+00 -6.861196e+00 -5.070565e+00 -6.143040e+00 -6.239069e+00 4.886781e+00 1.202891e+01 -1.124803e+00 7.043520e+01 3.351766e-01 3.322824e-01 1.238508e-01 -6.607436e-01 -1.690157e-01 1.149486e+00 1.740420e+00 -2.786133e-01 -1.508266e+00 -8.134330e-01 -7.072042e-01 7.930786e-01 -2.812637e-01 -1.819465e-01 -5.652393e-02 4.518861e-01 5.410548e-01 -2.066874e-01 -1.945040e-01 -3.043310e-01 3.426200e-01 6.365053e-01 -3.479512e-01 -7.267759e-01 -2.922107e-02 -1.489198e-01
<VARIANCE> 39
 8.382048e+00 8.643399e+00 8.845835e+00 4.054048e+01 2.174233e+01 4.646323e+01 2.432881e+01 4.762736e+01 7.797906e+01 3.864296e+01 2.375654e+01 3.024244e+01 1.483225e+01 2.433016e-01 4.430972e-01 1.792401e+00 1.385076e+00 1.365182e+00 1.371074e+00 1.292364e+00 2.144311e+00 2.528671e+00 1.982506e+00 1.819518e+00 1.426705e+00 2.460844e-01 6.626455e-02 7.110281e-02 2.430368e-01 1.529416e-01 3.505341e-01 2.651240e-01 2.543977e-01 3.782229e-01 4.162830e-01 4.584483e-01 3.677154e-01 3.442202e-01 4.223580e-02
<GCONST> 9.433736e+01
<STATE> 3
<MEAN> 39
 2.714523e+00 -6.311174e-02 -3.210895e+00 1.832178e+00 -1.233911e+01 -1.764261e+00 -1.203562e+00 -6.319536e+00 -5.284719e+00 -1.962433e-01 3.041458e+00 2.336643e+00 6.982893e+01 2.910204e-03 3.158049e-01 3.765615e-01 2.127340e-01 3.109961e-01 2.945505e-01 4.355222e-01 2.166732e-01 5.709344e-02 -4.002965e-01 -8.545870e-01 3.461546e-02 -4.731943e-01 -5.215171e-02 2.084133e-03 1.411272e-02 8.227070e-02 1.779529e-01 -5.359009e-02 -8.967507e-02 4.309179e-02 7.840461e-02 1.172579e-01 1.102360e-01 -9.214120e-02 -6.263753e-02
<VARIANCE> 39
 3.946461e+00 1.246012e+01 1.036392e+01 3.287414e+01 4.281662e+01 5.488721e+01 2.376526e+01 3.306654e+01 6.061662e+01 6.094484e+01 4.377314e+01 2.040247e+01 1.856956e+01 2.167352e-01 3.236033e-01 6.049910e-01 8.401647e-01 1.365423e+00 9.063240e-01 9.102631e-01 1.106732e+00 1.172972e+00 1.215639e+00 1.025588e+00 8.956338e-01 2.163083e-01 2.370834e-02 4.824406e-02 1.117043e-01 1.121670e-01 1.599944e-01 1.435283e-01 1.717302e-01 1.498523e-01 2.346502e-01 2.134070e-01 1.945532e-01 1.558467e-01 1.362535e-02
<GCONST> 8.001573e+01
<STATE> 4
<MEAN> 39
 -1.225773e+00 2.848632e+00 -1.122239e+00 7.929675e-01 -4.392928e+00 1.025762e+00 3.471521e+00 -2.983969e-01 -2.549574e+00 -3.109325e-01 2.215268e+00 1.585568e+00 5.796632e+01 -4.728051e-01 -3.470014e-02 7.166842e-02 -8.653244e-02 3.515977e-01 -3.917969e-02 -3.712175e-02 1.881482e-01 3.354568e-01 4.178759e-02 1.108972e-01 -7.166189e-02 -6.790845e-01 3.825602e-03 -2.478621e-02 -4.641787e-02 -2.936761e-02 -4.683701e-02 -4.731555e-02 -8.542304e-02 -2.623989e-02 -3.170557e-03 1.731279e-02 1.829637e-02 -1.160274e-02 4.865639e-02
<VARIANCE> 39
 1.096426e+01 7.922430e+00 1.053265e+01 1.716452e+01 2.348914e+01 3.239851e+01 2.516474e+01 2.220347e+01 3.081816e+01 3.121470e+01 2.420764e+01 1.853762e+01 2.739225e+01 2.063291e-01 3.606780e-01 7.454538e-01 9.599449e-01 1.536407e+00 1.905144e+00 2.005695e+00 1.909098e+00 2.115753e+00 2.389931e+00 1.951287e+00 1.358209e+00 1.353017e-01 3.572217e-02 6.976911e-02 1.303327e-01 1.643213e-01 2.793092e-01 3.641185e-01 3.649119e-01 3.751630e-01 3.902351e-01 4.586173e-01 3.891453e-01 2.585796e-01 1.063933e-02
<GCONST> 8.799146e+01
<TRANSP> 5
 0.000000e+00 1.000000e+00 0.000000e+00 0.000000e+00 0.000000e+00
 0.000000e+00 6.346077e-01 3.653922e-01 0.000000e+00 0.000000e+00
 0.000000e+00 0.000000e+00 8.721657e-01 1.278343e-01 0.000000e+00
 0.000000e+00 0.000000e+00 0.000000e+00 9.093281e-01 9.067190e-02
 0.000000e+00 0.000000e+00 0.000000e+00 0.000000e+00 0.000000e+00
<ENDHMM>
~h "p"
<BEGINHMM>
<NUMSTATES> 5
<STATE> 2
<MEAN> 39
 -7.791423e+00 -1.462578e-01 -2.461017e+00 1.658741e+00 1.036858e+00 -3.793364e+00 -4.837657e-01 1.498832e+00 6.110969e-01 9.133575e-01 1.410960e+00 -2.196136e+00 5.536777e+01 1.313135e+00 -2.211391e-02 -4.945441e-01 -1.165643e+00 -1.251131e+00 -1.000575e+00 -6.689681e-01 1.622297e-01 3.148219e-02 -4.890711e-02 1.574409e+00 -9.519042e-01 1.365842e+00 5.309189e-01 -2.489730e-01 -5.229135e-01 -7.568510e-01 -5.606980e-02 -3.112940e-01 6.418239e-02 -6.307244e-02 -7.306169e-02 3.089229e-01 4.480533e-01 -5.200452e-01 8.112468e-01
<VARIANCE> 39
 2.505777e+01 1.129144e+01 2.287542e+01 2.274312e+01 1.415493e+01 7.318275e+01 3.694797e+01 3.305383e+01 2.657311e+01 2.818019e+01 4.507308e+01 2.016390e+01 6.516861e+01 3.686862e+00 1.495604e+00 3.786691e+00 4.078810e+00 3.076714e+00 4.661610e+00 3.306297e+00 3.428897e+00 2.801864e+00 3.686922e+00 4.935077e+00 4.054134e+00 3.349490e+00 4.891908e-01 2.711796e-01 4.866751e-01 4.677625e-01 4.446391e-01 7.863674e-01 7.353126e-01 5.923746e-01 5.038850e-01 6.392350e-01 7.130815e-01 5.563050e-01 3.644086e-01
<GCONST> 1.228622e+02
<STATE> 3
<MEAN> 39
 5.570007e-01 -1.012874e+00 -8.416095e+00 -6.986365e+00 -2.551927e+00 -1.047022e+01 -2.540098e+00 8.498746e-01 1.004374e+00 5.093346e+00 8.285136e+00 -8.462996e+00 6.494766e+01 2.082307e+00 -1.649046e+00 -1.599464e+00 -2.538228e+00 -2.336502e-01 -1.611042e+00 1.308489e+00 -9.614632e-03 -7.392102e-02 7.922724e-01 2.216786e+00 -3.201468e+00 3.204322e+00 -7.760524e-01 -3.457437e-01 2.211232e-01 3.017279e-01 8.097329e-01 4.798410e-01 6.523959e-01 7.191349e-02 -4.393924e-02 -2.046300e-01 -6.321005e-01 1.831820e-02 -1.347349e-01
<VARIANCE> 39
 2.253962e+01 1.954474e+01 4.618064e+01 4.390662e+01 1.875896e+01 8.677466e+01 6.996591e+01 7.920712e+01 4.698863e+01 4.337470e+01 6.997769e+01 5.025972e+01 4.033041e+01 3.933645e+00 1.803226e+00 4.639494e+00 4.816334e+00 3.189566e+00 7.676293e+00 5.934340e+00 4.387298e+00 3.333007e+00 5.534249e+00 4.190782e+00 5.443079e+00 4.750273e+00 3.877861e-01 4.016779e-01 7.247154e-01 6.043665e-01 4.289801e-01 7.877198e-01 7.882549e-01 6.952970e-01 5.741286e-01 8.489751e-01 9.382657e-01 9.415575e-01 4.364013e-01
<GCONST> 1.339576e+02
<STATE> 4
<MEAN> 39
 1.621101e+00 -4.140731e+00 -7.316759e+00 -5.349541e+00 -2.642697e-01 -1.190677e+01 -2.691842e+00 1.523504e+00 5.461490e-01 5.768370e+00 1.194817e+01 -1.416955e+01 6.941946e+01 -1.884726e-01 -1.220971e-01 1.762593e-01 -1.904265e-02 3.635518e-01 8.726081e-01 8.690674e-01 -2.281334e-01 -1.714262e-01 5.270945e-02 -5.036513e-01 -2.083748e-02 -2.111772e-01 -4.396283e-01 3.136883e-01 1.194543e-01 2.169638e-01 1.310976e-01 2.410503e-01 -1.747972e-01 -9.399945e-02 1.013173e-01 -2.907895e-02 -4.324099e-01 5.476336e-01 -3.968607e-01
<VARIANCE> 39
 9.527793e+00 1.153506e+01 2.254124e+01 3.174990e+01 1.812123e+01 6.862730e+01 5.767879e+01 4.571920e+01 4.318031e+01 4.509009e+01 5.755558e+01 3.827754e+01 3.748536e+01 1.055128e+00 1.913539e+00 1.086860e+00 1.365281e+00 1.497743e+00 2.240105e+00 2.986624e+00 2.518990e+00 2.499689e+00 1.849764e+00 2.401501e+00 4.152493e+00 2.725102e+00 2.450547e-01 2.787949e-01 2.820713e-01 3.096127e-01 2.680555e-01 6.567539e-01 4.595596e-01 4.685546e-01 5.331386e-01 5.928832e-01 7.082053e-01 6.817023e-01 3.921650e-01
<GCONST> 1.147980e+02
<TRANSP> 5
 0.000000e+00 1.000000e+00 0.000000e+00 0.000000e+00 0.000000e+00
 0.000000e+00 5.027902e-01 4.972098e-01 0.000000e+00 0.000000e+00
 0.000000e+00 0.000000e+00 4.553361e-01 5.446639e-01 0.000000e+00
 0.000000e+00 0.000000e+00 0.000000e+00 6.784879e-01 3.215121e-01
 0.000000e+00 0.000000e+00 0.000000e+00 0.000000e+00 0.000000e+00
<ENDHMM>
~h "r"
<BEGINHMM>
<NUMSTATES> 5
<STATE> 2
<MEAN> 39
 -4.085266e+00 -9.818819e-01 1.742856e+00 3.112858e+00 -5.437855e+00 -1.210488e+01 -3.525058e+00 4.466222e+00 1.557830e+00 1.819805e+00 1.884628e+00 -4.144644e+00 6.537419e+01 -1.324859e-01 1.985117e-01 3.704216e-01 1.797569e-01 -2.575205e-01 2.744105e-01 -1.212515e-01 -5.450388e-02 -3.385480e-01 -2.357483e-02 -2.094482e-01 7.924917e-01 -5.005636e-01 -3.603343e-02 8.329617e-02 -8.145089e-02 -3.974704e-02 2.516995e-01 3.240802e-01 2.131290e-01 -1.778266e-01 -8.551913e-02 -1.419182e-01 -5.123896e-02 -1.054949e-01 -1.161699e-01
<VARIANCE> 39
 1.899130e+01 2.659533e+01 6.855863e+01 2.298058e+01 6.664981e+01 8.477768e+01 2.177077e+01 4.453544e+01 8.169019e+01 3.616367e+01 2.964908e+01 4.269534e+01 1.279641e+02 5.568947e-01 7.029406e-01 1.149234e+00 2.015731e+00 2.228553e+00 2.253751e+00 2.575637e+00 2.492890e+00 2.145480e+00 1.946683e+00 1.553135e+00 3.440241e+00 5.087801e-01 6.491478e-02 1.684845e-01 1.621095e-01 2.362534e-01 3.446801e-01 3.855246e-01 2.945005e-01 4.341706e-01 3.792794e-01 2.989338e-01 3.725210e-01 5.326421e-01 6.067124e-02
<GCONST> 1.081225e+02
<STATE> 3
<MEAN> 39
 -5.401500e+00 -7.318547e-01 3.300720e+00 4.240635e+00 -2.177490e+00 -1.015574e+01 -3.445627e+00 3.716061e+00 -2.557561e-01 8.190922e-01 -9.025606e-02 -2.362162e+00 6.325417e+01 -2.223899e-01 3.710699e-01 -1.421903e-02 -7.174858e-02 3.590262e-01 8.114040e-01 4.626060e-01 -1.338284e-01 -2.952805e-01 -1.630372e-01 -2.574302e-01 1.532868e-01 -5.739502e-01 -1.399241e-02 -2.132588e-02 -7.034999e-02 -5.588276e-03 5.660044e-02 1.044762e-01 1.241193e-01 1.584953e-03 4.156794e-02 -2.608077e-03 5.319498e-02 -1.503432e-01 9.595464e-03
<VARIANCE> 39
 1.869188e+01 2.568757e+01 6.511499e+01 3.556329e+01 7.511345e+01 5.945409e+01 3.489412e+01 3.384034e+01 5.530612e+01 3.324644e+01 2.565103e+01 3.234986e+01 8.080860e+01 5.290223e-01 8.860373e-01 8.728104e-01 1.805025e+00 2.095075e+00 2.251723e+00 1.869522e+00 1.820775e+00 2.064005e+00 1.653826e+00 1.672503e+00 2.236692e+00 4.747738e-01 8.442432e-02 1.602554e-01 1.634862e-01 4.153611e-01 4.440780e-01 3.900572e-01 4.375001e-01 3.946940e-01 4.040838e-01 3.602411e-01 3.292682e-01 5.428647e-01 4.662586e-02
<GCONST> 1.067657e+02
<STATE> 4
<MEAN> 39
 -7.298321e+00 1.120403e+00 1.367491e+00 3.056016e+00 -7.585273e-01 -3.851419e+00 -6.401193e-02 1.856649e+00 -6.235341e-01 1.248874e-01 1.347658e+00 -1.026807e+00 5.600301e+01 -2.256626e-01 2.490620e-02 -2.004379e-01 -1.532085e-01 -1.345494e-02 4.210917e-01 1.736183e-01 -1.392775e-01 -2.675108e-02 -5.964258e-02 9.561124e-02 9.469712e-02 -2.876392e-01 -1.265989e-02 -9.438695e-03 2.834260e-02 -4.286819e-02 -3.105254e-02 -1.582902e-01 -9.273538e-02 2.939220e-02 3.426074e-02 4.408632e-02 6.008702e-02 -1.226805e-02 7.644437e-02
<VARIANCE> 39
 1.166341e+01 1.451285e+01 4.332845e+01 2.081673e+01 4.726214e+01 4.012362e+01 3.052998e+01 2.560818e+01 4.535130e+01 2.508628e+01 2.527929e+01 1.956790e+01 5.294541e+01 2.696503e-01 7.192549e-01 7.601994e-01 1.132484e+00 1.980448e+00 1.775258e+00 1.735091e+00 1.592796e+00 1.907416e+00 1.548733e+00 1.784399e+00 1.806366e+00 2.504640e-01 7.533873e-02 1.363380e-01 1.478705e-01 2.829053e-01 3.970582e-01 3.741952e-01 3.435389e-01 3.983870e-01 4.277609e-01 3.370987e-01 3.576925e-01 3.089161e-01 2.977180e-02
<GCONST> 9.708409e+01
<TRANSP> 5
 0.000000e+00 1.000000e+00 0.000000e+00 0.000000e+00 0.000000e+00
 0.000000e+00 3.163108e-01 6.836893e-01 0.000000e+00 0.000000e+00
 0.000000e+00 0.000000e+00 4.696749e-01 5.303252e-01 0.000000e+00
 0.000000e+00 0.000000e+00 0.000000e+00 6.428698e-01 3.571302e-01
 0.000000e+00 0.000000e+00 0.000000e+00 0.000000e+00 0.000000e+00
<ENDHMM>
~h "s"
<BEGINHMM>
<NUMSTATES> 5
<STATE> 2
<MEAN> 39
 -9.712127e+00 3.869319e-01 -4.773827e+00 -1.906046e+00 2.716371e+00 -9.754057e+00 5.290859e+00 7.924038e+00 3.152932e+00 3.544477e+00 -1.565316e+00 -3.091799e+00 6.865380e+01 -3.643307e+00 1.554759e+00 -8.463877e-02 -6.831535e-01 -2.355743e-01 9.680036e-01 -9.812317e-01 9.256381e-01 2.308198e-01 -9.693955e-01 8.151782e-01 5.193588e-01 7.251599e-01 -2.071103e-01 2.017984e-01 -1.581779e-01 -1.431075e-01 -4.403972e-02 -3.880837e-01 -3.510864e-02 -1.158547e-01 3.008967e-02 -7.536901e-03 -8.810026e-02 -2.783482e-01 8.483760e-02
<VARIANCE> 39
 4.403308e+01 1.876390e+01 5.489959e+01 3.134952e+01 6.686832e+01 5.034741e+01 7.623660e+01 5.926165e+01 4.191126e+01 6.466532e+01 3.685431e+01 3.648411e+01 2.015564e+01 1.698459e+00 1.318388e+00 2.296577e+00 1.987508e+00 1.991532e+00 4.032541e+00 3.577288e+00 3.824873e+00 2.888685e+00 3.954597e+00 2.593385e+00 3.060979e+00 1.143814e+00 6.924398e-01 2.151616e-01 3.596166e-01 3.215494e-01 4.095939e-01 5.366816e-01 6.720470e-01 7.543489e-01 5.745387e-01 7.214342e-01 4.933017e-01 5.944552e-01 2.966758e-01
<GCONST> 1.225819e+02
<STATE> 3
<MEAN> 39
 -2.272183e+01 6.846771e+00 -1.987624e+00 -4.490544e+00 6.394825e-01 -1.235956e+01 9.860802e-01 1.048019e+01 2.457735e+00 1.768571e+00 1.243835e+00 -1.540945e+00 6.944085e+01 -6.891073e-01 1.755341e-01 -1.966980e-01 -1.044473e-01 3.243414e-01 -2.346597e-01 2.561561e-01 -9.929471e-02 -1.742565e-01 2.406209e-01 -1.822768e-01 -1.486407e-02 -3.396717e-01 6.154057e-01 -2.828485e-01 1.033818e-01 2.157036e-01 -3.886705e-02 -8.704310e-02 2.411871e-03 -1.555030e-01 -9.685552e-02 4.118952e-02 -5.226143e-02 -7.438011e-03 -1.448869e-01
<VARIANCE> 39
 1.391709e+01 2.054286e+01 6.464153e+01 6.468700e+01 4.985255e+01 4.323727e+01 4.170924e+01 4.699711e+01 4.993502e+01 3.548052e+01 3.421631e+01 3.412433e+01 1.557499e+01 1.734092e+00 1.724882e+00 1.080973e+00 1.372048e+00 1.775556e+00 2.058917e+00 2.485897e+00 2.468457e+00 2.495730e+00 2.179983e+00 1.711954e+00 1.414366e+00 2.378475e-01 2.829272e-01 2.164564e-01 2.707187e-01 3.250081e-01 3.935187e-01 3.960164e-01 5.831105e-01 5.172334e-01 4.418975e-01 4.975764e-01 3.919830e-01 3.418799e-01 7.650717e-02
<GCONST> 1.095824e+02
<STATE> 4
<MEAN> 39
 -1.769650e+01 4.795236e+00 -7.496336e+00 -2.796394e+00 5.373376e+00 -9.025676e+00 5.479619e+00 4.621866e+00 1.470332e+00 4.587255e+00 -1.481824e+00 -2.612843e+00 6.308323e+01 1.091910e+00 -1.343359e-01 8.161120e-02 3.073653e-01 -2.124121e-01 1.212132e-01 -4.047707e-01 -8.644532e-01 -4.008694e-01 2.024208e-02 1.606077e-01 7.264270e-02 -7.599680e-01 1.620433e-01 -4.294011e-02 5.266080e-02 -1.383276e-02 -1.241180e-01 -1.418902e-01 -1.546956e-01 -1.224043e-02 -9.351937e-02 -6.610375e-02 1.219722e-01 2.459884e-02 2.121372e-01
<VARIANCE> 39
 1.508954e+01 2.127402e+01 8.129189e+01 4.207820e+01 3.579038e+01 3.215707e+01 4.375115e+01 4.470512e+01 3.423801e+01 2.802649e+01 2.396340e+01 2.159635e+01 2.502420e+01 2.358645e+00 7.274261e-01 1.855998e+00 2.503370e+00 2.355107e+00 3.167423e+00 2.479141e+00 2.425208e+00 2.447137e+00 2.287723e+00 1.607357e+00 1.727503e+00 7.028918e-01 2.709627e-01 1.541439e-01 2.744551e-01 3.713166e-01 4.079039e-01 4.818439e-01 5.161273e-01 5.585255e-01 4.229425e-01 4.328344e-01 4.125414e-01 3.325079e-01 1.673601e-01
<GCONST> 1.110170e+02
<TRANSP> 5
 0.000000e+00 1.000000e+00 0.000000e+00 0.000000e+00 0.000000e+00
 0.000000e+00 7.009992e-01 2.990008e-01 0.000000e+00 0.000000e+00
 0.000000e+00 0.000000e+00 8.512284e-01 1.487716e-01 0.000000e+00
 0.000000e+00 0.000000e+00 0.000000e+00 8.485053e-01 1.514947e-01
 0.000000e+00 0.000000e+00 0.000000e+00 0.000000e+00 0.000000e+00
<ENDHMM>
~h "t"
<BEGINHMM>
<NUMSTATES> 5
<STATE> 2
<MEAN> 39
 -1.279942e+01 -7.313937e-01 -5.801329e+00 1.710537e-01 1.475416e-01 -5.903088e+00 1.940989e-02 1.598132e+00 1.290597e+00 5.444270e-01 -1.894214e+00 2.052918e+00 5.879998e+01 1.217756e+00 -1.061980e+00 1.407927e+00 1.089179e+00 -2.421125e+00 -3.374919e+00 -3.718186e+00 3.818556e-01 4.714585e-01 -8.769750e-01 -6.171017e-01 5.936947e-01 2.923105e+00 8.032887e-01 3.992654e-01 -5.443375e-02 -3.261277e-02 1.164492e-01 -5.483392e-01 -3.469870e-01 -4.504227e-01 5.517286e-02 4.253495e-01 2.855325e-01 -7.595268e-01 5.300987e-01
<VARIANCE> 39
 1.242787e+01 4.314755e+01 5.788519e+01 7.904856e+01 8.643571e+01 6.165074e+01 6.234729e+01 4.051664e+01 3.396880e+01 5.815625e+01 2.675668e+01 2.989884e+01 4.912594e+01 2.422742e+00 2.440997e+00 1.977172e+00 5.342178e+00 4.463830e+00 4.338480e+00 4.549186e+00 6.383194e+00 3.579751e+00 3.700197e+00 3.349563e+00 4.879376e+00 1.481864e+00 1.863778e-01 6.663211e-01 4.774727e-01 7.109132e-01 1.214398e+00 9.849202e-01 1.370230e+00 1.031419e+00 6.940688e-01 7.400618e-01 7.883117e-01 6.729902e-01 4.129519e-01
<GCONST> 1.323848e+02
<STATE> 3
<MEAN> 39
 -4.198224e+00 1.450477e+00 -2.349636e+00 3.919582e+00 -4.361558e+00 -1.729448e+01 -1.156223e+01 -1.280222e+00 3.122399e+00 1.147909e+00 -1.913284e+00 -1.969261e+00 6.743738e+01 3.232738e+00 7.234559e-01 -3.979346e-01 -4.872415e-01 7.051225e-01 -1.636127e+00 -1.060408e+00 -2.064263e+00 -7.959009e-01 1.420248e+00 1.737042e+00 -2.705310e+00 2.073971e+00 -2.567769e-01 -1.106001e-02 -6.422723e-01 -7.478779e-01 9.366070e-01 1.555248e+00 1.816928e+00 -4.466053e-01 -7.501835e-01 1.971243e-01 6.482113e-01 -1.689829e-01 -7.637164e-01
<VARIANCE> 39
 1.514908e+01 1.464547e+01 5.934201e+01 1.073835e+02 5.900917e+01 5.768843e+01 6.338887e+01 8.082346e+01 4.119529e+01 9.566340e+01 4.045506e+01 5.195378e+01 2.364070e+01 8.234255e-01 5.735507e+00 1.780013e+00 3.162672e+00 4.019578e+00 4.198969e+00 5.897509e+00 8.928646e+00 4.569810e+00 3.847521e+00 4.585461e+00 3.130599e+00 1.310201e+00 3.408668e-01 3.538888e-01 3.567110e-01 7.287779e-01 7.555353e-01 5.560427e-01 4.697961e-01 7.682389e-01 4.679516e-01 6.323083e-01 5.526130e-01 8.940064e-01 1.607193e-01
<GCONST> 1.283778e+02
<STATE> 4
<MEAN> 39
 -4.810473e-01 -6.453754e-01 -5.832298e+00 -1.151790e+00 4.188484e-02 -1.585746e+01 -6.854096e+00 -2.783638e+00 -1.123472e-01 5.445274e+00 2.646923e+00 -7.381392e+00 7.018822e+01 1.139033e+00 -5.044861e-01 -9.701600e-01 -1.221417e+00 1.145195e+00 1.734137e+00 2.504896e+00 -1.687270e+00 -2.111687e+00 3.392504e-01 2.029745e+00 -1.267523e+00 6.780327e-01 -7.691959e-01 7.798897e-02 -1.002791e-01 -7.633231e-02 1.893872e-02 9.533408e-01 8.350561e-01 2.423390e-02 -3.730989e-01 -6.227868e-01 -3.117273e-01 9.388056e-01 -6.221335e-01
<VARIANCE> 39
 7.767204e+00 1.548433e+01 3.554792e+01 7.757230e+01 3.028540e+01 4.750528e+01 7.188297e+01 1.271461e+02 4.797528e+01 7.629437e+01 4.912024e+01 5.797976e+01 2.397323e+01 5.265498e-01 1.646103e+00 1.141238e+00 1.514362e+00 1.715880e+00 1.567117e+00 1.006451e+00 4.725958e+00 2.196771e+00 1.710438e+00 1.367131e+00 3.788419e+00 3.741266e-01 7.676515e-02 3.334679e-01 2.003641e-01 2.594478e-01 3.365919e-01 2.957391e-01 4.785449e-01 7.470924e-01 4.032267e-01 4.745456e-01 6.749942e-01 3.414400e-01 5.971910e-02
<GCONST> 1.091584e+02
<TRANSP> 5
 0.000000e+00 1.000000e+00 0.000000e+00 0.000000e+00 0.000000e+00
 0.000000e+00 6.787218e-01 3.212781e-01 0.000000e+00 0.000000e+00
 0.000000e+00 0.000000e+00 5.397878e-01 4.602122e-01 0.000000e+00
 0.000000e+00 0.000000e+00 0.000000e+00 3.362654e-01 6.637347e-01
 0.000000e+00 0.000000e+00 0.000000e+00 0.000000e+00 0.000000e+00
<ENDHMM>
~h "u"
<BEGINHMM>
<NUMSTATES> 5
<STATE> 2
<MEAN> 39
 -1.513663e+00 -3.474082e+00 4.172664e+00 7.299974e+00 -9.977387e+00 -2.526591e+01 -6.623871e+00 4.910717e+00 7.032760e-01 -5.656874e+00 9.311730e+00 9.711139e-01 7.314622e+01 -2.022244e-01 8.141786e-01 -8.133909e-01 1.984525e-01 1.114491e+00 -8.829282e-01 7.425457e-01 -1.039274e+00 1.583596e-01 8.142680e-02 -2.098944e-01 2.701411e-01 2.784697e-02 1.936843e-01 7.534588e-02 8.538269e-02 1.369026e-01 1.041609e-01 5.215185e-01 -3.261649e-01 -3.986904e-01 -1.971833e-01 3.875334e-01 -3.849917e-01 -1.067755e-01 -3.691464e-01
<VARIANCE> 39
 6.614619e+00 5.866686e+00 9.178871e+00 3.480567e+01 2.799492e+01 4.147146e+01 3.427306e+01 8.808204e+01 4.738264e+01 5.488495e+01 1.485141e+01 4.464440e+01 1.152703e+01 3.550767e-01 3.094523e-01 5.636225e-01 9.526112e-01 1.059764e+00 1.818337e+00 2.474561e+00 1.907135e+00 1.505660e+00 1.783893e+00 1.376584e+00 1.192079e+00 4.045081e-01 5.052612e-02 6.473334e-02 9.432079e-02 2.104130e-01 2.273144e-01 2.611283e-01 3.384477e-01 2.882571e-01 3.657648e-01 3.481646e-01 2.253493e-01 2.688695e-01 2.894186e-02
<GCONST> 8.973183e+01
<STATE> 3
<MEAN> 39
 6.426852e-01 2.376010e+00 -7.443219e-01 6.626856e+00 -2.776327e+00 -2.407238e+01 -1.954837e+00 -1.419794e+00 3.126463e-01 5.422750e+00 1.471006e+00 -6.936333e-02 7.121689e+01 1.104511e-01 2.177297e-01 -1.732037e-01 -2.292996e-01 3.500237e-01 5.989559e-01 -5.089469e-02 -5.387352e-01 -2.109149e-01 4.450698e-01 -1.781882e-01 -9.126913e-02 -2.205989e-01 5.093272e-03 -6.359632e-02 8.131442e-02 -5.494896e-02 -9.888206e-02 1.199795e-01 -2.478848e-03 9.616119e-02 -5.683679e-02 -1.178830e-01 7.287464e-02 4.029045e-02 -1.995786e-02
<VARIANCE> 39
 8.366680e+00 1.762792e+01 2.183032e+01 2.703404e+01 4.471626e+01 4.250301e+01 4.221261e+01 5.585479e+01 7.277713e+01 6.364347e+01 2.877470e+01 4.354562e+01 1.835673e+01 4.434221e-01 1.249299e+00 2.176628e+00 1.928002e+00 2.344305e+00 3.908798e+00 2.707335e+00 3.977959e+00 3.595731e+00 4.226571e+00 2.228806e+00 2.216290e+00 8.096003e-01 5.782503e-02 1.587489e-01 3.818282e-01 3.224718e-01 3.263018e-01 6.340245e-01 5.024096e-01 5.057015e-01 4.909280e-01 7.621790e-01 4.337291e-01 4.135773e-01 8.535402e-02
<GCONST> 1.115003e+02
<STATE> 4
<MEAN> 39
 1.469536e+00 -4.869511e-01 4.275781e-01 6.083476e+00 -3.536287e+00 -1.492340e+01 -8.702534e+00 -1.053268e+01 -2.598974e+00 -2.364843e+00 5.200428e+00 1.863090e+00 6.787746e+01 9.696779e-03 5.218362e-02 -1.139977e-01 -3.003267e-02 -9.528092e-03 2.245415e-01 1.443553e-01 1.943197e-01 1.127655e-01 3.815342e-02 -2.466654e-01 -3.040640e-02 -7.291228e-02 -2.270137e-02 -1.493971e-03 2.714519e-02 2.205233e-02 -4.101183e-02 -8.062496e-03 2.743615e-02 8.532984e-02 4.373194e-02 -2.461199e-02 -2.065458e-02 1.557006e-02 -1.898516e-03
<VARIANCE> 39
 8.091548e+00 1.488376e+01 2.448828e+01 2.668657e+01 2.335269e+01 3.088498e+01 3.517129e+01 4.807529e+01 6.928806e+01 3.311149e+01 3.562008e+01 2.995131e+01 1.000909e+01 4.600059e-01 8.898844e-01 2.169547e+00 2.081068e+00 1.828389e+00 2.156527e+00 2.887936e+00 2.800721e+00 3.081990e+00 2.469095e+00 2.325831e+00 2.470307e+00 6.530430e-01 6.034755e-02 1.311268e-01 3.313457e-01 3.214757e-01 3.277187e-01 3.429981e-01 5.593747e-01 5.485157e-01 4.094084e-01 5.095236e-01 4.565345e-01 4.555883e-01 8.378398e-02
<GCONST> 1.053442e+02
<TRANSP> 5
 0.000000e+00 1.000000e+00 0.000000e+00 0.000000e+00 0.000000e+00
 0.000000e+00 8.084742e-01 1.915258e-01 0.000000e+00 0.000000e+00
 0.000000e+00 0.000000e+00 8.914941e-01 1.085059e-01 0.000000e+00
 0.000000e+00 0.000000e+00 0.000000e+00 9.493257e-01 5.067432e-02
 0.000000e+00 0.000000e+00 0.000000e+00 0.000000e+00 0.000000e+00
<ENDHMM>
~h "w"
<BEGINHMM>
<NUMSTATES> 5
<STATE> 2
<MEAN> 39
 6.850060e-01 9.855602e+00 3.446798e+00 6.200029e-01 -5.505419e+00 -5.360570e+00 -1.873634e+00 -4.193924e+00 -4.551830e+00 -1.785036e+00 -1.086733e-01 -1.659382e+00 5.625080e+01 1.644150e+00 9.192870e-01 1.122905e-01 -6.400072e-01 -1.191791e+00 -7.085319e-01 1.115982e-01 -5.917639e-01 -1.306853e+00 -3.180695e-01 5.084857e-01 -1.179261e-01 1.016724e+00 -2.184796e-01 -4.293379e-01 -3.820531e-01 -1.023150e-01 9.007108e-02 2.010129e-01 3.041274e-01 4.351496e-02 -2.580972e-02 1.185692e-01 3.146844e-01 9.863860e-02 -1.140785e-02
<VARIANCE> 39
 1.463446e+01 1.136624e+01 8.747201e+00 1.661890e+01 2.511700e+01 2.437312e+01 2.058543e+01 2.560754e+01 3.178776e+01 2.221083e+01 1.185467e+01 1.143658e+01 1.848238e+01 2.086072e+00 1.930501e+00 1.501743e+00 1.595629e+00 3.040549e+00 3.710667e+00 2.068137e+00 2.295759e+00 2.383407e+00 1.487210e+00 1.464216e+00 1.588810e+00 6.989443e-01 2.166861e-01 2.358875e-01 2.176351e-01 3.020764e-01 4.573556e-01 6.954599e-01 3.590565e-01 4.777265e-01 3.515573e-01 2.508930e-01 3.290414e-01 2.394055e-01 1.036566e-01
<GCONST> 1.010004e+02
<STATE> 3
<MEAN> 39
 5.457009e+00 7.760571e+00 -1.026075e+00 -3.176847e+00 -8.630638e+00 -5.368044e+00 2.295037e+00 -8.903998e+00 -1.223944e+01 -2.027914e+00 7.844296e+00 -1.569351e-01 6.148954e+01 4.440943e-01 -1.439322e+00 -1.509828e+00 -7.951494e-01 1.415007e-01 -3.309135e-01 2.842006e-01 -1.172504e+00 3.049040e-01 7.525490e-01 3.023664e+00 -1.025807e-01 1.632618e+00 -3.727018e-01 -3.826583e-01 -9.675110e-02 2.044202e-01 3.681527e-01 -5.090091e-02 -2.745190e-01 1.814120e-01 9.015886e-01 2.195175e-01 1.141225e-01 -4.763200e-01 1.555506e-01
<VARIANCE> 39
 6.594038e+00 1.169334e+01 1.318896e+01 2.269773e+01 2.226785e+01 4.995667e+01 2.564906e+01 6.390375e+01 6.646484e+01 2.847554e+01 4.789674e+01 2.007421e+01 1.786731e+01 7.196658e-01 1.354775e+00 1.216151e+00 1.276500e+00 1.234402e+00 3.082144e+00 3.162827e+00 3.361303e+00 5.962107e+00 2.568285e+00 3.403484e+00 2.803800e+00 6.737930e-01 1.108698e-01 1.482814e-01 1.897463e-01 3.214017e-01 2.795843e-01 5.179789e-01 3.612600e-01 5.944051e-01 5.574402e-01 4.163368e-01 7.903591e-01 4.707323e-01 1.035120e-01
<GCONST> 1.070482e+02
<STATE> 4
<MEAN> 39
 1.870273e+00 -2.833592e+00 -7.492625e+00 -8.507821e-01 -6.579835e+00 -1.040340e+01 -1.484232e+00 -4.480562e+00 3.535128e+00 3.167747e+00 1.353271e+01 -1.032907e+01 7.180227e+01 -6.842425e-01 -1.029877e+00 -2.769115e-02 1.301697e+00 -9.513893e-02 -9.027569e-01 -7.221304e-01 1.799902e+00 1.609004e+00 -1.426038e-01 -1.194262e+00 -1.038232e+00 9.594484e-01 2.213147e-02 2.519456e-01 3.620928e-01 1.922930e-01 -1.739177e-01 -6.277919e-02 2.356942e-03 1.822527e-01 -4.174868e-01 -3.070765e-01 -4.112105e-01 4.778179e-01 -2.643611e-01
<VARIANCE> 39
 1.161172e+01 1.076033e+01 1.031448e+01 3.260590e+01 1.806898e+01 5.939118e+01 3.390582e+01 1.185887e+02 8.611324e+01 4.495422e+01 4.617015e+01 4.865185e+01 2.271275e+01 3.369948e-01 8.628187e-01 1.258086e+00 1.103882e+00 1.074683e+00 2.003864e+00 1.348753e+00 2.461537e+00 4.027913e+00 2.631568e+00 2.992281e+00 4.019881e+00 5.528631e-01 6.962108e-02 7.971370e-02 9.948523e-02 1.962750e-01 1.452183e-01 3.784641e-01 3.069767e-01 6.592887e-01 4.663818e-01 3.468211e-01 9.122258e-01 4.774745e-01 2.024409e-02
<GCONST> 1.018363e+02
<TRANSP> 5
 0.000000e+00 1.000000e+00 0.000000e+00 0.000000e+00 0.000000e+00
 0.000000e+00 8.297811e-01 1.702190e-01 0.000000e+00 0.000000e+00
 0.000000e+00 0.000000e+00 7.812737e-01 2.187263e-01 0.000000e+00
 0.000000e+00 0.000000e+00 0.000000e+00 8.735052e-01 1.264949e-01
 0.000000e+00 0.000000e+00 0.000000e+00 0.000000e+00 0.000000e+00
<ENDHMM>
~h "y"
<BEGINHMM>
<NUMSTATES> 5
<STATE> 2
<MEAN> 39
 -2.871937e+00 1.019925e+01 1.255977e+01 1.424506e+00 -6.903325e+00 -5.119991e+00 -9.639087e+00 2.836651e+00 -9.497144e+00 -2.825124e+00 2.179800e+00 -3.727635e+00 6.023936e+01 3.858402e-01 3.028516e-01 2.389257e+00 -5.924622e-01 -2.194077e+00 -1.340734e+00 -5.343905e-01 8.758030e-01 -1.790851e+00 -5.574585e-01 1.143559e+00 -4.171300e-01 1.528028e+00 -3.812187e-01 -5.681919e-01 -1.549916e-01 -4.561307e-02 -8.879057e-02 -6.078063e-02 5.145375e-01 1.667691e-01 1.106650e-01 1.034005e-01 1.511535e-01 2.119050e-01 2.064453e-03
<VARIANCE> 39
 9.988252e+00 1.009123e+01 4.681326e+01 4.284089e+01 7.973269e+01 4.070074e+01 3.681711e+01 4.885428e+01 4.298737e+01 2.663093e+01 3.267290e+01 2.385193e+01 2.059019e+01 2.127683e+00 3.246348e+00 1.911857e+00 3.530319e+00 5.225348e+00 5.112927e+00 4.338031e+00 2.855268e+00 3.365356e+00 2.815218e+00 2.324477e+00 1.855855e+00 7.419842e-01 2.361001e-01 2.920588e-01 3.403198e-01 7.116913e-01 7.702144e-01 1.017219e+00 5.533338e-01 5.641782e-01 6.158848e-01 5.739965e-01 4.142921e-01 2.850656e-01 9.152394e-02
<GCONST> 1.181881e+02
<STATE> 3
<MEAN> 39
 -5.659752e+00 2.651318e+00 1.874242e+01 2.190049e+00 -2.105210e+01 -1.654192e+01 -4.846027e+00 1.004093e+01 -1.352438e+01 -3.619389e+00 1.011446e+01 -1.318280e+00 7.101185e+01 -3.518132e-02 -1.639225e+00 -1.267411e+00 -1.572753e-01 -4.761906e-01 -2.516429e+00 9.111853e-01 8.168733e-01 1.267880e+00 8.003207e-01 1.588222e-01 3.720288e-01 1.558174e+00 1.756866e-01 1.067398e-02 -6.740269e-01 -6.383865e-02 6.758356e-01 6.029872e-02 -2.159730e-02 2.762235e-02 5.652845e-01 1.394302e-01 -3.250585e-01 -1.730038e-01 -1.130352e-01
<VARIANCE> 39
 7.074132e+00 1.884298e+01 2.669394e+01 6.121076e+01 6.768713e+01 5.710803e+01 3.307858e+01 5.147408e+01 6.183923e+01 4.875356e+01 2.516561e+01 2.397687e+01 2.671076e+01 8.017961e-01 7.347404e-01 3.365391e+00 8.004160e-01 2.994389e+00 1.998107e+00 1.618496e+00 1.642700e+00 2.942598e+00 2.079403e+00 2.302338e+00 1.111160e+00 5.802359e-01 9.401487e-02 1.482305e-01 2.552457e-01 2.271797e-01 3.515880e-01 5.295460e-01 2.674000e-01 3.543252e-01 2.823840e-01 3.538859e-01 4.213939e-01 2.618732e-01 7.840268e-02
<GCONST> 1.045906e+02
<STATE> 4
<MEAN> 39
 -3.374753e+00 -5.087005e+00 5.064490e+00 -2.273587e+00 -1.145420e+01 -2.694604e+01 1.678563e+00 1.450122e+01 -1.044080e+00 2.806876e+00 3.280093e+00 -4.514860e+00 7.707791e+01 2.943492e-01 -2.479334e-01 -1.409530e+00 -3.080588e-01 1.731136e+00 9.178117e-02 6.094105e-01 -2.406058e-01 9.498785e-01 5.382181e-01 -1.128452e+00 -7.785908e-01 1.232360e-01 -3.928668e-02 2.591457e-01 2.806070e-01 8.597930e-02 -4.352992e-02 3.940213e-01 -9.273610e-02 -2.610483e-01 -3.947683e-01 -6.501202e-02 1.351133e-01 4.224381e-02 -2.013001e-01
<VARIANCE> 39
 1.069617e+01 8.363626e+00 4.423314e+01 4.933300e+01 8.497388e+01 5.804399e+01 5.058410e+01 4.336319e+01 1.241380e+02 6.034150e+01 2.615062e+01 2.876379e+01 1.595933e+01 2.143575e-01 7.355882e-01 1.401855e+00 9.451319e-01 1.488152e+00 2.216428e+00 1.749453e+00 1.734010e+00 2.936310e+00 1.143827e+00 1.273740e+00 2.765009e+00 3.199815e-01 3.988375e-02 4.687012e-02 6.752727e-02 1.032818e-01 1.555969e-01 2.682678e-01 2.541812e-01 1.756689e-01 2.956062e-01 2.087335e-01 2.503273e-01 3.368638e-01 1.472695e-02
<GCONST> 9.342934e+01
<TRANSP> 5
 0.000000e+00 1.000000e+00 0.000000e+00 0.000000e+00 0.000000e+00
 0.000000e+00 8.570156e-01 1.429844e-01 0.000000e+00 0.000000e+00
 0.000000e+00 0.000000e+00 8.434350e-01 1.565650e-01 0.000000e+00
 0.000000e+00 0.000000e+00 0.000000e+00 8.702312e-01 1.297688e-01
 0.000000e+00 0.000000e+00 0.000000e+00 0.000000e+00 0.000000e+00
<ENDHMM>
~h "z"
<BEGINHMM>
<NUMSTATES> 5
<STATE> 2
<MEAN> 39
 -8.229237e+00 1.063963e+01 1.854608e+01 5.396206e+00 -1.348528e+01 -1.533521e+01 2.472919e+00 -2.299237e+00 -1.836469e+01 1.285138e+00 -4.216196e-02 -3.122417e+00 6.763097e+01 -4.626647e-01 7.211242e-01 -5.868368e-01 -2.352772e-01 1.573045e+00 -1.176093e+00 4.260618e-01 4.910058e-01 4.008734e-02 1.752505e-02 -1.416065e-01 4.757787e-01 -1.283695e-01 -2.301464e-01 9.668559e-02 -2.808512e-02 -1.527632e-01 2.810335e-01 5.661328e-02 -5.846421e-02 6.170055e-02 1.074300e-01 -4.002188e-02 4.521503e-02 -2.290881e-02 2.042514e-02
<VARIANCE> 39
 1.038894e+01 1.219110e+01 1.530535e+01 3.426147e+01 3.956903e+01 3.451958e+01 3.840229e+01 4.557897e+01 3.929625e+01 3.840402e+01 4.462953e+01 3.306372e+01 1.626434e+01 6.337676e-01 5.884371e-01 7.024584e-01 1.318932e+00 2.266000e+00 1.929174e+00 1.628336e+00 1.880875e+00 1.667935e+00 1.216669e+00 1.805546e+00 1.287129e+00 7.354582e-02 7.076477e-02 7.241329e-02 1.138218e-01 2.119163e-01 2.557273e-01 3.979552e-01 2.526766e-01 3.100645e-01 2.789456e-01 2.285999e-01 2.719963e-01 2.444902e-01 1.317408e-02
<GCONST> 9.172324e+01
<STATE> 3
<MEAN> 39
 -1.762753e+01 1.532184e+01 1.050558e+01 2.679681e+00 2.925931e+00 -1.671440e+01 3.505088e+00 3.937391e+00 -1.279570e+01 2.169307e-01 1.310412e+00 -1.520832e+00 6.681354e+01 -8.369644e-01 -3.984102e-01 -9.267567e-01 -4.101256e-01 1.462013e+00 8.727279e-01 -6.225868e-02 5.257511e-01 1.247627e+00 2.855464e-01 -3.734860e-01 -2.598961e-01 -3.158984e-01 2.503884e-01 -2.991588e-01 4.674844e-02 8.901779e-02 -3.079801e-01 1.406947e-01 -3.817469e-02 -6.185525e-02 -2.172732e-03 6.727307e-02 -6.327398e-02 -8.709709e-02 -7.562892e-02
<VARIANCE> 39
 2.192516e+01 1.561077e+01 3.260362e+01 3.497190e+01 4.372377e+01 3.524622e+01 2.810075e+01 4.992831e+01 5.775340e+01 3.121744e+01 3.066943e+01 2.248320e+01 1.686690e+01 1.064628e+00 1.605203e+00 1.076284e+00 9.773818e-01 1.873765e+00 2.050265e+00 1.885890e+00 2.345390e+00 2.485961e+00 2.282891e+00 1.619752e+00 2.100326e+00 1.602095e-01 8.103824e-02 1.288781e-01 1.933312e-01 2.234577e-01 2.704078e-01 4.277409e-01 3.573340e-01 4.663163e-01 5.898253e-01 4.504597e-01 3.057126e-01 3.760250e-01 3.260254e-02
<GCONST> 1.019808e+02
<STATE> 4
<MEAN> 39
 -1.487219e+01 6.310395e+00 4.082191e+00 1.724869e+00 6.253082e+00 -8.254861e+00 3.924872e+00 2.685232e+00 -6.340811e+00 3.027282e+00 -1.089764e+00 -2.850621e+00 5.775229e+01 4.666708e-01 -4.961875e-01 -3.295382e-01 -1.961045e-02 -6.757945e-02 6.088038e-01 -5.632136e-02 -3.195173e-01 2.500822e-01 -8.994021e-02 4.023461e-02 1.920685e-01 -7.318456e-01 -1.312476e-03 8.316904e-02 9.499230e-03 1.165722e-02 -1.938492e-02 -3.675563e-03 -2.764449e-02 -3.489047e-02 -3.140876e-02 -5.979162e-02 3.955998e-02 6.051730e-02 3.361293e-02
<VARIANCE> 39
 1.071005e+01 1.427061e+01 2.454320e+01 2.612732e+01 2.011053e+01 3.087453e+01 2.683310e+01 4.077130e+01 3.749807e+01 2.640180e+01 1.962999e+01 2.144779e+01 3.218016e+01 3.219164e-01 5.971913e-01 9.158441e-01 1.392817e+00 1.479192e+00 1.663167e+00 1.880103e+00 2.101536e+00 2.087869e+00 1.896937e+00 1.597494e+00 1.392323e+00 2.050706e-01 5.898641e-02 1.034669e-01 1.871224e-01 2.501338e-01 2.668438e-01 3.217665e-01 3.587728e-01 4.139359e-01 3.971910e-01 3.394651e-01 3.035049e-01 2.961683e-01 2.833691e-02
<GCONST> 9.397128e+01
<TRANSP> 5
 0.000000e+00 1.000000e+00 0.000000e+00 0.000000e+00 0.000000e+00
 0.000000e+00 8.691909e-01 1.308091e-01 0.000000e+00 0.000000e+00
 0.000000e+00 0.000000e+00 8.848076e-01 1.151925e-01 0.000000e+00
 0.000000e+00 0.000000e+00 0.000000e+00 9.308950e-01 6.910501e-02
 0.000000e+00 0.000000e+00 0.000000e+00 0.000000e+00 0.000000e+00
<ENDHMM>
~h "aa"
<BEGINHMM>
<NUMSTATES> 5
<STATE> 2
<MEAN> 39
 -3.302375e-01 -4.414810e+00 -6.178944e+00 -5.165049e+00 7.643697e-02 -1.318969e+01 -3.937150e-01 2.558745e-01 4.376757e+00 4.937054e+00 3.531832e+00 -1.543603e+01 7.260342e+01 -3.271257e-01 -7.661775e-01 -1.559179e+00 -1.156187e+00 1.202557e+00 5.874003e-01 2.243564e+00 1.546745e-01 -5.895362e-02 -1.757140e-02 3.179004e-01 -1.750188e+00 1.307369e+00 -2.708529e-02 3.433212e-01 1.604948e-01 2.023983e-01 -1.002889e-01 2.969896e-01 -1.343623e-01 -2.047351e-01 -2.750522e-01 -1.796699e-01 -2.102545e-01 5.749695e-01 -3.935769e-01
<VARIANCE> 39
 1.090755e+01 1.627566e+01 5.696505e+01 5.927829e+01 3.271999e+01 5.768490e+01 1.322296e+02 6.690306e+01 7.437125e+01 5.552350e+01 3.663237e+01 6.564499e+01 2.550014e+01 9.078949e-01 1.251472e+00 3.454525e+00 1.506986e+00 1.454455e+00 3.645645e+00 3.345551e+00 3.740917e+00 3.603280e+00 2.931101e+00 2.231571e+00 3.426656e+00 1.388855e+00 1.436202e-01 2.271072e-01 6.276973e-01 3.238399e-01 2.590909e-01 4.835216e-01 1.026635e+00 5.020097e-01 5.245221e-01 4.704599e-01 3.427831e-01 5.447237e-01 1.797162e-01
<GCONST> 1.191041e+02
<STATE> 3
<MEAN> 39
 -1.138548e-01 -5.560201e+00 -1.069413e+01 -8.497794e+00 4.763775e+00 -8.755529e+00 6.956479e+00 -1.141422e+00 7.202163e-02 5.115427e+00 3.390366e+00 -1.664947e+01 7.422263e+01 9.062593e-02 3.607421e-01 -8.307657e-02 4.485773e-01 3.571638e-01 3.249384e-01 2.079144e-01 -9.343207e-02 -2.502704e-01 2.463701e-01 -5.726299e-01 4.084193e-01 -2.657993e-01 -1.778019e-02 1.342634e-01 1.317516e-01 2.056636e-01 -1.082352e-01 -1.461057e-01 -2.107265e-01 1.594324e-01 1.485853e-01 4.628271e-02 -1.176808e-01 2.177685e-01 -1.346872e-01
<VARIANCE> 39
 7.421353e+00 8.492398e+00 1.153016e+01 3.785207e+01 2.654378e+01 5.271159e+01 5.912703e+01 6.457991e+01 6.130511e+01 5.246112e+01 2.944768e+01 4.299948e+01 1.829650e+01 2.300731e-01 5.473872e-01 4.965256e-01 1.130812e+00 7.607958e-01 2.005780e+00 1.202161e+00 1.167561e+00 1.504203e+00 1.126802e+00 1.411537e+00 9.050485e-01 2.861953e-01 3.841206e-02 7.044519e-02 9.039424e-02 1.102700e-01 1.317203e-01 1.762660e-01 1.782904e-01 1.697735e-01 2.234030e-01 2.114591e-01 1.697595e-01 2.240629e-01 2.792236e-02
<GCONST> 8.546984e+01
<STATE> 4
<MEAN> 39
 -6.627574e-01 -2.400862e-01 -7.997496e+00 -2.628509e+00 6.123286e+00 -2.240403e+00 4.902479e+00 1.387604e+00 1.203240e+00 6.387571e+00 9.966269e-01 -7.168660e+00 6.378931e+01 -2.950779e-01 2.399289e-01 5.736202e-01 4.678918e-01 -1.163370e-01 5.354468e-01 -3.212698e-01 4.208342e-01 4.804323e-01 -2.244445e-01 -1.749382e-01 8.889231e-01 -8.450094e-01 -7.264917e-02 -7.887942e-02 2.007052e-02 -7.981566e-02 -7.203722e-02 -1.369147e-02 -1.505743e-02 1.018878e-02 -2.082025e-02 -4.541548e-02 1.124009e-01 -3.648150e-03 1.888889e-02
<VARIANCE> 39
 6.536500e+00 1.317577e+01 1.602495e+01 2.238404e+01 2.341469e+01 6.097877e+01 3.061765e+01 3.724052e+01 4.012162e+01 3.085802e+01 3.409803e+01 3.530206e+01 4.209803e+01 2.770265e-01 6.782250e-01 7.524009e-01 1.172845e+00 1.634881e+00 1.934524e+00 1.977375e+00 2.418955e+00 2.087966e+00 1.893989e+00 1.746375e+00 2.242031e+00 1.380728e-01 6.853129e-02 9.907740e-02 1.413355e-01 2.143193e-01 2.668265e-01 3.659021e-01 3.218252e-01 4.297567e-01 3.818122e-01 3.547768e-01 3.441689e-01 3.425105e-01 2.271215e-02
<GCONST> 9.523615e+01
<TRANSP> 5
 0.000000e+00 1.000000e+00 0.000000e+00 0.000000e+00 0.000000e+00
 0.000000e+00 6.062570e-01 3.937431e-01 0.000000e+00 0.000000e+00
 0.000000e+00 0.000000e+00 8.703808e-01 1.296192e-01 0.000000e+00
 0.000000e+00 0.000000e+00 0.000000e+00 8.725270e-01 1.274730e-01
 0.000000e+00 0.000000e+00 0.000000e+00 0.000000e+00 0.000000e+00
<ENDHMM>
~h "ax"
<BEGINHMM>
<NUMSTATES> 5
<STATE> 2
<MEAN> 39
 -2.982919e+00 1.706372e+00 -8.767612e+00 -3.945432e+00 -9.824763e-01 -1.237652e+01 -3.270735e+00 -6.847048e+00 -1.614197e+00 5.929508e+00 3.708782e+00 -4.733287e+00 7.051170e+01 2.456618e+00 -7.242118e-01 -1.439384e+00 -1.334990e+00 3.821262e-01 9.657136e-01 1.373089e+00 -1.630169e+00 -1.692373e+00 2.250106e-01 2.184401e+00 -1.092438e+00 1.431343e+00 -8.965511e-01 1.577253e-02 2.389689e-01 -3.949139e-02 -1.099568e-01 4.634277e-01 8.724918e-01 5.610362e-01 -3.706552e-02 -4.933530e-01 -2.735807e-02 2.995235e-01 -2.659781e-01
<VARIANCE> 39
 1.040847e+01 6.955073e+00 1.725860e+01 3.937999e+01 1.261641e+01 3.409654e+01 7.241748e+01 6.403328e+01 7.180038e+01 3.020331e+01 3.128745e+01 2.445812e+01 1.871422e+01 3.332747e+00 4.984595e-01 1.255608e+00 1.661203e+00 1.533078e+00 2.488548e+00 6.022476e+00 3.970842e+00 2.352880e+00 3.676487e+00 1.872212e+00 1.623161e+00 9.819521e-01 2.474194e-01 1.440640e-01 2.674202e-01 4.815286e-01 2.015446e-01 4.660406e-01 9.907722e-01 4.321462e-01 4.368022e-01 4.771512e-01 5.388286e-01 3.454635e-01 1.650100e-01
<GCONST> 1.095967e+02
<STATE> 3
<MEAN> 39
 6.556805e-01 4.052307e-01 -1.064398e+01 -7.489611e+00 -2.505043e-01 -7.203622e+00 7.093800e+00 -8.024888e+00 -6.208946e+00 3.345788e+00 8.415412e+00 -8.092820e+00 7.198974e+01 1.471495e-01 -1.229451e-01 1.789008e-01 3.345481e-01 3.534873e-01 -7.791426e-02 5.579846e-02 -2.835006e-02 1.247687e-01 2.172319e-01 -5.102530e-01 -2.795404e-01 -1.026077e-01 -7.198540e-02 1.807728e-02 1.365139e-01 2.367813e-01 5.299762e-02 -2.366248e-01 -3.660612e-01 8.406416e-02 1.950393e-01 1.082668e-01 -3.186153e-01 9.509847e-02 -7.479513e-02
<VARIANCE> 39
 3.852090e+00 7.770212e+00 9.259215e+00 1.324951e+01 1.998543e+01 4.598148e+01 5.074843e+01 5.089528e+01 6.252589e+01 4.855424e+01 2.124838e+01 3.434290e+01 7.322953e+00 2.873073e-01 3.851407e-01 5.337965e-01 1.567017e+00 1.051281e+00 1.848557e+00 3.057891e+00 1.049162e+00 1.524398e+00 2.292412e+00 2.209803e+00 1.364351e+00 1.167412e-01 4.104651e-02 6.758446e-02 8.878322e-02 1.388774e-01 1.796214e-01 2.580140e-01 2.230495e-01 2.378526e-01 2.158045e-01 3.916624e-01 2.954380e-01 2.922677e-01 3.500939e-02
<GCONST> 8.626123e+01
<STATE> 4
<MEAN> 39
 9.541793e-01 -2.759293e-01 -3.973046e+00 1.098560e+00 1.568187e+00 -8.105745e+00 5.146623e-01 -6.114456e+00 1.860177e-04 6.313645e+00 4.143224e-01 -5.439761e+00 6.560090e+01 -3.614731e-02 2.591706e-01 7.604865e-01 5.882580e-01 -1.981012e-01 4.252203e-01 -2.098398e-01 4.960169e-01 4.831035e-01 -1.620449e-01 -9.376232e-02 4.920195e-01 -8.739623e-01 -3.392510e-02 5.271899e-02 1.168440e-02 -9.350929e-02 -7.306480e-02 1.816843e-01 1.142980e-01 -1.600405e-02 -3.661401e-02 -8.212356e-02 2.005414e-01 1.911045e-02 -2.872099e-02
<VARIANCE> 39
 3.798815e+00 6.109075e+00 1.574493e+01 1.078297e+01 1.666016e+01 3.690472e+01 1.982767e+01 3.142966e+01 2.630895e+01 3.584066e+01 2.392618e+01 1.929101e+01 2.201677e+01 2.394606e-01 3.628590e-01 1.092003e+00 1.192110e+00 1.746574e+00 2.258295e+00 1.575618e+00 2.292379e+00 1.406985e+00 1.879596e+00 3.132035e+00 1.615866e+00 1.550884e-01 3.993139e-02 6.886172e-02 1.672010e-01 1.999046e-01 3.579170e-01 3.204863e-01 2.279652e-01 3.794245e-01 2.558016e-01 3.722356e-01 5.528685e-01 3.085208e-01 2.564575e-02
<GCONST> 8.840389e+01
<TRANSP> 5
 0.000000e+00 1.000000e+00 0.000000e+00 0.000000e+00 0.000000e+00
 0.000000e+00 7.544917e-01 2.455084e-01 0.000000e+00 0.000000e+00
 0.000000e+00 0.000000e+00 9.065143e-01 9.348577e-02 0.000000e+00
 0.000000e+00 0.000000e+00 0.000000e+00 9.041097e-01 9.589034e-02
 0.000000e+00 0.000000e+00 0.000000e+00 0.000000e+00 0.000000e+00
<ENDHMM>
~h "dx"
<BEGINHMM>
<NUMSTATES> 5
<STATE> 2
<MEAN> 39
 -4.407718e+00 7.207626e+00 4.767498e+00 5.746523e+00 1.265996e+00 -1.386928e+00 -1.788514e+00 -2.899158e+00 -3.142042e+00 -3.766344e+00 -3.272817e+00 -5.666123e-01 5.203282e+01 9.908198e-01 1.248198e+00 9.639258e-01 6.613302e-01 -2.501624e-01 -1.168386e+00 -1.248051e+00 -1.078947e+00 -6.978949e-01 -5.354874e-01 -6.079415e-01 -2.451042e-01 4.686818e-01 4.071911e-02 -3.478462e-02 -4.761286e-02 -8.089009e-02 -1.298498e-01 1.524720e-02 -4.711173e-02 5.041772e-05 2.282980e-02 2.499279e-02 1.000083e-01 -1.407405e-01 6.091857e-02
<VARIANCE> 39
 1.295894e+01 1.605359e+01 1.757421e+01 1.364970e+01 1.908025e+01 2.331908e+01 2.956439e+01 2.120471e+01 1.675398e+01 1.013925e+01 1.503857e+01 1.033137e+01 1.893549e+01 1.340166e+00 1.753571e+00 1.292311e+00 9.195404e-01 1.409614e+00 2.234508e+00 3.325964e+00 1.955414e+00 2.033046e+00 1.599241e+00 1.535276e+00 1.019581e+00 3.324679e-01 1.778421e-01 2.445013e-01 1.692785e-01 2.115522e-01 3.463892e-01 4.125350e-01 5.185062e-01 3.730007e-01 2.397517e-01 1.820437e-01 3.038107e-01 1.999221e-01 5.533881e-02
<GCONST> 9.384772e+01
<STATE> 3
<MEAN> 39
 -8.584471e-01 1.106577e+01 7.518265e+00 6.206714e+00 -1.391179e+00 -4.134129e+00 -5.557231e+00 -5.822440e+00 -4.545633e+00 -4.734010e+00 -3.196780e+00 -1.859705e+00 5.370685e+01 2.638569e-01 -4.184767e-01 6.052875e-01 2.297886e-01 -6.537081e-01 -2.493723e-01 -1.092757e-02 8.265734e-01 3.003606e-01 -5.031678e-01 1.104295e-01 1.266626e-01 6.895462e-01 -3.004776e-01 -1.146339e+00 -3.086410e-01 -7.952550e-02 -3.175408e-01 -4.085214e-01 3.077700e-01 8.381236e-01 4.837507e-01 8.182585e-02 2.901894e-01 4.104854e-01 5.367655e-01
<VARIANCE> 39
 5.374395e+00 6.384931e+00 7.667894e+00 9.960597e+00 1.987732e+01 1.830196e+01 2.289502e+01 1.818354e+01 2.114043e+01 1.133764e+01 1.065918e+01 1.827076e+01 8.903565e+00 1.234812e+00 4.093934e+00 1.450824e+00 1.040653e+00 3.039907e+00 3.443962e+00 3.648932e+00 3.631198e+00 3.012764e+00 1.803221e+00 1.775835e+00 2.793788e+00 8.378056e-01 1.683991e-01 3.089590e-01 2.575897e-01 3.509305e-01 9.330510e-01 1.627804e+00 8.532405e-01 4.174185e-01 5.112391e-01 4.339770e-01 3.933059e-01 4.121549e-01 5.298476e-01
<GCONST> 1.045617e+02
<STATE> 4
<MEAN> 39
 -2.025613e+00 -2.511817e+00 5.663677e+00 6.207078e+00 -7.012907e+00 -1.452896e+01 -3.468182e+00 4.769415e+00 1.817806e+00 -5.227603e+00 2.045675e-01 1.260284e+00 6.544469e+01 3.015828e-01 -3.242935e+00 -1.660085e+00 -5.288731e-01 -7.768726e-01 -4.797100e+00 7.280105e-01 1.562992e+00 1.936267e+00 1.812721e-01 1.003696e+00 -2.015503e-01 4.015978e+00 7.026263e-02 5.211886e-01 -4.028028e-01 -2.138330e-01 7.618439e-01 1.758090e-01 4.770115e-01 -6.351251e-01 -1.719472e-02 6.397796e-02 -2.407074e-01 -6.594837e-01 -2.256083e-01
<VARIANCE> 39
 9.839496e+00 4.481992e+01 2.935998e+01 3.618913e+01 6.013651e+01 1.393551e+02 5.604492e+01 7.622066e+01 7.469904e+01 5.233646e+01 4.360153e+01 4.512802e+01 6.506524e+01 8.103437e-01 4.102013e+00 3.343029e+00 3.407014e+00 9.922019e+00 8.601868e+00 7.348332e+00 6.940574e+00 5.959954e+00 5.857254e+00 4.515136e+00 5.553738e+00 2.260643e+00 1.451351e-01 7.511452e-01 5.565729e-01 5.766594e-01 1.285719e+00 3.414056e+00 8.508778e-01 1.013069e+00 9.966139e-01 8.194958e-01 8.994777e-01 7.699114e-01 1.164660e+00
<GCONST> 1.393226e+02
<TRANSP> 5
 0.000000e+00 1.000000e+00 0.000000e+00 0.000000e+00 0.000000e+00
 0.000000e+00 7.440714e-01 2.559285e-01 0.000000e+00 0.000000e+00
 0.000000e+00 0.000000e+00 7.527531e-01 2.472469e-01 0.000000e+00
 0.000000e+00 0.000000e+00 0.000000e+00 7.665818e-01 2.334182e-01
 0.000000e+00 0.000000e+00 0.000000e+00 0.000000e+00 0.000000e+00
<ENDHMM>
~h "ee"
<BEGINHMM>
<NUMSTATES> 5
<STATE> 2
<MEAN> 39
 -1.194292e+01 -5.519639e+00 9.039717e-01 2.829747e-01 -5.015899e+00 -9.980536e+00 -1.752854e+00 3.741303e+00 -5.222344e+00 7.015491e+00 1.439314e+00 4.732378e-01 6.413991e+01 -2.251403e-01 -2.607745e-01 2.388649e+00 4.902914e-01 -2.118001e+00 -3.537358e+00 -2.351156e-01 3.549686e-01 -3.041069e+00 -1.010353e+00 1.099771e-01 9.411358e-01 2.892428e+00 6.351373e-01 5.497270e-01 2.215767e-01 3.081312e-01 -4.019698e-01 -4.044671e-01 -3.816470e-02 -7.391363e-02 1.995745e-01 -5.205498e-01 5.956133e-01 -5.905969e-02 -2.287008e-02
<VARIANCE> 39
 2.621742e+01 3.945955e+01 4.045261e+01 2.101824e+01 3.409037e+01 6.996515e+01 2.872916e+01 5.929248e+01 7.607508e+01 3.019456e+01 2.738025e+01 3.556393e+01 6.033452e+01 6.454522e+00 7.987806e+00 3.419565e+00 3.066518e+00 3.376023e+00 3.273419e+00 3.393300e+00 4.795475e+00 3.816435e+00 4.784811e+00 5.780400e+00 3.950372e+00 2.360920e+00 7.977281e-01 1.148514e+00 6.417871e-01 5.222120e-01 5.176519e-01 8.429099e-01 5.379842e-01 8.443604e-01 1.229885e+00 5.781367e-01 9.658979e-01 6.268019e-01 8.587061e-01
<GCONST> 1.338849e+02
<STATE> 3
<MEAN> 39
 -5.842584e+00 -2.209687e+00 1.097880e+01 5.494071e+00 -1.758876e+01 -2.627512e+01 -2.529795e+00 6.501909e+00 -1.204637e+01 -2.653089e+00 1.021137e+01 3.264497e+00 7.365033e+01 9.862954e-01 -5.710139e-02 1.684610e-01 8.064899e-01 -1.354443e+00 -1.653262e+00 1.204383e-01 1.474124e+00 9.401371e-01 -1.565725e+00 1.679691e+00 4.051207e-01 1.054627e+00 -5.021541e-01 -4.638262e-01 -7.966163e-01 -3.558800e-01 7.828463e-01 9.644998e-01 1.519957e-01 1.483499e-01 5.471133e-01 6.986383e-01 -6.472250e-01 -1.535795e-01 -3.401688e-01
<VARIANCE> 39
 6.867941e+00 6.166381e+00 1.309018e+01 1.558268e+01 1.476423e+01 4.548331e+01 3.864722e+01 5.803939e+01 3.818171e+01 3.674739e+01 2.665289e+01 3.113961e+01 1.557246e+01 1.029820e+00 8.932123e-01 1.527173e+00 1.023714e+00 2.419877e+00 4.267151e+00 1.289128e+00 1.817533e+00 1.727534e+00 3.193284e+00 3.467313e+00 1.316631e+00 4.811773e-01 1.404150e-01 2.615811e-01 3.507456e-01 1.243904e-01 2.932089e-01 2.844788e-01 2.985143e-01 4.513598e-01 5.054898e-01 3.094439e-01 3.649609e-01 2.507972e-01 6.990754e-02
<GCONST> 9.989231e+01
<STATE> 4
<MEAN> 39
 -3.593297e+00 -2.534990e+00 7.091442e+00 8.152913e+00 -1.412050e+01 -2.190505e+01 4.183168e-01 7.872393e+00 -6.273898e+00 -2.986709e+00 8.541580e+00 3.445348e+00 6.727296e+01 6.629039e-02 4.110756e-02 -2.720301e-01 1.166956e-01 3.806784e-01 5.870058e-01 2.697759e-01 -1.796534e-01 2.958363e-01 1.943545e-01 -1.593361e-01 -6.506427e-02 -8.487758e-01 -3.092054e-02 -1.177728e-03 -5.808076e-02 -6.283750e-02 7.487799e-02 8.200951e-02 -1.044648e-02 -8.631615e-02 -5.441253e-02 7.157344e-02 -1.941071e-02 -8.279829e-04 -3.621833e-02
<VARIANCE> 39
 5.410171e+00 8.322094e+00 1.186471e+01 1.580265e+01 2.173359e+01 5.138879e+01 3.140522e+01 3.892021e+01 3.175060e+01 3.432954e+01 2.846262e+01 2.431455e+01 6.225108e+01 2.567556e-01 4.469812e-01 6.141484e-01 8.166978e-01 9.975175e-01 1.245801e+00 1.156620e+00 1.677516e+00 1.504723e+00 1.503366e+00 1.474594e+00 1.190827e+00 4.114291e-01 3.753444e-02 8.830880e-02 1.671692e-01 1.625789e-01 2.444287e-01 2.435759e-01 2.376952e-01 3.126459e-01 2.878749e-01 3.171970e-01 2.868513e-01 2.377196e-01 5.593147e-02
<GCONST> 8.832823e+01
<TRANSP> 5
 0.000000e+00 1.000000e+00 0.000000e+00 0.000000e+00 0.000000e+00
 0.000000e+00 8.081657e-01 1.918343e-01 0.000000e+00 0.000000e+00
 0.000000e+00 0.000000e+00 7.049399e-01 2.950601e-01 0.000000e+00
 0.000000e+00 0.000000e+00 0.000000e+00 9.457874e-01 5.421261e-02
 0.000000e+00 0.000000e+00 0.000000e+00 0.000000e+00 0.000000e+00
<ENDHMM>
~h "ei"
<BEGINHMM>
<NUMSTATES> 5
<STATE> 2
<MEAN> 39
 -3.001589e+00 -6.351940e+00 -7.291375e-01 2.348446e-01 -3.331762e+00 -2.032311e+01 1.025610e+00 9.568801e+00 3.136632e+00 -2.069583e+00 6.691929e-01 -3.928281e+00 7.092007e+01 6.350713e-02 -1.977170e-01 -9.388120e-01 -1.648883e-01 1.155201e+00 -6.439644e-02 1.034959e+00 -2.691303e-01 5.587408e-01 -8.207421e-02 -7.792056e-01 -6.649931e-01 3.752241e-01 3.279132e-02 3.674385e-01 2.964795e-01 2.688443e-01 -2.066410e-01 2.479540e-01 -2.218891e-01 -2.186296e-01 -4.470517e-01 1.318709e-01 9.916479e-02 1.687988e-01 -2.707177e-01
<VARIANCE> 39
 1.652146e+01 2.372136e+01 2.048203e+01 3.465571e+01 3.576678e+01 1.210224e+02 4.092037e+01 8.210412e+01 5.629764e+01 6.181247e+01 2.880687e+01 4.512729e+01 9.033834e+01 3.718553e-01 9.607989e-01 1.611998e+00 1.417844e+00 2.600788e+00 2.212256e+00 1.709884e+00 2.247207e+00 2.290840e+00 1.409575e+00 1.952585e+00 2.780463e+00 7.983232e-01 1.654864e-01 1.691794e-01 2.074185e-01 2.252842e-01 3.852901e-01 7.057761e-01 2.961104e-01 3.790785e-01 3.984645e-01 3.569548e-01 4.041815e-01 4.474596e-01 1.940689e-01
<GCONST> 1.106381e+02
<STATE> 3
<MEAN> 39
 -1.082764e+00 -5.427437e+00 -2.291547e+00 2.902661e+00 -8.734744e-01 -2.207803e+01 5.080754e+00 7.598412e+00 1.897115e+00 -1.378371e+00 -8.068674e-01 -3.233166e+00 7.109695e+01 3.060639e-01 7.017393e-01 4.815793e-01 6.454897e-01 -3.115270e-02 4.484373e-01 -7.238738e-02 -1.430659e-01 -4.250958e-01 9.802102e-02 -3.943684e-02 7.288541e-01 -8.096764e-01 1.640279e-02 5.915064e-02 1.556013e-01 3.250936e-02 -1.578479e-01 1.547958e-01 -1.749874e-01 6.642947e-02 7.585324e-02 -2.276471e-02 3.004226e-02 -5.363438e-02 -1.428101e-01
<VARIANCE> 39
 1.380331e+01 1.587687e+01 2.017836e+01 3.265141e+01 3.235279e+01 9.216599e+01 5.008950e+01 4.978823e+01 3.694883e+01 5.813311e+01 2.893359e+01 5.487795e+01 5.826117e+01 3.648753e-01 6.644209e-01 9.643629e-01 9.317420e-01 1.362698e+00 2.275527e+00 1.319258e+00 1.640145e+00 1.499890e+00 1.853576e+00 1.296462e+00 2.527252e+00 7.485781e-01 1.300714e-01 1.381139e-01 2.294790e-01 2.266619e-01 3.071774e-01 5.302075e-01 2.919948e-01 2.800148e-01 3.083557e-01 3.144508e-01 2.666518e-01 5.994709e-01 1.246904e-01
<GCONST> 1.032427e+02
<STATE> 4
<MEAN> 39
 -1.112153e+00 -1.788287e+00 1.195128e+00 5.795045e+00 -1.933912e+00 -1.296285e+01 2.182524e+00 7.602115e+00 4.413243e-01 -1.842276e+00 -7.051932e-01 -7.681076e-01 6.324421e+01 -1.171492e-01 3.945432e-01 2.851034e-02 9.088735e-02 -2.852291e-01 9.333141e-01 -4.218369e-02 -3.788977e-02 6.537331e-01 4.795359e-01 -1.146143e-01 -5.447087e-01 -9.815183e-01 -7.885965e-02 -2.296144e-01 -1.030912e-01 -1.570698e-01 -2.637036e-01 -3.388982e-01 -2.129247e-01 3.376219e-02 9.989639e-02 4.465260e-02 1.223756e-01 -4.133415e-02 3.137226e-01
<VARIANCE> 39
 1.780676e+01 1.775360e+01 1.712175e+01 2.618618e+01 2.612280e+01 5.653109e+01 2.718294e+01 3.089976e+01 3.001888e+01 3.751591e+01 2.201385e+01 2.607351e+01 4.121972e+01 1.478124e+00 1.119794e+00 1.177407e+00 1.926689e+00 2.493241e+00 5.222316e+00 2.170762e+00 2.472409e+00 2.162140e+00 2.225585e+00 2.330793e+00 2.523046e+00 1.689289e+00 2.074553e-01 1.345838e-01 2.158995e-01 4.041329e-01 3.671216e-01 5.125217e-01 4.335426e-01 4.300033e-01 4.790362e-01 3.746542e-01 4.169828e-01 6.078989e-01 1.186054e-01
<GCONST> 1.095152e+02
<TRANSP> 5
 0.000000e+00 1.000000e+00 0.000000e+00 0.000000e+00 0.000000e+00
 0.000000e+00 5.257254e-01 4.742746e-01 0.000000e+00 0.000000e+00
 0.000000e+00 0.000000e+00 7.313631e-01 2.686369e-01 0.000000e+00
 0.000000e+00 0.000000e+00 0.000000e+00 5.637999e-01 4.362001e-01
 0.000000e+00 0.000000e+00 0.000000e+00 0.000000e+00 0.000000e+00
<ENDHMM>
~h "ii"
<BEGINHMM>
<NUMSTATES> 5
<STATE> 2
<MEAN> 39
 -8.823887e+00 4.142474e+00 1.422715e+01 5.866406e+00 -1.390246e+01 -2.238380e+01 -4.864103e+00 4.740178e+00 -1.389166e+01 -6.519649e+00 6.317745e+00 -1.453565e+00 7.071243e+01 1.292864e+00 1.466535e-02 5.876473e-01 1.095895e+00 -7.788701e-01 -9.621029e-01 -2.674701e-01 -6.314331e-01 -1.276313e+00 -4.591284e-01 6.177956e-01 9.491323e-02 5.656394e-01 -5.691331e-01 1.499223e-01 -5.677527e-01 -5.129920e-01 8.394872e-01 8.476647e-01 2.145856e-01 9.926306e-02 6.062591e-01 4.355290e-01 -4.841457e-01 -9.113525e-02 -3.890381e-01
<VARIANCE> 39
 1.247299e+01 8.396143e+00 4.067407e+01 1.901836e+01 2.742616e+01 6.325459e+01 2.448986e+01 4.979594e+01 4.867523e+01 2.816067e+01 2.523538e+01 2.400023e+01 1.412398e+01 3.134017e+00 6.809876e-01 2.425001e+00 2.503156e+00 4.820991e+00 6.077662e+00 2.662688e+00 2.326528e+00 4.208422e+00 2.670599e+00 3.648752e+00 1.389563e+00 1.181651e+00 2.429001e-01 1.124081e-01 2.676913e-01 2.751415e-01 5.595800e-01 7.261006e-01 3.929621e-01 4.910283e-01 4.582022e-01 3.362551e-01 5.404688e-01 2.678621e-01 1.615937e-01
<GCONST> 1.114135e+02
<STATE> 3
<MEAN> 39
 -8.394989e+00 7.743629e+00 2.074977e+01 5.731334e+00 -1.845920e+01 -1.252662e+01 -1.716628e+00 -1.416594e+00 -1.831547e+01 -2.492812e+00 4.475799e+00 -4.150530e+00 6.923402e+01 1.647357e-01 1.960123e-01 -1.956821e-01 5.534197e-02 2.298892e-01 5.150765e-01 1.888115e-01 -1.806579e-01 1.010179e-01 4.131258e-01 -2.584925e-01 -4.075699e-02 -3.725478e-01 2.956374e-03 -2.476274e-02 -5.396253e-02 1.083736e-03 7.940413e-02 1.891769e-02 -5.213407e-03 3.030333e-02 5.909150e-02 -3.087864e-03 1.501081e-02 1.123165e-02 -7.312568e-02
<VARIANCE> 39
 8.664644e+00 7.214550e+00 2.921680e+01 1.915822e+01 2.680540e+01 3.736465e+01 3.737114e+01 3.750469e+01 3.412848e+01 3.033388e+01 2.508354e+01 2.863965e+01 1.650013e+01 2.236176e-01 3.198031e-01 7.142082e-01 6.949018e-01 1.068457e+00 1.050033e+00 1.136068e+00 9.430674e-01 1.157400e+00 1.004300e+00 9.040651e-01 9.353003e-01 3.076962e-01 3.640670e-02 6.154105e-02 1.113373e-01 1.146025e-01 1.754174e-01 1.767615e-01 2.191841e-01 1.474039e-01 2.285743e-01 1.965550e-01 1.671991e-01 1.774098e-01 1.989101e-02
<GCONST> 8.036057e+01
<STATE> 4
<MEAN> 39
 -6.514369e+00 4.684499e+00 1.153717e+01 5.630942e+00 -7.436361e+00 -4.158002e+00 4.237291e-01 -1.588318e+00 -9.891734e+00 -3.990322e-02 2.453887e+00 -5.136261e+00 5.747861e+01 -1.466657e-01 -3.036742e-01 -8.125533e-01 -9.826691e-02 6.801881e-01 3.890999e-01 1.320061e-01 1.486544e-02 6.762957e-01 6.405671e-02 -6.282626e-02 2.517479e-02 -6.621220e-01 -8.320693e-03 -8.176469e-03 -1.436557e-02 -1.090670e-02 -5.514676e-02 -8.560424e-02 -1.964566e-02 3.771712e-02 -1.768493e-02 1.327759e-02 4.562556e-02 5.694764e-02 7.379654e-02
<VARIANCE> 39
 7.764021e+00 1.336772e+01 4.005936e+01 1.644916e+01 3.083018e+01 6.308877e+01 2.699026e+01 2.381194e+01 3.831232e+01 2.400874e+01 2.305144e+01 2.043060e+01 3.660143e+01 2.746444e-01 5.627645e-01 8.180811e-01 9.358521e-01 1.255925e+00 1.727382e+00 2.030184e+00 1.723013e+00 1.992195e+00 2.119246e+00 1.820014e+00 1.535893e+00 1.841919e-01 4.530370e-02 9.803934e-02 1.542676e-01 1.888010e-01 2.484208e-01 2.994500e-01 3.742658e-01 3.532592e-01 4.236247e-01 3.894706e-01 3.981858e-01 2.874676e-01 2.928281e-02
<GCONST> 9.302207e+01
<TRANSP> 5
 0.000000e+00 1.000000e+00 0.000000e+00 0.000000e+00 0.000000e+00
 0.000000e+00 5.767060e-01 4.232940e-01 0.000000e+00 0.000000e+00
 0.000000e+00 0.000000e+00 8.996441e-01 1.003560e-01 0.000000e+00
 0.000000e+00 0.000000e+00 0.000000e+00 8.557268e-01 1.442733e-01
 0.000000e+00 0.000000e+00 0.000000e+00 0.000000e+00 0.000000e+00
<ENDHMM>
~h "sp"
<BEGINHMM>
<NUMSTATES> 3
<STATE> 2
~s "silst"
<TRANSP> 3
 0.000000e+00 3.746998e-01 6.253002e-01
 0.000000e+00 9.024568e-01 9.754318e-02
 0.000000e+00 0.000000e+00 0.000000e+00
<ENDHMM>
~h "th"
<BEGINHMM>
<NUMSTATES> 5
<STATE> 2
<MEAN> 39
 -1.680923e+01 1.374803e-01 -6.312706e-01 -3.573968e+00 -1.513673e+00 -9.226761e+00 1.395299e+00 7.806165e+00 -3.036067e+00 6.368224e-02 4.257934e+00 3.993763e+00 5.945327e+01 -1.153589e+00 -2.804213e-01 2.020616e-01 -6.131130e-01 -8.488289e-01 -1.798956e+00 4.198451e-02 1.703542e+00 -5.212253e-01 -3.390331e-01 6.305606e-01 7.190791e-01 1.697713e+00 4.342803e-01 4.189145e-02 3.361167e-01 5.831395e-01 2.893222e-02 4.388042e-01 -1.358592e-01 -2.563156e-01 1.203141e-01 -1.685396e-01 -2.062188e-01 -2.545802e-01 -3.496873e-01
<VARIANCE> 39
 2.643620e+01 1.043974e+01 2.122809e+01 4.891978e+01 3.510374e+01 7.806656e+01 2.903486e+01 5.304234e+01 4.139953e+01 2.824591e+01 2.544888e+01 3.956985e+01 5.266814e+01 3.280455e+00 1.010911e+00 2.333724e+00 6.905518e+00 4.166471e+00 1.122882e+01 2.881130e+00 4.507543e+00 4.327841e+00 2.469068e+00 2.478261e+00 4.593151e+00 6.200569e+00 9.410539e-01 2.748719e-01 5.872920e-01 1.101406e+00 9.543056e-01 2.029444e+00 5.718500e-01 1.281466e+00 8.042402e-01 4.203303e-01 5.687603e-01 9.524121e-01 1.256195e+00
<GCONST> 1.315480e+02
<STATE> 3
<MEAN> 39
 -1.170666e+01 2.163566e+00 8.646032e+00 4.729712e+00 -4.765689e+00 -1.192586e+01 -2.401749e+00 7.367735e+00 -5.176042e+00 -4.475834e+00 2.067025e+00 2.101712e+00 6.202111e+01 2.361174e+00 9.436488e-01 2.907933e+00 2.272968e+00 -1.745640e+00 -1.588100e+00 -1.493250e+00 -1.625278e+00 -9.212655e-01 -1.189711e+00 -5.890631e-01 -4.728020e-01 9.367759e-01 -1.053573e-01 -1.888940e-01 -2.999081e-02 -2.309929e-01 -5.606622e-01 -5.486972e-01 3.616584e-02 -6.310591e-02 -1.602156e-01 7.519610e-03 2.590463e-01 1.370823e-01 3.815636e-01
<VARIANCE> 39
 2.565475e+01 2.205670e+01 5.026836e+01 5.041457e+01 3.928505e+01 6.627958e+01 3.688820e+01 2.977528e+01 4.298503e+01 3.120406e+01 2.475151e+01 2.757872e+01 1.915661e+01 1.814873e+00 2.366657e+00 1.881895e+00 2.069323e+00 5.335378e+00 6.762684e+00 3.718137e+00 2.674340e+00 2.880737e+00 2.931804e+00 3.332873e+00 2.312863e+00 1.460073e+00 5.755817e-01 6.667004e-01 5.062242e-01 5.213858e-01 7.104033e-01 1.211365e+00 1.028452e+00 7.821310e-01 5.804946e-01 6.438998e-01 7.318295e-01 4.692973e-01 2.114342e-01
<GCONST> 1.243894e+02
<STATE> 4
<MEAN> 39
 -6.259466e+00 1.031196e+00 1.948068e+01 1.078147e+01 -1.678602e+01 -2.015103e+01 -6.579182e+00 2.480990e+00 -1.171814e+01 -9.995756e+00 5.615993e+00 9.334164e-01 6.864391e+01 6.116818e-02 -1.994921e-01 1.058331e+00 -1.639119e-01 -1.243612e+00 -3.039666e-01 1.392139e-01 -5.573897e-01 -1.413940e+00 7.784148e-02 1.116365e+00 -7.034776e-01 9.012831e-01 -3.260354e-01 2.772309e-01 -3.906380e-01 -4.062886e-01 5.131508e-01 5.445403e-01 3.403946e-01 8.637539e-03 2.163498e-02 4.071816e-01 -2.298200e-01 -2.555053e-02 -2.213651e-01
<VARIANCE> 39
 5.056406e+00 8.641552e+00 2.278604e+01 1.436453e+01 2.024059e+01 2.979495e+01 2.389656e+01 3.577377e+01 5.361915e+01 2.393200e+01 4.403024e+01 2.151450e+01 1.546898e+01 6.327939e-01 1.553639e+00 1.409222e+00 1.858708e+00 1.618423e+00 3.103384e+00 2.513970e+00 2.586071e+00 3.381783e+00 2.846844e+00 4.004771e+00 1.432180e+00 3.620114e-01 1.468365e-01 2.735399e-01 2.163835e-01 3.198629e-01 2.872226e-01 5.466248e-01 4.159032e-01 5.993713e-01 6.388887e-01 4.350880e-01 9.595901e-01 3.274723e-01 7.683639e-02
<GCONST> 1.044451e+02
<TRANSP> 5
 0.000000e+00 1.000000e+00 0.000000e+00 0.000000e+00 0.000000e+00
 0.000000e+00 8.433923e-01 1.566078e-01 0.000000e+00 0.000000e+00
 0.000000e+00 0.000000e+00 7.934586e-01 2.065414e-01 0.000000e+00
 0.000000e+00 0.000000e+00 0.000000e+00 7.511912e-01 2.488088e-01
 0.000000e+00 0.000000e+00 0.000000e+00 0.000000e+00 0.000000e+00
<ENDHMM>
~h "tx"
<BEGINHMM>
<NUMSTATES> 5
<STATE> 2
<MEAN> 39
 -4.730168e+00 -2.066197e+00 -6.412562e-01 5.492308e+00 -1.758122e+00 -5.398569e+00 2.049285e+00 4.995556e+00 1.012378e+00 -1.982278e+00 -2.278342e-01 -4.389780e-01 5.674883e+01 -2.027534e-01 -9.640863e-01 4.499083e-01 3.249850e-01 -2.362440e+00 -6.588112e-01 -1.560425e+00 -1.551801e-01 4.876949e-01 1.916286e-01 -1.647756e-01 4.946860e-01 1.122648e+00 1.486702e-01 -1.223455e-01 3.426934e-02 -1.131501e-01 -5.455617e-01 -5.991435e-01 -9.663644e-01 -2.157542e-01 1.726263e-01 2.532031e-01 4.259479e-01 3.449305e-02 1.025787e+00
<VARIANCE> 39
 2.683741e+01 1.440905e+01 1.146475e+01 3.267290e+01 2.680298e+01 5.943245e+01 2.356402e+01 3.116599e+01 2.601317e+01 2.156892e+01 1.643040e+01 1.785375e+01 3.176193e+01 1.545620e+00 2.033176e+00 2.223257e+00 4.912322e+00 5.250452e+00 6.501362e+00 5.607212e+00 4.553773e+00 4.397980e+00 2.462464e+00 2.326324e+00 3.127985e+00 3.488650e+00 5.161965e-01 3.253098e-01 3.936619e-01 7.214506e-01 1.058574e+00 8.136899e-01 6.196628e-01 1.029976e+00 7.249089e-01 6.618832e-01 6.085342e-01 6.457706e-01 1.284633e-01
<GCONST> 1.215633e+02
<STATE> 3
<MEAN> 39
 -3.029743e+00 -6.285692e+00 2.091838e+00 7.366617e+00 -1.281718e+01 -1.161960e+01 -7.882328e+00 4.871491e+00 4.482124e+00 -2.960817e-01 1.258542e+00 1.059820e+00 6.516222e+01 7.582685e-01 4.033301e-01 -8.409826e-01 -1.101555e+00 -5.949765e-01 -1.814197e+00 -3.136560e+00 -1.634416e+00 3.627158e-01 1.664130e+00 2.163288e+00 -1.059324e+00 2.991214e+00 -4.689795e-03 7.352481e-01 -7.407833e-01 -6.825314e-01 1.418149e+00 5.853581e-01 8.262823e-01 -6.105891e-01 -7.530198e-01 2.534812e-01 6.818972e-01 -3.456010e-01 -2.180114e-01
<VARIANCE> 39
 1.416625e+01 2.007178e+01 3.083962e+01 5.256394e+01 4.351833e+01 6.579502e+01 8.860510e+01 5.167385e+01 5.559726e+01 2.889809e+01 3.154008e+01 3.160525e+01 2.856919e+01 6.293446e+00 2.064672e+00 2.673177e+00 3.461028e+00 6.937517e+00 7.320516e+00 4.372138e+00 7.450481e+00 5.306584e+00 4.526675e+00 3.838645e+00 4.160249e+00 2.366490e+00 5.892766e-01 3.317160e-01 4.964415e-01 8.444230e-01 7.471150e-01 1.456027e+00 1.294592e+00 9.796343e-01 8.394445e-01 6.639439e-01 5.852239e-01 8.816987e-01 6.655495e-01
<GCONST> 1.339241e+02
<STATE> 4
<MEAN> 39
 -2.070706e-01 -2.437187e+00 -3.711134e+00 1.598629e+00 -6.286048e+00 -1.302340e+01 -9.523592e+00 -1.920416e+00 1.551265e+00 4.829699e+00 8.865787e+00 -3.879652e+00 6.843913e+01 1.388956e-01 9.137789e-01 -1.643888e+00 -1.877723e+00 1.348934e+00 1.312821e+00 1.042418e+00 -2.221361e+00 -2.405833e+00 1.156326e+00 2.335489e+00 -1.902104e-01 9.205246e-01 -4.569976e-01 -3.779427e-02 3.401376e-01 1.478978e-01 -1.001825e-01 7.993481e-01 1.173703e+00 3.961856e-01 -4.986551e-01 -7.088530e-01 -6.902047e-01 7.177595e-01 -5.631940e-01
<VARIANCE> 39
 1.967430e+01 1.126528e+01 1.676186e+01 2.498409e+01 1.511314e+01 5.271743e+01 7.067216e+01 6.240236e+01 6.719921e+01 4.377461e+01 4.198232e+01 2.781875e+01 2.435995e+01 5.580535e+00 1.406704e+00 1.810908e+00 2.010373e+00 3.001019e+00 2.906619e+00 3.988530e+00 3.745103e+00 3.419629e+00 3.240249e+00 2.708905e+00 3.618949e+00 1.394563e+00 3.256432e-01 3.720659e-01 3.834343e-01 3.340120e-01 5.580544e-01 7.036627e-01 7.783554e-01 7.900985e-01 7.742019e-01 6.627094e-01 5.759746e-01 3.902295e-01 4.267939e-01
<GCONST> 1.210751e+02
<TRANSP> 5
 0.000000e+00 1.000000e+00 0.000000e+00 0.000000e+00 0.000000e+00
 0.000000e+00 5.486453e-01 4.513548e-01 0.000000e+00 0.000000e+00
 0.000000e+00 0.000000e+00 4.837348e-01 5.162652e-01 0.000000e+00
 0.000000e+00 0.000000e+00 0.000000e+00 4.452652e-01 5.547348e-01
 0.000000e+00 0.000000e+00 0.000000e+00 0.000000e+00 0.000000e+00
<ENDHMM>
~h "uu"
<BEGINHMM>
<NUMSTATES> 5
<STATE> 2
<MEAN> 39
 2.689827e+00 6.018459e+00 -2.360295e+00 4.472716e+00 -4.309746e+00 -6.633883e+00 -8.902796e+00 -2.091492e+01 -1.083051e+01 -6.828818e+00 8.528084e+00 3.126319e+00 6.563767e+01 3.842112e-01 1.264211e+00 -9.744543e-01 -1.829553e+00 5.462956e-01 1.422738e+00 2.793249e+00 -8.619379e-01 -2.358246e+00 -6.800962e-01 -5.754867e-01 1.360432e+00 -2.429451e-02 -2.852830e-01 -1.440064e-02 3.273171e-01 1.046304e-01 -3.012514e-01 -2.400412e-01 -1.849944e-02 1.082770e+00 2.784346e-01 -9.360372e-03 -8.702957e-01 -6.735131e-02 -1.215008e-01
<VARIANCE> 39
 4.529571e+00 8.172626e+00 1.648161e+01 2.834774e+01 1.856577e+01 2.282614e+01 2.771051e+01 6.006189e+01 4.970334e+01 2.780972e+01 3.134905e+01 3.255186e+01 1.248098e+01 2.758554e-01 3.377868e-01 6.874576e-01 1.067846e+00 9.365112e-01 1.241061e+00 1.262863e+00 3.252170e+00 1.341275e+00 1.483707e+00 2.530971e+00 9.285780e-01 1.360565e-01 8.515231e-02 8.652923e-02 9.985159e-02 2.073763e-01 2.159644e-01 3.675394e-01 3.991579e-01 3.761532e-01 3.116596e-01 4.315920e-01 3.558647e-01 3.872110e-01 2.100823e-02
<GCONST> 8.894572e+01
<STATE> 3
<MEAN> 39
 3.465034e+00 1.299346e+01 -3.493860e+00 -5.481538e+00 -3.328909e+00 -6.554693e+00 3.570984e+00 -1.289043e+01 -1.934512e+01 -5.380388e+00 -1.664302e+00 3.938560e+00 6.427182e+01 6.635056e-02 2.198627e-01 7.782350e-02 -3.015291e-01 -1.636722e-01 7.329436e-02 3.577888e-01 6.317259e-01 -2.715792e-01 1.690084e-01 -5.693871e-01 -5.265088e-02 -2.207888e-01 -3.446640e-02 -9.968013e-02 4.209261e-02 1.581414e-01 -2.302742e-02 1.017760e-02 -1.591432e-01 -5.410552e-03 1.404651e-01 2.842524e-02 8.419710e-02 -4.068866e-02 -2.597707e-02
<VARIANCE> 39
 9.631524e+00 1.081472e+01 1.738537e+01 3.278357e+01 1.446472e+01 2.322730e+01 3.530577e+01 7.019873e+01 4.659935e+01 2.403234e+01 3.430165e+01 2.381183e+01 1.445351e+01 1.864764e-01 4.483974e-01 4.889846e-01 1.004392e+00 9.497033e-01 1.169097e+00 1.661777e+00 1.180951e+00 1.413589e+00 1.306242e+00 1.626327e+00 8.941279e-01 9.096958e-02 3.399175e-02 5.203612e-02 8.536401e-02 1.045577e-01 1.610353e-01 2.018940e-01 1.971888e-01 2.142003e-01 2.271475e-01 2.388224e-01 2.944169e-01 1.900943e-01 1.230282e-02
<GCONST> 8.103316e+01
<STATE> 4
<MEAN> 39
 -1.569661e+00 8.230523e+00 9.095949e-01 1.080581e+00 -2.265305e+00 -1.114473e+00 9.104608e-01 -3.296382e+00 -9.237021e+00 -4.447246e+00 -2.982425e+00 6.021743e-01 5.545253e+01 -5.682173e-01 -4.592129e-01 1.219431e-01 3.781261e-01 3.082864e-01 1.658746e-01 -1.578475e-01 3.486604e-01 8.514322e-01 2.582944e-02 1.455114e-01 -2.182321e-01 -5.003377e-01 -4.331910e-03 7.672220e-04 -3.718082e-02 -5.621682e-02 2.471748e-02 -7.750395e-03 4.195525e-02 -2.717947e-02 -1.214384e-02 2.621853e-02 2.668463e-02 -3.425655e-03 1.974987e-02
<VARIANCE> 39
 1.798784e+01 1.390775e+01 1.252838e+01 1.395436e+01 1.987188e+01 2.067236e+01 2.773579e+01 3.710795e+01 5.026437e+01 2.411509e+01 1.762674e+01 2.059310e+01 2.347496e+01 2.081297e-01 4.557742e-01 8.172979e-01 1.109096e+00 1.232182e+00 1.561179e+00 1.762543e+00 1.608094e+00 1.949357e+00 2.060032e+00 1.293393e+00 1.715586e+00 9.813226e-02 3.577201e-02 7.725564e-02 1.450944e-01 1.936407e-01 2.669647e-01 3.141634e-01 3.324215e-01 3.009080e-01 3.754799e-01 4.042974e-01 2.367020e-01 3.247170e-01 1.349888e-02
<GCONST> 8.757633e+01
<TRANSP> 5
 0.000000e+00 1.000000e+00 0.000000e+00 0.000000e+00 0.000000e+00
 0.000000e+00 7.250501e-01 2.749499e-01 0.000000e+00 0.000000e+00
 0.000000e+00 0.000000e+00 9.447982e-01 5.520182e-02 0.000000e+00
 0.000000e+00 0.000000e+00 0.000000e+00 9.511074e-01 4.889265e-02
 0.000000e+00 0.000000e+00 0.000000e+00 0.000000e+00 0.000000e+00
<ENDHMM>
~h "sil"
<BEGINHMM>
<NUMSTATES> 5
<STATE> 2
<MEAN> 39
 -8.656185e+00 -1.180639e-01 -1.383001e+00 1.570737e+00 1.741222e+00 -2.565517e-01 1.203527e+00 1.906380e+00 1.867934e+00 1.670043e+00 2.224715e+00 2.775231e-02 5.447522e+01 -1.604966e-02 3.267824e-02 9.861024e-02 1.903007e-01 8.448975e-02 2.052494e-01 7.181024e-02 -7.630304e-02 -6.640860e-02 -1.905362e-01 8.133226e-03 7.378814e-02 9.167666e-02 -3.468403e-02 -3.393376e-02 -4.232776e-02 -9.256172e-03 -1.895604e-02 -2.734272e-02 -2.942137e-02 -9.585701e-03 -3.348004e-02 5.992885e-03 -3.057826e-02 1.119349e-03 -7.648519e-02
<VARIANCE> 39
 2.030009e+01 1.307998e+01 1.462865e+01 2.098693e+01 2.743945e+01 2.631238e+01 1.976568e+01 2.145343e+01 2.386691e+01 2.550800e+01 1.859678e+01 1.541780e+01 4.883983e+01 6.927170e-01 3.876138e-01 7.249001e-01 9.556789e-01 1.382672e+00 1.355698e+00 1.443691e+00 1.666931e+00 1.839519e+00 1.735084e+00 1.526695e+00 1.349086e+00 3.071928e+00 5.915003e-02 5.828146e-02 1.043989e-01 1.553369e-01 2.007664e-01 1.994557e-01 2.442913e-01 2.790285e-01 3.031900e-01 2.716117e-01 2.654053e-01 2.104898e-01 2.800124e-01
<GCONST> 9.205622e+01
<STATE> 3
~s "silst"
<STATE> 4
<MEAN> 39
 -1.044636e+01 1.720416e-01 -8.896654e-01 2.831088e+00 1.545173e+00 1.387800e+00 1.057694e+00 1.641830e+00 7.891130e-01 -2.665776e-01 7.150390e-01 4.154216e-01 5.173907e+01 4.511852e-01 5.683310e-01 5.484574e-01 3.001678e-01 3.538885e-03 -2.803542e-01 -3.705744e-01 -2.362421e-01 -3.226083e-01 -2.078837e-01 -2.211531e-01 -1.544500e-01 2.818853e-01 2.244417e-01 1.754056e-01 1.812759e-01 -3.512719e-02 -2.734121e-01 -3.983758e-01 -2.882362e-01 -1.523010e-01 -1.842738e-01 -5.236158e-02 -1.793814e-02 3.331363e-03 3.326380e-01
<VARIANCE> 39
 5.836223e+00 9.377763e+00 1.058377e+01 1.923328e+01 1.439821e+01 1.672317e+01 1.671683e+01 1.814010e+01 1.663599e+01 1.783158e+01 1.818583e+01 1.396652e+01 2.077512e+01 9.622976e-01 1.535421e+00 1.482495e+00 1.453512e+00 1.498032e+00 1.862758e+00 1.951262e+00 2.396534e+00 1.885920e+00 1.763833e+00 1.709167e+00 1.392038e+00 3.473298e-01 2.658351e-01 2.763886e-01 3.117134e-01 3.795009e-01 4.101971e-01 4.199592e-01 3.954306e-01 4.635234e-01 3.629045e-01 3.692803e-01 3.118958e-01 2.772829e-01 1.471733e-01
<GCONST> 9.662108e+01
<TRANSP> 5
 0.000000e+00 1.000000e+00 0.000000e+00 0.000000e+00 0.000000e+00
 0.000000e+00 6.234186e-01 2.952934e-01 8.128807e-02 0.000000e+00
 0.000000e+00 0.000000e+00 9.173092e-01 8.269078e-02 0.000000e+00
 0.000000e+00 4.817175e-02 0.000000e+00 4.423938e-01 5.094344e-01
 0.000000e+00 0.000000e+00 0.000000e+00 0.000000e+00 0.000000e+00
<ENDHMM>
