~o
<STREAMINFO> 1 39
<VECSIZE> 39<NULLD><MFCC_0_D_A><DIAGC>
~h "proto"
<BEGINHMM>
<NUMSTATES> 5
<STATE> 2
<MEAN> 39
 -5.610342e+00 1.116867e+00 2.384699e-01 1.620205e+00 -1.922000e+00 -6.968256e+00 -6.317798e-01 6.313877e-01 -1.902537e+00 5.842912e-01 2.075631e+00 -2.078109e+00 6.124496e+01 6.976899e-03 1.797203e-03 -1.032337e-03 -4.252100e-03 3.401067e-03 -5.010078e-03 3.916953e-04 3.838713e-03 1.641214e-03 6.051905e-03 4.578780e-03 2.045104e-03 1.992100e-02 -1.091356e-03 -5.536810e-04 -8.273202e-04 -9.949272e-04 -1.283801e-03 -2.431002e-04 -9.105066e-04 -4.017948e-04 -5.058000e-04 1.134530e-04 -6.759937e-04 -3.734129e-05 -3.961898e-03
<VARIANCE> 39
 4.824714e+01 2.993342e+01 6.471054e+01 4.508221e+01 6.237673e+01 9.265282e+01 4.777488e+01 6.547274e+01 6.929485e+01 4.370931e+01 3.570922e+01 4.270234e+01 8.940358e+01 1.402115e+00 1.210880e+00 1.803218e+00 1.859023e+00 2.371502e+00 3.083999e+00 2.587262e+00 2.682161e+00 2.600581e+00 2.360438e+00 2.281188e+00 2.150544e+00 1.422920e+00 1.956635e-01 1.940070e-01 2.738546e-01 3.139663e-01 4.018755e-01 4.946903e-01 4.605773e-01 4.609172e-01 4.344737e-01 4.392915e-01 4.190900e-01 3.822814e-01 1.476451e-01
<GCONST> 1.186130e+02
<STATE> 3
<MEAN> 39
 -5.610342e+00 1.116867e+00 2.384699e-01 1.620205e+00 -1.922000e+00 -6.968256e+00 -6.317798e-01 6.313877e-01 -1.902537e+00 5.842912e-01 2.075631e+00 -2.078109e+00 6.124496e+01 6.976899e-03 1.797203e-03 -1.032337e-03 -4.252100e-03 3.401067e-03 -5.010078e-03 3.916953e-04 3.838713e-03 1.641214e-03 6.051905e-03 4.578780e-03 2.045104e-03 1.992100e-02 -1.091356e-03 -5.536810e-04 -8.273202e-04 -9.949272e-04 -1.283801e-03 -2.431002e-04 -9.105066e-04 -4.017948e-04 -5.058000e-04 1.134530e-04 -6.759937e-04 -3.734129e-05 -3.961898e-03
<VARIANCE> 39
 4.824714e+01 2.993342e+01 6.471054e+01 4.508221e+01 6.237673e+01 9.265282e+01 4.777488e+01 6.547274e+01 6.929485e+01 4.370931e+01 3.570922e+01 4.270234e+01 8.940358e+01 1.402115e+00 1.210880e+00 1.803218e+00 1.859023e+00 2.371502e+00 3.083999e+00 2.587262e+00 2.682161e+00 2.600581e+00 2.360438e+00 2.281188e+00 2.150544e+00 1.422920e+00 1.956635e-01 1.940070e-01 2.738546e-01 3.139663e-01 4.018755e-01 4.946903e-01 4.605773e-01 4.609172e-01 4.344737e-01 4.392915e-01 4.190900e-01 3.822814e-01 1.476451e-01
<GCONST> 1.186130e+02
<STATE> 4
<MEAN> 39
 -5.610342e+00 1.116867e+00 2.384699e-01 1.620205e+00 -1.922000e+00 -6.968256e+00 -6.317798e-01 6.313877e-01 -1.902537e+00 5.842912e-01 2.075631e+00 -2.078109e+00 6.124496e+01 6.976899e-03 1.797203e-03 -1.032337e-03 -4.252100e-03 3.401067e-03 -5.010078e-03 3.916953e-04 3.838713e-03 1.641214e-03 6.051905e-03 4.578780e-03 2.045104e-03 1.992100e-02 -1.091356e-03 -5.536810e-04 -8.273202e-04 -9.949272e-04 -1.283801e-03 -2.431002e-04 -9.105066e-04 -4.017948e-04 -5.058000e-04 1.134530e-04 -6.759937e-04 -3.734129e-05 -3.961898e-03
<VARIANCE> 39
 4.824714e+01 2.993342e+01 6.471054e+01 4.508221e+01 6.237673e+01 9.265282e+01 4.777488e+01 6.547274e+01 6.929485e+01 4.370931e+01 3.570922e+01 4.270234e+01 8.940358e+01 1.402115e+00 1.210880e+00 1.803218e+00 1.859023e+00 2.371502e+00 3.083999e+00 2.587262e+00 2.682161e+00 2.600581e+00 2.360438e+00 2.281188e+00 2.150544e+00 1.422920e+00 1.956635e-01 1.940070e-01 2.738546e-01 3.139663e-01 4.018755e-01 4.946903e-01 4.605773e-01 4.609172e-01 4.344737e-01 4.392915e-01 4.190900e-01 3.822814e-01 1.476451e-01
<GCONST> 1.186130e+02
<TRANSP> 5
 0.000000e+00 1.000000e+00 0.000000e+00 0.000000e+00 0.000000e+00
 0.000000e+00 6.000000e-01 4.000000e-01 0.000000e+00 0.000000e+00
 0.000000e+00 0.000000e+00 6.000000e-01 4.000000e-01 0.000000e+00
 0.000000e+00 0.000000e+00 0.000000e+00 7.000000e-01 3.000000e-01
 0.000000e+00 0.000000e+00 0.000000e+00 0.000000e+00 0.000000e+00
<ENDHMM>
