~o
<STREAMINFO> 1 39
<VECSIZE> 39<NULLD><MFCC_D_A_0><DIAGC>
~s "silst"
<MEAN> 39
 -9.582476e+00 7.377167e-01 -1.137766e+00 2.320479e+00 1.562261e+00 1.555017e+00 4.233371e-01 3.340100e-01 1.419399e-01 -5.064389e-01 3.657963e-01 -2.092607e-01 4.934916e+01 -1.187775e-01 -6.420932e-02 -6.102761e-02 -9.608759e-03 -1.807517e-02 3.536332e-02 3.026611e-02 2.720370e-03 1.851495e-02 -2.364337e-02 -3.923283e-02 6.607367e-02 -9.440780e-02 2.297887e-02 1.853532e-02 2.067616e-02 2.754162e-04 -8.431318e-03 -2.436236e-02 -4.697111e-03 1.588765e-02 -2.560585e-03 3.539316e-03 2.971129e-03 -3.394306e-03 2.500674e-02
<VARIANCE> 39
 4.855029e+00 5.356799e+00 8.331401e+00 1.305332e+01 1.376260e+01 1.492880e+01 1.513306e+01 1.503308e+01 1.651418e+01 1.701701e+01 1.450389e+01 1.233477e+01 8.353566e+00 1.868297e-01 3.595103e-01 6.154232e-01 9.330457e-01 1.117802e+00 1.292878e+00 1.395972e+00 1.516019e+00 1.588199e+00 1.723410e+00 1.525278e+00 1.311398e+00 6.051799e-02 3.297833e-02 6.910066e-02 1.222174e-01 1.893525e-01 2.219469e-01 2.526298e-01 2.814411e-01 3.015502e-01 3.191629e-01 3.466640e-01 3.064324e-01 2.679097e-01 1.087445e-02
<GCONST> 7.566232e+01
~h "c"
<BEGINHMM>
<NUMSTATES> 5
<STATE> 2
<MEAN> 39
 -1.552913e+01 1.632352e+00 1.911967e+00 -4.723028e+00 4.421612e+00 9.346128e-02 -4.086784e+00 6.295319e+00 -2.195086e+00 -3.857851e-01 2.839293e+00 -7.084602e-01 5.611071e+01 -3.054122e+00 7.494946e-01 1.357196e+00 -2.782965e+00 4.841866e-01 1.203746e-01 -1.175670e+00 1.419949e+00 -1.718590e+00 1.410643e-01 6.690276e-01 -4.993863e-01 2.215106e+00 -1.117810e-01 2.258973e-01 3.339060e-01 1.969387e-01 -4.947686e-01 -1.469610e-01 1.633746e-01 -2.816527e-01 -2.605339e-01 -2.276826e-02 -8.989364e-02 -2.022659e-01 3.028840e-01
<VARIANCE> 39
 5.095385e+01 1.954001e+01 2.711123e+01 6.522540e+01 2.953932e+01 4.348862e+01 3.591609e+01 4.815285e+01 4.966478e+01 2.185916e+01 2.912547e+01 2.321877e+01 4.797323e+01 3.688429e+00 2.405679e+00 2.023921e+00 4.783773e+00 3.282280e+00 2.825342e+00 3.641655e+00 4.191172e+00 3.180094e+00 2.012830e+00 3.074813e+00 2.221908e+00 1.954487e+00 1.760204e+00 4.229296e-01 3.414902e-01 2.258954e+00 8.207614e-01 6.325379e-01 8.474610e-01 1.265034e+00 6.281395e-01 4.310166e-01 6.480928e-01 3.741890e-01 4.909033e-01
<GCONST> 1.273279e+02
<STATE> 3
<MEAN> 39
 -2.450971e+01 5.191065e+00 9.601652e+00 -8.961027e+00 8.945130e-01 4.242576e-02 -4.068945e+00 6.575733e+00 -9.292201e+00 -1.017798e-01 3.932567e+00 -4.172526e+00 6.428532e+01 2.518411e+00 8.470312e-01 3.199841e+00 2.976725e+00 -3.444406e+00 -2.237630e+00 5.646118e-01 -2.104409e+00 -2.511796e+00 -8.274665e-01 -4.112081e-01 -1.134136e+00 8.708941e-01 1.650399e+00 -1.477409e-01 2.870950e-01 1.087389e+00 -9.307138e-01 -9.397924e-01 -7.653677e-02 -2.842512e-01 -2.856888e-01 -2.987027e-01 1.925932e-02 3.341448e-02 -2.631645e-01
<VARIANCE> 39
 3.029559e+01 1.866834e+01 4.664540e+01 3.907790e+01 2.640203e+01 3.785963e+01 2.936658e+01 4.014986e+01 3.786909e+01 2.397358e+01 2.149498e+01 2.197707e+01 1.926924e+01 4.802169e+00 1.289208e+00 2.112071e+00 2.585930e+00 3.219446e+00 5.084676e+00 3.121668e+00 2.143166e+00 3.931186e+00 1.843369e+00 1.811249e+00 1.018025e+00 5.120980e-01 8.772169e-01 3.888975e-01 4.678270e-01 1.071918e+00 4.225842e-01 4.561629e-01 6.909475e-01 8.027900e-01 5.741369e-01 3.824763e-01 5.279292e-01 3.233686e-01 2.130478e-01
<GCONST> 1.167393e+02
<STATE> 4
<MEAN> 39
 -1.151644e+01 7.721157e+00 2.042924e+01 1.552273e+00 -1.426890e+01 -1.236144e+01 -5.865396e+00 1.470087e+00 -1.845410e+01 -3.234289e+00 4.518342e+00 -7.254498e+00 6.711958e+01 2.512863e+00 2.190301e-03 2.091051e+00 2.192653e+00 -4.253274e+00 -2.442957e+00 1.928871e-01 -4.962609e-01 -1.924297e+00 -7.259912e-01 7.929742e-01 -4.574167e-01 1.293567e+00 -9.894617e-01 -2.817999e-01 -8.387554e-01 -8.386731e-01 9.119474e-01 9.113075e-01 1.939831e-01 4.800134e-01 7.280496e-01 2.833938e-01 9.481148e-02 3.344602e-01 -7.069824e-02
<VARIANCE> 39
 1.225075e+01 6.692073e+00 1.925027e+01 2.010938e+01 3.577293e+01 1.709295e+01 2.435657e+01 3.904276e+01 3.370660e+01 1.719674e+01 2.667695e+01 2.167831e+01 1.338224e+01 2.359508e+00 8.702520e-01 2.364873e+00 1.882631e+00 3.131564e+00 4.344992e+00 2.526431e+00 2.622028e+00 2.363562e+00 2.006267e+00 1.987958e+00 1.795200e+00 2.038112e-01 1.265647e-01 1.260153e-01 2.060011e-01 1.946318e-01 5.235405e-01 3.839251e-01 2.695542e-01 3.690666e-01 3.945996e-01 3.141633e-01 2.926528e-01 2.519321e-01 5.111897e-02
<GCONST> 9.964873e+01
<TRANSP> 5
 0.000000e+00 1.000000e+00 0.000000e+00 0.000000e+00 0.000000e+00
 0.000000e+00 7.987594e-01 2.012406e-01 0.000000e+00 0.000000e+00
 0.000000e+00 0.000000e+00 6.652209e-01 3.347791e-01 0.000000e+00
 0.000000e+00 0.000000e+00 0.000000e+00 6.268079e-01 3.731920e-01
 0.000000e+00 0.000000e+00 0.000000e+00 0.000000e+00 0.000000e+00
<ENDHMM>
~h "g"
<BEGINHMM>
<NUMSTATES> 5
<STATE> 2
<MEAN> 39
 -1.901928e+00 5.081208e+00 3.328966e+00 6.736744e+00 -5.888824e+00 -1.039890e+01 -6.646346e+00 1.896318e+00 -5.310096e-01 -1.433454e+00 8.859638e-01 -7.210008e-01 5.760204e+01 1.812340e+00 -7.800114e-01 1.007872e+00 1.690121e+00 -2.166754e+00 -2.754043e+00 -1.581458e+00 4.534099e-01 -4.147997e-03 -4.652112e-01 6.388602e-02 -8.199558e-02 2.294397e+00 -2.918001e-01 -7.826762e-01 4.529422e-02 -5.774822e-02 -3.757184e-02 3.199652e-01 1.806570e-01 3.081553e-02 1.542591e-02 5.390640e-02 1.298003e-02 9.333096e-02 1.391778e-01
<VARIANCE> 39
 1.847725e+01 1.466229e+01 2.741710e+01 3.734131e+01 3.605916e+01 6.147296e+01 4.571405e+01 4.862001e+01 3.385053e+01 2.897153e+01 2.881498e+01 2.423990e+01 2.542381e+01 2.773635e+00 3.462738e+00 2.021185e+00 3.639792e+00 3.753970e+00 7.639339e+00 5.361125e+00 4.840373e+00 2.714584e+00 3.803159e+00 2.682475e+00 3.467530e+00 1.513913e+00 5.072860e-01 3.786142e-01 3.642605e-01 6.120007e-01 6.325198e-01 1.663975e+00 8.238348e-01 8.066675e-01 4.626153e-01 6.114446e-01 6.426362e-01 4.303299e-01 3.084688e-01
<GCONST> 1.249102e+02
<STATE> 3
<MEAN> 39
 1.099710e+00 -2.370148e+00 6.865233e+00 1.197957e+01 -1.267075e+01 -1.382083e+01 -8.564365e+00 6.960900e-01 -1.733649e+00 -2.546501e+00 -3.611266e-01 4.989518e-01 6.357788e+01 1.887163e-01 -2.055773e+00 1.221270e+00 6.527241e-02 -1.397228e+00 -4.552768e-01 -1.145897e+00 3.793722e-01 1.075250e-01 -4.775260e-01 5.220650e-01 3.586295e-01 1.714177e+00 -2.784228e-01 2.574602e-01 -3.669983e-01 -5.609263e-01 3.958005e-01 -7.736346e-02 -7.277845e-03 2.220615e-01 7.590137e-02 -1.286867e-01 6.639594e-01 -4.660242e-02 -3.366582e-02
<VARIANCE> 39
 5.998732e+00 1.838607e+01 2.480488e+01 2.904761e+01 2.511720e+01 3.883592e+01 4.688175e+01 5.705345e+01 2.643986e+01 3.928335e+01 2.824051e+01 3.200262e+01 1.371147e+01 7.342582e-01 2.067936e+00 1.522965e+00 2.385983e+00 2.323238e+00 6.026170e+00 4.056127e+00 4.245771e+00 2.268289e+00 2.892677e+00 4.402046e+00 1.748945e+00 1.631935e+00 2.791177e-01 3.859341e-01 3.865145e-01 5.224270e-01 5.330432e-01 1.256168e+00 8.217158e-01 7.679321e-01 5.009251e-01 6.263573e-01 6.965111e-01 4.868487e-01 3.109254e-01
<GCONST> 1.176122e+02
<STATE> 4
<MEAN> 39
 1.305084e+00 -7.004582e+00 8.127761e+00 9.174497e+00 -1.513915e+01 -1.814460e+01 -1.385865e+01 6.558739e+00 -1.076084e+00 -3.995687e+00 6.633947e+00 -3.884508e-02 7.009846e+01 -3.694391e-01 -6.764979e-02 -8.642636e-01 -8.472164e-01 4.941821e-01 -1.986037e+00 5.220863e-01 7.148392e-01 3.626930e-01 -7.959588e-01 2.286971e+00 -7.949040e-02 1.683498e+00 -3.078426e-01 7.602719e-01 -4.151357e-01 -3.062696e-02 7.228689e-01 -5.561160e-02 1.057306e+00 -4.457368e-01 1.640455e-01 -5.887882e-03 -3.987972e-01 8.288830e-02 -4.130153e-01
<VARIANCE> 39
 4.069690e+00 6.606675e+00 1.447931e+01 3.579021e+01 2.836791e+01 3.449661e+01 3.650236e+01 8.322789e+01 2.959559e+01 5.931665e+01 2.340563e+01 4.158158e+01 8.692020e+00 8.811565e-01 1.203923e+00 1.107842e+00 1.536140e+00 1.722787e+00 3.554150e+00 4.131125e+00 4.505314e+00 4.463721e+00 3.505760e+00 2.226742e+00 2.391117e+00 5.667297e-01 8.290105e-02 2.072720e-01 2.085682e-01 2.938493e-01 2.959904e-01 7.129606e-01 4.319153e-01 6.224908e-01 4.540438e-01 4.991148e-01 4.490201e-01 4.368751e-01 7.932555e-02
<GCONST> 1.064465e+02
<TRANSP> 5
 0.000000e+00 1.000000e+00 0.000000e+00 0.000000e+00 0.000000e+00
 0.000000e+00 7.216153e-01 2.783847e-01 0.000000e+00 0.000000e+00
 0.000000e+00 0.000000e+00 6.732938e-01 3.267062e-01 0.000000e+00
 0.000000e+00 0.000000e+00 0.000000e+00 6.203353e-01 3.796647e-01
 0.000000e+00 0.000000e+00 0.000000e+00 0.000000e+00 0.000000e+00
<ENDHMM>
~h "j"
<BEGINHMM>
<NUMSTATES> 5
<STATE> 2
<MEAN> 39
 -3.110250e+00 6.318957e-01 -4.083067e+00 6.940489e-01 4.395650e+00 -6.052063e+00 -5.426463e-01 2.578326e+00 6.044715e-01 3.140110e+00 -2.463533e+00 -6.541824e+00 6.491209e+01 -1.644510e+00 9.883572e-01 2.245669e-01 -1.312312e+00 1.317412e+00 6.580663e-01 -4.847690e-01 6.577595e-01 -4.717284e-01 1.401404e-01 6.541329e-01 -6.144658e-02 -3.409922e-01 -5.015825e-01 1.071515e-01 1.558865e-01 -3.602671e-01 8.963303e-02 -5.488230e-03 -3.540688e-01 3.936233e-01 -8.542155e-02 -6.313678e-02 1.414256e-01 9.557668e-02 3.112756e-01
<VARIANCE> 39
 1.701578e+01 1.599331e+01 1.603976e+01 2.110794e+01 2.987458e+01 4.760589e+01 2.821142e+01 4.097805e+01 2.811097e+01 2.545451e+01 2.441423e+01 2.623620e+01 2.426609e+01 3.409261e+00 2.564874e+00 1.397936e+00 2.991398e+00 2.697546e+00 3.589906e+00 3.811390e+00 5.117320e+00 3.059492e+00 2.886553e+00 2.149536e+00 2.828562e+00 1.249332e+00 6.318638e-01 5.326293e-01 2.900030e-01 4.961731e-01 6.418142e-01 6.817604e-01 6.330100e-01 6.996176e-01 5.791845e-01 5.900369e-01 3.746496e-01 5.902299e-01 2.377839e-01
<GCONST> 1.180038e+02
<STATE> 3
<MEAN> 39
 -1.907806e+01 5.201949e+00 2.956811e+00 -1.146661e+01 8.530119e+00 -2.082885e+00 -8.669587e+00 1.258185e+01 -2.161173e+00 3.485390e-01 4.226588e+00 -4.456130e+00 6.639003e+01 -1.580329e+00 -5.475330e-01 9.696631e-01 -2.388382e-01 -9.668570e-01 -2.544248e-02 -3.811014e-01 1.135596e+00 4.564925e-01 -8.917853e-01 7.263552e-01 1.073584e+00 3.632585e-01 8.966455e-01 -5.011572e-01 -1.843016e-01 7.509719e-01 -4.341080e-01 -2.019966e-01 5.460956e-01 -4.031173e-01 2.554427e-01 6.416880e-02 -2.170681e-01 5.876734e-02 -3.591370e-01
<VARIANCE> 39
 2.496945e+01 2.036507e+01 6.473135e+01 6.822408e+01 3.919737e+01 4.067706e+01 3.202201e+01 3.363271e+01 2.643507e+01 2.987557e+01 2.266128e+01 2.977727e+01 1.984769e+01 5.122218e+00 2.911897e+00 1.511364e+00 5.876810e+00 4.408461e+00 3.257721e+00 3.815149e+00 3.089256e+00 2.231921e+00 2.646759e+00 2.001698e+00 1.915398e+00 1.087091e+00 3.919833e-01 4.767806e-01 2.606359e-01 6.493878e-01 8.934529e-01 5.836616e-01 5.526745e-01 5.381220e-01 4.802881e-01 5.641187e-01 4.270467e-01 4.407817e-01 1.405097e-01
<GCONST> 1.197979e+02
<STATE> 4
<MEAN> 39
 -1.477859e+01 -1.809358e-01 1.550346e+00 -4.361015e+00 3.121079e+00 -2.382273e+00 -4.225566e+00 1.101795e+01 5.063403e-01 -9.853296e-01 3.155482e+00 -1.950162e+00 5.873064e+01 5.832756e-01 -9.156349e-02 -2.074196e-01 4.280464e-01 1.762248e-02 3.045949e-01 3.204052e-01 -4.810116e-01 -8.418446e-02 9.602667e-02 -1.981617e-01 -5.725380e-02 -8.579957e-01 -3.702484e-02 9.627526e-02 -8.283581e-03 -6.233390e-02 5.726342e-02 5.197389e-02 -2.241827e-02 -6.933739e-02 -4.980643e-02 3.272369e-02 -4.760400e-03 -4.242983e-02 4.002780e-02
<VARIANCE> 39
 1.271249e+01 1.047574e+01 2.000774e+01 2.823167e+01 2.315420e+01 3.396782e+01 2.631518e+01 2.673903e+01 1.960258e+01 2.465924e+01 2.003103e+01 2.053777e+01 3.321520e+01 4.038761e-01 7.907521e-01 1.061031e+00 1.305907e+00 1.656741e+00 1.815358e+00 1.602412e+00 1.884045e+00 1.985890e+00 2.148338e+00 1.505673e+00 1.534976e+00 2.227916e-01 7.159187e-02 1.374575e-01 1.645667e-01 2.229503e-01 3.650502e-01 3.449512e-01 3.150769e-01 3.948785e-01 4.199612e-01 4.359919e-01 3.064053e-01 3.283562e-01 2.882730e-02
<GCONST> 9.438713e+01
<TRANSP> 5
 0.000000e+00 1.000000e+00 0.000000e+00 0.000000e+00 0.000000e+00
 0.000000e+00 8.466859e-01 1.533142e-01 0.000000e+00 0.000000e+00
 0.000000e+00 0.000000e+00 8.106103e-01 1.893897e-01 0.000000e+00
 0.000000e+00 0.000000e+00 0.000000e+00 9.273862e-01 7.261375e-02
 0.000000e+00 0.000000e+00 0.000000e+00 0.000000e+00 0.000000e+00
<ENDHMM>
~h "k"
<BEGINHMM>
<NUMSTATES> 5
<STATE> 2
<MEAN> 39
 -8.046449e+00 8.918231e-01 1.350118e+00 4.674154e+00 -1.663078e+00 -6.808305e+00 2.843402e-01 3.320362e+00 -1.199088e+00 1.898777e-01 2.939148e+00 4.899884e-01 5.758384e+01 -3.060479e-01 -6.027510e-01 -1.235486e+00 -6.704058e-01 9.012349e-01 -3.505685e-02 -4.967577e-01 -2.327743e-01 1.376890e-02 1.418139e+00 -1.387586e-01 1.074882e-02 5.347717e-01 3.511082e-02 -1.862099e-01 -4.099447e-01 -2.062852e-01 1.812761e-01 -4.323644e-01 -3.744153e-01 -1.666196e-01 -1.079657e-01 4.460374e-01 -6.826181e-02 -7.332569e-02 5.138201e-01
<VARIANCE> 39
 3.517844e+01 1.737213e+01 2.356538e+01 3.323832e+01 3.833197e+01 6.713526e+01 3.527439e+01 3.408116e+01 3.525933e+01 2.614431e+01 3.743252e+01 2.496907e+01 4.556210e+01 1.328058e+00 1.900727e+00 5.999883e+00 2.506571e+00 5.969914e+00 5.420508e+00 4.008489e+00 4.986601e+00 4.410086e+00 4.489798e+00 3.113529e+00 2.334630e+00 2.609609e+00 1.851645e-01 2.714371e-01 7.075353e-01 3.509856e-01 7.754198e-01 7.350621e-01 6.926037e-01 6.497460e-01 6.297995e-01 7.030190e-01 5.904811e-01 4.398194e-01 2.385301e-01
<GCONST> 1.238834e+02
<STATE> 3
<MEAN> 39
 -7.679851e+00 -3.233143e+00 -5.369013e+00 -5.473199e-01 9.097893e-01 -1.334846e+01 -5.485161e+00 1.894029e+00 -3.924654e+00 8.476289e+00 3.284667e+00 -1.838135e-01 6.415280e+01 7.878283e-01 -1.400777e-01 -7.589867e-01 -6.328670e-01 3.756476e-02 -1.702942e+00 -8.992466e-01 -1.166320e-01 4.004220e-01 7.734664e-01 3.876894e-01 -2.958106e-01 1.679705e+00 2.681237e-01 9.259474e-02 5.742795e-01 2.502335e-01 -4.754746e-01 1.988427e-01 4.287174e-01 2.833107e-01 3.463211e-01 -7.436135e-01 2.338991e-01 -3.002014e-01 -2.720618e-01
<VARIANCE> 39
 3.645211e+01 3.214298e+01 1.438538e+02 4.540149e+01 1.227611e+02 8.425253e+01 4.756826e+01 8.850351e+01 7.063873e+01 5.381075e+01 4.564117e+01 4.149730e+01 3.205901e+01 3.509284e+00 2.913885e+00 8.214417e+00 2.715793e+00 7.333858e+00 6.989236e+00 4.676256e+00 5.147367e+00 5.647265e+00 7.697272e+00 4.653946e+00 3.100016e+00 3.310742e+00 6.843677e-01 7.656347e-01 1.931131e+00 6.617711e-01 1.736903e+00 1.094931e+00 6.929944e-01 1.020774e+00 1.044504e+00 1.188475e+00 1.116429e+00 7.672750e-01 3.492574e-01
<GCONST> 1.434652e+02
<STATE> 4
<MEAN> 39
 -4.494623e+00 -1.804585e+00 -5.736666e+00 -8.090591e-01 -6.583061e-01 -6.670023e+00 -3.334902e+00 -2.903121e-01 2.198003e+00 8.234757e+00 5.459295e+00 -3.696598e+00 5.999955e+01 -1.366840e-01 -5.182263e-02 3.114071e-01 1.573595e-01 -2.669635e-01 4.305732e-01 1.785659e-01 1.946012e-01 1.998946e-01 -2.964379e-01 -8.757836e-02 -3.603749e-02 -4.246215e-01 -4.444647e-02 -7.145981e-02 3.545839e-02 -5.219854e-03 -8.583235e-03 -1.133450e-02 7.040512e-02 6.137324e-02 -1.546397e-01 -1.078786e-01 -4.910713e-03 -1.084594e-02 8.885217e-02
<VARIANCE> 39
 1.935228e+01 1.649368e+01 2.418282e+01 2.329312e+01 4.070465e+01 4.945784e+01 3.300343e+01 3.530606e+01 3.314622e+01 2.867563e+01 2.542630e+01 3.471548e+01 4.156591e+01 8.860189e-01 8.047796e-01 1.901873e+00 1.614956e+00 2.306719e+00 2.520596e+00 1.922946e+00 2.216311e+00 2.402611e+00 2.517068e+00 2.501870e+00 2.209268e+00 8.150632e-01 1.354502e-01 1.886113e-01 2.670416e-01 2.621247e-01 3.677509e-01 5.279065e-01 4.262709e-01 4.462873e-01 4.644194e-01 5.575721e-01 3.728971e-01 3.492991e-01 1.521819e-01
<GCONST> 1.082137e+02
<TRANSP> 5
 0.000000e+00 1.000000e+00 0.000000e+00 0.000000e+00 0.000000e+00
 0.000000e+00 6.926100e-01 3.073900e-01 0.000000e+00 0.000000e+00
 0.000000e+00 0.000000e+00 6.370013e-01 3.629988e-01 0.000000e+00
 0.000000e+00 0.000000e+00 0.000000e+00 8.118003e-01 1.881997e-01
 0.000000e+00 0.000000e+00 0.000000e+00 0.000000e+00 0.000000e+00
<ENDHMM>
~h "l"
<BEGINHMM>
<NUMSTATES> 5
<STATE> 2
<MEAN> 39
 -1.951791e+00 4.867160e+00 3.495901e+00 1.742689e+00 -1.949403e+00 -6.597488e+00 -4.338150e+00 -2.973977e+00 -2.840281e+00 7.610829e-01 2.418656e-01 -1.396558e+00 5.947599e+01 7.367002e-01 1.461053e-01 8.705878e-01 3.873725e-01 -7.817970e-01 -7.900558e-01 -1.229657e+00 -2.581095e-01 3.941283e-01 8.062486e-02 -3.995728e-01 -2.963729e-01 5.534058e-01 -2.011981e-02 -2.385367e-01 -7.856739e-02 1.629201e-02 -3.072619e-04 -9.216618e-02 -1.383628e-01 1.003399e-01 2.136854e-01 1.107193e-01 8.254602e-02 -1.099010e-01 1.334000e-01
<VARIANCE> 39
 3.009484e+01 2.086075e+01 3.494733e+01 4.996363e+01 3.582619e+01 5.625269e+01 3.894119e+01 3.760990e+01 6.091027e+01 3.925335e+01 3.021207e+01 1.937947e+01 4.095854e+01 1.565416e+00 2.308122e+00 2.102120e+00 2.975330e+00 3.181881e+00 5.364747e+00 2.501044e+00 3.274792e+00 2.451994e+00 2.799427e+00 2.164781e+00 2.115105e+00 1.193558e+00 2.818546e-01 3.753164e-01 4.612038e-01 5.477251e-01 6.548851e-01 9.292203e-01 4.668633e-01 5.184607e-01 3.925170e-01 5.954878e-01 4.811324e-01 3.644243e-01 1.052404e-01
<GCONST> 1.190461e+02
<STATE> 3
<MEAN> 39
 4.997233e-02 6.655156e-01 3.160303e+00 5.964719e+00 -3.774011e+00 -1.118547e+01 -7.539873e+00 -1.830990e-01 2.067239e+00 6.897549e-01 4.503572e-01 -2.166884e+00 6.542527e+01 -3.295894e-01 -3.516290e-01 2.745624e-01 -2.551678e-01 1.327041e-01 5.951447e-01 -2.905040e-01 7.072508e-01 5.541405e-01 1.217003e-01 2.241756e-01 1.353410e-02 -2.662990e-01 -3.341794e-02 -1.209241e-02 -2.424977e-01 -1.984235e-01 2.071762e-01 -7.793204e-02 1.744490e-01 2.661588e-02 -5.101809e-02 1.614812e-01 1.616338e-01 -1.387154e-01 1.873667e-02
<VARIANCE> 39
 1.181629e+01 1.478602e+01 1.823859e+01 2.641546e+01 2.957074e+01 4.228395e+01 3.924226e+01 5.249630e+01 3.044748e+01 3.025629e+01 2.471749e+01 3.209332e+01 1.521698e+01 5.064691e-01 1.236703e+00 1.673791e+00 1.819385e+00 1.596685e+00 2.861506e+00 2.988951e+00 2.865330e+00 1.595832e+00 2.619880e+00 1.589967e+00 1.683797e+00 1.010123e+00 9.839859e-02 1.969959e-01 2.908669e-01 3.848910e-01 3.682930e-01 5.321086e-01 4.895500e-01 6.248633e-01 3.413584e-01 4.833999e-01 3.088814e-01 3.888155e-01 8.743946e-02
<GCONST> 1.054366e+02
<STATE> 4
<MEAN> 39
 -3.295911e+00 3.119405e-01 1.322796e+00 3.860128e+00 -1.407776e+00 -6.153570e+00 -3.203627e+00 2.672955e+00 5.869528e+00 2.423187e+00 1.590511e+00 -2.226588e-01 5.785671e+01 -2.553021e-01 -4.397849e-02 -2.752661e-01 -2.741629e-01 1.611378e-01 1.087984e-01 6.631218e-02 1.602578e-01 1.186211e-01 1.744225e-01 1.448718e-01 -1.320856e-01 -5.734817e-01 -2.596737e-02 1.343770e-02 -6.307138e-02 -1.021951e-02 4.661137e-03 -1.323608e-02 6.068969e-02 -4.482337e-02 -7.144976e-02 -6.121225e-02 -1.981580e-02 -4.428567e-02 4.511844e-02
<VARIANCE> 39
 1.005981e+01 8.828384e+00 1.473173e+01 1.646855e+01 2.564901e+01 3.724280e+01 3.265798e+01 2.474659e+01 2.211385e+01 2.562704e+01 1.884786e+01 1.840585e+01 2.299167e+01 3.229311e-01 6.690208e-01 1.107292e+00 1.091925e+00 1.356210e+00 1.677835e+00 1.863890e+00 2.169031e+00 1.708718e+00 1.996394e+00 1.781900e+00 1.845053e+00 4.658912e-01 5.371276e-02 1.045832e-01 1.773964e-01 2.306266e-01 2.538460e-01 3.140141e-01 4.719343e-01 3.780677e-01 3.278267e-01 3.444325e-01 3.463434e-01 3.003328e-01 2.072456e-02
<GCONST> 9.211431e+01
<TRANSP> 5
 0.000000e+00 1.000000e+00 0.000000e+00 0.000000e+00 0.000000e+00
 0.000000e+00 7.061130e-01 2.938871e-01 0.000000e+00 0.000000e+00
 0.000000e+00 0.000000e+00 7.246605e-01 2.753395e-01 0.000000e+00
 0.000000e+00 0.000000e+00 0.000000e+00 8.686143e-01 1.313857e-01
 0.000000e+00 0.000000e+00 0.000000e+00 0.000000e+00 0.000000e+00
<ENDHMM>
~h "m"
<BEGINHMM>
<NUMSTATES> 5
<STATE> 2
<MEAN> 39
 1.356511e+00 -1.364179e+00 -1.567417e+00 2.440906e+00 -2.801213e+00 -1.135475e+01 -6.124285e+00 -4.698524e+00 -6.866530e+00 5.112435e+00 7.148254e+00 -5.409921e+00 6.913223e+01 3.793313e-01 -7.863093e-01 -1.364120e+00 -5.507520e-01 5.375178e-02 4.673376e-01 2.060460e-01 1.011385e+00 6.466906e-01 7.941832e-01 5.418372e-01 -1.118347e+00 6.040565e-01 -1.016230e-01 -2.409304e-02 2.597986e-02 1.108234e-03 -5.785231e-02 6.547383e-04 1.862645e-01 4.018268e-01 1.415830e-01 -3.149377e-01 -1.994769e-01 -5.077213e-02 -2.488389e-02
<VARIANCE> 39
 8.293571e+00 1.512045e+01 2.425878e+01 3.533616e+01 2.135575e+01 5.799847e+01 2.712056e+01 5.529456e+01 6.494525e+01 5.117135e+01 2.689060e+01 3.091566e+01 1.549497e+01 3.767721e-01 5.611289e-01 1.695251e+00 1.003473e+00 1.180069e+00 2.790656e+00 1.394224e+00 3.555202e+00 1.627254e+00 2.553471e+00 1.825007e+00 2.084673e+00 3.944907e-01 7.131755e-02 1.111045e-01 4.443570e-01 2.697788e-01 2.451233e-01 2.487546e-01 2.485877e-01 4.007420e-01 2.792811e-01 6.283264e-01 4.262471e-01 4.334534e-01 1.039339e-01
<GCONST> 1.011140e+02
<STATE> 3
<MEAN> 39
 1.549198e+00 -5.466568e+00 -5.702956e+00 2.049265e+00 -3.004441e+00 -1.120188e+01 -3.656945e+00 4.391799e+00 -2.315149e+00 1.026939e+00 5.341795e+00 -8.897932e+00 7.189087e+01 3.226712e-02 -2.418534e-01 6.464185e-01 3.660794e-01 -5.436175e-02 -8.376242e-02 5.050676e-01 6.645445e-01 6.643504e-02 -1.357072e+00 -6.564345e-01 8.072039e-01 -1.921484e-01 1.254289e-03 1.604785e-01 3.271889e-01 1.389899e-01 -4.222253e-02 -1.675605e-01 -7.927036e-02 -2.373240e-01 -1.251666e-01 -6.760469e-02 1.646231e-02 3.914731e-01 -1.781099e-01
<VARIANCE> 39
 6.597253e+00 1.407784e+01 1.475237e+01 2.181800e+01 2.924065e+01 4.171732e+01 1.913130e+01 7.299943e+01 5.665914e+01 6.978752e+01 2.339748e+01 4.446968e+01 1.846044e+01 3.504368e-01 4.324256e-01 1.041438e+00 6.775653e-01 1.147860e+00 1.571656e+00 8.466164e-01 2.578318e+00 1.528700e+00 1.163815e+00 1.143330e+00 2.331021e+00 3.820302e-01 4.777981e-02 5.502509e-02 1.111766e-01 1.218624e-01 1.885237e-01 2.103976e-01 1.603249e-01 2.509391e-01 2.808130e-01 2.834678e-01 2.344890e-01 3.555259e-01 1.597835e-02
<GCONST> 8.837087e+01
<STATE> 4
<MEAN> 39
 2.037826e-01 8.526283e-01 2.463123e+00 6.253238e+00 -1.208515e+00 -5.239444e+00 -2.223195e+00 -2.129405e+00 -2.065432e+00 -1.595836e+00 3.233244e+00 -1.712967e+00 6.140860e+01 -3.359472e-01 3.251996e-01 3.038488e-01 1.613502e-01 2.624890e-01 2.868741e-01 9.462253e-02 2.361994e-01 4.058122e-01 -8.554252e-02 -1.852175e-01 1.286568e-01 -7.495887e-01 -3.894411e-02 -2.348479e-02 -9.265853e-02 -4.501027e-02 -1.356020e-02 2.091059e-02 2.416496e-02 3.395040e-02 -7.104895e-03 1.073166e-01 3.714256e-02 -3.968072e-02 1.318933e-02
<VARIANCE> 39
 7.554878e+00 2.593302e+01 1.324220e+01 1.789504e+01 2.183904e+01 4.448281e+01 2.153987e+01 4.864181e+01 3.162021e+01 3.038922e+01 2.849792e+01 2.061660e+01 4.048434e+01 2.014552e-01 4.198448e-01 8.993292e-01 9.530847e-01 1.452076e+00 1.670575e+00 1.318931e+00 1.694563e+00 1.984847e+00 1.687697e+00 1.747889e+00 1.757009e+00 1.199714e-01 2.426095e-02 7.446530e-02 1.270066e-01 1.489031e-01 2.844289e-01 2.984842e-01 2.582833e-01 3.178596e-01 3.726244e-01 3.169335e-01 3.600698e-01 3.181458e-01 1.402037e-02
<GCONST> 8.865678e+01
<TRANSP> 5
 0.000000e+00 1.000000e+00 0.000000e+00 0.000000e+00 0.000000e+00
 0.000000e+00 7.934697e-01 2.065302e-01 0.000000e+00 0.000000e+00
 0.000000e+00 0.000000e+00 8.286452e-01 1.713548e-01 0.000000e+00
 0.000000e+00 0.000000e+00 0.000000e+00 8.954293e-01 1.045708e-01
 0.000000e+00 0.000000e+00 0.000000e+00 0.000000e+00 0.000000e+00
<ENDHMM>
~h "n"
<BEGINHMM>
<NUMSTATES> 5
<STATE> 2
<MEAN> 39
 5.826559e-02 3.380985e+00 5.734180e+00 8.266016e+00 -5.070396e+00 -1.001315e+01 -5.451598e+00 -4.146794e+00 -7.822613e-01 -1.114570e+00 -5.803364e-01 -2.804611e+00 6.298518e+01 6.765932e-01 -5.007160e-01 5.596345e-01 9.607283e-01 -1.338894e+00 -1.035409e+00 -8.173526e-01 -3.756398e-01 -5.924843e-02 2.213226e-01 -1.044123e-01 1.042431e-01 1.177592e+00 -2.407285e-01 -3.248939e-01 -3.217294e-01 -1.191703e-01 -6.491665e-03 4.228474e-01 4.208243e-02 1.453424e-01 4.904317e-02 1.252600e-01 1.996405e-01 3.871288e-02 4.952463e-03
<VARIANCE> 39
 1.846200e+01 4.168941e+01 5.430618e+01 4.987563e+01 3.238596e+01 5.182119e+01 2.443596e+01 8.227283e+01 5.223939e+01 5.235135e+01 4.648680e+01 2.313688e+01 6.498341e+01 2.030628e+00 2.768854e+00 3.170583e+00 1.596273e+00 3.067894e+00 5.053583e+00 2.883472e+00 3.649196e+00 3.484670e+00 3.531499e+00 2.042141e+00 2.384333e+00 1.212290e+00 2.230114e-01 3.897631e-01 4.187503e-01 3.089167e-01 5.327963e-01 5.808924e-01 4.415335e-01 6.666253e-01 5.421519e-01 5.787740e-01 3.671165e-01 2.546310e-01 1.311638e-01
<GCONST> 1.206118e+02
<STATE> 3
<MEAN> 39
 -6.155825e-01 -4.144294e+00 1.536755e+00 9.524989e+00 -1.120902e+01 -1.268673e+01 -7.312001e+00 -9.161892e-02 1.637436e+00 4.007967e-01 3.413916e+00 -3.625034e+00 7.210960e+01 1.493530e-02 5.449102e-02 2.384678e-01 -4.678185e-01 1.412107e-01 1.038064e+00 -3.757175e-02 -1.273700e+00 -3.289614e-01 1.010022e-01 9.721487e-02 6.257178e-01 4.781012e-02 9.418040e-02 2.487480e-01 3.515356e-02 -3.042127e-01 2.974401e-01 2.492484e-01 3.158834e-01 -4.947869e-01 3.329191e-02 -1.301454e-02 -7.796624e-02 -1.218010e-01 -2.119524e-01
<VARIANCE> 39
 7.933337e+00 9.600568e+00 3.273507e+01 4.078973e+01 3.517380e+01 7.432861e+01 3.659190e+01 9.215351e+01 6.433534e+01 5.310624e+01 3.134013e+01 3.601440e+01 2.190989e+01 5.309009e-01 1.252768e+00 6.361299e+00 1.712098e+00 2.320536e+00 2.502581e+00 2.925704e+00 5.823020e+00 3.468816e+00 2.612851e+00 4.062732e+00 2.822396e+00 1.818806e+00 7.367289e-02 1.572433e-01 5.010712e-01 3.189290e-01 4.227445e-01 5.344965e-01 5.477931e-01 9.388495e-01 7.800999e-01 5.227368e-01 5.473677e-01 5.656458e-01 1.054703e-01
<GCONST> 1.165047e+02
<STATE> 4
<MEAN> 39
 -4.963389e-01 1.776604e+00 6.771128e+00 7.387919e+00 -4.323007e+00 -7.672850e+00 -3.342547e+00 -5.177556e+00 1.745502e+00 -2.469214e+00 -7.841368e-01 -2.366799e+00 6.213683e+01 -2.329796e-01 2.949434e-01 -1.068288e-01 -1.638597e-01 2.309820e-01 3.618581e-01 2.518773e-01 1.407187e-01 -7.265579e-02 3.679764e-02 -7.619935e-02 1.373182e-01 -6.213587e-01 -3.677957e-02 -5.438814e-02 -6.830318e-02 -2.646536e-03 -3.277808e-02 -3.581310e-02 -8.819129e-03 1.252780e-01 -1.435097e-02 -7.149187e-03 2.833578e-02 6.676894e-03 1.471423e-02
<VARIANCE> 39
 1.236553e+01 1.809840e+01 1.306460e+01 2.262408e+01 2.621344e+01 4.095768e+01 2.196512e+01 4.365812e+01 3.577497e+01 3.091991e+01 2.216341e+01 2.076190e+01 4.329978e+01 2.494196e-01 4.065788e-01 6.264100e-01 9.598968e-01 1.206128e+00 1.652559e+00 1.643286e+00 1.918218e+00 1.685567e+00 1.338823e+00 1.374095e+00 1.504235e+00 1.249314e-01 2.867002e-02 5.862205e-02 1.177532e-01 1.660699e-01 2.184216e-01 3.278425e-01 3.105311e-01 3.855972e-01 3.080585e-01 2.608687e-01 2.927941e-01 2.564521e-01 1.696558e-02
<GCONST> 8.776151e+01
<TRANSP> 5
 0.000000e+00 1.000000e+00 0.000000e+00 0.000000e+00 0.000000e+00
 0.000000e+00 7.677821e-01 2.322179e-01 0.000000e+00 0.000000e+00
 0.000000e+00 0.000000e+00 7.997056e-01 2.002944e-01 0.000000e+00
 0.000000e+00 0.000000e+00 0.000000e+00 9.330522e-01 6.694776e-02
 0.000000e+00 0.000000e+00 0.000000e+00 0.000000e+00 0.000000e+00
<ENDHMM>
~h "o"
<BEGINHMM>
<NUMSTATES> 5
<STATE> 2
<MEAN> 39
 2.327704e+00 -8.719786e-01 -5.273702e+00 -2.224365e+00 -7.057824e+00 -6.937519e+00 -4.831301e+00 -6.405847e+00 -6.763036e+00 4.838511e+00 1.220110e+01 -1.205679e+00 7.022869e+01 3.339722e-01 3.531362e-01 1.844226e-01 -6.289729e-01 -2.200629e-01 1.148235e+00 1.739813e+00 -2.657173e-01 -1.465999e+00 -8.701100e-01 -7.194646e-01 8.571859e-01 -3.098375e-01 -1.928975e-01 -6.685596e-02 4.472607e-01 5.320628e-01 -1.813070e-01 -1.997160e-01 -3.121278e-01 3.587096e-01 6.675241e-01 -3.248417e-01 -7.280509e-01 -4.853306e-02 -1.395332e-01
<VARIANCE> 39
 6.475110e+00 8.065132e+00 7.846846e+00 4.010581e+01 2.121574e+01 4.810899e+01 2.535308e+01 4.510020e+01 7.371517e+01 3.810538e+01 2.194279e+01 3.102100e+01 1.499224e+01 2.542134e-01 4.647801e-01 1.587663e+00 1.396133e+00 1.213736e+00 1.354567e+00 1.306857e+00 2.197273e+00 2.621578e+00 1.718306e+00 1.692488e+00 1.274179e+00 1.981583e-01 7.149903e-02 7.600877e-02 2.120047e-01 1.555512e-01 3.509584e-01 2.531124e-01 2.600192e-01 3.849529e-01 3.777351e-01 4.544338e-01 3.290797e-01 3.441111e-01 3.282090e-02
<GCONST> 9.268595e+01
<STATE> 3
<MEAN> 39
 2.678317e+00 -2.525936e-01 -3.099482e+00 2.113300e+00 -1.272448e+01 -1.725857e+00 -1.329320e+00 -6.465755e+00 -4.965313e+00 -4.207996e-01 2.748934e+00 2.441118e+00 7.005044e+01 1.325716e-02 3.165657e-01 3.681002e-01 2.008718e-01 3.056654e-01 2.697089e-01 4.080648e-01 1.862532e-01 4.663042e-02 -3.913878e-01 -8.465754e-01 3.132551e-03 -4.562890e-01 -5.121798e-02 6.455205e-03 6.420065e-03 7.655971e-02 1.862815e-01 -5.061600e-02 -8.202627e-02 4.479366e-02 5.729465e-02 1.221741e-01 1.176329e-01 -8.857615e-02 -6.426542e-02
<VARIANCE> 39
 4.083766e+00 1.170750e+01 1.028483e+01 3.220854e+01 4.039587e+01 5.512741e+01 2.346057e+01 3.235770e+01 5.963041e+01 6.117925e+01 4.313170e+01 1.941795e+01 1.793124e+01 2.068464e-01 3.224364e-01 5.817217e-01 8.425844e-01 1.358262e+00 8.881928e-01 8.798699e-01 1.079376e+00 1.125336e+00 1.152062e+00 1.004952e+00 8.518199e-01 2.159355e-01 2.311153e-02 4.763936e-02 1.085158e-01 1.092903e-01 1.485415e-01 1.410666e-01 1.664332e-01 1.444177e-01 2.238066e-01 2.050106e-01 1.936702e-01 1.494176e-01 1.385757e-02
<GCONST> 7.905071e+01
<STATE> 4
<MEAN> 39
 -9.311917e-01 2.969888e+00 -1.130511e+00 8.290977e-01 -4.445065e+00 1.040069e+00 3.534617e+00 -4.368604e-01 -2.881938e+00 -2.334940e-01 2.286508e+00 1.495292e+00 5.831957e+01 -4.775198e-01 -2.088034e-02 8.923925e-02 -8.090378e-02 3.572188e-01 -2.145714e-02 1.823741e-03 2.043084e-01 3.497110e-01 2.497905e-02 1.072056e-01 -6.747118e-02 -6.989162e-01 1.385471e-03 -3.152913e-02 -4.957306e-02 -3.482049e-02 -5.330477e-02 -4.813928e-02 -8.885995e-02 -2.777520e-02 7.155591e-03 1.410844e-02 1.854163e-02 -2.790476e-03 4.745371e-02
<VARIANCE> 39
 1.036477e+01 7.621712e+00 1.068172e+01 1.734148e+01 2.344699e+01 3.294410e+01 2.545894e+01 2.268077e+01 3.255260e+01 3.212416e+01 2.487766e+01 1.897980e+01 2.667476e+01 2.087103e-01 3.624596e-01 7.642401e-01 9.845544e-01 1.568794e+00 1.923625e+00 2.033466e+00 1.922671e+00 2.120442e+00 2.428370e+00 1.969477e+00 1.359964e+00 1.311979e-01 3.570792e-02 7.011780e-02 1.296389e-01 1.632083e-01 2.838311e-01 3.673308e-01 3.641690e-01 3.754408e-01 3.924731e-01 4.618536e-01 3.940136e-01 2.578089e-01 1.056947e-02
<GCONST> 8.822398e+01
<TRANSP> 5
 0.000000e+00 1.000000e+00 0.000000e+00 0.000000e+00 0.000000e+00
 0.000000e+00 6.533074e-01 3.466926e-01 0.000000e+00 0.000000e+00
 0.000000e+00 0.000000e+00 8.659446e-01 1.340554e-01 0.000000e+00
 0.000000e+00 0.000000e+00 0.000000e+00 9.070961e-01 9.290389e-02
 0.000000e+00 0.000000e+00 0.000000e+00 0.000000e+00 0.000000e+00
<ENDHMM>
~h "p"
<BEGINHMM>
<NUMSTATES> 5
<STATE> 2
<MEAN> 39
 -7.498796e+00 -8.687098e-02 -2.458867e+00 1.680916e+00 9.467870e-01 -3.999252e+00 -6.966878e-01 1.492616e+00 5.570941e-01 8.234226e-01 1.422819e+00 -2.151994e+00 5.535649e+01 1.449020e+00 -6.007570e-02 -6.169676e-01 -1.312173e+00 -1.273551e+00 -1.079424e+00 -6.216159e-01 7.039562e-02 2.540912e-04 -9.160553e-03 1.704821e+00 -1.080856e+00 1.535500e+00 5.063916e-01 -2.721980e-01 -5.333163e-01 -7.632884e-01 -2.598251e-02 -2.920539e-01 1.395033e-01 -7.481659e-02 -6.078482e-02 3.030944e-01 4.620544e-01 -5.583302e-01 8.198342e-01
<VARIANCE> 39
 2.173779e+01 1.129427e+01 2.287717e+01 2.367777e+01 1.427420e+01 7.242063e+01 3.723735e+01 3.121988e+01 2.615996e+01 2.802333e+01 4.497620e+01 2.030307e+01 6.478015e+01 3.759552e+00 1.625600e+00 4.208383e+00 4.433846e+00 3.065488e+00 4.679029e+00 3.242622e+00 3.897976e+00 2.913284e+00 3.835132e+00 4.975299e+00 4.415151e+00 3.668229e+00 5.045801e-01 2.760436e-01 4.635437e-01 4.559615e-01 4.579622e-01 7.931641e-01 7.501583e-01 5.941805e-01 4.946678e-01 6.202465e-01 6.969224e-01 5.941299e-01 3.669903e-01
<GCONST> 1.233873e+02
<STATE> 3
<MEAN> 39
 1.102966e+00 -1.402530e+00 -8.907415e+00 -7.698460e+00 -2.506158e+00 -1.056849e+01 -2.239337e+00 9.645469e-01 9.323366e-01 5.339453e+00 8.860686e+00 -8.998900e+00 6.555889e+01 1.923493e+00 -1.755460e+00 -1.464507e+00 -2.433403e+00 -1.015147e-01 -1.545229e+00 1.478751e+00 1.090955e-01 -4.084897e-02 7.637770e-01 2.064756e+00 -3.213293e+00 3.136428e+00 -8.504388e-01 -3.049422e-01 2.711038e-01 3.692560e-01 8.144792e-01 5.063491e-01 5.995851e-01 8.261894e-02 -3.923871e-02 -2.194778e-01 -7.305195e-01 1.066085e-01 -2.161802e-01
<VARIANCE> 39
 1.925286e+01 1.948124e+01 4.429601e+01 3.979631e+01 1.925865e+01 8.818604e+01 7.228127e+01 7.982854e+01 5.076521e+01 4.428185e+01 6.799911e+01 4.967162e+01 3.606704e+01 3.916180e+00 1.710922e+00 4.445252e+00 4.754938e+00 3.230675e+00 7.698706e+00 5.586910e+00 3.949110e+00 3.274635e+00 5.470995e+00 4.380629e+00 5.340587e+00 4.706416e+00 3.388508e-01 4.146121e-01 7.146919e-01 5.700275e-01 4.228250e-01 7.951116e-01 7.887561e-01 7.207645e-01 5.966724e-01 8.781435e-01 8.636943e-01 8.710422e-01 4.068539e-01
<GCONST> 1.331072e+02
<STATE> 4
<MEAN> 39
 1.582530e+00 -4.146063e+00 -7.474278e+00 -5.490427e+00 -1.052985e-01 -1.269746e+01 -2.251146e+00 1.549052e+00 4.053840e-01 5.766788e+00 1.216828e+01 -1.432293e+01 7.028718e+01 -1.834790e-01 -1.014749e-01 2.430773e-01 -8.201311e-03 4.403598e-01 9.613732e-01 9.543608e-01 -2.855789e-01 -2.352931e-01 4.510528e-03 -5.312490e-01 1.812792e-02 -1.824930e-01 -4.412678e-01 3.550041e-01 1.225257e-01 2.250377e-01 1.262503e-01 2.834696e-01 -2.174699e-01 -1.124627e-01 1.022437e-01 -2.249402e-02 -4.512905e-01 5.983372e-01 -4.507656e-01
<VARIANCE> 39
 9.984218e+00 1.214915e+01 2.296942e+01 3.511718e+01 1.912563e+01 6.606743e+01 5.932738e+01 4.752399e+01 4.568715e+01 4.786036e+01 5.888028e+01 4.084179e+01 3.150031e+01 9.837608e-01 1.878700e+00 1.087113e+00 1.360379e+00 1.486452e+00 2.087249e+00 2.902250e+00 2.472832e+00 2.441853e+00 1.865902e+00 2.531867e+00 4.161412e+00 2.690171e+00 2.317217e-01 2.863071e-01 2.820915e-01 3.124037e-01 2.682170e-01 6.306569e-01 4.668094e-01 4.331464e-01 5.210266e-01 6.073114e-01 7.009923e-01 6.977993e-01 3.788080e-01
<GCONST> 1.147953e+02
<TRANSP> 5
 0.000000e+00 1.000000e+00 0.000000e+00 0.000000e+00 0.000000e+00
 0.000000e+00 5.104733e-01 4.895267e-01 0.000000e+00 0.000000e+00
 0.000000e+00 0.000000e+00 4.450761e-01 5.549238e-01 0.000000e+00
 0.000000e+00 0.000000e+00 0.000000e+00 6.511527e-01 3.488474e-01
 0.000000e+00 0.000000e+00 0.000000e+00 0.000000e+00 0.000000e+00
<ENDHMM>
~h "r"
<BEGINHMM>
<NUMSTATES> 5
<STATE> 2
<MEAN> 39
 -3.694216e+00 -1.537494e+00 1.273626e+00 3.031629e+00 -5.556171e+00 -1.250616e+01 -3.685488e+00 4.836075e+00 1.662835e+00 2.015494e+00 1.677441e+00 -4.341709e+00 6.608431e+01 -8.614058e-02 1.743796e-01 4.282132e-01 2.842565e-01 -3.664869e-01 2.195071e-01 -1.860873e-01 -4.115912e-03 -2.761929e-01 -6.583129e-02 -2.253942e-01 8.559663e-01 -5.136341e-01 -4.543825e-02 1.215300e-01 -6.730925e-02 -4.869718e-02 2.735511e-01 3.577420e-01 2.410329e-01 -2.277935e-01 -7.836828e-02 -1.372235e-01 -3.153885e-02 -1.131681e-01 -1.323212e-01
<VARIANCE> 39
 1.914058e+01 2.676946e+01 6.834407e+01 2.401870e+01 6.294759e+01 8.210257e+01 2.272182e+01 4.668061e+01 7.464132e+01 3.649513e+01 3.304542e+01 4.335297e+01 1.229423e+02 5.310855e-01 7.143034e-01 1.184264e+00 1.955862e+00 2.206307e+00 2.235016e+00 2.464575e+00 2.560289e+00 2.099832e+00 1.954215e+00 1.443413e+00 3.526340e+00 5.100733e-01 5.988482e-02 1.604152e-01 1.631325e-01 2.288765e-01 3.375303e-01 3.691332e-01 2.748650e-01 4.845465e-01 3.951592e-01 2.881092e-01 3.761022e-01 5.329107e-01 5.814271e-02
<GCONST> 1.078429e+02
<STATE> 3
<MEAN> 39
 -5.322750e+00 -9.029406e-01 2.994819e+00 4.261084e+00 -1.553096e+00 -9.819415e+00 -3.361518e+00 3.775041e+00 -3.832679e-01 3.749176e-01 -4.408321e-01 -2.257660e+00 6.286432e+01 -2.471228e-01 4.009546e-01 -1.529149e-02 -1.149362e-01 3.968135e-01 8.142484e-01 4.783196e-01 -1.273929e-01 -2.785666e-01 -1.594756e-01 -2.697870e-01 1.333429e-01 -5.590244e-01 -1.381687e-02 -2.483397e-02 -7.301448e-02 -3.248857e-02 5.684031e-02 1.156193e-01 1.507979e-01 8.813558e-03 5.327415e-02 3.814027e-02 6.711818e-02 -1.533249e-01 1.056873e-02
<VARIANCE> 39
 1.949956e+01 2.586575e+01 6.549242e+01 3.553517e+01 7.607165e+01 5.946861e+01 3.633257e+01 3.239046e+01 5.455937e+01 3.380283e+01 2.895182e+01 3.414367e+01 7.768618e+01 5.682791e-01 9.601936e-01 9.017186e-01 1.717396e+00 1.990898e+00 2.259676e+00 1.878794e+00 1.835639e+00 2.032238e+00 1.611610e+00 1.698409e+00 2.245673e+00 4.818577e-01 8.970550e-02 1.727555e-01 1.630637e-01 4.081295e-01 4.453525e-01 4.053185e-01 4.084093e-01 3.689790e-01 4.077517e-01 3.434783e-01 3.346413e-01 5.718644e-01 4.535299e-02
<GCONST> 1.070839e+02
<STATE> 4
<MEAN> 39
 -7.140629e+00 1.076223e+00 1.581226e+00 2.763469e+00 -9.824803e-01 -4.413960e+00 -3.420663e-01 1.979014e+00 -5.160762e-01 3.902538e-01 1.533801e+00 -1.144543e+00 5.694285e+01 -2.196852e-01 5.511026e-02 -1.768326e-01 -1.756197e-01 -3.923503e-02 4.785953e-01 2.179934e-01 -1.551693e-01 -9.966682e-03 -1.636647e-02 1.407077e-01 6.129525e-02 -3.093091e-01 -2.366963e-02 -1.140798e-02 2.027107e-02 -5.614233e-02 -1.419483e-02 -1.678826e-01 -9.905659e-02 3.102847e-02 2.240272e-02 5.058797e-02 6.307807e-02 -1.826983e-02 8.456498e-02
<VARIANCE> 39
 1.244555e+01 1.480595e+01 4.712850e+01 2.282170e+01 4.971938e+01 4.373836e+01 3.373422e+01 2.433576e+01 4.736694e+01 2.573679e+01 2.518206e+01 1.968652e+01 5.493016e+01 2.574114e-01 7.756209e-01 7.712411e-01 1.175877e+00 2.050183e+00 1.835638e+00 1.835859e+00 1.752116e+00 1.900728e+00 1.472735e+00 1.839964e+00 1.911137e+00 3.023288e-01 7.683179e-02 1.354618e-01 1.448664e-01 2.975256e-01 3.931998e-01 3.736321e-01 3.671412e-01 4.283035e-01 4.188430e-01 3.258371e-01 3.656985e-01 3.182812e-01 3.293284e-02
<GCONST> 9.842962e+01
<TRANSP> 5
 0.000000e+00 1.000000e+00 0.000000e+00 0.000000e+00 0.000000e+00
 0.000000e+00 3.718317e-01 6.281682e-01 0.000000e+00 0.000000e+00
 0.000000e+00 0.000000e+00 4.859035e-01 5.140966e-01 0.000000e+00
 0.000000e+00 0.000000e+00 0.000000e+00 5.929368e-01 4.070632e-01
 0.000000e+00 0.000000e+00 0.000000e+00 0.000000e+00 0.000000e+00
<ENDHMM>
~h "s"
<BEGINHMM>
<NUMSTATES> 5
<STATE> 2
<MEAN> 39
 -1.019277e+01 7.023563e-01 -4.868372e+00 -2.193744e+00 2.880482e+00 -9.693192e+00 5.163424e+00 7.961631e+00 3.169184e+00 3.450520e+00 -1.433552e+00 -3.003413e+00 6.882478e+01 -3.649372e+00 1.557007e+00 -1.196257e-01 -7.154421e-01 -2.639494e-01 8.531624e-01 -9.777415e-01 9.075767e-01 2.544992e-01 -9.781842e-01 8.005958e-01 4.590445e-01 6.988071e-01 -1.474495e-01 1.744922e-01 -1.616488e-01 -1.197798e-01 -2.307007e-02 -3.826486e-01 -1.135407e-02 -1.336717e-01 1.956513e-02 1.513666e-02 -1.146424e-01 -2.931605e-01 6.144844e-02
<VARIANCE> 39
 4.573016e+01 1.804551e+01 5.738760e+01 3.231142e+01 6.673804e+01 4.837233e+01 7.778509e+01 6.031329e+01 4.245297e+01 6.391933e+01 3.708101e+01 3.636515e+01 1.963259e+01 1.539966e+00 1.315871e+00 2.335022e+00 2.024824e+00 1.943932e+00 4.141613e+00 3.570688e+00 3.883229e+00 2.834849e+00 3.895514e+00 2.595015e+00 2.942219e+00 9.995024e-01 7.225588e-01 2.101313e-01 3.680377e-01 3.249617e-01 4.144880e-01 5.263244e-01 6.716176e-01 7.618758e-01 5.971650e-01 7.355877e-01 5.045223e-01 5.584953e-01 2.961944e-01
<GCONST> 1.224431e+02
<STATE> 3
<MEAN> 39
 -2.273103e+01 6.963722e+00 -2.365447e+00 -4.370912e+00 8.350698e-01 -1.238725e+01 1.143011e+00 1.039969e+01 2.434167e+00 1.928823e+00 1.229592e+00 -1.747762e+00 6.939870e+01 -6.427920e-01 1.465366e-01 -1.878314e-01 -6.724471e-02 3.614307e-01 -1.841940e-01 2.970408e-01 -8.604817e-02 -1.451141e-01 2.501051e-01 -2.125175e-01 -1.019895e-02 -3.697214e-01 5.889434e-01 -2.815287e-01 1.097720e-01 1.995199e-01 -3.219591e-02 -6.760198e-02 1.434665e-02 -1.425378e-01 -9.967916e-02 4.245681e-02 -5.204294e-02 6.726849e-03 -1.498813e-01
<VARIANCE> 39
 1.320547e+01 2.028485e+01 6.919144e+01 6.274031e+01 4.973708e+01 4.298664e+01 4.114265e+01 4.636898e+01 4.948677e+01 3.528844e+01 3.432198e+01 3.428229e+01 1.580563e+01 1.444058e+00 1.683968e+00 1.027877e+00 1.330942e+00 1.735269e+00 1.995926e+00 2.357424e+00 2.370534e+00 2.462409e+00 2.164479e+00 1.707894e+00 1.377376e+00 2.239697e-01 2.684523e-01 2.131690e-01 2.596488e-01 3.134955e-01 3.867965e-01 3.957767e-01 5.521163e-01 4.860940e-01 4.281607e-01 4.790479e-01 3.747788e-01 3.280447e-01 6.774294e-02
<GCONST> 1.084249e+02
<STATE> 4
<MEAN> 39
 -1.760718e+01 4.634797e+00 -7.288950e+00 -2.886016e+00 5.297971e+00 -8.897495e+00 5.419653e+00 4.483781e+00 1.402814e+00 4.524365e+00 -1.560289e+00 -2.434966e+00 6.281470e+01 1.135508e+00 -1.488282e-01 1.015895e-01 2.995795e-01 -2.706471e-01 8.871328e-02 -4.517174e-01 -8.803337e-01 -4.312940e-01 6.571596e-03 1.843031e-01 8.523222e-02 -7.614689e-01 1.703653e-01 -3.689712e-02 5.702439e-02 -4.685945e-03 -1.434458e-01 -1.684144e-01 -1.873460e-01 -8.849186e-03 -8.107113e-02 -7.134627e-02 1.380728e-01 1.636528e-02 2.357213e-01
<VARIANCE> 39
 1.512279e+01 2.101950e+01 7.956097e+01 4.347211e+01 3.682382e+01 3.152762e+01 4.474969e+01 4.458601e+01 3.398690e+01 2.825551e+01 2.328122e+01 2.121961e+01 2.451493e+01 2.348081e+00 7.163441e-01 1.892376e+00 2.537937e+00 2.398560e+00 3.270046e+00 2.552325e+00 2.426149e+00 2.445087e+00 2.290985e+00 1.570659e+00 1.763364e+00 6.996467e-01 2.975166e-01 1.534677e-01 2.803953e-01 3.896909e-01 4.162574e-01 4.858731e-01 5.327852e-01 5.897120e-01 4.352387e-01 4.436052e-01 4.184881e-01 3.415481e-01 1.686321e-01
<GCONST> 1.114423e+02
<TRANSP> 5
 0.000000e+00 1.000000e+00 0.000000e+00 0.000000e+00 0.000000e+00
 0.000000e+00 7.021517e-01 2.978483e-01 0.000000e+00 0.000000e+00
 0.000000e+00 0.000000e+00 8.532797e-01 1.467203e-01 0.000000e+00
 0.000000e+00 0.000000e+00 0.000000e+00 8.439641e-01 1.560359e-01
 0.000000e+00 0.000000e+00 0.000000e+00 0.000000e+00 0.000000e+00
<ENDHMM>
~h "t"
<BEGINHMM>
<NUMSTATES> 5
<STATE> 2
<MEAN> 39
 -1.278682e+01 -8.502663e-01 -5.693825e+00 1.907474e-01 1.226919e-01 -5.799391e+00 -7.748567e-03 1.616806e+00 1.348069e+00 4.905784e-01 -1.931519e+00 2.128552e+00 5.874642e+01 1.226969e+00 -1.069342e+00 1.432785e+00 1.121790e+00 -2.457121e+00 -3.393550e+00 -3.758900e+00 3.759511e-01 4.838240e-01 -8.941027e-01 -6.350672e-01 6.162636e-01 2.954961e+00 8.119067e-01 4.107052e-01 -6.046116e-02 -2.650354e-02 1.125046e-01 -5.552691e-01 -3.558883e-01 -4.571470e-01 4.180116e-02 4.313892e-01 2.996451e-01 -7.719026e-01 5.306537e-01
<VARIANCE> 39
 1.263102e+01 4.374450e+01 5.646827e+01 7.976617e+01 8.623194e+01 6.181288e+01 6.155721e+01 4.066453e+01 3.447142e+01 5.784216e+01 2.737708e+01 2.962198e+01 4.952704e+01 2.416382e+00 2.437672e+00 1.988955e+00 5.379967e+00 4.490427e+00 4.344995e+00 4.500702e+00 6.426110e+00 3.602192e+00 3.688072e+00 3.332563e+00 4.884343e+00 1.422117e+00 1.862040e-01 6.757461e-01 4.663970e-01 7.139558e-01 1.201005e+00 9.759426e-01 1.349598e+00 1.021897e+00 7.091995e-01 7.319809e-01 8.039281e-01 6.578510e-01 4.073505e-01
<GCONST> 1.323344e+02
<STATE> 3
<MEAN> 39
 -4.357434e+00 1.549743e+00 -2.133102e+00 4.235540e+00 -4.610493e+00 -1.707727e+01 -1.174656e+01 -1.351906e+00 3.002889e+00 7.586270e-01 -2.033806e+00 -1.638157e+00 6.722067e+01 3.266987e+00 7.937389e-01 -3.650217e-01 -4.484648e-01 6.479122e-01 -1.750360e+00 -1.207068e+00 -2.076581e+00 -7.656136e-01 1.418074e+00 1.706746e+00 -2.687672e+00 2.114951e+00 -2.192726e-01 -1.079351e-02 -6.544345e-01 -7.743599e-01 9.663957e-01 1.539963e+00 1.839693e+00 -4.582825e-01 -7.310714e-01 2.393294e-01 6.549855e-01 -2.134894e-01 -7.608001e-01
<VARIANCE> 39
 1.619682e+01 1.449491e+01 6.042121e+01 1.065721e+02 6.040997e+01 5.662956e+01 6.360226e+01 8.084429e+01 4.067610e+01 9.478053e+01 3.908846e+01 4.889940e+01 2.227958e+01 7.990115e-01 5.701465e+00 1.771796e+00 3.190074e+00 4.177509e+00 4.245009e+00 5.727570e+00 9.185845e+00 4.706055e+00 3.919492e+00 4.769120e+00 3.157372e+00 1.363402e+00 3.437341e-01 3.605475e-01 3.652220e-01 7.249418e-01 7.724409e-01 5.579482e-01 4.629807e-01 7.921875e-01 4.716964e-01 6.218038e-01 5.354294e-01 8.808945e-01 1.685335e-01
<GCONST> 1.285085e+02
<STATE> 4
<MEAN> 39
 -6.475638e-01 -5.681341e-01 -5.930650e+00 -1.188133e+00 -9.896824e-02 -1.635834e+01 -6.889296e+00 -2.483426e+00 3.625838e-01 5.736982e+00 2.541407e+00 -7.438980e+00 7.031290e+01 1.219063e+00 -5.643947e-01 -9.755248e-01 -1.253629e+00 1.166610e+00 1.609411e+00 2.465698e+00 -1.641946e+00 -2.032166e+00 4.213379e-01 2.022776e+00 -1.380614e+00 7.532555e-01 -7.903574e-01 5.394968e-02 -1.187618e-01 -9.543557e-02 4.574938e-02 1.025842e+00 8.884709e-01 3.674762e-03 -4.162090e-01 -6.360872e-01 -2.612291e-01 9.209343e-01 -6.299857e-01
<VARIANCE> 39
 7.975476e+00 1.478795e+01 3.506018e+01 7.546806e+01 2.887772e+01 4.996668e+01 7.012099e+01 1.263802e+02 4.882054e+01 7.476578e+01 4.863247e+01 6.044459e+01 2.535747e+01 5.734044e-01 1.709914e+00 1.170509e+00 1.547729e+00 1.706950e+00 1.698294e+00 1.042918e+00 4.808817e+00 2.332057e+00 1.821815e+00 1.433551e+00 3.915089e+00 4.011698e-01 7.225917e-02 3.128603e-01 2.002021e-01 2.395085e-01 3.402553e-01 3.157790e-01 4.544575e-01 7.525376e-01 4.033395e-01 4.363139e-01 6.864628e-01 3.676942e-01 5.763713e-02
<GCONST> 1.095247e+02
<TRANSP> 5
 0.000000e+00 1.000000e+00 0.000000e+00 0.000000e+00 0.000000e+00
 0.000000e+00 6.698169e-01 3.301831e-01 0.000000e+00 0.000000e+00
 0.000000e+00 0.000000e+00 5.285150e-01 4.714849e-01 0.000000e+00
 0.000000e+00 0.000000e+00 0.000000e+00 3.408249e-01 6.591751e-01
 0.000000e+00 0.000000e+00 0.000000e+00 0.000000e+00 0.000000e+00
<ENDHMM>
~h "u"
<BEGINHMM>
<NUMSTATES> 5
<STATE> 2
<MEAN> 39
 -1.602816e+00 -3.271544e+00 3.923831e+00 7.727532e+00 -9.876827e+00 -2.506625e+01 -6.643734e+00 3.882886e+00 1.037996e+00 -5.992769e+00 9.212798e+00 1.429969e+00 7.302515e+01 -1.303727e-01 8.315722e-01 -7.910537e-01 1.933644e-01 1.144111e+00 -7.180074e-01 6.096729e-01 -1.149247e+00 9.180228e-02 2.203462e-01 -2.777794e-01 1.957623e-01 -5.542647e-02 2.020723e-01 6.125614e-02 8.908780e-02 8.919371e-02 1.136188e-01 5.207251e-01 -3.216797e-01 -3.601488e-01 -2.294279e-01 4.028697e-01 -3.402063e-01 -1.342889e-01 -3.572636e-01
<VARIANCE> 39
 6.073763e+00 5.734991e+00 8.830919e+00 3.338089e+01 2.684360e+01 4.186604e+01 3.412315e+01 8.927086e+01 4.399075e+01 5.211688e+01 1.539998e+01 4.226921e+01 1.135239e+01 3.812061e-01 3.013292e-01 5.488604e-01 9.429815e-01 1.095276e+00 1.790257e+00 2.451314e+00 1.703726e+00 1.436029e+00 2.001794e+00 1.295130e+00 1.199076e+00 4.123028e-01 4.210222e-02 6.068543e-02 9.173226e-02 2.261398e-01 2.136486e-01 2.610611e-01 3.324067e-01 2.715886e-01 3.366779e-01 3.292843e-01 2.431255e-01 2.599886e-01 2.885238e-02
<GCONST> 8.885300e+01
<STATE> 3
<MEAN> 39
 7.253360e-01 2.410344e+00 -9.230078e-01 6.671554e+00 -2.591017e+00 -2.396718e+01 -1.934026e+00 -1.483550e+00 6.447684e-01 5.672098e+00 1.145642e+00 -6.059422e-02 7.110365e+01 9.820236e-02 1.888149e-01 -1.367061e-01 -2.355639e-01 2.961048e-01 6.791140e-01 -3.468978e-02 -4.738398e-01 -2.340072e-01 3.768320e-01 -1.547145e-01 -7.344202e-02 -2.500250e-01 -1.278759e-02 -7.178760e-02 8.407907e-02 -5.068379e-02 -1.074592e-01 1.283028e-01 -6.456955e-03 1.019626e-01 -4.243819e-02 -1.489842e-01 7.206490e-02 6.046613e-02 -1.387518e-02
<VARIANCE> 39
 7.905600e+00 1.715046e+01 2.181640e+01 2.673280e+01 4.337982e+01 4.013515e+01 4.262093e+01 5.541700e+01 7.403632e+01 5.760367e+01 2.905227e+01 4.132701e+01 1.795362e+01 4.562774e-01 1.241892e+00 2.153682e+00 2.110270e+00 2.262008e+00 4.211535e+00 2.805152e+00 3.863930e+00 3.571928e+00 4.131214e+00 2.172349e+00 2.194118e+00 8.309419e-01 5.835762e-02 1.590243e-01 3.765601e-01 3.560940e-01 3.248991e-01 6.450018e-01 5.160034e-01 4.964436e-01 4.823014e-01 7.346545e-01 4.299334e-01 3.958589e-01 8.361091e-02
<GCONST> 1.112690e+02
<STATE> 4
<MEAN> 39
 1.557750e+00 -3.217596e-01 4.252799e-01 5.763731e+00 -3.319746e+00 -1.468010e+01 -8.610849e+00 -1.094370e+01 -3.109649e+00 -2.407096e+00 5.391023e+00 1.939288e+00 6.771072e+01 -1.045251e-02 2.511805e-02 -1.057242e-01 -3.924444e-02 -3.766195e-02 2.266068e-01 1.500992e-01 1.827562e-01 1.419916e-01 -3.833159e-02 -2.453098e-01 -1.690240e-03 -3.483870e-02 -2.337127e-02 -4.164597e-03 2.729777e-02 3.153921e-02 -4.525018e-02 -2.787993e-02 1.645444e-02 9.420206e-02 5.790379e-02 -1.648277e-02 -2.617810e-02 8.136178e-03 7.027953e-03
<VARIANCE> 39
 8.372248e+00 1.537922e+01 2.490101e+01 2.744946e+01 2.260476e+01 3.026546e+01 3.543834e+01 4.440427e+01 7.071414e+01 3.245821e+01 3.532094e+01 3.039484e+01 1.004099e+01 4.696656e-01 8.880706e-01 2.241578e+00 2.036958e+00 1.832202e+00 2.240186e+00 2.878845e+00 2.726762e+00 3.119760e+00 2.499873e+00 2.385807e+00 2.542594e+00 6.243351e-01 6.119389e-02 1.300996e-01 3.285785e-01 3.009110e-01 3.305593e-01 3.317074e-01 5.530902e-01 5.542694e-01 4.133645e-01 5.226868e-01 4.622151e-01 4.703248e-01 8.391175e-02
<GCONST> 1.054020e+02
<TRANSP> 5
 0.000000e+00 1.000000e+00 0.000000e+00 0.000000e+00 0.000000e+00
 0.000000e+00 8.196374e-01 1.803627e-01 0.000000e+00 0.000000e+00
 0.000000e+00 0.000000e+00 8.962534e-01 1.037466e-01 0.000000e+00
 0.000000e+00 0.000000e+00 0.000000e+00 9.464934e-01 5.350661e-02
 0.000000e+00 0.000000e+00 0.000000e+00 0.000000e+00 0.000000e+00
<ENDHMM>
~h "w"
<BEGINHMM>
<NUMSTATES> 5
<STATE> 2
<MEAN> 39
 1.102412e+00 1.003186e+01 3.412785e+00 4.123737e-01 -5.876193e+00 -5.413020e+00 -1.783674e+00 -4.409496e+00 -4.979068e+00 -1.975699e+00 2.357401e-02 -1.785013e+00 5.651038e+01 1.547759e+00 7.920293e-01 1.092582e-02 -6.405230e-01 -1.120223e+00 -6.009743e-01 2.279139e-01 -5.583376e-01 -1.314183e+00 -2.938652e-01 5.570393e-01 -8.295627e-02 9.853789e-01 -2.404381e-01 -4.404848e-01 -3.778233e-01 -8.160722e-02 1.325369e-01 2.077290e-01 2.872431e-01 3.602650e-02 -4.337622e-03 1.391349e-01 3.157816e-01 1.024451e-01 -1.641104e-02
<VARIANCE> 39
 1.260942e+01 1.035064e+01 8.425122e+00 1.720882e+01 2.380147e+01 2.398317e+01 2.090552e+01 2.586525e+01 3.458799e+01 2.291241e+01 1.164174e+01 1.248063e+01 1.769723e+01 2.007914e+00 1.860863e+00 1.479939e+00 1.603438e+00 2.915406e+00 3.673586e+00 1.977732e+00 2.178712e+00 2.337024e+00 1.510630e+00 1.493831e+00 1.593554e+00 6.841286e-01 1.915168e-01 2.293265e-01 2.188228e-01 2.969169e-01 4.156602e-01 6.689215e-01 3.647857e-01 4.665957e-01 3.421725e-01 2.527176e-01 3.228173e-01 2.579053e-01 9.911925e-02
<GCONST> 1.003009e+02
<STATE> 3
<MEAN> 39
 5.576588e+00 7.122139e+00 -1.609992e+00 -3.405668e+00 -8.634810e+00 -5.580151e+00 2.086532e+00 -9.124069e+00 -1.189436e+01 -1.640772e+00 9.225120e+00 9.681674e-02 6.215655e+01 3.296876e-01 -1.601622e+00 -1.519409e+00 -7.454718e-01 2.276683e-01 -3.942563e-01 1.614886e-01 -1.071379e+00 6.696394e-01 8.338500e-01 3.125563e+00 -2.969569e-01 1.719375e+00 -3.704119e-01 -3.447390e-01 -5.622627e-02 2.351877e-01 3.385248e-01 -5.831920e-02 -2.599601e-01 2.205102e-01 8.969107e-01 1.885882e-01 -4.278355e-02 -5.402765e-01 1.417646e-01
<VARIANCE> 39
 6.337688e+00 1.325588e+01 1.305679e+01 2.220818e+01 2.106632e+01 5.211187e+01 2.755540e+01 6.563381e+01 7.277788e+01 2.979489e+01 5.207903e+01 1.961223e+01 1.975960e+01 7.728729e-01 1.232060e+00 1.189703e+00 1.274438e+00 1.274372e+00 3.011100e+00 3.029393e+00 3.517856e+00 6.352574e+00 2.701093e+00 3.063050e+00 3.126513e+00 6.291874e-01 1.111407e-01 1.586902e-01 1.872339e-01 3.155172e-01 2.707701e-01 5.217490e-01 3.683707e-01 5.766391e-01 5.869474e-01 4.308204e-01 9.467685e-01 4.204317e-01 1.037417e-01
<GCONST> 1.076555e+02
<STATE> 4
<MEAN> 39
 1.669964e+00 -3.082958e+00 -7.592351e+00 -5.394912e-01 -6.579035e+00 -1.038629e+01 -1.457670e+00 -4.539719e+00 3.950650e+00 3.135641e+00 1.315752e+01 -1.063821e+01 7.197831e+01 -6.922640e-01 -9.684557e-01 1.051467e-02 1.398830e+00 -1.438783e-01 -9.510848e-01 -7.031667e-01 1.898293e+00 1.574603e+00 -2.096599e-01 -1.387566e+00 -9.963169e-01 9.196092e-01 3.689288e-02 2.589629e-01 3.680730e-01 1.684701e-01 -1.873742e-01 -7.759199e-02 -7.201097e-03 1.883766e-01 -4.506323e-01 -3.289638e-01 -3.435411e-01 5.352115e-01 -2.635550e-01
<VARIANCE> 39
 1.098705e+01 9.399462e+00 1.026071e+01 3.477985e+01 1.761104e+01 5.738111e+01 3.389635e+01 1.140405e+02 7.936734e+01 4.532788e+01 4.704505e+01 4.423207e+01 2.124141e+01 3.248648e-01 8.264386e-01 1.161811e+00 1.032192e+00 1.038396e+00 1.986211e+00 1.369380e+00 2.338948e+00 3.756697e+00 2.514030e+00 2.341403e+00 3.971843e+00 4.974810e-01 6.530006e-02 7.631673e-02 9.895752e-02 2.053430e-01 1.428480e-01 3.650714e-01 3.055564e-01 6.050324e-01 4.377655e-01 3.399232e-01 8.869352e-01 4.227749e-01 2.027385e-02
<GCONST> 1.001625e+02
<TRANSP> 5
 0.000000e+00 1.000000e+00 0.000000e+00 0.000000e+00 0.000000e+00
 0.000000e+00 8.360286e-01 1.639714e-01 0.000000e+00 0.000000e+00
 0.000000e+00 0.000000e+00 7.809349e-01 2.190650e-01 0.000000e+00
 0.000000e+00 0.000000e+00 0.000000e+00 8.694062e-01 1.305938e-01
 0.000000e+00 0.000000e+00 0.000000e+00 0.000000e+00 0.000000e+00
<ENDHMM>
~h "y"
<BEGINHMM>
<NUMSTATES> 5
<STATE> 2
<MEAN> 39
 -2.797415e+00 1.029547e+01 1.253085e+01 1.343534e+00 -6.833367e+00 -5.183194e+00 -9.730580e+00 2.809161e+00 -9.520403e+00 -2.758057e+00 2.124681e+00 -3.756200e+00 6.026203e+01 3.824338e-01 2.980201e-01 2.396953e+00 -6.037055e-01 -2.192338e+00 -1.341267e+00 -5.240163e-01 8.965881e-01 -1.798203e+00 -5.586742e-01 1.155529e+00 -4.207036e-01 1.522724e+00 -3.936197e-01 -5.794241e-01 -1.475061e-01 -3.607371e-02 -9.028345e-02 -4.858538e-02 5.252277e-01 1.710649e-01 1.113781e-01 1.003264e-01 1.536514e-01 2.148482e-01 -3.664337e-03
<VARIANCE> 39
 9.669144e+00 9.629737e+00 4.521318e+01 4.294452e+01 7.743682e+01 4.040471e+01 3.635204e+01 4.917289e+01 4.274162e+01 2.614622e+01 3.248909e+01 2.385681e+01 2.024827e+01 2.097246e+00 3.163089e+00 1.892521e+00 3.549293e+00 5.282646e+00 5.140034e+00 4.316341e+00 2.820307e+00 3.368037e+00 2.852069e+00 2.338212e+00 1.863552e+00 7.531132e-01 2.320482e-01 2.897927e-01 3.282163e-01 7.093042e-01 7.629273e-01 1.024253e+00 5.532625e-01 5.672625e-01 6.139542e-01 5.733562e-01 4.123688e-01 2.871141e-01 9.039615e-02
<GCONST> 1.179037e+02
<STATE> 3
<MEAN> 39
 -5.654226e+00 2.733697e+00 1.885813e+01 2.184578e+00 -2.104824e+01 -1.636977e+01 -4.891700e+00 9.950850e+00 -1.359032e+01 -3.703285e+00 1.011071e+01 -1.350705e+00 7.090112e+01 -4.983091e-02 -1.642321e+00 -1.223620e+00 -1.524661e-01 -5.136213e-01 -2.494195e+00 9.021420e-01 8.180671e-01 1.235003e+00 7.836584e-01 1.788346e-01 3.791550e-01 1.562828e+00 1.745133e-01 6.985907e-03 -6.832485e-01 -6.362086e-02 6.769984e-01 5.169670e-02 -2.387644e-02 2.636140e-02 5.671437e-01 1.430036e-01 -3.245391e-01 -1.660452e-01 -1.091877e-01
<VARIANCE> 39
 7.162467e+00 1.889914e+01 2.605796e+01 6.084536e+01 6.729390e+01 5.828538e+01 3.336478e+01 5.146806e+01 6.055636e+01 4.901572e+01 2.508514e+01 2.413661e+01 2.712120e+01 8.121623e-01 7.465637e-01 3.411334e+00 8.118015e-01 2.975861e+00 2.058651e+00 1.638009e+00 1.620665e+00 2.903374e+00 2.081827e+00 2.281368e+00 1.094281e+00 5.749584e-01 9.343428e-02 1.482658e-01 2.571757e-01 2.324508e-01 3.527445e-01 5.339293e-01 2.657050e-01 3.533980e-01 2.810346e-01 3.590902e-01 4.209570e-01 2.616097e-01 7.786684e-02
<GCONST> 1.046628e+02
<STATE> 4
<MEAN> 39
 -3.449587e+00 -5.036987e+00 5.328861e+00 -2.342363e+00 -1.175611e+01 -2.716416e+01 1.570633e+00 1.496688e+01 -1.372299e+00 2.892306e+00 3.510221e+00 -4.408042e+00 7.715110e+01 3.031616e-01 -3.080732e-01 -1.482295e+00 -3.368578e-01 1.760435e+00 3.284814e-02 6.477979e-01 -1.975802e-01 1.062606e+00 5.662393e-01 -1.193177e+00 -8.255915e-01 1.656946e-01 -3.892563e-02 2.615212e-01 2.890201e-01 7.722264e-02 -3.697400e-02 4.041163e-01 -9.931576e-02 -2.812239e-01 -4.040541e-01 -6.574832e-02 1.102234e-01 2.599157e-02 -2.040143e-01
<VARIANCE> 39
 1.054527e+01 7.745947e+00 4.373017e+01 4.963581e+01 8.551344e+01 5.595076e+01 5.208098e+01 3.934327e+01 1.203897e+02 5.945433e+01 2.589236e+01 2.657443e+01 1.613379e+01 2.199116e-01 6.966090e-01 1.405241e+00 9.191902e-01 1.549126e+00 2.198899e+00 1.776063e+00 1.779095e+00 2.935716e+00 1.146085e+00 1.204028e+00 2.701989e+00 3.041891e-01 4.000192e-02 4.761400e-02 6.758096e-02 1.022679e-01 1.570003e-01 2.736389e-01 2.636951e-01 1.710249e-01 3.025567e-01 2.152794e-01 2.521538e-01 3.395314e-01 1.506342e-02
<GCONST> 9.314162e+01
<TRANSP> 5
 0.000000e+00 1.000000e+00 0.000000e+00 0.000000e+00 0.000000e+00
 0.000000e+00 8.539761e-01 1.460238e-01 0.000000e+00 0.000000e+00
 0.000000e+00 0.000000e+00 8.447975e-01 1.552025e-01 0.000000e+00
 0.000000e+00 0.000000e+00 0.000000e+00 8.621811e-01 1.378189e-01
 0.000000e+00 0.000000e+00 0.000000e+00 0.000000e+00 0.000000e+00
<ENDHMM>
~h "z"
<BEGINHMM>
<NUMSTATES> 5
<STATE> 2
<MEAN> 39
 -7.727704e+00 1.037704e+01 1.823787e+01 5.147899e+00 -1.280304e+01 -1.569715e+01 3.072580e+00 -1.786135e+00 -1.910474e+01 1.873888e+00 1.633519e-01 -3.527492e+00 6.714532e+01 -5.722405e-01 8.268912e-01 -6.130423e-01 -3.860590e-01 1.826056e+00 -1.286416e+00 4.263240e-01 5.552461e-01 8.422518e-03 5.080567e-02 -1.555166e-01 5.373181e-01 -1.218817e-01 -2.711326e-01 1.258201e-01 -2.854565e-02 -2.025751e-01 3.045154e-01 9.715880e-02 -6.331312e-02 3.968827e-02 1.464171e-01 -4.066212e-02 4.243489e-02 -2.064986e-02 3.077482e-02
<VARIANCE> 39
 9.553367e+00 1.221907e+01 1.538355e+01 3.692627e+01 3.895811e+01 3.525428e+01 4.067127e+01 4.684122e+01 3.085782e+01 4.146739e+01 4.445525e+01 3.087356e+01 1.498575e+01 6.252631e-01 5.600323e-01 7.391877e-01 1.398352e+00 2.194616e+00 2.005455e+00 1.802084e+00 1.991377e+00 1.684535e+00 1.338901e+00 2.013469e+00 1.369030e+00 7.501575e-02 7.005139e-02 7.152684e-02 1.118858e-01 2.196438e-01 2.640983e-01 3.980489e-01 2.742750e-01 3.340336e-01 2.857198e-01 2.463166e-01 3.018603e-01 2.652185e-01 1.431670e-02
<GCONST> 9.255293e+01
<STATE> 3
<MEAN> 39
 -1.758559e+01 1.536245e+01 1.053890e+01 2.772262e+00 2.775963e+00 -1.682411e+01 3.471307e+00 3.832332e+00 -1.281401e+01 1.369081e-01 1.371515e+00 -1.446774e+00 6.680364e+01 -8.407794e-01 -3.802637e-01 -9.247190e-01 -3.913442e-01 1.457352e+00 8.549027e-01 -5.730659e-02 5.092465e-01 1.261681e+00 2.704332e-01 -3.586510e-01 -2.592704e-01 -3.114144e-01 2.471925e-01 -2.981224e-01 5.140809e-02 9.060554e-02 -3.085618e-01 1.511681e-01 -4.172580e-02 -5.469085e-02 5.826375e-05 6.434868e-02 -6.282886e-02 -9.111448e-02 -7.597496e-02
<VARIANCE> 39
 2.143679e+01 1.536994e+01 3.180150e+01 3.467995e+01 4.495027e+01 3.578124e+01 2.788056e+01 4.936391e+01 5.647804e+01 3.082523e+01 3.049942e+01 2.274053e+01 1.684813e+01 1.053340e+00 1.602660e+00 1.072837e+00 9.531565e-01 1.855861e+00 2.063041e+00 1.875438e+00 2.311989e+00 2.453202e+00 2.254186e+00 1.612048e+00 2.108019e+00 1.588503e-01 8.083976e-02 1.274454e-01 1.905673e-01 2.232141e-01 2.708852e-01 4.310666e-01 3.547980e-01 4.573271e-01 5.773092e-01 4.459637e-01 3.018523e-01 3.763788e-01 3.231101e-02
<GCONST> 1.017048e+02
<STATE> 4
<MEAN> 39
 -1.487697e+01 6.311237e+00 4.049122e+00 1.728108e+00 6.232470e+00 -8.241766e+00 3.952464e+00 2.636351e+00 -6.307753e+00 3.044174e+00 -1.102114e+00 -2.849604e+00 5.775909e+01 4.645462e-01 -4.978560e-01 -3.234635e-01 -1.675143e-02 -7.113943e-02 6.072233e-01 -5.095440e-02 -3.134713e-01 2.440165e-01 -9.350214e-02 3.429367e-02 1.899886e-01 -7.317412e-01 -2.503492e-03 8.181651e-02 9.735444e-03 1.607062e-02 -1.655720e-02 -1.461981e-03 -2.787522e-02 -3.349570e-02 -3.469455e-02 -6.415137e-02 4.287438e-02 6.176032e-02 3.208394e-02
<VARIANCE> 39
 1.081204e+01 1.424139e+01 2.450281e+01 2.596862e+01 2.014719e+01 3.087998e+01 2.660868e+01 4.092103e+01 3.761583e+01 2.638725e+01 1.957110e+01 2.148237e+01 3.229299e+01 3.220439e-01 5.995418e-01 9.126866e-01 1.390126e+00 1.493933e+00 1.662349e+00 1.886549e+00 2.101628e+00 2.091301e+00 1.890146e+00 1.603555e+00 1.401600e+00 2.069178e-01 5.845553e-02 1.030594e-01 1.877606e-01 2.468984e-01 2.657550e-01 3.192020e-01 3.587520e-01 4.151445e-01 4.018768e-01 3.393538e-01 3.046622e-01 2.936571e-01 2.835147e-02
<GCONST> 9.397756e+01
<TRANSP> 5
 0.000000e+00 1.000000e+00 0.000000e+00 0.000000e+00 0.000000e+00
 0.000000e+00 8.441365e-01 1.558635e-01 0.000000e+00 0.000000e+00
 0.000000e+00 0.000000e+00 8.863683e-01 1.136317e-01 0.000000e+00
 0.000000e+00 0.000000e+00 0.000000e+00 9.304276e-01 6.957239e-02
 0.000000e+00 0.000000e+00 0.000000e+00 0.000000e+00 0.000000e+00
<ENDHMM>
~h "aa"
<BEGINHMM>
<NUMSTATES> 5
<STATE> 2
<MEAN> 39
 -3.780626e-01 -4.467196e+00 -6.251969e+00 -4.910767e+00 1.730533e-02 -1.357949e+01 -5.281289e-01 3.916833e-01 4.494028e+00 5.065512e+00 3.423929e+00 -1.547202e+01 7.275307e+01 -3.337725e-01 -7.407397e-01 -1.609083e+00 -1.161176e+00 1.198623e+00 6.584682e-01 2.295538e+00 9.667862e-02 -6.254794e-02 -5.651641e-02 3.627104e-01 -1.747896e+00 1.288744e+00 -2.250832e-02 3.501000e-01 1.798650e-01 1.872827e-01 -1.029880e-01 3.304957e-01 -1.275575e-01 -2.271850e-01 -2.786909e-01 -2.003588e-01 -2.089851e-01 5.872785e-01 -3.961442e-01
<VARIANCE> 39
 1.086835e+01 1.493775e+01 5.512761e+01 5.791547e+01 3.241389e+01 5.395978e+01 1.325962e+02 6.799860e+01 7.369158e+01 5.442622e+01 3.576478e+01 6.343827e+01 2.430019e+01 8.803128e-01 1.186870e+00 3.345017e+00 1.431939e+00 1.394316e+00 3.321064e+00 3.295371e+00 3.622935e+00 3.657382e+00 2.693825e+00 2.156002e+00 3.318954e+00 1.345241e+00 1.386763e-01 2.177341e-01 6.087329e-01 3.098342e-01 2.448655e-01 4.253194e-01 1.043562e+00 5.026118e-01 5.034546e-01 4.490582e-01 3.419711e-01 4.883586e-01 1.664181e-01
<GCONST> 1.176532e+02
<STATE> 3
<MEAN> 39
 -1.492331e-01 -5.663881e+00 -1.066002e+01 -8.404190e+00 4.674036e+00 -8.860858e+00 6.954040e+00 -1.209173e+00 2.673047e-01 4.955104e+00 3.349986e+00 -1.666477e+01 7.428492e+01 9.707133e-02 3.466341e-01 -9.266602e-02 4.416499e-01 3.520217e-01 3.169734e-01 2.023004e-01 -7.824723e-02 -2.578912e-01 2.479635e-01 -5.642949e-01 3.953317e-01 -2.556084e-01 -1.258474e-02 1.383871e-01 1.283183e-01 2.070282e-01 -1.097151e-01 -1.440288e-01 -2.128149e-01 1.611897e-01 1.422221e-01 4.759612e-02 -1.176273e-01 2.251565e-01 -1.378963e-01
<VARIANCE> 39
 7.343787e+00 8.266023e+00 1.154583e+01 3.811923e+01 2.656938e+01 5.248748e+01 5.877879e+01 6.424374e+01 6.183141e+01 5.196441e+01 2.998689e+01 4.284496e+01 1.782572e+01 2.316568e-01 5.330617e-01 4.943358e-01 1.123098e+00 7.662513e-01 2.021507e+00 1.220131e+00 1.212590e+00 1.505410e+00 1.117653e+00 1.426782e+00 9.053849e-01 2.760489e-01 3.786292e-02 7.018920e-02 9.091374e-02 1.099559e-01 1.318619e-01 1.750925e-01 1.770730e-01 1.670000e-01 2.238440e-01 2.119762e-01 1.720196e-01 2.262546e-01 2.826139e-02
<GCONST> 8.541357e+01
<STATE> 4
<MEAN> 39
 -7.444512e-01 5.062945e-02 -7.881925e+00 -2.725567e+00 6.266422e+00 -1.794997e+00 4.810446e+00 1.412897e+00 1.217574e+00 6.559878e+00 1.210171e+00 -6.919136e+00 6.326789e+01 -3.181843e-01 2.439263e-01 5.499306e-01 4.659612e-01 -1.072628e-01 5.416744e-01 -3.176216e-01 3.723675e-01 4.576839e-01 -2.182169e-01 -1.741061e-01 8.567884e-01 -8.443798e-01 -7.647569e-02 -8.480289e-02 1.828824e-02 -6.934705e-02 -7.887050e-02 -2.202126e-02 -8.291254e-03 1.638252e-02 -1.588797e-02 -4.414522e-02 1.034288e-01 -6.951122e-03 2.282168e-02
<VARIANCE> 39
 6.510558e+00 1.170468e+01 1.636105e+01 2.302907e+01 2.264379e+01 6.107087e+01 3.118629e+01 3.611521e+01 4.177334e+01 3.066360e+01 3.200366e+01 3.576673e+01 4.374296e+01 2.640153e-01 6.698006e-01 7.359237e-01 1.179345e+00 1.600258e+00 1.858767e+00 1.896661e+00 2.329344e+00 2.098128e+00 1.886396e+00 1.704943e+00 2.099889e+00 1.288129e-01 6.749262e-02 9.403814e-02 1.406137e-01 2.179226e-01 2.616281e-01 3.488414e-01 3.192679e-01 4.131596e-01 3.797212e-01 3.520193e-01 3.420714e-01 3.214357e-01 2.021815e-02
<GCONST> 9.439474e+01
<TRANSP> 5
 0.000000e+00 1.000000e+00 0.000000e+00 0.000000e+00 0.000000e+00
 0.000000e+00 5.925971e-01 4.074029e-01 0.000000e+00 0.000000e+00
 0.000000e+00 0.000000e+00 8.707083e-01 1.292916e-01 0.000000e+00
 0.000000e+00 0.000000e+00 0.000000e+00 8.762599e-01 1.237401e-01
 0.000000e+00 0.000000e+00 0.000000e+00 0.000000e+00 0.000000e+00
<ENDHMM>
~h "ax"
<BEGINHMM>
<NUMSTATES> 5
<STATE> 2
<MEAN> 39
 -3.204835e+00 1.775226e+00 -8.537848e+00 -3.636130e+00 -1.048296e+00 -1.235230e+01 -3.489916e+00 -6.925888e+00 -1.361239e+00 5.862458e+00 3.513934e+00 -4.455345e+00 7.037172e+01 2.538671e+00 -7.200697e-01 -1.462467e+00 -1.363241e+00 3.487923e-01 9.773542e-01 1.294837e+00 -1.696192e+00 -1.709174e+00 2.639430e-01 2.202186e+00 -1.098388e+00 1.460176e+00 -8.809405e-01 3.642203e-03 2.174430e-01 -5.022768e-02 -9.660599e-02 4.694797e-01 8.839629e-01 5.510663e-01 -5.607486e-02 -5.021143e-01 -1.458294e-02 2.723673e-01 -2.426506e-01
<VARIANCE> 39
 1.091372e+01 7.499888e+00 1.896323e+01 3.691342e+01 1.256343e+01 3.379063e+01 6.841674e+01 6.072998e+01 6.919553e+01 3.026764e+01 3.033757e+01 2.399914e+01 2.002956e+01 3.551827e+00 5.119756e-01 1.231955e+00 1.599420e+00 1.554844e+00 2.469920e+00 6.219075e+00 4.042907e+00 2.328680e+00 3.719067e+00 1.865336e+00 1.606163e+00 9.865019e-01 2.636138e-01 1.484165e-01 2.964344e-01 4.744856e-01 1.951584e-01 4.546212e-01 9.677930e-01 4.276323e-01 4.269579e-01 4.697855e-01 5.301562e-01 3.589172e-01 1.795658e-01
<GCONST> 1.098498e+02
<STATE> 3
<MEAN> 39
 7.509280e-01 5.024948e-01 -1.070074e+01 -7.696467e+00 -3.330959e-01 -6.736758e+00 7.228021e+00 -8.268327e+00 -6.256582e+00 2.913177e+00 8.718784e+00 -7.939164e+00 7.187158e+01 1.559442e-01 -1.000036e-01 9.646118e-02 3.296935e-01 3.571547e-01 -7.197812e-02 1.204614e-01 -8.048340e-02 1.229605e-01 2.790867e-01 -4.798351e-01 -3.529975e-01 -9.335372e-02 -8.763702e-02 1.292570e-02 1.306468e-01 2.500995e-01 6.982996e-02 -2.861668e-01 -3.870583e-01 1.166361e-01 2.040475e-01 1.552593e-01 -3.586067e-01 8.162120e-02 -6.256271e-02
<VARIANCE> 39
 3.788095e+00 7.638479e+00 8.978681e+00 1.342625e+01 2.013102e+01 4.170500e+01 5.076903e+01 5.046378e+01 6.374445e+01 4.318044e+01 1.905484e+01 3.358417e+01 7.639989e+00 2.954931e-01 3.770816e-01 3.822725e-01 1.565591e+00 1.058014e+00 1.807249e+00 3.029941e+00 1.017298e+00 1.595064e+00 2.243843e+00 2.118378e+00 1.241920e+00 1.178447e-01 3.701786e-02 6.752622e-02 8.811239e-02 1.361934e-01 1.674171e-01 2.109890e-01 2.156305e-01 2.245694e-01 2.199532e-01 3.295706e-01 2.631715e-01 2.856728e-01 3.265373e-02
<GCONST> 8.458160e+01
<STATE> 4
<MEAN> 39
 8.400266e-01 -3.096053e-01 -4.106473e+00 9.981897e-01 1.618000e+00 -8.641344e+00 5.514615e-01 -5.955338e+00 -1.875018e-01 6.618425e+00 2.938826e-01 -5.671444e+00 6.596974e+01 -3.174333e-02 2.256417e-01 8.423594e-01 5.888102e-01 -1.964855e-01 4.085864e-01 -2.693417e-01 5.237308e-01 4.691319e-01 -2.307397e-01 -1.435964e-01 5.557757e-01 -8.553786e-01 -1.895462e-02 5.871580e-02 1.591767e-02 -9.640809e-02 -8.981153e-02 2.229647e-01 1.218324e-01 -4.637767e-02 -3.238201e-02 -1.176072e-01 2.273534e-01 3.102857e-02 -4.517496e-02
<VARIANCE> 39
 3.952594e+00 6.161326e+00 1.655520e+01 1.111070e+01 1.627349e+01 4.085588e+01 2.104996e+01 3.250469e+01 2.736649e+01 3.877382e+01 2.350263e+01 2.170083e+01 2.431758e+01 2.375502e-01 3.934725e-01 1.177579e+00 1.185008e+00 1.749676e+00 2.302169e+00 1.640293e+00 2.248610e+00 1.365797e+00 1.916496e+00 3.167555e+00 1.711223e+00 1.614447e-01 4.450979e-02 6.782648e-02 1.682825e-01 2.006539e-01 3.691452e-01 3.274015e-01 2.203195e-01 3.869177e-01 2.510409e-01 4.073299e-01 5.380618e-01 3.232885e-01 3.102929e-02
<GCONST> 8.972685e+01
<TRANSP> 5
 0.000000e+00 1.000000e+00 0.000000e+00 0.000000e+00 0.000000e+00
 0.000000e+00 7.570375e-01 2.429625e-01 0.000000e+00 0.000000e+00
 0.000000e+00 0.000000e+00 9.041080e-01 9.589189e-02 0.000000e+00
 0.000000e+00 0.000000e+00 0.000000e+00 9.080440e-01 9.195598e-02
 0.000000e+00 0.000000e+00 0.000000e+00 0.000000e+00 0.000000e+00
<ENDHMM>
~h "dx"
<BEGINHMM>
<NUMSTATES> 5
<STATE> 2
<MEAN> 39
 -4.133101e+00 7.619334e+00 5.016758e+00 5.965643e+00 1.192815e+00 -1.840003e+00 -2.178787e+00 -3.215851e+00 -3.389987e+00 -3.844819e+00 -3.510259e+00 -6.719664e-01 5.215652e+01 1.080512e+00 1.339534e+00 1.041131e+00 6.802292e-01 -2.961602e-01 -1.236672e+00 -1.367809e+00 -1.138948e+00 -7.152897e-01 -5.483212e-01 -6.362831e-01 -2.985405e-01 5.169928e-01 7.503732e-03 -8.772464e-02 -7.408313e-02 -1.193365e-01 -1.300095e-01 7.182932e-02 4.197704e-03 4.440922e-02 6.777817e-02 2.891530e-02 1.247775e-01 -1.351187e-01 4.770779e-02
<VARIANCE> 39
 1.233107e+01 1.485477e+01 1.650298e+01 1.317894e+01 1.971592e+01 2.353630e+01 3.010546e+01 2.149318e+01 1.744664e+01 9.802546e+00 1.464012e+01 1.050814e+01 1.839564e+01 1.406351e+00 1.852553e+00 1.441822e+00 9.456947e-01 1.440701e+00 2.275200e+00 3.453388e+00 2.027279e+00 2.073948e+00 1.592549e+00 1.554654e+00 1.088943e+00 3.521336e-01 1.706273e-01 2.327784e-01 1.638606e-01 2.110992e-01 3.546804e-01 4.143636e-01 5.129272e-01 3.576824e-01 2.362263e-01 1.741320e-01 3.234443e-01 2.032192e-01 5.590373e-02
<GCONST> 9.404982e+01
<STATE> 3
<MEAN> 39
 -8.231825e-01 1.103160e+01 7.531710e+00 6.072299e+00 -1.586197e+00 -3.898132e+00 -5.277860e+00 -5.671957e+00 -4.341648e+00 -4.783154e+00 -3.172472e+00 -1.839992e+00 5.373577e+01 1.281696e-01 -7.900921e-01 5.150927e-01 2.044119e-01 -7.570785e-01 -1.483569e-01 3.807104e-02 1.071224e+00 3.905809e-01 -5.074559e-01 1.885742e-01 3.179552e-01 7.935770e-01 -2.767394e-01 -1.174856e+00 -3.065637e-01 -4.310949e-02 -3.239871e-01 -5.297140e-01 2.673730e-01 8.334913e-01 4.792560e-01 7.313042e-02 3.069237e-01 4.129558e-01 6.060269e-01
<VARIANCE> 39
 5.222712e+00 6.321140e+00 7.781733e+00 9.895668e+00 1.955325e+01 1.806823e+01 2.402080e+01 1.890893e+01 2.120635e+01 1.128977e+01 1.069355e+01 1.782515e+01 8.803762e+00 9.915405e-01 4.535732e+00 1.236576e+00 1.005732e+00 3.577215e+00 3.399595e+00 3.533285e+00 3.297656e+00 3.003090e+00 1.880942e+00 1.885213e+00 3.011975e+00 1.266171e+00 1.861516e-01 2.965759e-01 2.659439e-01 3.531001e-01 9.427914e-01 1.670771e+00 8.776292e-01 4.397915e-01 5.150374e-01 4.567479e-01 3.991916e-01 4.190632e-01 5.457433e-01
<GCONST> 1.051862e+02
<STATE> 4
<MEAN> 39
 -2.045541e+00 -2.654944e+00 5.892615e+00 6.120969e+00 -7.129322e+00 -1.472163e+01 -3.858158e+00 5.270417e+00 1.843883e+00 -4.888284e+00 2.748397e-01 1.437135e+00 6.557570e+01 3.936736e-01 -3.262307e+00 -1.694818e+00 -4.449422e-01 -9.003419e-01 -5.255052e+00 7.233756e-01 1.634319e+00 1.978127e+00 2.711203e-01 1.084571e+00 -1.841608e-01 4.147239e+00 5.562759e-02 5.418859e-01 -4.523466e-01 -2.219657e-01 8.326614e-01 1.868239e-01 5.387778e-01 -6.585398e-01 -7.995772e-03 6.952750e-02 -2.707877e-01 -6.853980e-01 -2.253717e-01
<VARIANCE> 39
 1.059313e+01 4.133876e+01 2.934977e+01 3.927979e+01 6.391142e+01 1.385679e+02 5.528830e+01 7.727175e+01 7.955499e+01 5.531332e+01 4.257316e+01 4.798750e+01 6.002711e+01 9.133391e-01 3.869857e+00 3.339965e+00 3.839472e+00 9.153473e+00 6.793647e+00 6.876672e+00 7.003015e+00 6.151407e+00 6.042729e+00 4.571957e+00 5.150767e+00 2.039456e+00 1.541996e-01 7.270225e-01 5.403416e-01 6.289141e-01 1.301211e+00 3.371227e+00 8.487581e-01 1.048914e+00 1.042068e+00 8.581595e-01 8.784973e-01 7.816646e-01 1.071957e+00
<GCONST> 1.393467e+02
<TRANSP> 5
 0.000000e+00 1.000000e+00 0.000000e+00 0.000000e+00 0.000000e+00
 0.000000e+00 7.499248e-01 2.500752e-01 0.000000e+00 0.000000e+00
 0.000000e+00 0.000000e+00 7.484843e-01 2.515157e-01 0.000000e+00
 0.000000e+00 0.000000e+00 0.000000e+00 7.468418e-01 2.531582e-01
 0.000000e+00 0.000000e+00 0.000000e+00 0.000000e+00 0.000000e+00
<ENDHMM>
~h "ee"
<BEGINHMM>
<NUMSTATES> 5
<STATE> 2
<MEAN> 39
 -1.182674e+01 -5.433005e+00 5.892529e-01 1.941338e-01 -4.807651e+00 -9.531304e+00 -1.752287e+00 3.712818e+00 -4.821057e+00 7.144401e+00 1.565428e+00 2.872739e-01 6.376469e+01 -3.113948e-01 -3.476802e-01 2.345812e+00 4.674509e-01 -2.030951e+00 -3.465826e+00 -1.799051e-01 3.652816e-01 -3.024930e+00 -9.573063e-01 2.965111e-02 9.459478e-01 2.878639e+00 6.074917e-01 5.227813e-01 2.439909e-01 2.983447e-01 -4.157006e-01 -4.490781e-01 -3.712936e-02 -7.956190e-02 1.405862e-01 -5.198337e-01 5.593315e-01 -4.033284e-02 2.697876e-02
<VARIANCE> 39
 2.697928e+01 3.959082e+01 4.000332e+01 2.071176e+01 3.381522e+01 6.995890e+01 2.763194e+01 5.821717e+01 7.556482e+01 2.962859e+01 2.796843e+01 3.524083e+01 6.160822e+01 6.306108e+00 7.860942e+00 3.387173e+00 3.006063e+00 3.444915e+00 3.370601e+00 3.313270e+00 4.823864e+00 3.801193e+00 4.621574e+00 5.560049e+00 3.974602e+00 2.335755e+00 8.297470e-01 1.180235e+00 6.225568e-01 5.316352e-01 5.191668e-01 8.549997e-01 5.341224e-01 8.331265e-01 1.248976e+00 5.693256e-01 9.963018e-01 6.316183e-01 9.119902e-01
<GCONST> 1.338629e+02
<STATE> 3
<MEAN> 39
 -5.922223e+00 -2.109998e+00 1.095127e+01 5.576405e+00 -1.730811e+01 -2.602832e+01 -2.672801e+00 5.958196e+00 -1.217209e+01 -2.516138e+00 9.869653e+00 3.506683e+00 7.336015e+01 1.102135e+00 -2.460406e-02 2.912686e-01 8.930665e-01 -1.555106e+00 -1.873602e+00 6.297719e-02 1.529117e+00 9.054417e-01 -1.759341e+00 1.883304e+00 4.419060e-01 1.122016e+00 -5.251326e-01 -5.193146e-01 -8.564441e-01 -3.825333e-01 7.967992e-01 9.979663e-01 1.387117e-01 2.120905e-01 6.311648e-01 7.248681e-01 -6.330796e-01 -1.593696e-01 -3.426582e-01
<VARIANCE> 39
 6.921691e+00 5.955172e+00 1.258900e+01 1.478466e+01 1.549441e+01 4.236433e+01 3.957983e+01 5.585657e+01 3.959868e+01 3.502507e+01 2.634275e+01 3.076419e+01 1.571317e+01 1.078950e+00 1.040037e+00 1.772160e+00 1.091682e+00 2.468157e+00 4.314569e+00 1.559942e+00 1.906425e+00 1.815705e+00 3.157572e+00 3.449784e+00 1.359573e+00 4.520442e-01 1.404298e-01 2.414715e-01 3.210934e-01 1.169956e-01 2.970010e-01 2.611157e-01 3.119844e-01 4.433962e-01 5.018938e-01 2.945914e-01 4.190271e-01 2.667421e-01 7.381680e-02
<GCONST> 1.003160e+02
<STATE> 4
<MEAN> 39
 -3.618032e+00 -2.550861e+00 7.189608e+00 8.093695e+00 -1.424234e+01 -2.209619e+01 3.501427e-01 7.972953e+00 -6.377536e+00 -3.041607e+00 8.608705e+00 3.410751e+00 6.755741e+01 7.059530e-02 4.713706e-02 -2.613283e-01 1.328635e-01 3.792860e-01 5.743661e-01 2.696990e-01 -1.600748e-01 3.021144e-01 1.794845e-01 -1.676115e-01 -6.060133e-02 -8.370516e-01 -3.360473e-02 3.285571e-03 -4.829673e-02 -5.678716e-02 6.963780e-02 8.673839e-02 -8.082433e-03 -9.001587e-02 -6.018924e-02 6.865543e-02 -2.249354e-02 -4.137375e-03 -4.611971e-02
<VARIANCE> 39
 5.473765e+00 8.281747e+00 1.214555e+01 1.612010e+01 2.197114e+01 5.201245e+01 3.142825e+01 3.917002e+01 3.215102e+01 3.470435e+01 2.862221e+01 2.468922e+01 6.161493e+01 2.553881e-01 4.426519e-01 5.895744e-01 7.840635e-01 9.898886e-01 1.243551e+00 1.155377e+00 1.668948e+00 1.514441e+00 1.483085e+00 1.458876e+00 1.177603e+00 4.264292e-01 3.753401e-02 8.737702e-02 1.541579e-01 1.597697e-01 2.310777e-01 2.485228e-01 2.320931e-01 3.073005e-01 2.833126e-01 3.071997e-01 2.825460e-01 2.353847e-01 5.365504e-02
<GCONST> 8.803604e+01
<TRANSP> 5
 0.000000e+00 1.000000e+00 0.000000e+00 0.000000e+00 0.000000e+00
 0.000000e+00 8.112080e-01 1.887920e-01 0.000000e+00 0.000000e+00
 0.000000e+00 0.000000e+00 6.865281e-01 3.134719e-01 0.000000e+00
 0.000000e+00 0.000000e+00 0.000000e+00 9.457682e-01 5.423184e-02
 0.000000e+00 0.000000e+00 0.000000e+00 0.000000e+00 0.000000e+00
<ENDHMM>
~h "ei"
<BEGINHMM>
<NUMSTATES> 5
<STATE> 2
<MEAN> 39
 -2.900756e+00 -6.574232e+00 -9.498619e-01 2.916256e-01 -2.842410e+00 -2.058021e+01 1.549651e+00 9.389443e+00 3.309188e+00 -1.990577e+00 2.405583e-01 -4.102414e+00 7.130577e+01 2.666960e-02 -1.591599e-01 -9.494556e-01 -1.869023e-01 1.293480e+00 1.476786e-02 1.101591e+00 -4.112329e-01 5.418024e-01 -8.915446e-02 -7.518768e-01 -6.591172e-01 3.624913e-01 2.807919e-02 4.107825e-01 3.185258e-01 2.632557e-01 -2.351838e-01 2.785653e-01 -2.386568e-01 -2.324359e-01 -4.813462e-01 1.064798e-01 1.321359e-01 1.746444e-01 -3.231952e-01
<VARIANCE> 39
 1.599497e+01 2.273020e+01 2.030163e+01 3.491024e+01 3.581169e+01 1.224839e+02 4.808839e+01 8.072295e+01 5.569514e+01 6.322372e+01 2.980183e+01 4.642867e+01 8.702229e+01 2.963106e-01 9.480732e-01 1.567684e+00 1.272302e+00 2.467630e+00 1.549787e+00 1.766699e+00 2.014212e+00 2.120342e+00 1.381171e+00 1.889041e+00 2.840228e+00 6.549546e-01 1.387872e-01 1.349437e-01 1.805370e-01 1.828167e-01 3.557170e-01 6.657589e-01 2.953495e-01 3.735008e-01 3.601876e-01 3.518346e-01 3.816831e-01 4.216186e-01 1.809702e-01
<GCONST> 1.083793e+02
<STATE> 3
<MEAN> 39
 -1.203343e+00 -5.356957e+00 -2.075817e+00 2.980181e+00 -9.072002e-01 -2.205941e+01 4.816589e+00 7.294377e+00 1.789252e+00 -1.486943e+00 -7.618682e-01 -2.871881e+00 7.125008e+01 3.086868e-01 7.170099e-01 5.214115e-01 6.876892e-01 -4.915992e-02 4.769779e-01 -1.013451e-01 -1.248869e-01 -5.231315e-01 1.008333e-01 -5.764929e-03 8.046868e-01 -8.301046e-01 2.045212e-02 6.757084e-02 1.316566e-01 2.861229e-02 -1.441002e-01 1.821295e-01 -1.399931e-01 7.338468e-02 7.777202e-02 -1.865732e-02 1.742985e-02 -8.273897e-02 -1.653714e-01
<VARIANCE> 39
 1.423784e+01 1.609884e+01 2.063489e+01 3.265795e+01 3.212936e+01 9.343179e+01 5.044416e+01 5.016002e+01 3.673257e+01 5.945460e+01 2.856806e+01 5.410899e+01 5.874874e+01 3.164128e-01 6.169789e-01 8.503251e-01 8.980961e-01 1.274495e+00 2.096233e+00 1.236438e+00 1.624696e+00 1.332660e+00 1.758652e+00 1.243234e+00 2.318723e+00 6.708911e-01 1.261758e-01 1.375873e-01 2.321190e-01 2.146624e-01 2.996088e-01 5.091769e-01 2.807392e-01 2.740407e-01 2.966246e-01 3.048730e-01 2.719643e-01 6.063401e-01 1.082749e-01
<GCONST> 1.019353e+02
<STATE> 4
<MEAN> 39
 -9.193932e-01 -2.327073e+00 8.238989e-01 5.692907e+00 -2.359815e+00 -1.322517e+01 2.362259e+00 7.946913e+00 6.975634e-01 -1.997747e+00 -5.644904e-01 -1.056126e+00 6.332959e+01 -2.074150e-01 3.530065e-01 -1.058956e-01 -3.647036e-02 -2.431768e-01 9.600106e-01 3.948655e-02 -3.841847e-02 6.461253e-01 4.763760e-01 -1.332588e-01 -6.048611e-01 -1.086331e+00 -9.684838e-02 -1.859161e-01 -5.229298e-02 -1.553147e-01 -2.437184e-01 -3.209487e-01 -2.292887e-01 5.333364e-03 7.347760e-02 1.473738e-02 1.173041e-01 7.334164e-03 3.194647e-01
<VARIANCE> 39
 1.679066e+01 1.769270e+01 1.769392e+01 2.713581e+01 2.778372e+01 5.394299e+01 2.784642e+01 2.878625e+01 3.336408e+01 3.782449e+01 2.226976e+01 2.647411e+01 3.758994e+01 1.123511e+00 1.006455e+00 1.131108e+00 1.729958e+00 2.229996e+00 4.296202e+00 1.922796e+00 2.299479e+00 2.192545e+00 2.215596e+00 2.306733e+00 2.500317e+00 1.269188e+00 2.111070e-01 1.336523e-01 2.471348e-01 4.536124e-01 3.993745e-01 5.145959e-01 4.029640e-01 4.171376e-01 5.079527e-01 4.074779e-01 3.934537e-01 6.030883e-01 1.140267e-01
<GCONST> 1.084958e+02
<TRANSP> 5
 0.000000e+00 1.000000e+00 0.000000e+00 0.000000e+00 0.000000e+00
 0.000000e+00 5.377133e-01 4.622867e-01 0.000000e+00 0.000000e+00
 0.000000e+00 0.000000e+00 7.156976e-01 2.843024e-01 0.000000e+00
 0.000000e+00 0.000000e+00 0.000000e+00 6.282864e-01 3.717135e-01
 0.000000e+00 0.000000e+00 0.000000e+00 0.000000e+00 0.000000e+00
<ENDHMM>
~h "ii"
<BEGINHMM>
<NUMSTATES> 5
<STATE> 2
<MEAN> 39
 -8.771358e+00 4.112390e+00 1.413895e+01 5.946375e+00 -1.379074e+01 -2.251004e+01 -4.904826e+00 4.911247e+00 -1.385570e+01 -6.531106e+00 6.299610e+00 -1.436715e+00 7.072153e+01 1.247334e+00 5.725321e-02 5.416089e-01 1.030484e+00 -6.511940e-01 -8.427351e-01 -2.303540e-01 -6.747012e-01 -1.188747e+00 -3.927150e-01 5.044215e-01 6.190656e-02 5.025027e-01 -5.504136e-01 1.454594e-01 -5.453725e-01 -4.962655e-01 8.111620e-01 8.166769e-01 2.031167e-01 7.776356e-02 5.960339e-01 4.242788e-01 -4.596494e-01 -8.458674e-02 -3.876111e-01
<VARIANCE> 39
 1.234401e+01 8.045060e+00 4.128748e+01 1.918933e+01 2.750501e+01 6.177398e+01 2.378864e+01 4.812249e+01 4.856927e+01 2.813302e+01 2.488362e+01 2.378590e+01 1.374162e+01 3.052877e+00 6.908798e-01 2.392899e+00 2.519704e+00 5.027919e+00 6.111758e+00 2.628750e+00 2.300720e+00 4.254894e+00 2.722806e+00 3.759136e+00 1.416717e+00 1.270172e+00 2.401496e-01 1.101983e-01 2.788621e-01 2.746138e-01 5.667630e-01 7.114176e-01 3.815625e-01 4.878615e-01 4.596316e-01 3.399345e-01 5.632620e-01 2.676342e-01 1.545141e-01
<GCONST> 1.113773e+02
<STATE> 3
<MEAN> 39
 -8.604966e+00 7.889090e+00 2.111832e+01 5.690784e+00 -1.870235e+01 -1.246082e+01 -1.722433e+00 -1.700648e+00 -1.833436e+01 -2.593130e+00 4.273713e+00 -4.122602e+00 6.950723e+01 1.618898e-01 2.109786e-01 -1.744296e-01 6.883568e-02 1.414440e-01 4.507120e-01 1.893629e-01 -1.725824e-01 5.678204e-02 3.929591e-01 -2.422151e-01 -2.073518e-02 -3.128009e-01 9.784391e-03 -2.147043e-02 -5.967429e-02 1.195535e-02 7.542600e-02 -2.769035e-03 -8.156028e-03 4.123824e-02 4.818363e-02 -5.190108e-03 1.707676e-02 1.601073e-02 -7.352589e-02
<VARIANCE> 39
 8.664292e+00 7.393429e+00 2.625636e+01 1.956871e+01 2.520771e+01 3.267999e+01 3.603257e+01 3.761758e+01 3.563021e+01 2.968288e+01 2.728319e+01 2.925801e+01 1.519150e+01 2.139578e-01 3.030126e-01 6.786107e-01 6.605581e-01 8.952863e-01 1.018993e+00 1.069082e+00 9.368095e-01 1.116714e+00 9.576715e-01 8.380982e-01 8.517252e-01 2.640736e-01 3.549401e-02 5.822368e-02 1.062667e-01 1.112152e-01 1.658229e-01 1.753047e-01 2.129285e-01 1.461562e-01 2.190662e-01 1.820134e-01 1.531031e-01 1.691785e-01 1.758098e-02
<GCONST> 7.859715e+01
<STATE> 4
<MEAN> 39
 -6.365284e+00 5.030809e+00 1.221735e+01 5.788697e+00 -8.064088e+00 -4.591259e+00 3.101498e-01 -1.649899e+00 -1.056672e+01 -1.362656e-02 2.560384e+00 -5.065152e+00 5.811465e+01 -1.335357e-01 -3.022387e-01 -8.077774e-01 -8.275110e-02 7.386367e-01 4.269224e-01 1.738694e-01 5.682595e-03 6.762191e-01 6.903318e-02 -5.763173e-02 -1.042902e-02 -7.156157e-01 -1.879656e-02 -2.289013e-02 -1.632322e-02 -1.597923e-02 -4.029348e-02 -8.484343e-02 -1.838285e-02 4.910513e-02 -1.124973e-02 2.339189e-03 4.717537e-02 5.261574e-02 7.276453e-02
<VARIANCE> 39
 7.280139e+00 1.360156e+01 3.802959e+01 1.666308e+01 3.242233e+01 6.690397e+01 2.852802e+01 2.464853e+01 3.943837e+01 2.473648e+01 2.364264e+01 2.113458e+01 3.626824e+01 2.789916e-01 5.601588e-01 8.493550e-01 9.732293e-01 1.333462e+00 1.807692e+00 2.097413e+00 1.698658e+00 1.996533e+00 2.095857e+00 1.829913e+00 1.573132e+00 1.942694e-01 4.514536e-02 9.995560e-02 1.591144e-01 1.905185e-01 2.599001e-01 3.082029e-01 3.835375e-01 3.444977e-01 4.151323e-01 3.898315e-01 3.933641e-01 2.858497e-01 2.828467e-02
<GCONST> 9.358636e+01
<TRANSP> 5
 0.000000e+00 1.000000e+00 0.000000e+00 0.000000e+00 0.000000e+00
 0.000000e+00 5.995103e-01 4.004898e-01 0.000000e+00 0.000000e+00
 0.000000e+00 0.000000e+00 8.998136e-01 1.001863e-01 0.000000e+00
 0.000000e+00 0.000000e+00 0.000000e+00 8.578468e-01 1.421532e-01
 0.000000e+00 0.000000e+00 0.000000e+00 0.000000e+00 0.000000e+00
<ENDHMM>
~h "sp"
<BEGINHMM>
<NUMSTATES> 3
<STATE> 2
~s "silst"
<TRANSP> 3
 0.000000e+00 3.302383e-01 6.697617e-01
 0.000000e+00 9.148894e-01 8.511060e-02
 0.000000e+00 0.000000e+00 0.000000e+00
<ENDHMM>
~h "th"
<BEGINHMM>
<NUMSTATES> 5
<STATE> 2
<MEAN> 39
 -1.688786e+01 1.111363e-01 -6.540061e-01 -3.609590e+00 -1.571976e+00 -9.366224e+00 1.419943e+00 7.910703e+00 -3.095498e+00 5.619469e-02 4.271015e+00 4.038986e+00 5.956965e+01 -1.134777e+00 -2.805961e-01 2.167739e-01 -5.797728e-01 -8.455780e-01 -1.786667e+00 3.942917e-02 1.695330e+00 -5.220239e-01 -3.425522e-01 6.265298e-01 7.137180e-01 1.683190e+00 4.533722e-01 4.713530e-02 3.465311e-01 5.969816e-01 3.688669e-02 4.600610e-01 -1.394588e-01 -2.746349e-01 1.265710e-01 -1.691703e-01 -2.155686e-01 -2.649982e-01 -3.663129e-01
<VARIANCE> 39
 2.612022e+01 1.054180e+01 2.115648e+01 4.895627e+01 3.506170e+01 7.724979e+01 2.912011e+01 5.289116e+01 4.108613e+01 2.808399e+01 2.544991e+01 3.942501e+01 5.210935e+01 3.360220e+00 1.017018e+00 2.381415e+00 6.991736e+00 4.190389e+00 1.129962e+01 2.887839e+00 4.530303e+00 4.335318e+00 2.475979e+00 2.487154e+00 4.628438e+00 6.283409e+00 9.372969e-01 2.797329e-01 5.905143e-01 1.081966e+00 9.509670e-01 1.986013e+00 5.757686e-01 1.282341e+00 7.879078e-01 4.128432e-01 5.637638e-01 9.376738e-01 1.233370e+00
<GCONST> 1.315172e+02
<STATE> 3
<MEAN> 39
 -1.199637e+01 2.128401e+00 8.341063e+00 4.363424e+00 -4.193188e+00 -1.121443e+01 -2.211058e+00 7.362427e+00 -5.126274e+00 -4.336770e+00 2.046888e+00 2.080388e+00 6.169838e+01 2.465236e+00 1.079822e+00 2.984409e+00 2.367285e+00 -1.687483e+00 -1.542773e+00 -1.600222e+00 -1.688359e+00 -9.145197e-01 -1.234417e+00 -7.262573e-01 -4.850701e-01 9.249946e-01 -8.710448e-02 -1.980052e-01 -1.980215e-02 -1.957049e-01 -6.406188e-01 -6.633115e-01 -5.598405e-03 -5.748128e-02 -1.777850e-01 -1.729665e-02 2.611560e-01 1.456989e-01 4.314986e-01
<VARIANCE> 39
 2.468187e+01 2.215302e+01 4.927515e+01 4.966984e+01 3.491473e+01 6.247650e+01 3.568856e+01 2.991220e+01 4.414224e+01 3.168432e+01 2.354675e+01 2.711875e+01 1.758252e+01 1.708736e+00 2.205867e+00 1.857490e+00 1.842638e+00 5.309799e+00 6.409204e+00 3.471100e+00 2.661016e+00 2.628607e+00 2.740268e+00 2.941836e+00 2.292024e+00 1.467408e+00 5.562270e-01 6.852147e-01 5.044404e-01 4.780096e-01 6.454197e-01 1.108132e+00 1.019043e+00 7.816557e-01 5.615830e-01 6.508105e-01 6.831622e-01 4.615158e-01 1.815050e-01
<GCONST> 1.227715e+02
<STATE> 4
<MEAN> 39
 -6.073165e+00 8.596281e-01 1.865674e+01 1.096309e+01 -1.622992e+01 -2.045944e+01 -6.354949e+00 3.225999e+00 -1.063863e+01 -9.755643e+00 4.991889e+00 1.270215e+00 6.840089e+01 1.982868e-01 -4.245562e-01 1.228178e+00 -5.026718e-03 -1.535271e+00 -6.703333e-01 5.411562e-02 -5.178930e-01 -1.461087e+00 -1.144551e-01 1.331801e+00 -6.626429e-01 1.019060e+00 -3.941853e-01 2.660154e-01 -4.141144e-01 -4.963404e-01 5.335805e-01 6.084827e-01 3.724426e-01 1.639170e-02 -1.358294e-03 4.527101e-01 -1.194978e-01 -6.011132e-02 -2.329099e-01
<VARIANCE> 39
 4.620287e+00 8.564836e+00 2.467155e+01 1.481619e+01 2.186361e+01 2.998417e+01 2.635003e+01 3.365816e+01 5.362453e+01 2.464847e+01 4.225781e+01 2.257324e+01 1.716204e+01 6.720470e-01 1.431356e+00 1.385388e+00 2.061275e+00 1.825799e+00 4.141092e+00 2.810841e+00 2.677348e+00 3.696253e+00 3.112514e+00 3.933506e+00 1.603663e+00 3.624039e-01 1.502878e-01 3.159406e-01 2.232859e-01 3.597920e-01 3.195994e-01 5.705802e-01 4.667497e-01 6.125339e-01 6.534815e-01 4.294686e-01 1.030502e+00 3.658113e-01 8.631752e-02
<GCONST> 1.065225e+02
<TRANSP> 5
 0.000000e+00 1.000000e+00 0.000000e+00 0.000000e+00 0.000000e+00
 0.000000e+00 8.427664e-01 1.572336e-01 0.000000e+00 0.000000e+00
 0.000000e+00 0.000000e+00 7.778373e-01 2.221627e-01 0.000000e+00
 0.000000e+00 0.000000e+00 0.000000e+00 7.374313e-01 2.625687e-01
 0.000000e+00 0.000000e+00 0.000000e+00 0.000000e+00 0.000000e+00
<ENDHMM>
~h "tx"
<BEGINHMM>
<NUMSTATES> 5
<STATE> 2
<MEAN> 39
 -5.011231e+00 -1.907264e+00 -8.292514e-01 5.112165e+00 -1.569929e+00 -5.111714e+00 1.958928e+00 4.582722e+00 6.997246e-01 -1.908437e+00 -8.810244e-02 -3.888751e-01 5.616959e+01 -2.301654e-01 -9.881213e-01 5.852826e-01 3.885343e-01 -2.386596e+00 -5.816567e-01 -1.624870e+00 -1.957351e-01 4.058651e-01 1.937680e-01 -1.488342e-01 6.589433e-01 1.275352e+00 1.370732e-01 -1.208893e-01 3.758862e-02 -7.165977e-02 -5.623314e-01 -5.939443e-01 -1.006745e+00 -1.781978e-01 1.906320e-01 2.810746e-01 4.327209e-01 4.043478e-02 1.082361e+00
<VARIANCE> 39
 2.661328e+01 1.437553e+01 1.124951e+01 2.983744e+01 2.734514e+01 6.185526e+01 2.308610e+01 3.062928e+01 2.279000e+01 2.125331e+01 1.718553e+01 1.818397e+01 2.966210e+01 1.804639e+00 2.122016e+00 2.186363e+00 5.012646e+00 5.388468e+00 6.923576e+00 5.480702e+00 4.742080e+00 4.467424e+00 2.369954e+00 2.360309e+00 2.745787e+00 2.956436e+00 5.934553e-01 3.259889e-01 3.900178e-01 6.774872e-01 1.038175e+00 8.786269e-01 6.406110e-01 1.027828e+00 6.943799e-01 6.183754e-01 5.829615e-01 6.866852e-01 1.039974e-01
<GCONST> 1.211707e+02
<STATE> 3
<MEAN> 39
 -3.247146e+00 -6.589379e+00 2.287968e+00 7.674266e+00 -1.299524e+01 -1.122671e+01 -7.547541e+00 5.169494e+00 4.619254e+00 -6.030689e-01 8.252618e-01 1.191607e+00 6.493159e+01 5.596466e-01 3.511636e-01 -7.188989e-01 -9.933547e-01 -7.555691e-01 -1.837379e+00 -3.309467e+00 -1.552255e+00 4.244710e-01 1.554807e+00 2.116715e+00 -8.700334e-01 3.155496e+00 9.513693e-03 7.922354e-01 -7.682897e-01 -7.153025e-01 1.410206e+00 5.148913e-01 7.681644e-01 -6.388906e-01 -7.006176e-01 2.877784e-01 7.257947e-01 -3.865865e-01 -1.706801e-01
<VARIANCE> 39
 1.410790e+01 1.748820e+01 3.054519e+01 5.226769e+01 4.272644e+01 6.664646e+01 9.003626e+01 4.950386e+01 5.530198e+01 2.945813e+01 3.083651e+01 3.260610e+01 2.953221e+01 6.831513e+00 2.053562e+00 2.638082e+00 3.481696e+00 7.019597e+00 7.785945e+00 4.045562e+00 7.346701e+00 5.367937e+00 4.773465e+00 3.655361e+00 4.408880e+00 2.110545e+00 6.020766e-01 2.916300e-01 4.783517e-01 8.410800e-01 7.901835e-01 1.481888e+00 1.305424e+00 9.571593e-01 8.560191e-01 6.910729e-01 5.875745e-01 9.036140e-01 6.386678e-01
<GCONST> 1.337579e+02
<STATE> 4
<MEAN> 39
 -6.095035e-01 -2.370203e+00 -3.498098e+00 1.726428e+00 -6.223817e+00 -1.278307e+01 -1.001540e+01 -1.668059e+00 1.439871e+00 4.881333e+00 8.764028e+00 -3.666951e+00 6.861686e+01 1.697848e-01 1.062836e+00 -1.733371e+00 -1.934735e+00 1.391707e+00 1.204679e+00 8.830471e-01 -2.292359e+00 -2.346906e+00 1.239309e+00 2.466658e+00 -2.766219e-01 1.050723e+00 -4.087864e-01 -2.578126e-02 2.804165e-01 1.006045e-01 -7.336710e-02 8.003604e-01 1.253293e+00 3.586176e-01 -5.402468e-01 -6.835769e-01 -6.429681e-01 6.599649e-01 -6.390810e-01
<VARIANCE> 39
 2.438591e+01 1.221868e+01 1.694564e+01 2.596136e+01 1.687467e+01 5.338489e+01 6.400887e+01 6.532265e+01 6.517262e+01 4.309132e+01 3.766687e+01 2.733960e+01 2.144423e+01 6.499559e+00 1.419153e+00 1.712593e+00 1.999156e+00 3.214846e+00 3.104109e+00 4.230333e+00 4.094083e+00 3.322879e+00 3.442351e+00 2.549952e+00 3.861441e+00 1.452916e+00 3.185659e-01 3.876731e-01 4.098406e-01 3.469542e-01 5.798417e-01 8.049049e-01 7.139068e-01 8.380652e-01 7.679136e-01 6.554069e-01 5.631698e-01 4.029497e-01 3.443316e-01
<GCONST> 1.216944e+02
<TRANSP> 5
 0.000000e+00 1.000000e+00 0.000000e+00 0.000000e+00 0.000000e+00
 0.000000e+00 5.173368e-01 4.826632e-01 0.000000e+00 0.000000e+00
 0.000000e+00 0.000000e+00 4.717500e-01 5.282500e-01 0.000000e+00
 0.000000e+00 0.000000e+00 0.000000e+00 4.526412e-01 5.473588e-01
 0.000000e+00 0.000000e+00 0.000000e+00 0.000000e+00 0.000000e+00
<ENDHMM>
~h "uu"
<BEGINHMM>
<NUMSTATES> 5
<STATE> 2
<MEAN> 39
 2.659607e+00 6.105495e+00 -2.416085e+00 4.288242e+00 -4.286344e+00 -6.681085e+00 -8.691477e+00 -2.079082e+01 -1.093294e+01 -6.868294e+00 8.436971e+00 3.134107e+00 6.570215e+01 3.711447e-01 1.266427e+00 -9.615644e-01 -1.826754e+00 5.454473e-01 1.377463e+00 2.774960e+00 -8.231081e-01 -2.342554e+00 -6.623347e-01 -5.918561e-01 1.318740e+00 -2.349605e-02 -2.795998e-01 -2.081216e-02 3.240114e-01 1.132124e-01 -2.971502e-01 -2.361458e-01 -3.468452e-02 1.045974e+00 2.808491e-01 -8.949956e-04 -8.370517e-01 -7.795574e-02 -1.215815e-01
<VARIANCE> 39
 4.602127e+00 8.514892e+00 1.664301e+01 2.951018e+01 1.841701e+01 2.287213e+01 2.966432e+01 5.961575e+01 5.080337e+01 2.786004e+01 3.166691e+01 3.193712e+01 1.263326e+01 2.846137e-01 3.385960e-01 6.924739e-01 1.029487e+00 9.154378e-01 1.270054e+00 1.253134e+00 3.356972e+00 1.335054e+00 1.484393e+00 2.597990e+00 9.592870e-01 1.349752e-01 8.644044e-02 8.719642e-02 9.961347e-02 2.129971e-01 2.136538e-01 3.647620e-01 4.084927e-01 4.000576e-01 3.107009e-01 4.379576e-01 3.798790e-01 4.018888e-01 2.190360e-02
<GCONST> 8.947843e+01
<STATE> 3
<MEAN> 39
 3.494568e+00 1.300251e+01 -3.456799e+00 -5.524928e+00 -3.375373e+00 -6.513656e+00 3.601413e+00 -1.269291e+01 -1.934493e+01 -5.360537e+00 -1.789885e+00 3.925616e+00 6.421255e+01 6.103181e-02 1.965671e-01 8.382331e-02 -2.607100e-01 -1.639487e-01 7.759071e-02 3.281994e-01 6.169951e-01 -2.402884e-01 1.724922e-01 -5.446764e-01 -5.758027e-02 -2.278074e-01 -3.575913e-02 -9.977352e-02 4.211205e-02 1.565648e-01 -1.803154e-02 1.150726e-02 -1.527355e-01 -9.353639e-03 1.397013e-01 2.814859e-02 8.613863e-02 -3.690864e-02 -2.609935e-02
<VARIANCE> 39
 9.583002e+00 1.063749e+01 1.748524e+01 3.248130e+01 1.468453e+01 2.317179e+01 3.501183e+01 7.090667e+01 4.698816e+01 2.379106e+01 3.385866e+01 2.359736e+01 1.439392e+01 1.886099e-01 4.482979e-01 4.907462e-01 1.040685e+00 9.541193e-01 1.183895e+00 1.638637e+00 1.212235e+00 1.418817e+00 1.319388e+00 1.620759e+00 8.990260e-01 9.284130e-02 3.428135e-02 5.187692e-02 8.484608e-02 1.042240e-01 1.644680e-01 2.013954e-01 1.954485e-01 2.185170e-01 2.276108e-01 2.392028e-01 2.933926e-01 1.880214e-01 1.243637e-02
<GCONST> 8.113601e+01
<STATE> 4
<MEAN> 39
 -1.358662e+00 8.448997e+00 9.864808e-01 1.096301e+00 -2.323688e+00 -1.112345e+00 9.705546e-01 -3.405089e+00 -9.398251e+00 -4.455699e+00 -2.915140e+00 6.304215e-01 5.565823e+01 -5.796504e-01 -4.645684e-01 1.256853e-01 3.697258e-01 3.079657e-01 1.633158e-01 -1.559683e-01 3.764090e-01 8.776041e-01 -2.647705e-02 1.321059e-01 -2.151623e-01 -5.143163e-01 -3.740206e-03 7.630019e-04 -4.447383e-02 -5.973378e-02 2.556154e-02 -7.315718e-03 3.808148e-02 -2.260512e-02 -2.005283e-02 1.974775e-02 1.298536e-02 -5.859165e-03 2.054752e-02
<VARIANCE> 39
 1.672579e+01 1.299618e+01 1.265083e+01 1.328059e+01 1.974848e+01 2.098250e+01 2.843040e+01 3.798912e+01 4.925425e+01 2.492672e+01 1.751793e+01 2.107325e+01 2.208079e+01 2.111225e-01 4.552987e-01 8.194023e-01 1.115902e+00 1.243511e+00 1.585838e+00 1.807601e+00 1.598750e+00 1.974059e+00 2.047303e+00 1.288427e+00 1.771027e+00 9.752114e-02 3.568908e-02 7.501990e-02 1.448912e-01 1.972413e-01 2.716539e-01 3.204560e-01 3.394294e-01 2.957665e-01 3.802272e-01 4.098291e-01 2.332613e-01 3.335532e-01 1.359754e-02
<GCONST> 8.758747e+01
<TRANSP> 5
 0.000000e+00 1.000000e+00 0.000000e+00 0.000000e+00 0.000000e+00
 0.000000e+00 7.382613e-01 2.617387e-01 0.000000e+00 0.000000e+00
 0.000000e+00 0.000000e+00 9.452855e-01 5.471458e-02 0.000000e+00
 0.000000e+00 0.000000e+00 0.000000e+00 9.475730e-01 5.242696e-02
 0.000000e+00 0.000000e+00 0.000000e+00 0.000000e+00 0.000000e+00
<ENDHMM>
~h "sil"
<BEGINHMM>
<NUMSTATES> 5
<STATE> 2
<MEAN> 39
 -9.123671e+00 -2.266750e-01 -1.139548e+00 1.486774e+00 1.445819e+00 -7.530124e-01 1.266842e+00 1.927442e+00 1.711890e+00 1.400467e+00 2.269660e+00 2.928382e-01 5.477966e+01 2.427747e-02 2.379481e-02 9.670778e-02 1.984323e-01 9.542916e-02 1.964119e-01 9.485555e-02 -7.919904e-02 -9.834446e-02 -1.913455e-01 2.974653e-02 6.397157e-02 1.250271e-01 -3.103215e-02 -3.520822e-02 -4.674936e-02 -1.607767e-02 -7.396849e-03 -1.237324e-02 -3.279929e-02 -2.728398e-03 -2.317708e-02 1.021117e-02 -3.347669e-02 -9.342090e-03 -7.933559e-02
<VARIANCE> 39
 1.779354e+01 1.265661e+01 1.456942e+01 2.272043e+01 2.768667e+01 2.602408e+01 2.055555e+01 2.283663e+01 2.426238e+01 2.566831e+01 1.944971e+01 1.626128e+01 4.998271e+01 6.877622e-01 4.061908e-01 7.474614e-01 9.563877e-01 1.379532e+00 1.389062e+00 1.549437e+00 1.756001e+00 1.923898e+00 1.792633e+00 1.601906e+00 1.405343e+00 3.010134e+00 6.377531e-02 6.284523e-02 1.089458e-01 1.516716e-01 2.049751e-01 2.034878e-01 2.577997e-01 2.960544e-01 3.238854e-01 2.888118e-01 2.766681e-01 2.261993e-01 2.808982e-01
<GCONST> 9.313966e+01
<STATE> 3
~s "silst"
<STATE> 4
<MEAN> 39
 -1.037968e+01 1.975975e-01 -9.210749e-01 2.735110e+00 1.572278e+00 1.476805e+00 1.082686e+00 1.682295e+00 8.343925e-01 -3.285238e-01 7.489457e-01 4.872469e-01 5.177334e+01 4.510691e-01 5.788520e-01 5.633598e-01 3.082897e-01 1.526128e-02 -2.861185e-01 -3.733246e-01 -2.254599e-01 -3.080686e-01 -2.076690e-01 -2.431317e-01 -1.688012e-01 2.782746e-01 2.175431e-01 1.706420e-01 1.844075e-01 -2.969396e-02 -2.721535e-01 -3.961813e-01 -2.824231e-01 -1.513228e-01 -1.884427e-01 -5.757585e-02 -2.280472e-02 -7.718001e-03 3.238356e-01
<VARIANCE> 39
 5.752586e+00 9.107797e+00 1.003994e+01 1.898644e+01 1.448393e+01 1.676307e+01 1.652459e+01 1.870540e+01 1.703826e+01 1.811194e+01 1.858525e+01 1.410063e+01 2.033438e+01 9.731444e-01 1.523680e+00 1.477579e+00 1.465844e+00 1.558042e+00 1.911386e+00 2.019660e+00 2.391124e+00 1.955544e+00 1.768599e+00 1.733823e+00 1.370284e+00 3.439791e-01 2.558661e-01 2.656016e-01 2.980582e-01 3.806146e-01 4.127793e-01 4.168598e-01 3.962390e-01 4.726553e-01 3.701813e-01 3.747371e-01 3.368783e-01 2.838813e-01 1.389021e-01
<GCONST> 9.670004e+01
<TRANSP> 5
 0.000000e+00 1.000000e+00 0.000000e+00 0.000000e+00 0.000000e+00
 0.000000e+00 6.315060e-01 2.971186e-01 7.137538e-02 0.000000e+00
 0.000000e+00 0.000000e+00 9.152290e-01 8.477093e-02 0.000000e+00
 0.000000e+00 4.092965e-02 0.000000e+00 4.790832e-01 4.799871e-01
 0.000000e+00 0.000000e+00 0.000000e+00 0.000000e+00 0.000000e+00
<ENDHMM>
