~o
<STREAMINFO> 1 39
<VECSIZE> 39<NULLD><MFCC_D_A_0><DIAGC>
~h "c"
<BEGINHMM>
<NUMSTATES> 5
<STATE> 2
<MEAN> 39
 -9.495895e+00 4.183605e+00 6.378600e+00 4.112555e-02 -3.564730e+00 -5.187549e+00 -1.734619e+00 6.351355e-01 -6.886890e+00 -6.448665e-01 1.410220e+00 -2.686125e+00 6.073423e+01 -1.674990e-01 1.603804e-01 4.507421e-01 3.422584e-02 -2.832326e-01 -1.266969e-01 -1.855943e-03 3.489354e-02 -3.638912e-01 -4.270646e-02 3.204258e-02 -8.504054e-02 1.808686e-01 9.131713e-03 4.219568e-03 4.102742e-03 2.204935e-02 -2.103716e-02 -1.633046e-02 4.893149e-03 -1.183021e-02 -6.717988e-03 1.994130e-03 2.781124e-04 -1.494807e-03 1.078394e-02
<VARIANCE> 39
 6.478887e+01 3.202911e+01 1.013652e+02 4.565186e+01 8.656049e+01 6.930627e+01 3.395840e+01 6.269135e+01 1.178572e+02 2.923636e+01 3.177575e+01 3.354348e+01 8.300343e+01 3.433674e+00 1.056229e+00 2.138232e+00 3.533984e+00 3.808128e+00 2.561860e+00 2.389862e+00 2.847132e+00 3.158308e+00 1.805941e+00 1.913009e+00 1.714784e+00 1.231645e+00 6.378145e-01 1.874042e-01 2.611518e-01 6.564642e-01 5.326878e-01 4.190806e-01 4.396906e-01 5.245411e-01 4.689031e-01 3.452241e-01 3.588510e-01 2.920831e-01 1.235003e-01
<GCONST> 1.212742e+02
<STATE> 3
<MEAN> 39
 -1.005902e+01 4.884350e+00 8.222838e+00 4.081282e-01 -4.881249e+00 -5.833580e+00 -1.660553e+00 6.783379e-01 -8.449456e+00 -8.183168e-01 1.567846e+00 -3.007970e+00 6.153901e+01 -1.191416e-01 1.760885e-01 4.332424e-01 1.127279e-01 -3.211831e-01 -1.774128e-01 3.286582e-02 -5.723552e-03 -3.669554e-01 -3.455381e-02 3.186639e-02 -7.662620e-02 2.040259e-01 1.099253e-02 2.591009e-03 -1.042987e-02 1.662282e-02 -1.699197e-03 -9.690372e-03 8.534738e-03 -8.076802e-03 5.422612e-03 2.292987e-03 -6.756088e-04 4.415884e-03 1.445523e-03
<VARIANCE> 39
 6.220799e+01 3.147557e+01 1.084187e+02 4.572152e+01 9.793941e+01 6.901830e+01 3.497776e+01 5.822660e+01 1.160326e+02 2.987280e+01 3.287820e+01 3.262040e+01 7.807120e+01 3.523223e+00 1.016737e+00 2.193015e+00 3.406769e+00 4.086783e+00 2.681689e+00 2.357776e+00 2.759345e+00 3.146237e+00 1.753570e+00 1.880547e+00 1.637933e+00 1.208354e+00 6.526582e-01 1.772387e-01 2.611967e-01 6.389263e-01 5.511459e-01 4.358620e-01 4.348231e-01 5.033059e-01 4.639135e-01 3.347909e-01 3.527253e-01 2.806994e-01 1.188021e-01
<GCONST> 1.210674e+02
<STATE> 4
<MEAN> 39
 -1.070344e+01 5.953194e+00 1.046535e+01 1.277648e+00 -6.619523e+00 -6.994504e+00 -1.230492e+00 7.300256e-01 -1.053237e+01 -9.702020e-01 1.812751e+00 -3.341100e+00 6.260790e+01 -8.347809e-02 1.822422e-01 3.010032e-01 1.385341e-01 -1.962616e-01 -2.052201e-01 9.143618e-02 -1.404686e-02 -2.882209e-01 -4.602879e-03 1.680686e-02 -3.576511e-02 1.719935e-01 2.209430e-03 -1.350895e-03 -2.519556e-02 -1.046569e-04 2.631028e-02 -9.007546e-04 6.666911e-03 1.361497e-03 1.873021e-02 5.371172e-03 -3.452537e-03 7.266054e-03 -8.491180e-03
<VARIANCE> 39
 5.315511e+01 3.097104e+01 1.073194e+02 4.405953e+01 1.086975e+02 6.996484e+01 3.715110e+01 5.287601e+01 1.113650e+02 2.979937e+01 3.431183e+01 3.038098e+01 7.075781e+01 3.162802e+00 9.569717e-01 2.148217e+00 3.059816e+00 3.963806e+00 2.767116e+00 2.125911e+00 2.496634e+00 3.021494e+00 1.669758e+00 1.798558e+00 1.541952e+00 1.080715e+00 5.783159e-01 1.605333e-01 2.455270e-01 5.769201e-01 5.048165e-01 4.505977e-01 3.917930e-01 4.469255e-01 4.454290e-01 3.186989e-01 3.357648e-01 2.676261e-01 1.041402e-01
<GCONST> 1.189728e+02
<TRANSP> 5
 0.000000e+00 1.000000e+00 0.000000e+00 0.000000e+00 0.000000e+00
 0.000000e+00 7.581780e-01 2.418220e-01 0.000000e+00 0.000000e+00
 0.000000e+00 0.000000e+00 7.581780e-01 2.418220e-01 0.000000e+00
 0.000000e+00 0.000000e+00 0.000000e+00 8.831733e-01 1.168266e-01
 0.000000e+00 0.000000e+00 0.000000e+00 0.000000e+00 0.000000e+00
<ENDHMM>
~h "g"
<BEGINHMM>
<NUMSTATES> 5
<STATE> 2
<MEAN> 39
 -2.590091e+00 1.431257e+00 2.514598e+00 5.183437e+00 -3.848610e+00 -1.217909e+01 -4.564939e+00 -1.666692e+00 -2.917443e+00 -1.334027e+00 3.107541e+00 1.423735e-02 6.211980e+01 1.472331e-01 -5.561527e-02 -9.417128e-02 2.983231e-02 1.414629e-04 -2.062768e-01 -9.886620e-02 -1.515746e-01 -1.976356e-02 5.444631e-02 7.225234e-02 6.111552e-02 2.210173e-01 1.109866e-03 2.928123e-04 1.846456e-03 -1.706481e-03 -2.110434e-03 3.086893e-03 1.081761e-03 -5.042273e-03 2.556920e-03 3.624606e-03 -3.692606e-03 -3.719015e-03 5.168380e-03
<VARIANCE> 39
 3.425822e+01 2.504491e+01 3.093196e+01 3.645319e+01 5.278779e+01 1.102697e+02 5.052620e+01 7.200877e+01 5.129011e+01 4.554600e+01 3.684344e+01 3.138747e+01 8.776009e+01 9.989396e-01 1.533056e+00 1.575310e+00 2.103070e+00 2.787684e+00 3.911576e+00 3.197376e+00 3.279912e+00 2.704697e+00 2.691481e+00 2.457559e+00 2.085415e+00 1.356379e+00 1.496091e-01 2.500985e-01 2.512842e-01 3.553601e-01 4.285955e-01 6.180468e-01 5.933473e-01 5.621032e-01 4.290029e-01 5.049784e-01 4.658266e-01 3.943823e-01 1.314654e-01
<GCONST> 1.185186e+02
<STATE> 3
<MEAN> 39
 -1.999242e+00 1.206043e+00 2.183489e+00 5.303631e+00 -3.899121e+00 -1.298620e+01 -4.952154e+00 -2.271935e+00 -2.960044e+00 -1.127918e+00 3.373620e+00 2.336085e-01 6.303240e+01 1.485518e-01 -5.399150e-02 -8.470728e-02 2.589880e-02 -7.764381e-03 -1.933487e-01 -9.360335e-02 -1.628703e-01 -1.688865e-03 6.761594e-02 5.485199e-02 4.434534e-02 2.342283e-01 -1.915064e-03 -4.997019e-04 3.080083e-03 -2.355062e-04 -2.767978e-03 4.249255e-03 1.114837e-03 1.050689e-03 8.132859e-03 2.560470e-03 -5.177572e-03 -5.381409e-03 1.453985e-03
<VARIANCE> 39
 3.207497e+01 2.432093e+01 2.920284e+01 3.669401e+01 5.147800e+01 1.053374e+02 5.070790e+01 7.610283e+01 5.306759e+01 4.726662e+01 3.690026e+01 3.253842e+01 8.430456e+01 9.647327e-01 1.545008e+00 1.679983e+00 2.168278e+00 2.766898e+00 3.902637e+00 3.243836e+00 3.363418e+00 2.819133e+00 2.808744e+00 2.519772e+00 2.159908e+00 1.319233e+00 1.460613e-01 2.489812e-01 2.685246e-01 3.634709e-01 4.268037e-01 6.183406e-01 6.058812e-01 5.756846e-01 4.408635e-01 5.299879e-01 4.800510e-01 4.069924e-01 1.325796e-01
<GCONST> 1.188901e+02
<STATE> 4
<MEAN> 39
 -1.227605e+00 8.377532e-01 1.796341e+00 5.550300e+00 -4.063863e+00 -1.380427e+01 -5.545256e+00 -3.337484e+00 -2.888279e+00 -9.777346e-01 3.692201e+00 5.133607e-01 6.411717e+01 1.350610e-01 -5.280389e-02 -6.805675e-02 2.579289e-02 -1.846984e-02 -1.687195e-01 -8.060390e-02 -1.428539e-01 4.711318e-02 7.630148e-02 2.790269e-02 1.872626e-02 2.260578e-01 -5.955113e-03 1.037229e-04 2.872686e-03 1.109397e-04 -1.221014e-03 7.031709e-03 2.950788e-03 8.642955e-03 1.157731e-02 1.234669e-03 -6.230667e-03 -5.378385e-03 -5.392387e-03
<VARIANCE> 39
 2.833972e+01 2.338800e+01 2.744151e+01 3.688428e+01 4.954211e+01 9.338913e+01 4.959112e+01 8.040983e+01 5.673604e+01 4.879144e+01 3.675938e+01 3.352771e+01 7.447053e+01 8.972428e-01 1.512449e+00 1.795635e+00 2.202029e+00 2.683050e+00 3.743941e+00 3.192593e+00 3.344755e+00 2.893890e+00 2.884588e+00 2.546858e+00 2.221445e+00 1.264488e+00 1.366045e-01 2.401742e-01 2.861808e-01 3.638039e-01 4.171479e-01 5.954573e-01 6.001871e-01 5.721717e-01 4.457000e-01 5.488563e-01 4.896689e-01 4.166905e-01 1.318786e-01
<GCONST> 1.184580e+02
<TRANSP> 5
 0.000000e+00 1.000000e+00 0.000000e+00 0.000000e+00 0.000000e+00
 0.000000e+00 7.384748e-01 2.615252e-01 0.000000e+00 0.000000e+00
 0.000000e+00 0.000000e+00 7.384750e-01 2.615249e-01 0.000000e+00
 0.000000e+00 0.000000e+00 0.000000e+00 8.618358e-01 1.381642e-01
 0.000000e+00 0.000000e+00 0.000000e+00 0.000000e+00 0.000000e+00
<ENDHMM>
~h "j"
<BEGINHMM>
<NUMSTATES> 5
<STATE> 2
<MEAN> 39
 -8.126917e+00 -4.408318e-01 -1.548758e+00 -3.448804e+00 3.192063e+00 -4.962493e+00 -2.550228e+00 5.905569e+00 1.033183e+00 1.463457e+00 1.301973e+00 -6.954319e+00 6.588515e+01 -3.716917e-01 8.055673e-02 1.737813e-01 -4.901825e-02 3.424528e-02 1.490465e-01 -9.622487e-02 2.615273e-01 -6.888964e-02 -7.580158e-02 9.981956e-02 2.699636e-01 -2.894349e-01 1.545250e-02 -6.404308e-03 -3.168889e-03 1.416621e-02 -9.762007e-03 -2.593645e-03 1.154928e-02 -1.559783e-02 -6.810841e-04 1.958707e-03 -3.387770e-03 -4.858851e-03 -1.463500e-02
<VARIANCE> 39
 6.779419e+01 2.603002e+01 4.506491e+01 4.935669e+01 4.082994e+01 5.087505e+01 4.254455e+01 6.751133e+01 3.593356e+01 3.333653e+01 2.899338e+01 6.584377e+01 6.487375e+01 2.607314e+00 1.759488e+00 1.590546e+00 2.933357e+00 3.000221e+00 2.872969e+00 2.848012e+00 3.130122e+00 2.399739e+00 2.354996e+00 1.863739e+00 2.898095e+00 1.087854e+00 4.102037e-01 3.149295e-01 2.335678e-01 4.873034e-01 5.503685e-01 5.079468e-01 5.128536e-01 5.429385e-01 4.535063e-01 4.540804e-01 3.417874e-01 5.098841e-01 1.441584e-01
<GCONST> 1.201480e+02
<STATE> 3
<MEAN> 39
 -9.572868e+00 -1.130282e-01 -8.465332e-01 -3.573629e+00 3.298647e+00 -4.362512e+00 -2.896031e+00 6.882862e+00 7.405451e-01 1.153400e+00 1.697516e+00 -5.870949e+00 6.463947e+01 -2.986177e-01 5.353760e-02 1.580693e-01 9.104949e-03 -6.969643e-03 1.362048e-01 -4.489332e-02 1.887023e-01 -7.168593e-02 -6.599442e-02 8.141629e-02 2.450528e-01 -3.443984e-01 2.701449e-02 -6.490409e-03 -8.027102e-03 1.516550e-02 -9.014854e-03 -8.806204e-04 1.433756e-02 -2.709766e-02 -1.429733e-03 4.025202e-03 -9.119555e-03 -9.340443e-03 -1.273015e-02
<VARIANCE> 39
 6.664838e+01 2.429777e+01 4.209497e+01 4.735258e+01 4.096222e+01 4.884635e+01 3.890105e+01 6.236084e+01 3.461360e+01 3.250185e+01 2.831828e+01 5.957933e+01 6.647318e+01 2.658385e+00 1.727636e+00 1.495085e+00 2.850831e+00 3.031847e+00 2.733753e+00 2.676281e+00 3.080868e+00 2.412805e+00 2.371441e+00 1.855681e+00 2.643745e+00 1.018818e+00 4.153758e-01 3.134548e-01 2.231115e-01 4.787039e-01 5.576161e-01 4.875085e-01 4.905175e-01 5.296322e-01 4.621740e-01 4.593170e-01 3.381919e-01 4.748299e-01 1.366233e-01
<GCONST> 1.189701e+02
<STATE> 4
<MEAN> 39
 -1.084998e+01 1.904153e-01 -2.888463e-02 -3.316981e+00 3.188580e+00 -3.620317e+00 -3.021936e+00 7.426644e+00 3.509032e-01 8.129777e-01 2.151651e+00 -4.716767e+00 6.280290e+01 -1.730809e-01 3.122418e-02 1.316690e-01 7.530577e-02 -5.525717e-02 1.221227e-01 2.563081e-02 5.428232e-02 -8.641411e-02 -4.748989e-02 4.363760e-02 2.004089e-01 -3.827364e-01 2.858044e-02 -4.315573e-03 -8.770552e-03 1.082440e-02 -8.626175e-03 5.269641e-04 1.336491e-02 -3.355802e-02 -3.667502e-03 4.209778e-03 -8.033394e-03 -8.682228e-03 -4.172078e-03
<VARIANCE> 39
 5.782457e+01 2.191759e+01 3.904063e+01 4.185999e+01 4.207735e+01 4.604703e+01 3.491060e+01 5.466906e+01 3.512521e+01 3.005830e+01 2.720140e+01 4.792090e+01 6.899947e+01 2.519814e+00 1.554654e+00 1.384859e+00 2.584965e+00 2.909850e+00 2.538366e+00 2.423000e+00 2.885799e+00 2.366180e+00 2.300627e+00 1.798895e+00 2.280814e+00 9.150469e-01 3.945394e-01 2.852352e-01 2.087584e-01 4.443077e-01 5.308422e-01 4.553089e-01 4.539066e-01 4.939518e-01 4.567311e-01 4.487675e-01 3.242927e-01 4.178323e-01 1.194232e-01
<GCONST> 1.161293e+02
<TRANSP> 5
 0.000000e+00 1.000000e+00 0.000000e+00 0.000000e+00 0.000000e+00
 0.000000e+00 7.530623e-01 2.469377e-01 0.000000e+00 0.000000e+00
 0.000000e+00 0.000000e+00 7.530625e-01 2.469374e-01 0.000000e+00
 0.000000e+00 0.000000e+00 0.000000e+00 8.779148e-01 1.220851e-01
 0.000000e+00 0.000000e+00 0.000000e+00 0.000000e+00 0.000000e+00
<ENDHMM>
~h "k"
<BEGINHMM>
<NUMSTATES> 5
<STATE> 2
<MEAN> 39
 -4.887543e+00 -2.698437e-01 1.824606e-01 2.697821e+00 -4.000255e+00 -1.033372e+01 -2.060425e+00 1.868168e+00 -2.290211e+00 1.901953e+00 4.484975e+00 -1.843922e+00 6.272500e+01 2.466575e-02 -4.963375e-02 -9.305831e-02 -4.622948e-03 7.843663e-02 2.789404e-02 1.965153e-02 -9.078443e-03 3.457033e-02 9.195259e-02 2.910159e-02 6.495101e-04 -4.800676e-02 -4.692605e-03 -2.916655e-03 2.869185e-03 -2.907143e-03 2.680256e-03 1.940987e-03 2.564102e-03 7.459331e-04 1.515171e-03 -1.220076e-03 -2.441283e-03 -1.725549e-04 -4.379626e-04
<VARIANCE> 39
 3.752843e+01 2.645052e+01 6.471889e+01 4.260014e+01 6.529266e+01 1.037834e+02 4.146127e+01 6.621543e+01 6.431161e+01 5.480972e+01 4.486579e+01 4.849772e+01 7.397513e+01 1.512406e+00 1.306073e+00 3.021181e+00 1.823127e+00 3.108551e+00 3.924971e+00 2.592835e+00 2.804293e+00 2.887479e+00 3.307480e+00 2.759583e+00 2.524077e+00 1.940407e+00 2.239200e-01 2.521753e-01 5.198887e-01 3.137711e-01 5.492631e-01 5.742986e-01 4.738192e-01 5.085000e-01 4.943675e-01 6.110725e-01 5.152164e-01 4.486305e-01 2.124906e-01
<GCONST> 1.236527e+02
<STATE> 3
<MEAN> 39
 -4.830678e+00 -4.707421e-01 -1.327478e-01 2.677145e+00 -3.693585e+00 -1.018204e+01 -1.960976e+00 1.846140e+00 -2.139516e+00 2.231989e+00 4.567099e+00 -1.820961e+00 6.249227e+01 3.129218e-03 -5.514586e-02 -7.760058e-02 -1.716763e-02 8.694036e-02 4.425890e-02 2.545321e-02 -6.563593e-03 4.381642e-02 8.227577e-02 1.217824e-02 5.059909e-03 -5.843917e-02 -5.816141e-03 -6.431022e-05 7.415570e-03 -1.394328e-03 -4.844362e-04 2.970553e-03 1.979115e-03 2.422539e-03 1.631181e-03 -6.812579e-03 -5.475157e-03 2.062879e-03 -3.346802e-03
<VARIANCE> 39
 3.571285e+01 2.637770e+01 6.278428e+01 4.118896e+01 6.551118e+01 1.027870e+02 4.070893e+01 6.389281e+01 6.089902e+01 5.553375e+01 4.490993e+01 4.759672e+01 7.407772e+01 1.472406e+00 1.320546e+00 3.070982e+00 1.777474e+00 3.154064e+00 3.911290e+00 2.535186e+00 2.819919e+00 2.911078e+00 3.408925e+00 2.797310e+00 2.492304e+00 1.943743e+00 2.236392e-01 2.566407e-01 5.246874e-01 3.076726e-01 5.542989e-01 5.684987e-01 4.646707e-01 5.131395e-01 5.018956e-01 6.289229e-01 5.238749e-01 4.429972e-01 2.127681e-01
<GCONST> 1.234721e+02
<STATE> 4
<MEAN> 39
 -4.916770e+00 -7.290090e-01 -4.246003e-01 2.670029e+00 -3.243388e+00 -9.775378e+00 -1.807654e+00 1.765245e+00 -2.027880e+00 2.454918e+00 4.579565e+00 -1.682922e+00 6.186742e+01 -3.069803e-02 -4.869536e-02 -4.871932e-02 -2.100094e-02 8.120485e-02 6.699856e-02 2.922303e-02 8.590627e-03 5.622604e-02 4.769582e-02 -1.514801e-02 1.884209e-02 -8.628844e-02 -6.018844e-03 2.736416e-03 8.131166e-03 1.076582e-03 -4.582864e-03 3.051415e-03 1.397712e-03 4.010353e-03 1.106150e-03 -1.159434e-02 -4.942043e-03 2.211074e-03 -5.166142e-03
<VARIANCE> 39
 3.359647e+01 2.568346e+01 5.912848e+01 3.870834e+01 6.595219e+01 1.042592e+02 3.930884e+01 6.020293e+01 5.711707e+01 5.533953e+01 4.432188e+01 4.581545e+01 7.602163e+01 1.367999e+00 1.288096e+00 2.960126e+00 1.704155e+00 3.126652e+00 3.792915e+00 2.405761e+00 2.757935e+00 2.924273e+00 3.412460e+00 2.774035e+00 2.381454e+00 1.877919e+00 2.117769e-01 2.523981e-01 5.025031e-01 2.991284e-01 5.460669e-01 5.497839e-01 4.442661e-01 5.045446e-01 5.090214e-01 6.283628e-01 5.199022e-01 4.239242e-01 2.038012e-01
<GCONST> 1.223873e+02
<TRANSP> 5
 0.000000e+00 1.000000e+00 0.000000e+00 0.000000e+00 0.000000e+00
 0.000000e+00 7.394085e-01 2.605914e-01 0.000000e+00 0.000000e+00
 0.000000e+00 0.000000e+00 7.394069e-01 2.605931e-01 0.000000e+00
 0.000000e+00 0.000000e+00 0.000000e+00 8.618340e-01 1.381660e-01
 0.000000e+00 0.000000e+00 0.000000e+00 0.000000e+00 0.000000e+00
<ENDHMM>
~h "l"
<BEGINHMM>
<NUMSTATES> 5
<STATE> 2
<MEAN> 39
 -2.259906e+00 1.774370e+00 7.376543e-01 2.928009e+00 -1.976003e+00 -9.197521e+00 -2.754475e+00 -2.213081e+00 -8.794559e-01 1.289232e+00 2.243383e+00 -1.915948e+00 6.377478e+01 -5.690518e-02 -4.309419e-02 -1.150689e-03 1.975277e-02 8.068975e-02 1.320268e-01 -2.919299e-02 1.380394e-01 1.991396e-01 -1.143164e-03 -5.866693e-02 -3.466792e-02 -1.608343e-01 -9.144952e-03 -3.826127e-03 -4.020629e-03 -7.330415e-03 -1.204568e-03 1.475799e-03 5.512254e-03 6.768660e-03 -3.103428e-03 -1.088383e-03 1.739359e-04 -2.181988e-03 -3.972257e-03
<VARIANCE> 39
 3.022305e+01 2.456226e+01 4.187029e+01 3.975733e+01 4.600047e+01 8.684319e+01 5.024152e+01 6.776089e+01 6.801482e+01 4.079093e+01 3.263296e+01 4.073941e+01 6.379482e+01 8.364931e-01 1.014131e+00 1.827951e+00 1.812022e+00 2.054774e+00 2.826319e+00 2.664153e+00 2.576643e+00 2.308345e+00 2.354430e+00 2.161157e+00 2.013712e+00 8.519617e-01 1.140078e-01 1.598099e-01 2.742341e-01 3.046413e-01 3.507454e-01 4.559501e-01 4.664965e-01 4.413497e-01 3.791601e-01 4.499480e-01 4.075876e-01 3.551610e-01 7.582419e-02
<GCONST> 1.129467e+02
<STATE> 3
<MEAN> 39
 -2.525015e+00 1.581232e+00 7.007420e-01 2.980106e+00 -1.646577e+00 -8.670657e+00 -2.833969e+00 -1.641644e+00 -9.941249e-02 1.279019e+00 2.012178e+00 -2.076558e+00 6.311866e+01 -9.072229e-02 -5.842993e-02 -2.149520e-02 -1.206404e-02 7.505179e-02 1.345737e-01 -4.413319e-03 1.577344e-01 1.789550e-01 -4.288324e-03 -5.590717e-02 -4.455248e-02 -1.695631e-01 -6.845369e-03 -3.323020e-03 -6.364639e-03 -8.514981e-03 -1.309027e-03 6.332718e-04 7.011130e-03 1.465193e-03 -7.942654e-03 2.412749e-04 1.515945e-03 -2.732267e-03 -1.393714e-03
<VARIANCE> 39
 2.820209e+01 2.341838e+01 3.857866e+01 3.753409e+01 4.415847e+01 8.698862e+01 4.903205e+01 6.493937e+01 6.311822e+01 3.904440e+01 3.085880e+01 4.422298e+01 6.807255e+01 7.715264e-01 1.002449e+00 1.811634e+00 1.743125e+00 2.003206e+00 2.757169e+00 2.663415e+00 2.529388e+00 2.245934e+00 2.289443e+00 2.066686e+00 2.022137e+00 8.443177e-01 1.074526e-01 1.597533e-01 2.706750e-01 2.951260e-01 3.429664e-01 4.449870e-01 4.658633e-01 4.380225e-01 3.735746e-01 4.367118e-01 3.936076e-01 3.499648e-01 7.132786e-02
<GCONST> 1.119272e+02
<STATE> 4
<MEAN> 39
 -3.077524e+00 1.218179e+00 4.709687e-01 2.859733e+00 -1.159932e+00 -7.799872e+00 -2.687107e+00 -8.941349e-01 7.272201e-01 1.234057e+00 1.769753e+00 -2.451144e+00 6.207691e+01 -1.173227e-01 -7.175253e-02 -5.298827e-02 -5.259517e-02 6.710941e-02 1.301232e-01 2.866995e-02 1.535992e-01 1.299379e-01 -4.339709e-03 -4.681276e-02 -5.672791e-02 -1.599526e-01 -3.642520e-03 -1.055813e-03 -5.652745e-03 -6.801774e-03 -9.838128e-04 9.080724e-04 5.973774e-03 -3.481223e-03 -1.196251e-02 6.418680e-04 2.262630e-03 -1.923115e-03 1.460578e-03
<VARIANCE> 39
 2.704127e+01 2.237433e+01 3.666486e+01 3.534890e+01 4.138480e+01 8.251160e+01 4.865811e+01 6.002943e+01 5.619237e+01 3.699269e+01 2.849953e+01 5.008599e+01 7.529588e+01 7.366198e-01 9.745623e-01 1.763353e+00 1.652063e+00 1.941274e+00 2.577165e+00 2.651213e+00 2.453252e+00 2.187826e+00 2.178368e+00 1.954220e+00 2.037928e+00 8.399306e-01 1.061577e-01 1.572387e-01 2.623825e-01 2.804899e-01 3.317881e-01 4.190922e-01 4.632586e-01 4.325588e-01 3.673678e-01 4.132579e-01 3.750416e-01 3.458607e-01 6.658580e-02
<GCONST> 1.106597e+02
<TRANSP> 5
 0.000000e+00 1.000000e+00 0.000000e+00 0.000000e+00 0.000000e+00
 0.000000e+00 7.474483e-01 2.525517e-01 0.000000e+00 0.000000e+00
 0.000000e+00 0.000000e+00 7.474475e-01 2.525525e-01 0.000000e+00
 0.000000e+00 0.000000e+00 0.000000e+00 8.716233e-01 1.283767e-01
 0.000000e+00 0.000000e+00 0.000000e+00 0.000000e+00 0.000000e+00
<ENDHMM>
~h "m"
<BEGINHMM>
<NUMSTATES> 5
<STATE> 2
<MEAN> 39
 -2.625464e+00 9.966476e-02 2.336648e-02 3.851849e+00 -2.106009e+00 -7.014834e+00 -2.607187e+00 3.678457e-01 -2.194032e+00 9.978104e-02 3.297276e+00 -2.381302e+00 6.235821e+01 3.085723e-02 -6.226652e-02 -1.446448e-02 3.108248e-02 2.968591e-02 1.051409e-01 1.858554e-03 1.718172e-02 8.300633e-02 -6.766330e-02 1.856387e-03 1.971109e-02 -7.212115e-02 -9.455618e-03 7.270876e-04 -9.939669e-04 -6.589801e-03 -3.490063e-03 -7.097648e-03 -6.695996e-04 1.833351e-03 -2.825095e-03 2.116318e-03 -2.425433e-03 3.188270e-03 -1.295364e-03
<VARIANCE> 39
 3.389095e+01 2.451096e+01 2.727749e+01 3.168723e+01 3.461578e+01 8.071484e+01 3.727115e+01 5.997992e+01 4.707068e+01 4.138290e+01 3.435415e+01 3.246861e+01 7.999005e+01 9.649700e-01 9.033364e-01 1.732425e+00 1.662138e+00 2.426954e+00 2.931092e+00 2.679168e+00 2.910596e+00 2.526908e+00 2.495295e+00 2.431508e+00 2.195580e+00 1.361395e+00 1.143194e-01 1.500077e-01 2.722910e-01 3.047123e-01 4.720606e-01 5.055191e-01 5.118741e-01 4.448406e-01 4.576985e-01 4.254685e-01 4.778826e-01 3.916079e-01 1.551347e-01
<GCONST> 1.139003e+02
<STATE> 3
<MEAN> 39
 -2.520681e+00 -1.292384e-01 -3.927932e-02 3.936024e+00 -2.034410e+00 -6.676780e+00 -2.603303e+00 4.204856e-01 -1.911397e+00 -1.145003e-01 3.307119e+00 -2.305421e+00 6.211325e+01 -1.583084e-03 -5.977824e-02 -2.294684e-02 4.241039e-03 1.740145e-02 8.093408e-02 2.954508e-03 1.856122e-02 6.867003e-02 -5.416000e-02 -6.744965e-03 2.799104e-02 -7.463513e-02 -6.774816e-03 3.585765e-04 -4.660327e-03 -7.249638e-03 -4.002793e-03 -5.830642e-03 6.870756e-04 -5.708980e-04 -5.074093e-03 6.174675e-03 -7.830631e-04 4.142367e-04 1.060108e-03
<VARIANCE> 39
 3.159546e+01 2.434071e+01 2.614431e+01 3.043204e+01 3.490696e+01 7.816030e+01 3.744500e+01 5.934349e+01 4.417307e+01 4.039080e+01 3.475415e+01 3.311644e+01 8.344201e+01 8.765391e-01 8.961707e-01 1.678772e+00 1.641379e+00 2.392479e+00 2.828407e+00 2.713348e+00 3.007566e+00 2.508221e+00 2.387224e+00 2.448013e+00 2.225003e+00 1.356248e+00 1.048696e-01 1.483479e-01 2.671546e-01 3.017018e-01 4.666047e-01 4.914800e-01 5.184287e-01 4.585983e-01 4.561346e-01 4.123079e-01 4.783289e-01 3.947124e-01 1.525621e-01
<GCONST> 1.133426e+02
<STATE> 4
<MEAN> 39
 -2.433736e+00 -5.532846e-01 -1.999562e-01 3.924148e+00 -2.066413e+00 -6.322978e+00 -2.562351e+00 4.428992e-01 -1.725141e+00 -3.780795e-01 3.389963e+00 -2.186753e+00 6.183075e+01 -2.098378e-02 -5.454452e-02 -4.556099e-02 -2.571124e-02 1.943428e-03 5.642598e-02 1.414157e-02 9.702084e-03 4.296677e-02 -2.358926e-02 -8.598268e-03 2.540303e-02 -6.311390e-02 -3.004946e-03 1.002591e-03 -4.841038e-03 -5.278356e-03 -2.132074e-03 -2.966938e-03 2.904157e-03 -1.485590e-03 -5.600465e-03 6.655170e-03 2.469342e-03 -1.877050e-03 2.620778e-03
<VARIANCE> 39
 3.021918e+01 2.441431e+01 2.463476e+01 2.906122e+01 3.565868e+01 7.528919e+01 3.838614e+01 5.972477e+01 4.188004e+01 3.898735e+01 3.588905e+01 3.423245e+01 8.765015e+01 7.941719e-01 8.879808e-01 1.628354e+00 1.627880e+00 2.323838e+00 2.695813e+00 2.759915e+00 3.087504e+00 2.492167e+00 2.269397e+00 2.455039e+00 2.254006e+00 1.338891e+00 9.797104e-02 1.471797e-01 2.653908e-01 2.992863e-01 4.531508e-01 4.733132e-01 5.251896e-01 4.657320e-01 4.515804e-01 4.007933e-01 4.734693e-01 4.002507e-01 1.503822e-01
<GCONST> 1.128236e+02
<TRANSP> 5
 0.000000e+00 1.000000e+00 0.000000e+00 0.000000e+00 0.000000e+00
 0.000000e+00 7.366157e-01 2.633843e-01 0.000000e+00 0.000000e+00
 0.000000e+00 0.000000e+00 7.366154e-01 2.633846e-01 0.000000e+00
 0.000000e+00 0.000000e+00 0.000000e+00 8.595574e-01 1.404426e-01
 0.000000e+00 0.000000e+00 0.000000e+00 0.000000e+00 0.000000e+00
<ENDHMM>
~h "n"
<BEGINHMM>
<NUMSTATES> 5
<STATE> 2
<MEAN> 39
 -1.037788e+00 9.480915e-01 1.212295e+00 4.889171e+00 -5.350310e+00 -6.734244e+00 -2.510014e+00 -3.718410e+00 -1.955936e-01 -7.418975e-01 2.723050e+00 -2.824989e+00 6.323601e+01 2.041851e-01 -9.705042e-02 1.315849e-01 2.117590e-01 -2.378686e-01 -1.949773e-01 -1.927916e-01 -1.602420e-01 9.472615e-02 1.136933e-02 -5.038676e-02 -6.026657e-02 4.394159e-01 -1.704732e-02 -2.220846e-03 -3.250004e-03 -4.846054e-03 1.876179e-03 2.527030e-02 4.753086e-03 9.576820e-03 2.656960e-03 -4.602926e-04 -8.920863e-03 1.543390e-02 -2.078865e-02
<VARIANCE> 39
 2.945692e+01 2.981880e+01 4.426815e+01 4.738525e+01 4.345730e+01 6.729665e+01 3.507090e+01 6.922998e+01 6.325428e+01 4.175815e+01 5.659979e+01 3.835554e+01 8.904324e+01 1.111592e+00 1.674024e+00 2.392741e+00 1.736598e+00 1.970647e+00 2.990520e+00 2.197012e+00 3.723849e+00 3.272729e+00 2.258583e+00 3.175874e+00 2.466376e+00 1.183947e+00 1.488865e-01 2.294783e-01 2.993561e-01 2.629703e-01 3.397344e-01 4.939191e-01 3.823238e-01 5.984513e-01 5.266370e-01 4.116154e-01 5.134670e-01 4.103983e-01 9.083795e-02
<GCONST> 1.174162e+02
<STATE> 3
<MEAN> 39
 -4.177047e-01 5.658777e-01 1.651943e+00 5.594482e+00 -6.292677e+00 -7.164573e+00 -3.126352e+00 -4.181277e+00 1.018684e-01 -7.491912e-01 2.442279e+00 -2.836931e+00 6.472545e+01 1.235755e-01 -8.532657e-02 1.003584e-01 1.512919e-01 -2.072242e-01 -6.041817e-02 -1.299356e-01 -9.653823e-02 7.177244e-02 -5.237498e-03 -8.434869e-02 1.619857e-02 3.097266e-01 -1.959969e-02 4.965512e-03 -8.230117e-03 -1.722742e-02 9.476854e-03 3.284023e-02 1.746511e-02 1.645636e-02 -6.811625e-03 -4.810960e-03 -6.786122e-03 1.805209e-02 -3.432630e-02
<VARIANCE> 39
 2.292899e+01 2.816125e+01 4.553139e+01 4.618216e+01 4.595303e+01 6.772194e+01 3.486076e+01 6.774870e+01 6.168609e+01 4.489111e+01 5.497629e+01 3.928291e+01 7.923638e+01 9.623444e-01 1.533137e+00 2.344146e+00 1.737280e+00 1.967986e+00 2.918709e+00 2.240938e+00 3.652276e+00 3.062245e+00 2.172505e+00 2.950221e+00 2.373687e+00 1.215523e+00 1.282510e-01 2.084254e-01 2.873352e-01 2.601993e-01 3.367053e-01 4.762278e-01 3.899208e-01 5.922422e-01 5.026886e-01 3.916997e-01 4.802860e-01 3.917060e-01 8.636919e-02
<GCONST> 1.160091e+02
<STATE> 4
<MEAN> 39
 -2.627306e-01 2.857663e-01 1.979776e+00 5.756689e+00 -7.157153e+00 -6.525726e+00 -3.045365e+00 -4.047348e+00 -1.882624e-02 -1.080326e+00 1.820318e+00 -2.047135e+00 6.533072e+01 -4.314778e-03 -2.079951e-02 3.130962e-02 -8.540850e-03 -8.487851e-02 1.206764e-01 3.596578e-02 3.027229e-02 -1.595651e-03 -3.237382e-02 -1.043381e-01 9.841214e-02 3.015165e-02 -1.608365e-02 9.330037e-03 -8.377464e-03 -2.041820e-02 1.933788e-02 2.043834e-02 2.019182e-02 1.574577e-02 -8.018286e-03 -3.305306e-03 -6.540645e-04 7.278722e-03 -3.698105e-02
<VARIANCE> 39
 1.864282e+01 2.355783e+01 4.193780e+01 4.105209e+01 5.116455e+01 7.141350e+01 3.508578e+01 6.107424e+01 5.644384e+01 4.593227e+01 4.736869e+01 3.762263e+01 7.000143e+01 7.014034e-01 1.172868e+00 1.932025e+00 1.606482e+00 1.887784e+00 2.579097e+00 2.158779e+00 3.156807e+00 2.554983e+00 1.971978e+00 2.476077e+00 2.010868e+00 1.087690e+00 9.625270e-02 1.601973e-01 2.422465e-01 2.438932e-01 3.168093e-01 4.289438e-01 3.836557e-01 5.347630e-01 4.405994e-01 3.619701e-01 4.162266e-01 3.339749e-01 7.314800e-02
<GCONST> 1.114217e+02
<TRANSP> 5
 0.000000e+00 1.000000e+00 0.000000e+00 0.000000e+00 0.000000e+00
 0.000000e+00 7.612349e-01 2.387651e-01 0.000000e+00 0.000000e+00
 0.000000e+00 0.000000e+00 7.612346e-01 2.387654e-01 0.000000e+00
 0.000000e+00 0.000000e+00 0.000000e+00 8.871421e-01 1.128579e-01
 0.000000e+00 0.000000e+00 0.000000e+00 0.000000e+00 0.000000e+00
<ENDHMM>
~h "o"
<BEGINHMM>
<NUMSTATES> 5
<STATE> 2
<MEAN> 39
 -1.165364e+00 1.234945e-01 -9.656547e-01 3.072472e+00 -5.653052e+00 -4.216635e+00 -1.600235e+00 -1.563213e+00 -2.084820e+00 3.860127e-01 2.482016e+00 -2.045706e-01 6.336155e+01 -1.846571e-02 -1.495544e-02 -5.310906e-02 -8.471265e-02 -2.762081e-02 1.098587e-01 8.833554e-02 4.370304e-02 1.278455e-02 -4.080186e-02 5.287506e-03 3.597952e-02 -3.585996e-02 -9.032669e-03 -3.622510e-04 3.564722e-03 -2.402488e-03 1.430352e-02 -4.290512e-03 2.875443e-03 1.313141e-02 2.663007e-03 -6.785136e-03 -1.601257e-03 -5.099519e-03 -1.491487e-02
<VARIANCE> 39
 2.592461e+01 2.371679e+01 2.559052e+01 4.245373e+01 6.057126e+01 7.020291e+01 4.603862e+01 5.938783e+01 5.597413e+01 4.402601e+01 3.621284e+01 3.232565e+01 7.648164e+01 7.525833e-01 9.811289e-01 1.691338e+00 1.727578e+00 2.401086e+00 2.603921e+00 2.746981e+00 2.579911e+00 2.591592e+00 2.282312e+00 2.264183e+00 1.896412e+00 1.202522e+00 1.031525e-01 1.635720e-01 2.737006e-01 2.903547e-01 4.369524e-01 4.435843e-01 4.984167e-01 4.260742e-01 4.698871e-01 4.280823e-01 4.067874e-01 3.486572e-01 1.163202e-01
<GCONST> 1.130363e+02
<STATE> 3
<MEAN> 39
 -1.316925e+00 9.566870e-02 -1.125061e+00 2.709274e+00 -5.606568e+00 -3.810328e+00 -1.185150e+00 -1.264351e+00 -2.021204e+00 1.742088e-01 2.480700e+00 -9.224758e-02 6.302745e+01 -4.758897e-02 -1.266511e-02 -3.172008e-02 -8.148752e-02 3.192291e-02 7.841115e-02 8.250192e-02 8.190335e-02 2.590342e-02 -5.818591e-02 1.329638e-03 9.659173e-03 -9.216615e-02 -6.021417e-03 -4.258104e-04 4.384595e-03 1.712045e-03 1.267224e-02 -9.086379e-03 -3.277809e-03 8.834588e-03 3.207630e-03 -2.348437e-03 -2.476612e-04 -6.535728e-03 -1.002442e-02
<VARIANCE> 39
 2.590974e+01 2.200099e+01 2.282419e+01 3.798853e+01 5.970776e+01 6.982909e+01 4.520944e+01 5.666550e+01 5.195152e+01 4.331735e+01 3.528654e+01 3.171852e+01 7.833801e+01 6.882210e-01 8.974530e-01 1.550405e+00 1.651950e+00 2.357416e+00 2.553686e+00 2.643747e+00 2.461257e+00 2.485201e+00 2.220507e+00 2.244604e+00 1.871874e+00 1.159620e+00 9.377938e-02 1.508103e-01 2.555413e-01 2.817986e-01 4.317922e-01 4.393009e-01 4.795803e-01 4.055140e-01 4.540887e-01 4.138250e-01 4.083261e-01 3.425936e-01 1.127380e-01
<GCONST> 1.114799e+02
<STATE> 4
<MEAN> 39
 -1.770861e+00 1.750974e-02 -1.172996e+00 2.276545e+00 -5.145448e+00 -3.374506e+00 -5.247454e-01 -5.944367e-01 -1.927940e+00 -2.867809e-01 2.495800e+00 -1.518001e-02 6.208873e+01 -7.820095e-02 -1.277447e-02 -8.644160e-03 -5.322026e-02 1.071778e-01 1.891791e-02 4.055991e-02 9.453403e-02 4.925545e-02 -4.435577e-02 7.608214e-03 -2.757678e-02 -1.453546e-01 -2.753527e-03 -2.533327e-03 1.746884e-03 4.381508e-03 6.329574e-03 -1.082857e-02 -8.175553e-03 1.450356e-03 2.741221e-03 3.353802e-03 9.378578e-04 -5.370020e-03 -8.279637e-05
<VARIANCE> 39
 2.591583e+01 2.044029e+01 1.980541e+01 3.100448e+01 5.572929e+01 6.938290e+01 4.498962e+01 5.140644e+01 4.549201e+01 4.117635e+01 3.399200e+01 3.097056e+01 8.130864e+01 6.317930e-01 8.247779e-01 1.381529e+00 1.545960e+00 2.304004e+00 2.541400e+00 2.553247e+00 2.373129e+00 2.328740e+00 2.171758e+00 2.237179e+00 1.846796e+00 1.134832e+00 8.466802e-02 1.397760e-01 2.345413e-01 2.704242e-01 4.281505e-01 4.417907e-01 4.626873e-01 3.915592e-01 4.276652e-01 4.022810e-01 4.145396e-01 3.379222e-01 1.108448e-01
<GCONST> 1.096175e+02
<TRANSP> 5
 0.000000e+00 1.000000e+00 0.000000e+00 0.000000e+00 0.000000e+00
 0.000000e+00 7.520137e-01 2.479862e-01 0.000000e+00 0.000000e+00
 0.000000e+00 0.000000e+00 7.520138e-01 2.479862e-01 0.000000e+00
 0.000000e+00 0.000000e+00 0.000000e+00 8.769316e-01 1.230684e-01
 0.000000e+00 0.000000e+00 0.000000e+00 0.000000e+00 0.000000e+00
<ENDHMM>
~h "p"
<BEGINHMM>
<NUMSTATES> 5
<STATE> 2
<MEAN> 39
 -4.526504e+00 2.042457e-01 -1.323200e+00 1.710849e-01 -1.046158e+00 -7.188276e+00 -5.213493e-01 8.427695e-01 -1.013812e+00 1.610093e+00 2.691398e+00 -4.417965e+00 6.109910e+01 -7.865707e-03 -8.638461e-02 -1.489223e-01 -1.898674e-01 6.563263e-02 -7.442220e-02 8.664547e-02 5.996008e-02 9.156187e-02 9.146474e-02 1.822803e-02 -1.448112e-01 1.589344e-01 -9.593931e-03 -2.142220e-03 2.597287e-03 1.461337e-03 -3.392018e-03 -5.173094e-05 4.571539e-03 6.295398e-04 -6.889391e-03 -4.576589e-03 -4.525440e-03 8.127564e-03 6.169746e-03
<VARIANCE> 39
 4.238010e+01 3.029951e+01 5.994879e+01 5.198735e+01 4.102347e+01 9.009219e+01 5.493094e+01 6.694365e+01 6.326787e+01 4.914562e+01 4.639403e+01 5.646455e+01 9.243708e+01 1.856823e+00 1.401031e+00 2.289997e+00 2.150950e+00 2.473010e+00 3.697028e+00 2.900249e+00 2.731274e+00 2.929837e+00 2.977461e+00 2.939052e+00 2.956188e+00 2.252852e+00 2.677625e-01 2.533470e-01 3.903103e-01 3.510722e-01 4.470535e-01 5.579044e-01 5.038131e-01 5.007794e-01 5.180765e-01 5.723570e-01 5.326312e-01 4.831622e-01 2.189945e-01
<GCONST> 1.241815e+02
<STATE> 3
<MEAN> 39
 -4.681773e+00 -1.611668e-01 -1.878913e+00 -4.949456e-01 -7.800782e-01 -7.475649e+00 -1.706755e-01 1.108981e+00 -6.865159e-01 1.934157e+00 2.723309e+00 -4.853188e+00 6.169779e+01 -5.073505e-02 -8.209445e-02 -1.273085e-01 -1.602948e-01 5.097894e-02 -8.629743e-02 9.334064e-02 6.916752e-02 6.076202e-02 7.431244e-02 3.469178e-03 -9.823781e-02 1.779571e-01 -1.248728e-02 3.110431e-03 8.365458e-03 1.269197e-02 -3.574762e-03 -4.055454e-03 3.860688e-07 3.369913e-03 -8.971498e-03 -5.136818e-03 -5.046031e-03 1.638138e-02 2.356699e-03
<VARIANCE> 39
 4.482850e+01 2.958904e+01 5.977959e+01 5.554022e+01 4.198930e+01 9.038458e+01 6.049172e+01 6.647892e+01 6.029841e+01 5.067564e+01 4.734711e+01 5.931006e+01 9.432796e+01 2.029354e+00 1.465632e+00 2.268456e+00 2.237332e+00 2.491764e+00 3.701520e+00 2.912920e+00 2.649860e+00 3.008738e+00 3.018000e+00 2.965253e+00 2.954437e+00 2.316538e+00 2.888535e-01 2.630660e-01 3.860116e-01 3.589192e-01 4.429055e-01 5.556402e-01 5.030577e-01 4.851881e-01 5.269505e-01 5.783096e-01 5.351130e-01 4.810233e-01 2.336606e-01
<GCONST> 1.248588e+02
<STATE> 4
<MEAN> 39
 -5.190045e+00 -4.569013e-01 -2.411928e+00 -8.770283e-01 -4.769806e-01 -7.703347e+00 2.468975e-01 1.278173e+00 -5.308005e-01 2.110337e+00 2.610247e+00 -4.817933e+00 6.211009e+01 -1.064815e-01 -4.477759e-02 -8.355796e-02 -8.505845e-02 2.162169e-02 -1.237423e-01 7.885095e-02 9.453578e-02 1.137677e-02 5.470737e-02 -2.557244e-03 -1.016812e-02 1.824363e-01 -8.340283e-03 8.793354e-03 1.056212e-02 1.584658e-02 -6.712150e-03 -8.135772e-03 -2.957781e-03 3.902533e-03 -9.742603e-03 -4.971032e-03 -2.111927e-03 1.735109e-02 2.330664e-04
<VARIANCE> 39
 4.743919e+01 2.875684e+01 6.046122e+01 5.575945e+01 4.663450e+01 8.948675e+01 6.273471e+01 6.387739e+01 5.650043e+01 5.213487e+01 4.897331e+01 5.775055e+01 9.627766e+01 2.200911e+00 1.527268e+00 2.247331e+00 2.260385e+00 2.432240e+00 3.670038e+00 2.753865e+00 2.567334e+00 3.064672e+00 2.974715e+00 2.986841e+00 2.798133e+00 2.301963e+00 3.119326e-01 2.712090e-01 3.816354e-01 3.590835e-01 4.235475e-01 5.501094e-01 4.812329e-01 4.699603e-01 5.305973e-01 5.626714e-01 5.349762e-01 4.612637e-01 2.439074e-01
<GCONST> 1.248835e+02
<TRANSP> 5
 0.000000e+00 1.000000e+00 0.000000e+00 0.000000e+00 0.000000e+00
 0.000000e+00 7.449319e-01 2.550681e-01 0.000000e+00 0.000000e+00
 0.000000e+00 0.000000e+00 7.449331e-01 2.550669e-01 0.000000e+00
 0.000000e+00 0.000000e+00 0.000000e+00 8.693482e-01 1.306517e-01
 0.000000e+00 0.000000e+00 0.000000e+00 0.000000e+00 0.000000e+00
<ENDHMM>
~h "r"
<BEGINHMM>
<NUMSTATES> 5
<STATE> 2
<MEAN> 39
 -4.527169e+00 1.444851e+00 4.138201e+00 3.182249e+00 -4.504508e+00 -9.696735e+00 -2.634378e+00 1.624093e-01 -2.676383e+00 -4.384210e-01 1.959928e+00 -3.084358e+00 6.404596e+01 -5.871161e-02 3.910882e-02 1.052712e-01 -1.038079e-02 -2.698395e-02 7.115458e-02 9.430714e-03 8.205193e-02 -1.850672e-02 1.553763e-02 -2.223536e-02 -2.468554e-02 -7.937697e-02 -6.670653e-03 1.767346e-03 -8.303392e-03 -4.299034e-03 9.004806e-03 1.135178e-02 4.614179e-04 -1.373701e-03 -1.460318e-04 4.688622e-03 2.313850e-03 3.966649e-03 -1.547784e-02
<VARIANCE> 39
 3.762346e+01 3.066203e+01 9.797758e+01 4.738418e+01 7.206266e+01 7.509962e+01 4.608354e+01 6.439548e+01 9.890524e+01 4.128545e+01 3.202370e+01 5.750520e+01 7.492419e+01 1.145327e+00 1.090414e+00 1.815763e+00 1.919891e+00 2.254388e+00 3.181429e+00 2.574075e+00 2.616446e+00 2.432520e+00 2.115117e+00 1.994979e+00 2.194206e+00 1.106419e+00 1.813885e-01 1.825954e-01 2.474728e-01 3.201645e-01 3.676341e-01 5.228731e-01 4.560012e-01 4.549873e-01 4.036660e-01 3.913438e-01 3.739848e-01 3.822342e-01 1.103198e-01
<GCONST> 1.173167e+02
<STATE> 3
<MEAN> 39
 -4.803740e+00 1.596109e+00 4.407650e+00 3.089794e+00 -4.478976e+00 -9.263250e+00 -2.580595e+00 4.834307e-01 -2.703176e+00 -3.064079e-01 1.876569e+00 -3.151194e+00 6.357547e+01 -8.714472e-02 4.116400e-02 6.314684e-02 -2.701462e-02 1.342386e-02 1.134246e-01 1.073408e-02 8.179497e-02 -1.520488e-02 2.975864e-02 -1.226631e-02 -1.964144e-03 -1.365942e-01 -6.234044e-03 -6.666984e-04 -1.170407e-02 -3.501633e-03 9.394580e-03 8.526010e-03 2.700126e-04 -8.880987e-04 1.521199e-03 2.444370e-03 2.734817e-03 5.065463e-03 -1.150428e-02
<VARIANCE> 39
 3.671840e+01 3.012792e+01 9.851543e+01 4.729601e+01 7.515442e+01 7.520987e+01 4.442870e+01 6.146741e+01 9.906698e+01 3.997939e+01 3.107241e+01 5.385117e+01 7.734441e+01 1.146556e+00 1.084057e+00 1.670198e+00 1.884213e+00 2.216899e+00 2.992011e+00 2.519774e+00 2.511662e+00 2.367852e+00 2.088748e+00 1.925430e+00 2.137080e+00 1.026928e+00 1.798476e-01 1.834939e-01 2.305723e-01 3.186364e-01 3.642486e-01 4.903013e-01 4.491707e-01 4.386530e-01 3.977179e-01 3.894539e-01 3.611442e-01 3.761419e-01 9.887596e-02
<GCONST> 1.163362e+02
<STATE> 4
<MEAN> 39
 -5.349610e+00 1.728339e+00 4.414004e+00 2.900129e+00 -4.105391e+00 -8.248700e+00 -2.500533e+00 7.830780e-01 -2.710628e+00 -1.028450e-01 1.833635e+00 -3.210595e+00 6.246154e+01 -1.161576e-01 2.411229e-02 -1.570369e-02 -4.327811e-02 7.486808e-02 1.476801e-01 1.005278e-02 8.362132e-02 3.347589e-03 2.757443e-02 3.450618e-03 3.052674e-02 -1.900889e-01 -2.805494e-03 -3.430038e-03 -1.080476e-02 -5.626485e-04 6.828884e-03 9.879591e-04 1.429890e-04 -1.495087e-03 1.578049e-03 -2.496045e-03 2.779529e-03 4.600432e-03 -4.045079e-03
<VARIANCE> 39
 3.720302e+01 2.918135e+01 9.491004e+01 4.720311e+01 7.688365e+01 7.378194e+01 4.275759e+01 5.795103e+01 9.529430e+01 3.762577e+01 3.002216e+01 4.853981e+01 8.101834e+01 1.186753e+00 1.101636e+00 1.538184e+00 1.872653e+00 2.227828e+00 2.720531e+00 2.468421e+00 2.411441e+00 2.322541e+00 2.075536e+00 1.874174e+00 2.068336e+00 9.643995e-01 1.834706e-01 1.890254e-01 2.163613e-01 3.224466e-01 3.693291e-01 4.472286e-01 4.438479e-01 4.254402e-01 3.962986e-01 3.902220e-01 3.530583e-01 3.713143e-01 9.150108e-02
<GCONST> 1.154182e+02
<TRANSP> 5
 0.000000e+00 1.000000e+00 0.000000e+00 0.000000e+00 0.000000e+00
 0.000000e+00 7.452031e-01 2.547970e-01 0.000000e+00 0.000000e+00
 0.000000e+00 0.000000e+00 7.452027e-01 2.547973e-01 0.000000e+00
 0.000000e+00 0.000000e+00 0.000000e+00 8.692399e-01 1.307601e-01
 0.000000e+00 0.000000e+00 0.000000e+00 0.000000e+00 0.000000e+00
<ENDHMM>
~h "s"
<BEGINHMM>
<NUMSTATES> 5
<STATE> 2
<MEAN> 39
 -9.496511e+00 1.069586e+00 -3.965526e+00 -2.472120e+00 1.108329e+00 -1.136003e+01 2.900744e+00 4.106542e+00 2.120133e-01 2.481889e+00 7.331522e-01 -3.884104e+00 6.661986e+01 -1.015117e-01 6.369445e-02 -1.015344e-01 -5.506537e-02 8.596774e-02 2.765429e-02 -3.642767e-02 -4.721449e-02 -1.644748e-02 7.459652e-02 2.248149e-02 -7.439301e-03 2.277773e-02 2.805299e-02 -8.999535e-03 7.550704e-03 9.311046e-03 -7.196532e-03 4.207124e-03 -4.910326e-03 -1.157891e-02 -6.332227e-03 6.305743e-04 3.873893e-03 -3.898019e-03 -9.265360e-03
<VARIANCE> 39
 9.027371e+01 3.731731e+01 6.691478e+01 5.948055e+01 5.207879e+01 8.142547e+01 5.847519e+01 7.683135e+01 5.524091e+01 5.088010e+01 4.094404e+01 4.708905e+01 6.244541e+01 3.349598e+00 1.670423e+00 1.755591e+00 2.222720e+00 2.232754e+00 3.642143e+00 2.967661e+00 2.813829e+00 2.801135e+00 2.688616e+00 2.591570e+00 2.537648e+00 1.905572e+00 3.994674e-01 2.510079e-01 2.931946e-01 3.507071e-01 3.984271e-01 5.790718e-01 5.232345e-01 4.833805e-01 4.761322e-01 4.959054e-01 4.658518e-01 4.462518e-01 2.269263e-01
<GCONST> 1.244268e+02
<STATE> 3
<MEAN> 39
 -9.691374e+00 1.241389e+00 -4.343433e+00 -2.653142e+00 1.439079e+00 -1.122442e+01 2.758374e+00 3.857813e+00 1.202968e-01 2.816162e+00 8.287051e-01 -3.974189e+00 6.668100e+01 1.092782e-02 3.142858e-02 -6.815130e-02 -9.933923e-03 6.256916e-02 5.137763e-02 -5.497895e-02 -9.078065e-02 -3.547767e-02 7.667814e-02 3.339530e-02 -1.801655e-02 -1.704297e-02 2.990041e-02 -8.027920e-03 7.546526e-03 1.077089e-02 -5.283395e-03 6.426253e-03 -3.457385e-03 -1.056279e-02 -3.827922e-03 1.094013e-03 2.910870e-03 -4.095515e-03 -8.913201e-03
<VARIANCE> 39
 9.231901e+01 3.486309e+01 6.679184e+01 5.717123e+01 5.081914e+01 7.575611e+01 5.813942e+01 7.745442e+01 5.606824e+01 5.000956e+01 4.081761e+01 4.493638e+01 5.465768e+01 3.317443e+00 1.576040e+00 1.745611e+00 2.183598e+00 2.261341e+00 3.697447e+00 3.033120e+00 2.788192e+00 2.762781e+00 2.656496e+00 2.562279e+00 2.507706e+00 1.812642e+00 3.936667e-01 2.362739e-01 2.904059e-01 3.437112e-01 4.059837e-01 5.903166e-01 5.372216e-01 4.745427e-01 4.696502e-01 4.896317e-01 4.638786e-01 4.400990e-01 2.173386e-01
<GCONST> 1.237634e+02
<STATE> 4
<MEAN> 39
 -9.177332e+00 1.269969e+00 -4.860865e+00 -2.632066e+00 1.895199e+00 -1.070612e+01 2.613850e+00 3.082807e+00 -8.808308e-02 3.304354e+00 9.616765e-01 -4.190485e+00 6.635690e+01 1.356387e-01 7.667928e-03 -2.447547e-02 4.760431e-02 4.759433e-02 1.060845e-01 -6.844507e-02 -1.309850e-01 -3.733733e-02 7.625005e-02 4.013022e-02 -2.038216e-02 -7.624573e-02 2.057936e-02 -3.551410e-03 7.208389e-03 9.265733e-03 -3.735668e-03 1.158574e-02 -1.676029e-03 -6.495182e-03 1.184876e-04 -1.310600e-03 2.442720e-03 -2.571497e-04 -1.127468e-02
<VARIANCE> 39
 9.055928e+01 3.114689e+01 6.345123e+01 5.146296e+01 4.804538e+01 7.165700e+01 5.685258e+01 7.719101e+01 5.572135e+01 4.911749e+01 3.934272e+01 4.167425e+01 4.868083e+01 3.072184e+00 1.444317e+00 1.674465e+00 2.066561e+00 2.209840e+00 3.650194e+00 3.039540e+00 2.723408e+00 2.693883e+00 2.590078e+00 2.519546e+00 2.455815e+00 1.667979e+00 3.677541e-01 2.133007e-01 2.767636e-01 3.268745e-01 4.023015e-01 5.837018e-01 5.382175e-01 4.575514e-01 4.580969e-01 4.786316e-01 4.585622e-01 4.318083e-01 1.990186e-01
<GCONST> 1.221057e+02
<TRANSP> 5
 0.000000e+00 1.000000e+00 0.000000e+00 0.000000e+00 0.000000e+00
 0.000000e+00 7.494395e-01 2.505605e-01 0.000000e+00 0.000000e+00
 0.000000e+00 0.000000e+00 7.494400e-01 2.505600e-01 0.000000e+00
 0.000000e+00 0.000000e+00 0.000000e+00 8.736185e-01 1.263814e-01
 0.000000e+00 0.000000e+00 0.000000e+00 0.000000e+00 0.000000e+00
<ENDHMM>
~h "t"
<BEGINHMM>
<NUMSTATES> 5
<STATE> 2
<MEAN> 39
 -6.632177e+00 2.247672e+00 -6.333951e+00 -1.558046e+00 2.331681e+00 -5.946252e+00 2.025908e+00 -1.798734e+00 -1.588830e+00 1.953648e+00 1.775710e-01 -2.483688e+00 6.190734e+01 3.460421e-01 1.266583e-01 3.364688e-02 3.275064e-03 -1.209631e-01 -7.137197e-02 -1.335095e-01 -2.490967e-01 -2.484430e-01 -4.030143e-02 6.209995e-02 3.237926e-02 2.169111e-01 1.867602e-02 1.209625e-02 4.602199e-03 -8.151568e-03 4.233998e-03 1.548827e-02 1.121105e-02 -6.892837e-03 -1.870266e-02 -4.633041e-03 -3.393092e-04 8.525622e-04 -2.660708e-03
<VARIANCE> 39
 5.770199e+01 3.365937e+01 4.532287e+01 5.526025e+01 5.067360e+01 6.779442e+01 7.164258e+01 7.883677e+01 6.917744e+01 5.705903e+01 3.530491e+01 5.391275e+01 8.486766e+01 2.009840e+00 1.651682e+00 1.384310e+00 2.348372e+00 2.751659e+00 3.862358e+00 4.521154e+00 3.715072e+00 2.797020e+00 2.476493e+00 2.702009e+00 2.954374e+00 2.096027e+00 2.652101e-01 2.560395e-01 2.533425e-01 3.953139e-01 5.266875e-01 6.450939e-01 7.870972e-01 5.995509e-01 4.586315e-01 4.854510e-01 5.055959e-01 5.407941e-01 2.497382e-01
<GCONST> 1.254375e+02
<STATE> 3
<MEAN> 39
 -5.144232e+00 2.917196e+00 -6.194767e+00 -1.697674e+00 1.930034e+00 -6.087813e+00 1.698389e+00 -2.809933e+00 -2.792319e+00 1.784286e+00 4.084410e-01 -2.305852e+00 6.268969e+01 3.787844e-01 1.677821e-01 4.779866e-02 -3.905256e-02 -8.856598e-02 1.619648e-02 -5.708121e-02 -2.336213e-01 -3.031756e-01 -4.982882e-02 5.410817e-02 3.719669e-02 1.565330e-01 -5.761746e-04 1.051936e-02 3.697331e-03 -8.619543e-03 9.025996e-03 2.364412e-02 1.985217e-02 7.579676e-03 -1.014073e-02 -4.401533e-03 -4.610249e-03 5.214651e-03 -2.005480e-02
<VARIANCE> 39
 5.823494e+01 3.706529e+01 4.336856e+01 5.534552e+01 5.231033e+01 6.778825e+01 7.502925e+01 9.110538e+01 8.676937e+01 6.184190e+01 3.552885e+01 5.723633e+01 7.233464e+01 1.878053e+00 1.649189e+00 1.339543e+00 2.368708e+00 2.658529e+00 3.905769e+00 4.673054e+00 3.759452e+00 2.933713e+00 2.466042e+00 2.682486e+00 2.890484e+00 2.035474e+00 2.481295e-01 2.548254e-01 2.437223e-01 3.925784e-01 5.061917e-01 6.458160e-01 7.951080e-01 5.874245e-01 4.604131e-01 4.850007e-01 5.006093e-01 5.296946e-01 2.356722e-01
<GCONST> 1.255981e+02
<STATE> 4
<MEAN> 39
 -3.109903e+00 4.200998e+00 -5.911930e+00 -2.155139e+00 1.607096e+00 -5.607758e+00 2.012937e+00 -3.839622e+00 -4.748796e+00 1.443596e+00 3.855320e-01 -1.880241e+00 6.288346e+01 2.654801e-01 1.488398e-01 7.658537e-02 -4.952856e-02 -3.314636e-02 1.606006e-01 3.770288e-02 -7.928477e-02 -2.168897e-01 -4.604384e-02 7.227849e-03 4.278169e-02 -4.830290e-02 -2.275134e-02 -3.649638e-03 6.128372e-03 2.986202e-03 5.578048e-03 1.986589e-02 9.027839e-03 2.129077e-02 1.548954e-02 -4.347935e-03 -7.525871e-03 5.044727e-03 -3.137218e-02
<VARIANCE> 39
 5.255165e+01 4.110953e+01 3.908022e+01 4.844823e+01 4.926534e+01 6.599134e+01 6.655560e+01 9.841816e+01 1.095555e+02 6.503571e+01 3.426103e+01 5.593485e+01 5.596196e+01 1.536045e+00 1.385970e+00 1.157658e+00 2.035688e+00 2.179386e+00 3.442273e+00 3.999815e+00 3.335199e+00 2.827326e+00 2.251129e+00 2.437506e+00 2.530818e+00 1.608297e+00 1.944093e-01 2.052337e-01 2.084857e-01 3.304474e-01 4.134002e-01 5.696931e-01 6.637867e-01 5.149400e-01 4.302236e-01 4.387702e-01 4.534775e-01 4.639914e-01 1.743260e-01
<GCONST> 1.212050e+02
<TRANSP> 5
 0.000000e+00 1.000000e+00 0.000000e+00 0.000000e+00 0.000000e+00
 0.000000e+00 7.560181e-01 2.439819e-01 0.000000e+00 0.000000e+00
 0.000000e+00 0.000000e+00 7.560188e-01 2.439812e-01 0.000000e+00
 0.000000e+00 0.000000e+00 0.000000e+00 8.817695e-01 1.182305e-01
 0.000000e+00 0.000000e+00 0.000000e+00 0.000000e+00 0.000000e+00
<ENDHMM>
~h "u"
<BEGINHMM>
<NUMSTATES> 5
<STATE> 2
<MEAN> 39
 -4.758508e-01 6.167068e-01 1.436545e+00 5.600580e+00 -4.125385e+00 -1.489733e+01 -5.848691e+00 -3.847058e+00 -2.446767e+00 -3.160372e-01 3.712563e+00 4.692134e-01 6.555151e+01 8.577163e-02 -4.839639e-02 -5.571928e-02 2.348137e-02 -1.474314e-02 -1.122108e-01 -5.761223e-02 -7.609970e-02 1.174638e-01 8.506712e-02 -1.439569e-02 -1.321878e-02 1.723410e-01 -9.881057e-03 5.680817e-04 2.920601e-03 1.621144e-04 -9.536729e-04 9.384921e-03 4.199895e-03 1.719957e-02 1.320158e-02 -1.971167e-03 -5.656985e-03 -3.327581e-03 -1.156457e-02
<VARIANCE> 39
 2.292448e+01 2.197715e+01 2.636856e+01 3.643203e+01 4.637653e+01 8.366654e+01 4.799986e+01 8.363682e+01 6.299365e+01 4.966523e+01 3.597208e+01 3.521544e+01 6.312900e+01 8.055277e-01 1.439072e+00 1.954461e+00 2.212159e+00 2.532578e+00 3.644053e+00 3.161029e+00 3.359128e+00 2.954077e+00 2.952452e+00 2.530827e+00 2.257542e+00 1.152359e+00 1.229476e-01 2.239017e-01 3.099340e-01 3.664763e-01 4.021431e-01 5.842839e-01 5.969688e-01 5.701360e-01 4.502284e-01 5.673082e-01 4.875610e-01 4.223747e-01 1.218697e-01
<GCONST> 1.175696e+02
<STATE> 3
<MEAN> 39
 -1.883925e-01 4.459912e-01 1.238534e+00 5.684843e+00 -4.173723e+00 -1.527093e+01 -6.030046e+00 -4.060134e+00 -1.935422e+00 2.106662e-03 3.624344e+00 4.042868e-01 6.613526e+01 4.516003e-02 -4.306514e-02 -4.609357e-02 2.119664e-02 -1.270360e-02 -6.938989e-02 -3.849588e-02 -8.164807e-03 1.633244e-01 7.691281e-02 -3.604415e-02 -2.321001e-02 1.187386e-01 -1.109547e-02 1.922114e-03 2.865678e-03 -1.325607e-03 7.170732e-04 1.256629e-02 5.355913e-03 1.878476e-02 1.003606e-02 -3.422561e-03 -4.363501e-03 -8.068260e-04 -1.600800e-02
<VARIANCE> 39
 2.016519e+01 2.095839e+01 2.594228e+01 3.562005e+01 4.438955e+01 7.668089e+01 4.657354e+01 8.483571e+01 6.670869e+01 4.930612e+01 3.542016e+01 3.586592e+01 5.561997e+01 7.485827e-01 1.368926e+00 2.024041e+00 2.172426e+00 2.412154e+00 3.520884e+00 3.079894e+00 3.289661e+00 2.912446e+00 2.931210e+00 2.472748e+00 2.243014e+00 1.092349e+00 1.143792e-01 2.119059e-01 3.193049e-01 3.610374e-01 3.883276e-01 5.665489e-01 5.820295e-01 5.577037e-01 4.437762e-01 5.656291e-01 4.786341e-01 4.194327e-01 1.155371e-01
<GCONST> 1.164715e+02
<STATE> 4
<MEAN> 39
 -1.820746e-02 2.060563e-01 1.023622e+00 5.831041e+00 -4.223942e+00 -1.529629e+01 -6.222676e+00 -4.227195e+00 -1.075909e+00 1.796923e-01 3.475441e+00 3.575960e-01 6.634388e+01 -1.132216e-02 -2.837706e-02 -3.189059e-02 7.221109e-03 2.955645e-03 6.173755e-03 -5.413096e-03 8.038773e-02 2.017844e-01 6.192625e-02 -5.903778e-02 -2.708076e-02 2.239822e-02 -1.164756e-02 2.884977e-03 3.615754e-03 -3.447624e-03 2.796746e-03 1.670606e-02 5.695720e-03 1.693812e-02 4.503942e-03 -4.171262e-03 -2.533986e-03 1.060486e-03 -2.020509e-02
<VARIANCE> 39
 1.768826e+01 1.932781e+01 2.528278e+01 3.360382e+01 4.078714e+01 6.774411e+01 4.461865e+01 8.584309e+01 6.947673e+01 4.798085e+01 3.470006e+01 3.531570e+01 4.694662e+01 6.843309e-01 1.256540e+00 2.033319e+00 2.062019e+00 2.230355e+00 3.266804e+00 2.929052e+00 3.113568e+00 2.803287e+00 2.829227e+00 2.351275e+00 2.202867e+00 1.018335e+00 1.053554e-01 1.954913e-01 3.175303e-01 3.442033e-01 3.654910e-01 5.283777e-01 5.529918e-01 5.310500e-01 4.281287e-01 5.478086e-01 4.572131e-01 4.125588e-01 1.059840e-01
<GCONST> 1.143869e+02
<TRANSP> 5
 0.000000e+00 1.000000e+00 0.000000e+00 0.000000e+00 0.000000e+00
 0.000000e+00 7.384679e-01 2.615320e-01 0.000000e+00 0.000000e+00
 0.000000e+00 0.000000e+00 7.384679e-01 2.615322e-01 0.000000e+00
 0.000000e+00 0.000000e+00 0.000000e+00 8.618195e-01 1.381806e-01
 0.000000e+00 0.000000e+00 0.000000e+00 0.000000e+00 0.000000e+00
<ENDHMM>
~h "w"
<BEGINHMM>
<NUMSTATES> 5
<STATE> 2
<MEAN> 39
 -3.214745e+00 2.774470e+00 -4.136350e-01 1.242533e+00 -3.381124e+00 -3.615727e+00 -1.708108e-01 -2.932214e+00 -1.894204e+00 -5.158786e-01 2.986546e+00 -1.656770e+00 5.749752e+01 5.237540e-01 8.912755e-02 -1.103760e-02 -7.031644e-02 -3.226978e-01 -3.796420e-01 -9.106760e-02 -2.555094e-01 -1.595210e-01 -3.206828e-02 2.778736e-01 -2.070235e-01 6.356714e-01 -8.992340e-03 -3.046583e-02 -9.965545e-03 1.138433e-02 3.694040e-03 -9.897124e-03 -8.469155e-04 7.796035e-04 1.767203e-02 4.846586e-03 1.005029e-02 -1.112226e-02 2.276892e-02
<VARIANCE> 39
 4.706173e+01 3.335574e+01 2.250108e+01 2.934382e+01 3.992799e+01 5.072810e+01 2.755239e+01 4.944736e+01 6.366006e+01 3.052858e+01 4.694836e+01 2.918735e+01 7.774007e+01 1.577418e+00 1.946428e+00 1.658855e+00 1.552260e+00 1.930145e+00 2.463786e+00 1.896176e+00 3.041169e+00 3.699379e+00 2.006789e+00 3.237626e+00 2.166606e+00 8.372235e-01 2.172286e-01 2.546219e-01 2.364930e-01 2.478281e-01 3.468200e-01 4.722459e-01 3.535174e-01 5.191984e-01 5.518690e-01 3.544340e-01 5.116562e-01 3.870783e-01 9.275556e-02
<GCONST> 1.137967e+02
<STATE> 3
<MEAN> 39
 -1.382424e+00 2.681612e+00 -5.273304e-01 1.191481e+00 -4.522897e+00 -5.236745e+00 -5.762987e-01 -3.791622e+00 -2.091672e+00 -5.580744e-01 4.134359e+00 -2.571483e+00 6.023291e+01 4.179898e-01 -6.228207e-02 -2.875368e-02 9.969031e-03 -2.566785e-01 -3.933308e-01 -1.039865e-01 -1.926759e-01 -1.789388e-02 -4.991928e-03 2.652082e-01 -2.283179e-01 6.704119e-01 -3.102188e-02 -3.762800e-02 -1.164663e-03 2.255344e-02 1.994274e-02 -1.146256e-04 -3.743756e-03 1.807855e-02 3.810171e-02 6.270995e-03 -8.506684e-03 -2.890512e-03 2.084067e-03
<VARIANCE> 39
 4.173334e+01 3.786062e+01 2.870316e+01 3.479551e+01 3.762879e+01 5.826539e+01 3.003176e+01 6.035074e+01 7.506690e+01 3.421152e+01 5.537183e+01 3.547449e+01 8.530367e+01 1.526214e+00 2.018080e+00 1.882693e+00 1.725749e+00 1.861579e+00 2.558683e+00 1.914807e+00 3.587474e+00 4.148057e+00 2.141193e+00 3.780560e+00 2.567374e+00 9.567457e-01 1.977785e-01 2.464485e-01 2.455630e-01 2.622927e-01 3.268616e-01 4.824961e-01 3.454736e-01 5.824665e-01 6.045050e-01 3.709066e-01 5.789548e-01 4.414243e-01 9.406324e-02
<GCONST> 1.167908e+02
<STATE> 4
<MEAN> 39
 2.104061e-01 1.446400e+00 -7.991248e-02 2.231352e+00 -5.485861e+00 -7.732279e+00 -1.386066e+00 -4.358445e+00 -9.300786e-01 -7.749903e-01 5.127170e+00 -3.835218e+00 6.405705e+01 1.687953e-01 -1.744034e-01 8.005361e-02 1.509077e-01 -1.077996e-01 -2.974749e-01 -1.277397e-01 -5.190773e-02 1.645661e-01 -2.469991e-02 6.733552e-02 -1.594771e-01 4.586323e-01 -3.287755e-02 -9.588059e-03 1.722427e-02 1.793568e-02 2.054853e-02 1.677750e-02 -2.545651e-03 1.688489e-02 1.999502e-02 -3.886618e-03 -2.917160e-02 1.153076e-02 -3.348257e-02
<VARIANCE> 39
 2.795430e+01 3.863387e+01 4.025392e+01 4.170431e+01 3.164737e+01 6.123306e+01 3.041009e+01 7.392316e+01 8.293111e+01 3.945176e+01 6.228583e+01 4.091508e+01 7.706370e+01 1.171997e+00 1.716290e+00 2.004590e+00 1.729786e+00 1.634927e+00 2.609088e+00 1.825487e+00 4.245943e+00 4.188487e+00 2.140348e+00 4.034226e+00 2.957180e+00 1.141915e+00 1.432680e-01 1.953510e-01 2.306056e-01 2.538247e-01 2.847866e-01 4.739486e-01 3.286971e-01 6.648114e-01 6.218783e-01 3.681796e-01 6.088835e-01 4.842179e-01 8.410325e-02
<GCONST> 1.167927e+02
<TRANSP> 5
 0.000000e+00 1.000000e+00 0.000000e+00 0.000000e+00 0.000000e+00
 0.000000e+00 7.559236e-01 2.440764e-01 0.000000e+00 0.000000e+00
 0.000000e+00 0.000000e+00 7.559237e-01 2.440764e-01 0.000000e+00
 0.000000e+00 0.000000e+00 0.000000e+00 8.817138e-01 1.182862e-01
 0.000000e+00 0.000000e+00 0.000000e+00 0.000000e+00 0.000000e+00
<ENDHMM>
~h "y"
<BEGINHMM>
<NUMSTATES> 5
<STATE> 2
<MEAN> 39
 -5.307586e+00 3.193899e+00 8.713956e+00 1.343651e+00 -8.848420e+00 -9.840979e+00 -3.695970e+00 6.245887e+00 -5.935983e+00 -1.375487e+00 4.414751e+00 -2.550737e+00 6.404554e+01 2.263204e-01 -1.049121e-01 3.664142e-01 -1.629852e-01 -5.522165e-01 -9.634314e-01 -2.460113e-03 3.900581e-01 -2.336553e-01 1.004955e-01 2.246795e-01 -2.414606e-01 9.378636e-01 -2.244518e-02 -5.697322e-02 -7.187299e-02 -1.428935e-02 4.716456e-02 -1.380735e-02 5.408317e-02 7.651362e-03 5.533466e-02 2.135463e-02 -1.175255e-02 2.940482e-03 3.003990e-03
<VARIANCE> 39
 1.904721e+01 4.282201e+01 9.586062e+01 4.437563e+01 1.256541e+02 1.403897e+02 5.546898e+01 5.932625e+01 9.944063e+01 4.167894e+01 3.900428e+01 3.640557e+01 1.027565e+02 1.268662e+00 2.523152e+00 4.610701e+00 2.110488e+00 4.763515e+00 4.089409e+00 3.241194e+00 2.389263e+00 4.441438e+00 2.453021e+00 2.616271e+00 1.887752e+00 1.047294e+00 2.176381e-01 3.118269e-01 4.347187e-01 3.994955e-01 5.784974e-01 6.350737e-01 5.015823e-01 4.054951e-01 5.560578e-01 4.409560e-01 4.178534e-01 3.137532e-01 9.479243e-02
<GCONST> 1.244923e+02
<STATE> 3
<MEAN> 39
 -4.639106e+00 2.007404e+00 8.977654e+00 5.133212e-01 -1.019982e+01 -1.377161e+01 -2.927732e+00 7.863775e+00 -5.977672e+00 -6.915317e-01 5.115702e+00 -3.524921e+00 6.779384e+01 1.162683e-01 -2.946485e-01 -6.072714e-02 -2.017805e-01 -1.919190e-01 -8.619291e-01 2.444431e-01 3.582499e-01 6.077563e-02 2.039511e-01 1.206584e-01 -2.073946e-01 8.050767e-01 -2.659351e-02 -3.133534e-02 -9.709290e-02 -5.015196e-03 8.949362e-02 3.945718e-02 5.155420e-02 -1.400297e-02 6.524400e-02 2.132392e-02 -2.759465e-02 1.121386e-02 -4.296374e-02
<VARIANCE> 39
 1.999578e+01 4.830939e+01 1.054379e+02 5.201393e+01 1.301487e+02 1.439856e+02 6.224585e+01 6.526044e+01 1.158125e+02 5.193357e+01 4.102658e+01 4.524071e+01 8.892569e+01 1.109344e+00 2.246586e+00 4.544940e+00 1.854666e+00 4.719766e+00 4.322223e+00 2.891148e+00 2.374088e+00 4.334921e+00 2.314385e+00 2.680084e+00 2.083101e+00 1.176970e+00 1.803637e-01 2.611940e-01 3.999318e-01 3.390281e-01 5.242829e-01 5.891680e-01 4.434643e-01 3.809427e-01 5.173568e-01 4.008723e-01 4.108652e-01 3.358109e-01 8.278417e-02
<GCONST> 1.241473e+02
<STATE> 4
<MEAN> 39
 -4.311527e+00 -1.324818e-01 5.510824e+00 -7.787191e-01 -8.269113e+00 -1.685307e+01 -1.619138e-01 9.128222e+00 -3.583911e+00 9.831047e-01 5.087505e+00 -4.866244e+00 7.097962e+01 -5.683316e-02 -1.692045e-01 -5.033585e-01 -1.718959e-01 3.997478e-01 -2.677905e-01 3.613853e-01 1.308428e-01 2.939052e-01 2.773104e-01 -5.595065e-02 -1.198577e-01 2.854291e-01 -2.951136e-02 3.020718e-02 -3.333412e-02 6.633180e-03 6.096584e-02 8.351930e-02 -2.863202e-04 -3.088225e-02 1.669140e-02 1.972061e-04 -1.913664e-02 1.774365e-02 -7.315395e-02
<VARIANCE> 39
 3.534589e+01 4.862035e+01 1.195527e+02 5.717746e+01 1.369093e+02 1.292007e+02 6.248199e+01 6.612768e+01 1.281809e+02 5.791154e+01 4.071707e+01 6.014683e+01 5.847791e+01 1.049915e+00 1.782999e+00 3.106012e+00 1.548474e+00 3.414499e+00 4.107802e+00 2.147066e+00 2.249301e+00 3.468369e+00 1.974704e+00 2.451067e+00 2.265553e+00 1.202130e+00 1.398712e-01 1.748024e-01 2.935930e-01 2.558753e-01 3.824472e-01 4.613625e-01 3.358881e-01 3.335306e-01 4.424259e-01 3.419856e-01 3.785124e-01 3.497428e-01 5.864644e-02
<GCONST> 1.201135e+02
<TRANSP> 5
 0.000000e+00 1.000000e+00 0.000000e+00 0.000000e+00 0.000000e+00
 0.000000e+00 7.685058e-01 2.314942e-01 0.000000e+00 0.000000e+00
 0.000000e+00 0.000000e+00 7.685059e-01 2.314942e-01 0.000000e+00
 0.000000e+00 0.000000e+00 0.000000e+00 8.900389e-01 1.099611e-01
 0.000000e+00 0.000000e+00 0.000000e+00 0.000000e+00 0.000000e+00
<ENDHMM>
~h "z"
<BEGINHMM>
<NUMSTATES> 5
<STATE> 2
<MEAN> 39
 -1.299154e+01 8.644186e+00 1.067549e+01 2.485847e+00 -3.240737e+00 -1.024123e+01 1.240906e+00 1.475064e+00 -1.142985e+01 2.153845e-01 1.135459e+00 -2.753471e+00 6.332574e+01 -7.063147e-02 -5.690025e-02 -2.417655e-01 -5.097669e-02 3.499443e-01 5.410596e-02 4.612920e-02 6.509634e-02 2.266332e-01 8.220351e-02 -6.264209e-02 6.181660e-02 -1.607646e-01 1.322913e-02 -1.654764e-02 -7.191432e-03 -3.749383e-03 -6.495814e-03 1.958405e-02 -7.947805e-03 -5.273893e-03 1.094868e-02 -2.826068e-03 -7.487927e-04 -2.373704e-03 -1.190563e-02
<VARIANCE> 39
 3.350955e+01 3.061930e+01 8.056686e+01 3.828781e+01 1.314732e+02 6.367087e+01 4.090420e+01 4.590271e+01 8.477752e+01 3.316156e+01 3.147936e+01 2.800535e+01 5.603328e+01 1.663192e+00 1.089914e+00 1.702981e+00 2.230933e+00 3.078806e+00 2.774983e+00 1.948151e+00 2.314603e+00 2.786224e+00 1.714447e+00 1.622808e+00 1.570897e+00 7.109228e-01 2.613815e-01 1.434634e-01 2.082688e-01 4.305892e-01 3.632741e-01 4.317017e-01 3.307587e-01 4.120445e-01 4.560810e-01 3.196186e-01 3.028530e-01 2.897689e-01 6.357348e-02
<GCONST> 1.130486e+02
<STATE> 3
<MEAN> 39
 -1.319236e+01 8.303532e+00 9.625033e+00 2.259887e+00 -1.819684e+00 -9.880158e+00 1.384641e+00 1.704744e+00 -1.041240e+01 5.362621e-01 8.715871e-01 -2.535656e+00 6.256675e+01 -8.257139e-03 -1.252685e-01 -2.623647e-01 -5.840194e-02 3.032171e-01 1.347460e-01 1.190795e-02 3.602275e-02 2.648980e-01 6.720539e-02 -6.372777e-02 4.908283e-02 -2.042876e-01 1.555362e-02 -1.366952e-02 -1.305575e-03 4.176855e-04 -1.580399e-02 1.606871e-02 -7.277353e-03 -7.700029e-03 4.578666e-03 -5.752400e-03 1.149015e-03 -4.569964e-03 -6.917153e-03
<VARIANCE> 39
 3.111096e+01 3.121437e+01 7.830048e+01 3.766008e+01 1.260302e+02 6.381942e+01 4.107425e+01 4.425367e+01 8.358214e+01 3.272764e+01 3.038140e+01 2.863935e+01 5.845044e+01 1.505267e+00 1.102061e+00 1.632350e+00 2.166469e+00 2.971477e+00 2.743268e+00 1.997827e+00 2.339340e+00 2.736194e+00 1.763187e+00 1.612898e+00 1.583609e+00 6.836423e-01 2.305524e-01 1.462066e-01 2.074046e-01 4.190165e-01 3.570012e-01 4.268798e-01 3.392549e-01 4.199828e-01 4.543512e-01 3.268330e-01 3.000753e-01 2.929672e-01 6.030529e-02
<GCONST> 1.125244e+02
<STATE> 4
<MEAN> 39
 -1.306833e+01 7.479281e+00 8.117493e+00 2.019429e+00 -2.967696e-01 -8.986828e+00 1.464694e+00 1.884023e+00 -8.969830e+00 7.921346e-01 6.040967e-01 -2.453090e+00 6.118818e+01 8.428319e-02 -1.984405e-01 -2.716078e-01 -4.268583e-02 2.047489e-01 2.110212e-01 -2.727889e-02 -9.883453e-03 2.855296e-01 3.534562e-02 -5.561469e-02 2.292153e-02 -2.301946e-01 1.340163e-02 -7.973870e-03 1.912015e-03 3.615188e-03 -2.024114e-02 5.426358e-03 -5.123224e-03 -5.253076e-03 -1.637416e-03 -7.306765e-03 3.609167e-03 -4.830871e-03 1.379243e-03
<VARIANCE> 39
 3.010228e+01 3.266614e+01 7.432396e+01 3.530210e+01 1.131626e+02 6.455022e+01 4.165909e+01 4.142457e+01 7.916473e+01 3.202024e+01 2.938433e+01 2.959677e+01 6.294107e+01 1.295266e+00 1.092530e+00 1.533710e+00 2.019343e+00 2.799433e+00 2.620661e+00 2.071244e+00 2.333346e+00 2.598937e+00 1.817311e+00 1.617670e+00 1.606198e+00 6.436665e-01 1.925798e-01 1.503384e-01 2.052724e-01 3.868051e-01 3.502450e-01 4.143000e-01 3.553074e-01 4.247438e-01 4.403491e-01 3.332186e-01 2.996598e-01 2.957401e-01 5.455629e-02
<GCONST> 1.115034e+02
<TRANSP> 5
 0.000000e+00 1.000000e+00 0.000000e+00 0.000000e+00 0.000000e+00
 0.000000e+00 7.581633e-01 2.418367e-01 0.000000e+00 0.000000e+00
 0.000000e+00 0.000000e+00 7.581626e-01 2.418373e-01 0.000000e+00
 0.000000e+00 0.000000e+00 0.000000e+00 8.831320e-01 1.168679e-01
 0.000000e+00 0.000000e+00 0.000000e+00 0.000000e+00 0.000000e+00
<ENDHMM>
~h "aa"
<BEGINHMM>
<NUMSTATES> 5
<STATE> 2
<MEAN> 39
 -3.733425e+00 2.742377e-01 -4.748315e+00 -2.235170e+00 2.688412e+00 -5.763675e+00 2.662226e+00 5.711921e-01 1.587643e-01 3.526982e+00 1.357408e+00 -6.866146e+00 6.388473e+01 -2.493787e-02 -5.414256e-02 -1.288948e-01 -2.287976e-02 1.528406e-01 1.544109e-01 4.287674e-02 5.162987e-02 1.221240e-01 3.618033e-02 -2.725844e-02 -2.901393e-02 -2.747929e-02 -2.169963e-02 9.915337e-03 1.099519e-02 9.131140e-03 -9.450845e-03 1.943148e-03 -9.189161e-03 3.542516e-03 -1.421167e-03 -1.005514e-02 -3.128202e-03 2.113244e-02 -1.660479e-02
<VARIANCE> 39
 3.695730e+01 2.920787e+01 6.523454e+01 5.422002e+01 4.900934e+01 8.210776e+01 6.431481e+01 5.046477e+01 5.411964e+01 4.579072e+01 3.513332e+01 6.763539e+01 8.963313e+01 1.435480e+00 1.163249e+00 1.724419e+00 1.941918e+00 1.956255e+00 3.026395e+00 2.817897e+00 2.344777e+00 2.363778e+00 2.180021e+00 2.181914e+00 2.893222e+00 1.507261e+00 1.918282e-01 1.640722e-01 2.476605e-01 2.941115e-01 3.205065e-01 4.710908e-01 4.666590e-01 4.073282e-01 3.992753e-01 4.052408e-01 3.901700e-01 4.449554e-01 1.333554e-01
<GCONST> 1.173661e+02
<STATE> 3
<MEAN> 39
 -3.926935e+00 1.151002e-01 -5.211982e+00 -2.294444e+00 3.229963e+00 -5.099270e+00 2.767806e+00 7.798684e-01 6.276258e-01 3.637238e+00 1.258838e+00 -6.890800e+00 6.366571e+01 -1.031762e-01 -1.990977e-02 -8.022693e-02 3.941669e-03 1.025517e-01 1.471312e-01 5.155819e-03 6.231761e-02 1.096959e-01 -3.782994e-03 -3.557374e-02 4.325758e-02 -8.330435e-02 -1.817072e-02 6.538590e-03 1.141854e-02 4.965373e-03 -1.373006e-02 -6.504219e-03 -9.745083e-03 1.212313e-03 -3.154193e-03 -8.850556e-03 -1.630330e-04 1.605579e-02 -1.261433e-02
<VARIANCE> 39
 3.697718e+01 2.728355e+01 5.693591e+01 5.126089e+01 4.211625e+01 7.939642e+01 6.126838e+01 4.840788e+01 4.844424e+01 4.364027e+01 3.398704e+01 6.631796e+01 9.105901e+01 1.428433e+00 1.119658e+00 1.653815e+00 1.926905e+00 1.886731e+00 2.866163e+00 2.709779e+00 2.363993e+00 2.274831e+00 2.160472e+00 2.131756e+00 2.790044e+00 1.414348e+00 1.899482e-01 1.597413e-01 2.443541e-01 2.926561e-01 3.145534e-01 4.509557e-01 4.539058e-01 4.163936e-01 3.902482e-01 3.994359e-01 3.815593e-01 4.292240e-01 1.251041e-01
<GCONST> 1.159677e+02
<STATE> 4
<MEAN> 39
 -4.513907e+00 -3.946534e-03 -5.548256e+00 -2.129960e+00 3.586273e+00 -4.336514e+00 2.645559e+00 1.032598e+00 1.196432e+00 3.553916e+00 1.162091e+00 -6.462979e+00 6.286615e+01 -1.639415e-01 4.685924e-03 -2.028226e-02 1.291086e-02 3.047767e-02 9.847324e-02 -3.876753e-02 5.753034e-02 7.566347e-02 -3.758102e-02 -3.817854e-02 8.861189e-02 -1.233616e-01 -9.779514e-03 3.010728e-03 9.409700e-03 1.049859e-03 -1.063384e-02 -1.101632e-02 -6.323886e-03 -1.350417e-03 -6.380875e-03 -5.082352e-03 3.747515e-04 7.280957e-03 -5.887396e-03
<VARIANCE> 39
 3.898218e+01 2.552481e+01 4.924846e+01 4.628108e+01 3.542598e+01 7.364935e+01 5.561099e+01 4.570325e+01 4.143925e+01 4.053729e+01 3.265964e+01 6.119962e+01 9.185200e+01 1.451348e+00 1.083141e+00 1.556351e+00 1.891298e+00 1.848492e+00 2.699567e+00 2.591774e+00 2.375044e+00 2.151879e+00 2.146922e+00 2.099440e+00 2.620143e+00 1.330702e+00 1.943078e-01 1.582782e-01 2.396991e-01 2.928965e-01 3.183651e-01 4.347243e-01 4.409389e-01 4.217883e-01 3.770121e-01 3.995631e-01 3.795759e-01 4.137415e-01 1.206600e-01
<GCONST> 1.143870e+02
<TRANSP> 5
 0.000000e+00 1.000000e+00 0.000000e+00 0.000000e+00 0.000000e+00
 0.000000e+00 7.562250e-01 2.437750e-01 0.000000e+00 0.000000e+00
 0.000000e+00 0.000000e+00 7.562249e-01 2.437751e-01 0.000000e+00
 0.000000e+00 0.000000e+00 0.000000e+00 8.817221e-01 1.182779e-01
 0.000000e+00 0.000000e+00 0.000000e+00 0.000000e+00 0.000000e+00
<ENDHMM>
~h "ax"
<BEGINHMM>
<NUMSTATES> 5
<STATE> 2
<MEAN> 39
 -3.508846e+00 4.322345e-01 -4.872435e+00 -9.054952e-01 -4.572604e-01 -8.585307e+00 1.765402e+00 -3.261083e+00 -1.121738e-02 3.560008e+00 2.435217e+00 -4.058312e+00 6.740845e+01 1.895208e-01 5.298435e-02 7.244186e-02 6.276698e-02 1.333111e-01 2.707082e-01 -1.033064e-01 -1.430146e-01 1.850975e-02 6.516208e-02 4.319705e-02 -3.344410e-02 -1.854515e-01 -1.277132e-02 1.220685e-03 2.023762e-02 1.620228e-02 -3.307579e-04 6.390756e-03 -3.803642e-03 2.417401e-02 1.234706e-02 -1.499299e-02 -6.945195e-03 1.183854e-02 -2.451553e-02
<VARIANCE> 39
 6.666763e+01 1.350557e+01 3.248921e+01 3.738362e+01 2.357130e+01 5.170866e+01 4.887379e+01 6.920578e+01 6.218370e+01 4.800864e+01 4.072309e+01 3.703413e+01 4.016421e+01 3.012662e+00 8.419126e-01 1.425276e+00 1.833630e+00 1.671633e+00 2.597691e+00 3.096629e+00 2.631279e+00 2.298096e+00 2.463112e+00 2.790871e+00 2.055484e+00 1.034100e+00 3.584701e-01 1.331782e-01 2.085567e-01 2.783358e-01 3.162855e-01 4.298678e-01 5.116941e-01 4.278112e-01 3.541828e-01 4.752401e-01 4.657589e-01 3.666110e-01 1.299269e-01
<GCONST> 1.138056e+02
<STATE> 3
<MEAN> 39
 -2.823132e+00 6.620104e-01 -4.456926e+00 -5.567804e-01 6.455346e-02 -7.446242e+00 1.312135e+00 -3.680747e+00 1.631352e-01 3.761319e+00 2.562666e+00 -4.109383e+00 6.649512e+01 1.276339e-01 5.965959e-02 1.460884e-01 1.170004e-01 1.322693e-01 2.966521e-01 -1.117168e-01 -3.968157e-02 6.538287e-02 5.966348e-03 1.676997e-02 1.486873e-02 -2.847913e-01 -2.038741e-02 1.165479e-03 1.539537e-02 8.715383e-03 -9.814634e-04 5.778587e-03 1.875890e-06 2.674664e-02 8.788342e-03 -1.360272e-02 -6.632678e-03 1.224817e-02 -2.375780e-02
<VARIANCE> 39
 5.443108e+01 1.175085e+01 3.265472e+01 3.460110e+01 2.250889e+01 5.044472e+01 4.263659e+01 6.476928e+01 5.513172e+01 4.497486e+01 3.777030e+01 3.380553e+01 4.814322e+01 2.471754e+00 7.074991e-01 1.366953e+00 1.750498e+00 1.644424e+00 2.449546e+00 2.849870e+00 2.531603e+00 2.090060e+00 2.389119e+00 2.799239e+00 1.933904e+00 8.259143e-01 2.941853e-01 1.128775e-01 2.006406e-01 2.690154e-01 3.113286e-01 3.992215e-01 4.731978e-01 4.069358e-01 3.292455e-01 4.587000e-01 4.746747e-01 3.464305e-01 9.890748e-02
<GCONST> 1.108092e+02
<STATE> 4
<MEAN> 39
 -2.347441e+00 9.341070e-01 -3.589683e+00 1.324652e-01 6.672994e-01 -5.828102e+00 7.205470e-01 -3.522141e+00 5.627554e-01 3.786214e+00 2.638896e+00 -4.045617e+00 6.454018e+01 1.534172e-02 6.968716e-02 1.975368e-01 1.396668e-01 1.272819e-01 3.237915e-01 -9.899182e-02 9.387023e-02 1.026351e-01 -5.035372e-02 -1.368141e-02 7.765529e-02 -4.016975e-01 -2.437409e-02 -7.168945e-04 4.338874e-03 -2.077662e-03 -2.882139e-03 1.226067e-03 4.663477e-03 2.171354e-02 1.585142e-03 -9.661415e-03 -5.403793e-03 1.067993e-02 -1.749851e-02
<VARIANCE> 39
 3.907014e+01 1.026967e+01 3.193277e+01 3.063467e+01 2.147375e+01 4.929472e+01 3.445469e+01 5.986514e+01 4.517722e+01 4.113725e+01 3.330097e+01 3.033261e+01 6.027769e+01 1.778209e+00 5.858217e-01 1.262352e+00 1.572365e+00 1.593795e+00 2.246371e+00 2.508473e+00 2.366087e+00 1.894766e+00 2.260483e+00 2.696784e+00 1.772960e+00 5.826934e-01 2.113278e-01 9.573113e-02 1.886857e-01 2.506312e-01 3.034536e-01 3.629621e-01 4.278644e-01 3.805403e-01 3.091673e-01 4.341711e-01 4.680280e-01 3.222831e-01 6.606867e-02
<GCONST> 1.063704e+02
<TRANSP> 5
 0.000000e+00 1.000000e+00 0.000000e+00 0.000000e+00 0.000000e+00
 0.000000e+00 7.542329e-01 2.457671e-01 0.000000e+00 0.000000e+00
 0.000000e+00 0.000000e+00 7.542332e-01 2.457668e-01 0.000000e+00
 0.000000e+00 0.000000e+00 0.000000e+00 8.778367e-01 1.221633e-01
 0.000000e+00 0.000000e+00 0.000000e+00 0.000000e+00 0.000000e+00
<ENDHMM>
~h "dx"
<BEGINHMM>
<NUMSTATES> 5
<STATE> 2
<MEAN> 39
 -2.486188e+00 1.667455e+00 9.527993e-01 3.508969e+00 -5.425488e+00 -1.956890e+00 -1.210197e-01 -1.543251e+00 -2.034558e+00 -2.552229e+00 -4.934594e-01 -1.413234e-02 5.854917e+01 1.157608e-01 6.798304e-02 1.061530e-01 -3.589495e-02 1.282077e-01 -4.024862e-01 1.411580e-01 2.081999e-01 -3.463187e-02 -8.835424e-02 -3.116496e-02 -5.307966e-02 1.041703e-01 -8.307638e-03 -2.218172e-02 -8.162366e-03 3.277088e-03 8.808662e-03 -3.257027e-02 4.610043e-03 1.092563e-02 9.256561e-03 1.525497e-03 8.968093e-03 -2.047790e-03 1.616491e-02
<VARIANCE> 39
 2.589869e+01 2.879118e+01 2.369888e+01 2.390259e+01 6.717860e+01 9.850396e+01 4.073689e+01 4.329631e+01 3.608253e+01 3.701665e+01 2.632448e+01 2.057323e+01 8.916264e+01 6.859567e-01 1.884172e+00 1.478395e+00 1.424162e+00 2.081875e+00 3.673818e+00 2.677169e+00 2.514493e+00 2.080314e+00 1.971644e+00 2.045980e+00 1.456031e+00 1.533790e+00 8.902559e-02 2.584636e-01 2.257268e-01 2.624705e-01 3.775385e-01 6.481948e-01 4.792595e-01 4.509254e-01 3.690661e-01 3.488775e-01 3.825009e-01 2.786446e-01 1.616800e-01
<GCONST> 1.111105e+02
<STATE> 3
<MEAN> 39
 -2.201139e+00 1.603614e+00 1.164067e+00 3.366777e+00 -4.810144e+00 -3.869220e+00 5.646378e-01 -6.161195e-01 -1.961169e+00 -2.781913e+00 -5.272042e-01 -2.727970e-01 5.911882e+01 6.398810e-02 -4.662678e-02 3.972059e-02 -2.782514e-02 1.514517e-01 -4.966279e-01 1.681478e-01 2.429351e-01 3.072398e-02 -5.895867e-02 8.814071e-04 -5.813425e-02 1.697014e-01 -1.325778e-02 -2.876079e-02 -1.763280e-02 1.675273e-03 3.913072e-03 -1.955903e-02 6.346619e-03 8.395791e-03 1.791466e-02 8.480660e-03 6.876350e-03 -3.639331e-04 1.594556e-02
<VARIANCE> 39
 2.205305e+01 3.452612e+01 2.616780e+01 2.432259e+01 6.049820e+01 1.318970e+02 4.620170e+01 4.752472e+01 3.685841e+01 3.679177e+01 2.692431e+01 2.301081e+01 8.784135e+01 7.244062e-01 2.198557e+00 1.632685e+00 1.502061e+00 2.337224e+00 4.425804e+00 2.807419e+00 2.790574e+00 2.265990e+00 2.076890e+00 2.171952e+00 1.669830e+00 1.932401e+00 9.505244e-02 2.951896e-01 2.467669e-01 2.774057e-01 4.358224e-01 7.735898e-01 4.957623e-01 4.983996e-01 3.883303e-01 3.605904e-01 4.109911e-01 3.219281e-01 2.037742e-01
<GCONST> 1.144979e+02
<STATE> 4
<MEAN> 39
 -2.392812e+00 7.294307e-01 7.417657e-01 3.238929e+00 -3.663483e+00 -7.041267e+00 1.869195e+00 8.668005e-01 -1.330829e+00 -2.906195e+00 -3.053886e-01 -6.916024e-01 6.006541e+01 -3.448396e-02 -1.456167e-01 -5.176996e-02 2.429768e-03 1.460781e-01 -4.723464e-01 1.470017e-01 2.157970e-01 1.232190e-01 -2.000658e-03 2.098543e-02 -3.625812e-02 1.970374e-01 -1.266342e-02 -1.013526e-02 -9.861823e-03 4.572687e-03 -3.801301e-03 8.150379e-03 -5.565844e-03 -4.069734e-03 1.108028e-02 6.509146e-03 9.171811e-04 4.297356e-03 3.704936e-03
<VARIANCE> 39
 2.262679e+01 3.921906e+01 2.651586e+01 2.434793e+01 4.847730e+01 1.743553e+02 5.222247e+01 4.973004e+01 4.007692e+01 3.787038e+01 2.609818e+01 2.678269e+01 9.251803e+01 8.629711e-01 2.282768e+00 1.659212e+00 1.466287e+00 2.549351e+00 4.885532e+00 2.865530e+00 2.888177e+00 2.492207e+00 2.231447e+00 2.187638e+00 2.136615e+00 2.276742e+00 1.096435e-01 3.105757e-01 2.453124e-01 2.644673e-01 4.871893e-01 8.273286e-01 4.950553e-01 5.202557e-01 4.123347e-01 3.874193e-01 4.171587e-01 4.226993e-01 2.461770e-01
<GCONST> 1.171736e+02
<TRANSP> 5
 0.000000e+00 1.000000e+00 0.000000e+00 0.000000e+00 0.000000e+00
 0.000000e+00 7.542509e-01 2.457491e-01 0.000000e+00 0.000000e+00
 0.000000e+00 0.000000e+00 7.542509e-01 2.457491e-01 0.000000e+00
 0.000000e+00 0.000000e+00 0.000000e+00 8.778854e-01 1.221146e-01
 0.000000e+00 0.000000e+00 0.000000e+00 0.000000e+00 0.000000e+00
<ENDHMM>
~h "ee"
<BEGINHMM>
<NUMSTATES> 5
<STATE> 2
<MEAN> 39
 -5.418793e+00 -2.487566e+00 2.548013e+00 3.553340e+00 -9.093802e+00 -1.574821e+01 -1.420405e+00 4.818107e+00 -4.011431e+00 2.026350e+00 7.075476e+00 4.364161e-01 6.625519e+01 3.421931e-02 -1.180750e-02 2.299349e-01 2.448549e-01 -1.933806e-01 -3.182213e-01 1.450558e-01 1.744424e-01 -1.651263e-01 -2.030570e-01 -1.514642e-02 2.633061e-01 6.614403e-02 3.891683e-03 2.792113e-03 -3.070792e-02 -7.932896e-03 3.757966e-02 3.936490e-02 -1.386938e-03 -1.768773e-02 2.220200e-02 1.433131e-02 -5.380488e-03 -1.680165e-02 -3.515241e-02
<VARIANCE> 39
 2.776248e+01 1.704523e+01 5.991239e+01 3.838108e+01 7.363584e+01 1.195354e+02 3.300721e+01 5.401828e+01 6.083839e+01 6.125586e+01 4.075646e+01 5.183346e+01 7.312518e+01 1.686220e+00 1.734304e+00 2.631568e+00 1.563007e+00 3.103537e+00 4.535173e+00 1.928347e+00 2.642930e+00 3.399489e+00 2.842111e+00 3.002268e+00 2.179306e+00 2.492760e+00 3.039241e-01 3.771258e-01 4.107650e-01 2.856078e-01 4.802330e-01 5.727816e-01 3.567541e-01 4.840765e-01 5.608493e-01 5.071040e-01 5.661023e-01 3.875341e-01 2.627972e-01
<GCONST> 1.226707e+02
<STATE> 3
<MEAN> 39
 -5.276518e+00 -2.532924e+00 3.278843e+00 4.470627e+00 -9.653451e+00 -1.679006e+01 -8.523358e-01 5.438939e+00 -4.529767e+00 1.316364e+00 6.991403e+00 1.360522e+00 6.632103e+01 4.043412e-02 -6.376678e-03 9.259539e-02 1.986121e-01 -3.857148e-02 -1.501576e-01 1.388682e-01 9.797249e-02 -7.340013e-02 -1.298380e-01 -3.494109e-02 1.911967e-01 -7.492429e-02 -3.537534e-03 -8.299036e-04 -4.136868e-02 -1.806949e-02 4.417367e-02 5.001772e-02 -5.456226e-03 -2.377535e-02 2.654706e-02 2.562566e-02 -4.568496e-03 -2.102797e-02 -3.786642e-02
<VARIANCE> 39
 2.620482e+01 1.585306e+01 5.494747e+01 3.609030e+01 7.249934e+01 1.135089e+02 3.355609e+01 5.307794e+01 5.339371e+01 5.741793e+01 3.878540e+01 4.457309e+01 7.045547e+01 1.444867e+00 1.529534e+00 2.730286e+00 1.524390e+00 3.268294e+00 4.305504e+00 1.896269e+00 2.686930e+00 3.097781e+00 2.847416e+00 2.850536e+00 2.047175e+00 2.273259e+00 2.575718e-01 3.300869e-01 4.238521e-01 2.731289e-01 5.029943e-01 5.353059e-01 3.535640e-01 4.785807e-01 5.135463e-01 5.041857e-01 5.395312e-01 3.693896e-01 2.322513e-01
<GCONST> 1.206574e+02
<STATE> 4
<MEAN> 39
 -5.188258e+00 -2.605002e+00 3.336918e+00 5.378718e+00 -9.342811e+00 -1.699153e+01 -2.510771e-01 5.740901e+00 -4.762932e+00 8.597854e-01 6.843343e+00 2.124156e+00 6.542549e+01 1.109688e-02 -1.634263e-02 -1.127126e-01 9.348026e-02 1.691779e-01 8.482517e-02 1.173445e-01 -1.585231e-02 4.670653e-02 1.034959e-02 -5.734767e-02 8.926019e-02 -2.397518e-01 -1.030514e-02 -3.663774e-03 -4.296037e-02 -2.629318e-02 4.272323e-02 4.884446e-02 -1.011205e-02 -2.612442e-02 2.438764e-02 3.196916e-02 -4.508874e-03 -2.002148e-02 -2.882839e-02
<VARIANCE> 39
 2.533134e+01 1.480433e+01 5.373728e+01 3.205174e+01 7.776070e+01 1.051708e+02 3.447348e+01 5.109184e+01 4.633348e+01 5.375958e+01 3.637289e+01 3.581258e+01 6.800720e+01 1.149653e+00 1.282228e+00 3.068517e+00 1.534896e+00 3.630207e+00 3.879684e+00 1.943837e+00 2.781412e+00 2.800544e+00 3.004928e+00 2.652958e+00 1.962546e+00 1.949187e+00 1.978941e-01 2.709535e-01 4.902302e-01 2.675416e-01 5.786021e-01 4.958799e-01 3.652218e-01 4.856825e-01 4.716915e-01 5.325043e-01 5.057821e-01 3.615192e-01 2.034912e-01
<GCONST> 1.188605e+02
<TRANSP> 5
 0.000000e+00 1.000000e+00 0.000000e+00 0.000000e+00 0.000000e+00
 0.000000e+00 7.443300e-01 2.556700e-01 0.000000e+00 0.000000e+00
 0.000000e+00 0.000000e+00 7.443298e-01 2.556701e-01 0.000000e+00
 0.000000e+00 0.000000e+00 0.000000e+00 8.666016e-01 1.333983e-01
 0.000000e+00 0.000000e+00 0.000000e+00 0.000000e+00 0.000000e+00
<ENDHMM>
~h "ei"
<BEGINHMM>
<NUMSTATES> 5
<STATE> 2
<MEAN> 39
 -4.075479e+00 5.196931e-01 1.954471e+00 2.728514e+00 -4.137272e+00 -1.069617e+01 -1.130675e+00 2.645286e+00 -2.044486e+00 -7.208889e-01 2.042964e+00 -1.531026e+00 6.300320e+01 -5.753637e-02 -4.329568e-02 -9.495205e-02 -2.255962e-02 9.948032e-02 -1.886713e-01 3.843535e-02 1.031811e-01 8.048030e-02 4.048581e-02 4.551217e-03 2.224638e-02 9.628861e-02 -6.079122e-03 7.540472e-03 -3.723122e-03 -1.189757e-03 4.876710e-03 1.875709e-02 -5.837491e-03 -1.272573e-02 -1.739280e-03 -8.920404e-04 1.547153e-03 3.109511e-03 -6.287100e-03
<VARIANCE> 39
 4.377730e+01 3.792793e+01 4.414008e+01 4.029234e+01 5.304884e+01 1.315195e+02 5.111970e+01 8.035159e+01 6.069969e+01 4.787873e+01 3.508995e+01 3.328365e+01 9.841274e+01 1.254455e+00 1.601738e+00 1.671835e+00 1.756306e+00 2.571712e+00 3.866529e+00 2.705034e+00 2.959565e+00 2.717196e+00 2.465496e+00 2.378753e+00 2.171592e+00 1.717021e+00 1.753446e-01 2.427168e-01 2.571193e-01 3.101405e-01 4.377423e-01 5.991333e-01 4.782913e-01 4.807982e-01 4.589675e-01 4.441486e-01 4.397320e-01 4.055400e-01 1.727889e-01
<GCONST> 1.200457e+02
<STATE> 3
<MEAN> 39
 -4.386491e+00 4.252531e-01 1.567990e+00 2.633984e+00 -3.716083e+00 -1.124437e+01 -1.053461e+00 2.938577e+00 -1.753481e+00 -5.763824e-01 2.082593e+00 -1.406424e+00 6.330216e+01 -8.041889e-02 -1.424708e-02 -9.526467e-02 -2.906425e-02 1.033176e-01 -1.192451e-01 8.976647e-03 5.596430e-02 6.564111e-02 3.439504e-02 1.395517e-02 3.101983e-02 7.685001e-02 -4.879488e-03 6.635670e-03 5.779893e-04 -1.809720e-03 -2.618753e-04 1.774224e-02 -6.771770e-03 -1.233924e-02 -4.320021e-03 -1.004317e-03 2.281631e-03 2.111699e-03 -4.841749e-03
<VARIANCE> 39
 5.103518e+01 3.840345e+01 3.995820e+01 4.206427e+01 5.014843e+01 1.293870e+02 5.183523e+01 8.075932e+01 5.880790e+01 4.784913e+01 3.497323e+01 3.391359e+01 9.632551e+01 1.386336e+00 1.634267e+00 1.615707e+00 1.784117e+00 2.555722e+00 3.843139e+00 2.756754e+00 3.003305e+00 2.793337e+00 2.516689e+00 2.390183e+00 2.238008e+00 1.719586e+00 1.864916e-01 2.512185e-01 2.549950e-01 3.125522e-01 4.380059e-01 5.957203e-01 4.908944e-01 4.904047e-01 4.702505e-01 4.562972e-01 4.443767e-01 4.207147e-01 1.785630e-01
<GCONST> 1.205382e+02
<STATE> 4
<MEAN> 39
 -5.058720e+00 4.176902e-01 1.030937e+00 2.476295e+00 -3.177854e+00 -1.147424e+01 -1.126079e+00 2.950548e+00 -1.513967e+00 -5.150691e-01 2.221838e+00 -1.133896e+00 6.347190e+01 -8.961847e-02 -8.935083e-04 -8.230205e-02 -4.108320e-02 7.639419e-02 -5.202754e-02 -2.672181e-02 2.277067e-03 4.143303e-02 3.356759e-02 2.481121e-02 3.212392e-02 6.954700e-02 1.429121e-03 1.589039e-03 2.110833e-03 -1.320274e-03 -4.376055e-03 1.045496e-02 -3.615082e-03 -9.320948e-03 -3.943277e-03 7.410420e-04 9.799126e-04 -4.948339e-04 -1.527818e-03
<VARIANCE> 39
 6.487674e+01 3.898109e+01 3.588891e+01 4.523489e+01 4.711596e+01 1.177891e+02 5.252637e+01 8.174247e+01 5.728793e+01 4.683568e+01 3.538323e+01 3.392229e+01 8.948991e+01 1.577422e+00 1.680977e+00 1.578360e+00 1.828088e+00 2.554042e+00 3.739752e+00 2.826590e+00 3.035749e+00 2.915063e+00 2.574520e+00 2.397630e+00 2.278538e+00 1.726319e+00 2.027778e-01 2.638273e-01 2.555232e-01 3.174280e-01 4.420018e-01 5.864338e-01 5.090096e-01 5.028727e-01 4.868089e-01 4.719873e-01 4.519555e-01 4.334650e-01 1.876018e-01
<GCONST> 1.211441e+02
<TRANSP> 5
 0.000000e+00 1.000000e+00 0.000000e+00 0.000000e+00 0.000000e+00
 0.000000e+00 7.434040e-01 2.565960e-01 0.000000e+00 0.000000e+00
 0.000000e+00 0.000000e+00 7.434042e-01 2.565958e-01 0.000000e+00
 0.000000e+00 0.000000e+00 0.000000e+00 8.665328e-01 1.334672e-01
 0.000000e+00 0.000000e+00 0.000000e+00 0.000000e+00 0.000000e+00
<ENDHMM>
~h "ii"
<BEGINHMM>
<NUMSTATES> 5
<STATE> 2
<MEAN> 39
 -9.009184e+00 4.686135e+00 1.021544e+01 3.052579e+00 -7.831796e+00 -1.015217e+01 -1.214306e+00 1.625371e+00 -9.622822e+00 -7.223266e-01 2.486378e+00 -3.393116e+00 6.423563e+01 3.442973e-02 6.296112e-02 -7.364641e-02 6.494955e-02 1.086589e-01 6.546246e-02 5.155834e-02 -9.824833e-02 -1.867343e-02 8.867195e-02 -5.019585e-03 -2.685807e-02 -8.763205e-02 8.618869e-04 -9.755648e-03 -2.711333e-02 -6.873713e-03 2.684559e-02 1.037501e-02 1.649463e-03 3.471300e-03 2.243384e-02 2.624446e-03 -2.907262e-03 4.558051e-03 -1.316426e-02
<VARIANCE> 39
 4.768513e+01 3.305140e+01 1.054352e+02 4.453979e+01 9.177938e+01 8.793959e+01 4.001011e+01 6.232608e+01 9.983219e+01 3.816791e+01 3.380252e+01 2.919638e+01 6.152143e+01 2.284909e+00 1.053346e+00 2.063916e+00 2.194318e+00 2.991295e+00 3.249461e+00 2.319519e+00 2.246868e+00 2.905354e+00 2.214258e+00 1.987536e+00 1.665153e+00 1.082184e+00 3.308583e-01 1.722019e-01 2.781286e-01 3.811737e-01 4.313889e-01 5.011194e-01 4.266089e-01 3.938653e-01 4.585114e-01 3.920457e-01 3.836726e-01 3.030679e-01 1.224503e-01
<GCONST> 1.186299e+02
<STATE> 3
<MEAN> 39
 -8.919871e+00 4.861917e+00 9.695080e+00 3.232058e+00 -7.148973e+00 -9.859788e+00 -9.803434e-01 1.316195e+00 -9.512601e+00 -3.770292e-01 2.444634e+00 -3.462018e+00 6.379125e+01 3.394904e-02 2.565726e-02 -1.680732e-01 3.582010e-02 2.028207e-01 9.664583e-02 5.323220e-02 -8.352966e-02 6.312391e-02 9.225675e-02 -1.505307e-02 -8.894130e-03 -1.280409e-01 -4.734375e-04 -9.874078e-03 -2.134428e-02 -8.395969e-03 2.100346e-02 8.796464e-03 1.656183e-04 4.587918e-03 2.003213e-02 1.000455e-05 -2.340103e-03 3.721000e-03 -9.206958e-03
<VARIANCE> 39
 4.714581e+01 3.372292e+01 1.022398e+02 4.253970e+01 9.114203e+01 8.748009e+01 4.051072e+01 5.881739e+01 9.530862e+01 3.850716e+01 3.358128e+01 2.903785e+01 6.267754e+01 2.066175e+00 1.027643e+00 2.013973e+00 2.104926e+00 2.861088e+00 3.168285e+00 2.263037e+00 2.216830e+00 2.826212e+00 2.253285e+00 1.964239e+00 1.711085e+00 1.023715e+00 2.930503e-01 1.622388e-01 2.744462e-01 3.642818e-01 4.180894e-01 4.924373e-01 4.148973e-01 3.883565e-01 4.510708e-01 3.975461e-01 3.799421e-01 3.127407e-01 1.161042e-01
<GCONST> 1.177594e+02
<STATE> 4
<MEAN> 39
 -9.000071e+00 4.908957e+00 8.473209e+00 3.226602e+00 -5.586178e+00 -9.042444e+00 -5.629459e-01 9.545712e-01 -8.973360e+00 -2.146880e-02 2.309249e+00 -3.474862e+00 6.267313e+01 2.526907e-02 -2.135611e-02 -2.514689e-01 -9.610835e-03 2.817462e-01 1.127924e-01 4.754985e-02 -5.339919e-02 1.504602e-01 7.893995e-02 -2.315583e-02 1.051721e-02 -1.467727e-01 7.609013e-04 -8.424602e-03 -1.006069e-02 -6.963714e-03 7.933770e-03 6.328498e-03 -1.798781e-03 3.459547e-03 1.328895e-02 -2.432759e-03 -1.264282e-03 2.096696e-03 -3.293521e-03
<VARIANCE> 39
 4.710937e+01 3.567567e+01 9.772407e+01 4.040369e+01 9.098332e+01 8.599396e+01 4.131715e+01 5.347525e+01 8.991069e+01 3.787803e+01 3.314544e+01 2.948951e+01 6.733158e+01 1.827105e+00 1.023439e+00 1.974693e+00 2.033901e+00 2.745640e+00 3.061306e+00 2.223126e+00 2.240937e+00 2.752888e+00 2.297099e+00 1.971710e+00 1.792357e+00 1.003722e+00 2.580640e-01 1.560620e-01 2.727871e-01 3.534042e-01 4.061515e-01 4.789259e-01 4.036634e-01 3.958551e-01 4.491716e-01 4.091274e-01 3.786884e-01 3.277837e-01 1.099503e-01
<GCONST> 1.171292e+02
<TRANSP> 5
 0.000000e+00 1.000000e+00 0.000000e+00 0.000000e+00 0.000000e+00
 0.000000e+00 7.491541e-01 2.508460e-01 0.000000e+00 0.000000e+00
 0.000000e+00 0.000000e+00 7.491543e-01 2.508457e-01 0.000000e+00
 0.000000e+00 0.000000e+00 0.000000e+00 8.735628e-01 1.264371e-01
 0.000000e+00 0.000000e+00 0.000000e+00 0.000000e+00 0.000000e+00
<ENDHMM>
~h "th"
<BEGINHMM>
<NUMSTATES> 5
<STATE> 2
<MEAN> 39
 -1.175473e+01 1.228142e+00 5.415953e+00 2.700514e+00 -4.467141e+00 -7.608788e+00 -4.434854e-01 3.466146e+00 -4.560785e+00 -2.254164e+00 2.666448e+00 1.341640e+00 5.879563e+01 5.209478e-02 1.414084e-01 6.974535e-01 1.233026e-01 -5.923302e-01 -7.175339e-01 -1.544496e-01 1.053424e-01 -5.204665e-01 -2.167183e-01 1.455979e-01 2.546149e-02 7.186834e-01 2.174281e-02 1.011232e-02 4.394524e-02 3.035917e-02 -3.586090e-02 -6.820840e-03 -1.121833e-02 -2.751002e-02 -2.592067e-02 -1.461234e-02 -5.636584e-03 -1.803339e-02 8.106709e-03
<VARIANCE> 39
 2.715240e+01 1.463322e+01 9.392077e+01 5.091159e+01 7.557298e+01 9.663818e+01 3.204920e+01 5.140355e+01 6.756110e+01 3.414177e+01 2.621806e+01 2.864946e+01 8.591687e+01 2.627531e+00 1.128878e+00 2.408375e+00 3.763249e+00 3.087306e+00 5.849144e+00 2.624882e+00 4.005120e+00 2.799275e+00 2.361061e+00 2.636421e+00 2.662887e+00 2.552861e+00 4.598677e-01 2.479645e-01 3.590622e-01 6.564806e-01 6.009858e-01 1.172274e+00 4.989402e-01 7.456942e-01 5.482023e-01 4.393946e-01 5.368520e-01 5.424011e-01 5.377722e-01
<GCONST> 1.263354e+02
<STATE> 3
<MEAN> 39
 -1.119082e+01 1.940565e+00 8.670660e+00 3.598612e+00 -7.202726e+00 -1.024825e+01 -1.151225e+00 3.346368e+00 -6.894729e+00 -3.171053e+00 3.150409e+00 1.125673e+00 6.162533e+01 1.609933e-01 1.818576e-01 8.117886e-01 2.345749e-01 -6.773029e-01 -6.229445e-01 -1.683947e-01 -5.863510e-02 -5.808133e-01 -2.168847e-01 1.132351e-01 -7.371537e-02 6.753254e-01 2.548928e-02 9.856857e-03 2.208231e-02 2.424547e-02 -1.623223e-02 2.811303e-02 -4.702837e-04 -4.086209e-02 -1.247615e-02 4.265740e-03 -8.537192e-03 -2.447631e-02 -1.540151e-02
<VARIANCE> 39
 2.967458e+01 1.786336e+01 1.093943e+02 5.320746e+01 8.662179e+01 9.317494e+01 3.544020e+01 5.525458e+01 7.829826e+01 3.684341e+01 2.818125e+01 3.121596e+01 8.142803e+01 2.681608e+00 1.263793e+00 2.558328e+00 3.594862e+00 3.177385e+00 6.045939e+00 2.786919e+00 3.791446e+00 2.912560e+00 2.461814e+00 2.755396e+00 2.559531e+00 2.407561e+00 4.655308e-01 2.765994e-01 3.768250e-01 6.151782e-01 6.007923e-01 1.186717e+00 5.270609e-01 6.883780e-01 5.649016e-01 4.486062e-01 5.571213e-01 5.141760e-01 4.898030e-01
<GCONST> 1.276958e+02
<STATE> 4
<MEAN> 39
 -9.615864e+00 3.492807e+00 1.395247e+01 5.431466e+00 -1.163539e+01 -1.241330e+01 -2.022873e+00 1.541225e+00 -1.085400e+01 -3.917507e+00 3.597275e+00 -1.347558e-01 6.489095e+01 2.133483e-01 1.978805e-01 6.433806e-01 2.073914e-01 -5.363390e-01 -2.396479e-01 -7.408394e-02 -2.279347e-01 -4.851519e-01 -4.709638e-02 5.749771e-02 -1.852849e-01 3.820065e-01 3.268710e-03 5.761392e-04 -2.961388e-02 -7.430809e-03 2.472021e-02 5.010482e-02 1.473060e-02 -1.781723e-02 1.603502e-02 2.406436e-02 -8.031579e-03 -1.149404e-02 -4.091058e-02
<VARIANCE> 39
 2.526348e+01 2.129562e+01 9.903731e+01 4.414744e+01 8.083372e+01 7.860911e+01 3.743520e+01 5.609555e+01 7.986974e+01 3.779029e+01 2.988469e+01 3.261901e+01 6.245982e+01 1.970987e+00 1.168494e+00 2.359502e+00 2.650830e+00 2.836307e+00 4.882957e+00 2.609614e+00 2.828392e+00 2.685365e+00 2.276860e+00 2.571896e+00 2.005423e+00 1.748554e+00 3.421968e-01 2.462380e-01 3.144763e-01 4.485665e-01 4.753266e-01 8.956404e-01 4.873452e-01 5.160887e-01 4.930167e-01 3.979073e-01 5.054297e-01 3.967865e-01 2.984354e-01
<GCONST> 1.219773e+02
<TRANSP> 5
 0.000000e+00 1.000000e+00 0.000000e+00 0.000000e+00 0.000000e+00
 0.000000e+00 7.549287e-01 2.450712e-01 0.000000e+00 0.000000e+00
 0.000000e+00 0.000000e+00 7.549287e-01 2.450713e-01 0.000000e+00
 0.000000e+00 0.000000e+00 0.000000e+00 8.786072e-01 1.213928e-01
 0.000000e+00 0.000000e+00 0.000000e+00 0.000000e+00 0.000000e+00
<ENDHMM>
~h "tx"
<BEGINHMM>
<NUMSTATES> 5
<STATE> 2
<MEAN> 39
 -2.905636e+00 -5.183346e-01 -9.059955e-01 2.461358e+00 -2.866307e+00 -8.783669e+00 -3.447078e-01 1.210392e+00 -1.090892e+00 -3.413527e-01 2.020468e+00 -1.100240e+00 6.334945e+01 -6.392179e-02 3.859768e-02 -5.235611e-02 -5.064820e-02 6.729011e-03 4.470976e-02 9.613349e-03 -4.588806e-02 3.571681e-02 7.098299e-02 2.311881e-02 1.668984e-02 2.165067e-02 -2.384528e-03 2.988940e-03 -4.191450e-03 -5.903156e-03 1.044866e-03 6.436606e-03 1.273398e-03 -9.027974e-03 -5.056721e-03 -3.711031e-04 2.646789e-03 -2.736475e-03 -2.753333e-03
<VARIANCE> 39
 4.773185e+01 3.719698e+01 2.877052e+01 4.064570e+01 3.466465e+01 9.536661e+01 5.239951e+01 6.829234e+01 7.303616e+01 4.481228e+01 3.615029e+01 3.737104e+01 6.994095e+01 1.698983e+00 1.567443e+00 1.592740e+00 1.760355e+00 2.404247e+00 3.502729e+00 3.114425e+00 3.300416e+00 3.091481e+00 2.563104e+00 2.308298e+00 2.589505e+00 1.843848e+00 2.080743e-01 2.470375e-01 2.669093e-01 3.012400e-01 4.720259e-01 6.007359e-01 5.840544e-01 5.447126e-01 5.023950e-01 4.810536e-01 4.294952e-01 5.036781e-01 2.300758e-01
<GCONST> 1.206853e+02
<STATE> 3
<MEAN> 39
 -3.182760e+00 -3.609756e-01 -1.148869e+00 2.212420e+00 -2.824302e+00 -8.566293e+00 -2.747743e-01 1.000381e+00 -9.808654e-01 -6.798849e-02 2.119379e+00 -1.068276e+00 6.342780e+01 -6.408777e-02 4.584442e-02 -6.913783e-02 -7.165132e-02 1.622210e-02 6.681193e-02 2.203237e-02 -7.021441e-02 1.939201e-02 7.202502e-02 2.974361e-02 8.140344e-04 1.245660e-02 1.297773e-03 5.306248e-04 -3.723491e-03 -4.381885e-03 2.898095e-03 4.129054e-03 2.548094e-03 -5.022587e-03 -3.870054e-03 -2.431215e-04 1.136756e-03 -4.688949e-03 -2.188204e-03
<VARIANCE> 39
 5.169565e+01 3.495470e+01 2.953120e+01 4.232761e+01 3.370462e+01 8.926833e+01 5.245520e+01 6.712122e+01 7.235397e+01 4.452277e+01 3.650985e+01 3.738896e+01 6.763036e+01 1.874278e+00 1.512520e+00 1.599789e+00 1.798149e+00 2.390160e+00 3.419694e+00 3.174850e+00 3.256053e+00 3.136006e+00 2.606596e+00 2.303484e+00 2.554659e+00 1.810366e+00 2.275993e-01 2.423164e-01 2.675364e-01 3.082485e-01 4.690511e-01 5.881146e-01 5.922926e-01 5.375382e-01 5.128765e-01 4.940503e-01 4.273731e-01 4.970406e-01 2.253601e-01
<GCONST> 1.207585e+02
<STATE> 4
<MEAN> 39
 -3.585939e+00 -2.995510e-01 -1.651736e+00 1.774786e+00 -2.632376e+00 -8.221331e+00 2.993512e-03 7.011602e-01 -8.672287e-01 2.294107e-01 2.346779e+00 -1.227218e+00 6.353575e+01 -3.843600e-02 3.589258e-02 -8.439554e-02 -8.373928e-02 3.532124e-02 8.322482e-02 3.206569e-02 -7.729764e-02 3.896753e-03 7.405656e-02 3.780891e-02 -2.986855e-02 4.264310e-03 5.517184e-03 -2.599389e-03 -1.125614e-03 -2.438183e-04 2.913357e-03 1.433289e-03 -7.860807e-04 -1.132612e-03 -1.799843e-03 -8.280411e-04 7.185956e-04 -5.084726e-03 -1.490882e-03
<VARIANCE> 39
 5.504173e+01 3.073781e+01 3.032154e+01 4.237598e+01 3.340313e+01 8.173061e+01 5.318650e+01 6.521278e+01 6.812695e+01 4.426550e+01 3.678168e+01 3.781028e+01 6.638107e+01 1.998800e+00 1.382315e+00 1.588665e+00 1.824631e+00 2.359450e+00 3.280977e+00 3.163348e+00 3.097109e+00 3.064082e+00 2.572260e+00 2.318070e+00 2.452631e+00 1.717464e+00 2.401838e-01 2.244497e-01 2.628767e-01 3.147830e-01 4.635028e-01 5.731905e-01 5.806797e-01 5.066224e-01 5.034470e-01 4.903213e-01 4.272821e-01 4.726166e-01 2.153164e-01
<GCONST> 1.200340e+02
<TRANSP> 5
 0.000000e+00 1.000000e+00 0.000000e+00 0.000000e+00 0.000000e+00
 0.000000e+00 7.472257e-01 2.527743e-01 0.000000e+00 0.000000e+00
 0.000000e+00 0.000000e+00 7.472265e-01 2.527735e-01 0.000000e+00
 0.000000e+00 0.000000e+00 0.000000e+00 8.707562e-01 1.292438e-01
 0.000000e+00 0.000000e+00 0.000000e+00 0.000000e+00 0.000000e+00
<ENDHMM>
~h "uu"
<BEGINHMM>
<NUMSTATES> 5
<STATE> 2
<MEAN> 39
 6.168092e-01 8.766930e+00 -1.787471e+00 -8.850894e-01 -3.409550e+00 -5.030352e+00 3.719772e-02 -9.731511e+00 -1.323018e+01 -4.965531e+00 -5.938750e-01 2.761733e+00 6.125865e+01 1.694574e-01 2.473818e-01 -3.578662e-03 -1.897080e-01 3.092689e-02 1.712075e-02 2.216121e-01 2.995340e-02 -2.966046e-01 -3.305653e-02 -1.393372e-01 -1.633145e-02 2.690692e-02 -3.373678e-02 -2.564577e-02 7.435951e-03 1.370540e-02 1.007293e-02 1.913492e-02 -7.009217e-04 4.160285e-02 4.808630e-02 1.067471e-02 -4.723570e-03 -1.015761e-02 -3.849498e-02
<VARIANCE> 39
 2.943969e+01 3.850949e+01 2.091700e+01 5.781924e+01 2.489889e+01 3.537177e+01 6.836369e+01 9.871944e+01 1.006308e+02 2.782649e+01 4.078051e+01 2.722105e+01 4.557777e+01 8.662422e-01 1.279937e+00 1.087313e+00 2.264750e+00 2.033909e+00 2.395143e+00 3.936609e+00 3.631470e+00 2.902375e+00 2.022630e+00 2.571873e+00 1.694728e+00 1.105721e+00 1.022760e-01 1.859954e-01 1.948055e-01 3.403072e-01 3.947582e-01 4.412430e-01 6.191730e-01 5.208617e-01 3.674343e-01 3.958790e-01 4.639376e-01 3.422497e-01 1.267831e-01
<GCONST> 1.133772e+02
<STATE> 3
<MEAN> 39
 8.750851e-01 9.393397e+00 -1.697803e+00 -1.408187e+00 -3.174561e+00 -4.753212e+00 8.145525e-01 -9.123308e+00 -1.375692e+01 -4.958029e+00 -1.178262e+00 2.544262e+00 6.091035e+01 3.303249e-02 1.208516e-01 3.323402e-02 -9.911630e-02 6.172010e-02 7.859555e-02 1.683481e-01 1.705829e-01 -7.773920e-02 6.100855e-03 -1.364343e-01 -5.834369e-02 -1.081066e-01 -3.206781e-02 -3.128595e-02 9.170887e-03 2.373167e-02 6.279283e-03 1.342739e-02 -1.595784e-02 3.035682e-02 5.370361e-02 9.426430e-03 2.972130e-03 -9.561722e-03 -2.997871e-02
<VARIANCE> 39
 2.626891e+01 3.359442e+01 2.068288e+01 5.260121e+01 2.224442e+01 3.338956e+01 5.743533e+01 9.395434e+01 9.299334e+01 2.754543e+01 3.848788e+01 2.689506e+01 4.229689e+01 6.991481e-01 1.062535e+00 9.722316e-01 1.937870e+00 1.702686e+00 2.126421e+00 3.157041e+00 2.987507e+00 2.682139e+00 1.907036e+00 2.309223e+00 1.611144e+00 8.147581e-01 8.033100e-02 1.423571e-01 1.726765e-01 2.829984e-01 3.309920e-01 3.961504e-01 4.928906e-01 4.461900e-01 3.440059e-01 3.650914e-01 4.166530e-01 3.193220e-01 8.951168e-02
<GCONST> 1.082583e+02
<STATE> 4
<MEAN> 39
 -1.854713e-02 9.003820e+00 -1.217835e+00 -1.092193e+00 -2.553186e+00 -3.766889e+00 1.199652e+00 -7.191781e+00 -1.235949e+01 -4.509129e+00 -1.767295e+00 1.729055e+00 5.908053e+01 -1.435848e-01 -8.740772e-02 6.319875e-02 5.253005e-02 9.231313e-02 1.123195e-01 3.009499e-02 2.670181e-01 2.305058e-01 6.772666e-02 -5.694112e-02 -1.189984e-01 -2.148915e-01 -1.985596e-02 -2.512629e-02 3.048398e-03 1.803531e-02 2.511717e-03 2.257471e-03 -1.768964e-02 8.181659e-03 3.613849e-02 7.930724e-03 1.185044e-02 -6.777815e-03 -9.147551e-03
<VARIANCE> 39
 2.889849e+01 3.226665e+01 2.072920e+01 4.354875e+01 2.174574e+01 3.293331e+01 4.202413e+01 8.243451e+01 9.031789e+01 2.889076e+01 3.335604e+01 2.804778e+01 4.564721e+01 5.747436e-01 8.028895e-01 9.526900e-01 1.630372e+00 1.524945e+00 1.915533e+00 2.360278e+00 2.262399e+00 2.378018e+00 1.937094e+00 2.036093e+00 1.648997e+00 6.079612e-01 7.103866e-02 1.076371e-01 1.693401e-01 2.464701e-01 2.981134e-01 3.593801e-01 3.830743e-01 3.713467e-01 3.444452e-01 3.662410e-01 3.701846e-01 3.161309e-01 6.323998e-02
<GCONST> 1.040186e+02
<TRANSP> 5
 0.000000e+00 1.000000e+00 0.000000e+00 0.000000e+00 0.000000e+00
 0.000000e+00 7.585973e-01 2.414027e-01 0.000000e+00 0.000000e+00
 0.000000e+00 0.000000e+00 7.585968e-01 2.414032e-01 0.000000e+00
 0.000000e+00 0.000000e+00 0.000000e+00 8.840266e-01 1.159734e-01
 0.000000e+00 0.000000e+00 0.000000e+00 0.000000e+00 0.000000e+00
<ENDHMM>
~h "sil"
<BEGINHMM>
<NUMSTATES> 5
<STATE> 2
<MEAN> 39
 -9.514383e+00 1.857022e-01 -1.481092e+00 1.557640e+00 1.438730e+00 -6.140314e-01 4.752856e-01 1.688149e+00 6.417336e-01 6.838996e-01 1.168133e+00 -3.314447e-01 5.283815e+01 8.938638e-04 8.470233e-03 2.723926e-02 5.067128e-02 4.840357e-02 1.234306e-01 3.492312e-02 -1.913947e-02 3.089467e-02 -2.583027e-02 -2.701511e-03 4.607234e-02 5.276764e-03 5.426626e-03 5.147269e-03 2.566392e-03 -2.162304e-03 -2.170062e-02 -2.215391e-02 -1.650610e-02 -4.249802e-03 -1.337127e-02 -2.051163e-03 3.476465e-03 -2.513869e-03 -9.574525e-03
<VARIANCE> 39
 2.139153e+01 1.069990e+01 1.879632e+01 2.215559e+01 2.667555e+01 3.999123e+01 2.281353e+01 2.858820e+01 2.490278e+01 2.692682e+01 2.012256e+01 1.904241e+01 5.698002e+01 5.946968e-01 5.611185e-01 1.095007e+00 1.182487e+00 1.681376e+00 1.713849e+00 1.704837e+00 1.920961e+00 1.881354e+00 1.951248e+00 1.738449e+00 1.521094e+00 1.779726e+00 7.179523e-02 9.234241e-02 1.778307e-01 2.049256e-01 2.800103e-01 2.774961e-01 3.070599e-01 3.360918e-01 3.267743e-01 3.574274e-01 3.122630e-01 2.630195e-01 1.319765e-01
<GCONST> 9.752307e+01
<STATE> 3
<MEAN> 39
 -9.434796e+00 3.264781e-01 -1.278646e+00 1.691506e+00 1.317623e+00 -4.283634e-01 3.751822e-01 1.524498e+00 5.637866e-01 5.280883e-01 1.169246e+00 -2.062209e-01 5.279288e+01 3.409860e-02 4.021018e-02 5.470600e-02 2.537584e-02 -6.702510e-02 2.989657e-03 -3.600524e-02 -4.657163e-02 -4.925408e-02 -4.986652e-02 9.521958e-03 2.276292e-02 1.027759e-02 1.067929e-02 7.325954e-03 6.570238e-03 -1.070001e-02 -2.888947e-02 -3.523586e-02 -1.717398e-02 -3.833194e-03 -1.975203e-02 -1.786357e-03 2.465958e-03 -7.324958e-03 9.478764e-03
<VARIANCE> 39
 1.729715e+01 1.128233e+01 1.975734e+01 2.263698e+01 2.584085e+01 3.648935e+01 2.324590e+01 2.739251e+01 2.552891e+01 2.625027e+01 2.025462e+01 1.819695e+01 4.160935e+01 6.712696e-01 6.828526e-01 1.219913e+00 1.365647e+00 1.762528e+00 1.945596e+00 1.872465e+00 2.025065e+00 1.954834e+00 1.978093e+00 1.758956e+00 1.532816e+00 1.055148e+00 1.004129e-01 1.205420e-01 2.135257e-01 2.512405e-01 3.272783e-01 3.458109e-01 3.603058e-01 3.948867e-01 3.721511e-01 3.923383e-01 3.502408e-01 3.024127e-01 1.365626e-01
<GCONST> 9.956991e+01
<STATE> 4
<MEAN> 39
 -8.552188e+00 8.165697e-01 -4.504237e-01 1.866606e+00 2.407402e-02 -1.577742e+00 -2.216994e-01 9.094942e-01 -4.296699e-01 5.941396e-03 1.390811e+00 -3.266568e-01 5.402637e+01 1.113759e-01 4.041439e-02 9.295217e-02 1.210255e-03 -1.950707e-01 -1.747852e-01 -6.814882e-02 -7.606383e-02 -1.396897e-01 -7.208093e-02 3.413838e-02 -1.590127e-02 1.901700e-01 1.298659e-02 -1.516551e-03 5.823376e-04 -7.714557e-03 -9.482832e-03 -2.360323e-02 9.713149e-04 7.921918e-04 -6.039669e-03 8.825671e-03 2.286586e-03 -1.004868e-02 3.075923e-02
<VARIANCE> 39
 2.480127e+01 1.731994e+01 3.506749e+01 2.888133e+01 4.131867e+01 5.124506e+01 3.100780e+01 3.888989e+01 3.882436e+01 2.919080e+01 2.532046e+01 2.285759e+01 5.763860e+01 9.913620e-01 1.034564e+00 1.629769e+00 1.690408e+00 2.155308e+00 2.601596e+00 2.363329e+00 2.470422e+00 2.240799e+00 2.107011e+00 2.028243e+00 1.778257e+00 1.032720e+00 1.515010e-01 1.689460e-01 2.487934e-01 2.947610e-01 3.766214e-01 4.393439e-01 4.201697e-01 4.407171e-01 3.899656e-01 3.991740e-01 3.708141e-01 3.229342e-01 1.252066e-01
<GCONST> 1.084320e+02
<TRANSP> 5
 0.000000e+00 1.000000e+00 0.000000e+00 0.000000e+00 0.000000e+00
 0.000000e+00 7.528552e-01 2.471448e-01 0.000000e+00 0.000000e+00
 0.000000e+00 0.000000e+00 7.528548e-01 2.471452e-01 0.000000e+00
 0.000000e+00 0.000000e+00 0.000000e+00 8.772563e-01 1.227438e-01
 0.000000e+00 0.000000e+00 0.000000e+00 0.000000e+00 0.000000e+00
<ENDHMM>
