~o
<STREAMINFO> 1 39
<VECSIZE> 39<NULLD><MFCC_D_A_0><DIAGC>
~s "silst"
<MEAN> 39
 -9.762847e+00 5.697888e-01 -1.313464e+00 2.159182e+00 1.754510e+00 1.535235e+00 4.777205e-01 6.619572e-01 5.601630e-01 -3.117888e-01 5.378975e-01 7.499512e-03 4.981094e+01 -8.246329e-02 -1.989727e-02 -3.209273e-03 1.411445e-02 -7.006343e-02 9.279769e-03 2.665100e-02 -1.212599e-02 -1.263407e-02 -6.281877e-02 -4.311579e-02 4.334098e-02 -8.577190e-02 1.616463e-02 7.175131e-03 7.636145e-03 7.860289e-04 5.973739e-04 -2.087424e-02 -9.508796e-03 1.848439e-02 3.657924e-03 8.981707e-03 -2.962566e-03 -6.939857e-03 2.311775e-02
<VARIANCE> 39
 4.731929e+00 5.745832e+00 8.279207e+00 1.491042e+01 1.467683e+01 1.611739e+01 1.602274e+01 1.644108e+01 1.729934e+01 1.823269e+01 1.524469e+01 1.273919e+01 1.151945e+01 1.960352e-01 3.790165e-01 6.527532e-01 9.745995e-01 1.155341e+00 1.347724e+00 1.514441e+00 1.620833e+00 1.681717e+00 1.752761e+00 1.568440e+00 1.306633e+00 7.138130e-02 3.504447e-02 7.322442e-02 1.277044e-01 1.882438e-01 2.318969e-01 2.617985e-01 3.010343e-01 3.279669e-01 3.453911e-01 3.564703e-01 3.168217e-01 2.708792e-01 1.330386e-02
<GCONST> 7.807010e+01
~h "c"
<BEGINHMM>
<NUMSTATES> 5
<STATE> 2
<MEAN> 39
 -1.597233e+01 1.611396e+00 2.068776e+00 -5.191876e+00 4.482671e+00 3.598587e-01 -4.025980e+00 6.500886e+00 -2.345155e+00 -2.234555e-01 2.971562e+00 -8.223485e-01 5.659961e+01 -2.981167e+00 6.966680e-01 1.369671e+00 -2.616056e+00 4.272529e-01 1.682306e-01 -1.087900e+00 1.299713e+00 -1.663936e+00 1.855320e-01 5.998258e-01 -5.425821e-01 2.152007e+00 3.608941e-03 2.196456e-01 3.279739e-01 2.973721e-01 -5.319200e-01 -2.094942e-01 1.815295e-01 -3.152437e-01 -2.599967e-01 -3.777961e-02 -1.067061e-01 -1.966259e-01 2.554381e-01
<VARIANCE> 39
 5.328788e+01 1.940986e+01 2.926225e+01 6.758329e+01 2.886990e+01 4.480653e+01 3.729541e+01 4.959451e+01 5.132988e+01 2.227421e+01 2.855400e+01 2.347277e+01 5.032054e+01 3.813511e+00 2.379930e+00 2.002309e+00 5.539809e+00 3.278535e+00 2.824759e+00 3.928124e+00 4.581727e+00 3.294720e+00 2.076659e+00 3.192040e+00 2.225218e+00 2.024063e+00 1.898375e+00 4.335659e-01 3.469106e-01 2.322977e+00 7.867463e-01 6.710582e-01 8.955968e-01 1.262408e+00 6.477086e-01 4.343401e-01 6.364951e-01 3.715646e-01 5.159928e-01
<GCONST> 1.283824e+02
<STATE> 3
<MEAN> 39
 -2.389979e+01 5.529212e+00 1.033357e+01 -8.292676e+00 2.911352e-01 -7.123444e-01 -4.394483e+00 5.949939e+00 -9.701493e+00 -2.436647e-01 3.580724e+00 -4.437910e+00 6.417365e+01 2.799189e+00 9.777439e-01 3.295980e+00 3.061111e+00 -3.792711e+00 -2.577620e+00 4.704810e-01 -2.158968e+00 -2.760545e+00 -9.696628e-01 -2.945907e-01 -1.103755e+00 9.529120e-01 1.518250e+00 -1.648996e-01 2.530794e-01 9.439970e-01 -8.974399e-01 -8.814086e-01 -9.158535e-02 -1.776164e-01 -3.002464e-01 -2.821941e-01 9.146681e-02 5.690042e-02 -2.138707e-01
<VARIANCE> 39
 3.933438e+01 1.705490e+01 4.687811e+01 4.008506e+01 2.711375e+01 3.531473e+01 2.853852e+01 4.017714e+01 3.832124e+01 2.410315e+01 2.142602e+01 2.423881e+01 1.685841e+01 4.286692e+00 1.212255e+00 2.034970e+00 2.577719e+00 3.043352e+00 4.507096e+00 3.138514e+00 2.288393e+00 3.428201e+00 1.440457e+00 1.747450e+00 1.047805e+00 4.965363e-01 1.106588e+00 3.510865e-01 4.813679e-01 1.115592e+00 4.706552e-01 4.876492e-01 5.991001e-01 8.356626e-01 5.539571e-01 3.874302e-01 5.254753e-01 3.467503e-01 2.098208e-01
<GCONST> 1.164025e+02
<STATE> 4
<MEAN> 39
 -1.165715e+01 7.702455e+00 2.058519e+01 1.868192e+00 -1.483167e+01 -1.262926e+01 -5.477942e+00 1.811925e+00 -1.880993e+01 -3.586259e+00 4.770077e+00 -7.053147e+00 6.750864e+01 2.305366e+00 -8.259525e-02 2.022951e+00 2.093408e+00 -3.967147e+00 -2.213095e+00 1.967338e-01 -3.351891e-01 -1.801432e+00 -6.913449e-01 7.811751e-01 -4.330834e-01 1.278181e+00 -9.821112e-01 -2.500638e-01 -8.475856e-01 -8.317160e-01 9.805572e-01 9.508770e-01 1.787421e-01 3.926758e-01 7.666214e-01 3.269076e-01 4.473834e-02 2.999773e-01 -1.037623e-01
<VARIANCE> 39
 1.277607e+01 6.428411e+00 1.932945e+01 1.825132e+01 3.451745e+01 1.595450e+01 2.520150e+01 3.875273e+01 3.335409e+01 1.700656e+01 2.641138e+01 2.009199e+01 1.290926e+01 2.458891e+00 7.565340e-01 2.231162e+00 1.860304e+00 3.259197e+00 4.279542e+00 2.338439e+00 2.142235e+00 2.227670e+00 2.093289e+00 1.963165e+00 1.764605e+00 2.078447e-01 1.349375e-01 1.335951e-01 1.962958e-01 1.956801e-01 4.759745e-01 3.597120e-01 2.779579e-01 3.934878e-01 3.325537e-01 3.062170e-01 2.771177e-01 2.462475e-01 4.946371e-02
<GCONST> 9.859258e+01
<TRANSP> 5
 0.000000e+00 1.000000e+00 0.000000e+00 0.000000e+00 0.000000e+00
 0.000000e+00 8.044273e-01 1.955727e-01 0.000000e+00 0.000000e+00
 0.000000e+00 0.000000e+00 6.526768e-01 3.473232e-01 0.000000e+00
 0.000000e+00 0.000000e+00 0.000000e+00 6.362695e-01 3.637305e-01
 0.000000e+00 0.000000e+00 0.000000e+00 0.000000e+00 0.000000e+00
<ENDHMM>
~h "g"
<BEGINHMM>
<NUMSTATES> 5
<STATE> 2
<MEAN> 39
 -8.602124e-01 4.524035e+00 3.926298e+00 7.891557e+00 -7.514553e+00 -1.255779e+01 -7.388932e+00 1.507072e+00 -5.228716e-01 -1.237334e+00 6.582237e-01 -7.749279e-01 5.911938e+01 1.636710e+00 -1.221147e+00 1.060143e+00 1.666687e+00 -2.115859e+00 -2.333975e+00 -1.590485e+00 3.450604e-01 -2.012147e-01 -3.404020e-01 6.740461e-02 8.849298e-04 2.360604e+00 -4.003404e-01 -7.381967e-01 1.709858e-02 -2.554423e-01 1.057574e-01 5.221261e-01 2.423644e-01 8.887873e-02 -3.254423e-02 -6.583102e-03 7.739989e-02 1.186190e-01 1.594916e-02
<VARIANCE> 39
 1.242060e+01 1.739147e+01 2.948271e+01 4.044090e+01 3.428660e+01 5.442384e+01 4.465200e+01 5.381638e+01 3.660602e+01 3.148218e+01 3.195652e+01 2.572059e+01 2.751747e+01 3.020371e+00 3.385863e+00 1.763668e+00 3.708284e+00 3.974713e+00 8.949429e+00 6.171632e+00 4.964273e+00 2.475539e+00 3.981676e+00 2.946533e+00 3.500399e+00 1.648401e+00 4.404126e-01 4.748648e-01 3.946490e-01 6.239952e-01 6.389740e-01 1.589854e+00 8.434135e-01 8.384941e-01 5.116967e-01 6.244413e-01 6.811295e-01 4.062574e-01 2.491721e-01
<GCONST> 1.257344e+02
<STATE> 3
<MEAN> 39
 1.221596e+00 -2.381307e+00 6.558317e+00 1.099747e+01 -1.259642e+01 -1.402055e+01 -9.499099e+00 1.809009e+00 -1.680874e+00 -2.335258e+00 3.104663e-01 2.107767e-01 6.424754e+01 2.597223e-01 -2.135006e+00 1.062339e+00 1.743915e-01 -1.233147e+00 -6.206477e-01 -1.270922e+00 7.575861e-01 -6.205224e-03 -5.939172e-01 7.887642e-01 1.868317e-01 1.812067e+00 -3.503161e-01 3.395405e-01 -2.868367e-01 -5.638013e-01 5.326108e-01 -3.968958e-02 2.422659e-01 1.209726e-01 2.007138e-02 -1.045461e-01 5.679067e-01 -9.938734e-02 -1.407439e-01
<VARIANCE> 39
 5.836735e+00 2.094872e+01 2.847987e+01 3.222651e+01 2.891896e+01 4.589255e+01 4.799626e+01 6.140396e+01 2.467135e+01 4.155872e+01 3.086138e+01 3.639594e+01 2.005806e+01 7.804235e-01 1.966421e+00 1.944442e+00 2.828346e+00 2.364032e+00 5.888853e+00 4.414495e+00 4.745160e+00 2.639639e+00 3.247293e+00 4.914180e+00 1.648915e+00 1.423815e+00 2.801852e-01 5.031394e-01 3.657459e-01 4.696458e-01 5.612061e-01 1.434734e+00 1.107407e+00 8.912418e-01 5.178627e-01 6.897145e-01 7.829541e-01 5.219653e-01 3.121146e-01
<GCONST> 1.208033e+02
<STATE> 4
<MEAN> 39
 1.018223e+00 -6.310665e+00 7.699247e+00 1.069446e+01 -1.447999e+01 -1.689163e+01 -1.330403e+01 3.924941e+00 -6.291927e-01 -5.051586e+00 5.588109e+00 7.184755e-01 6.911134e+01 -4.199654e-01 -2.168913e-01 -3.847876e-01 -7.344174e-01 2.089325e-01 -1.533121e+00 3.573722e-01 3.185875e-01 4.794111e-01 -7.724771e-01 1.802820e+00 5.463863e-02 1.501909e+00 -2.108196e-01 6.432168e-01 -4.820704e-01 -8.004104e-02 5.270743e-01 -1.797908e-01 7.633206e-01 -2.562011e-01 1.530247e-01 5.361753e-02 -1.986132e-01 7.611840e-02 -2.584931e-01
<VARIANCE> 39
 4.447450e+00 8.849037e+00 1.548342e+01 2.986410e+01 2.651125e+01 2.932167e+01 3.509874e+01 7.038844e+01 2.497369e+01 4.873814e+01 3.196865e+01 3.373650e+01 1.557685e+01 6.178117e-01 1.489160e+00 1.937227e+00 1.511356e+00 1.983218e+00 3.672266e+00 3.697405e+00 3.946484e+00 3.378198e+00 2.905870e+00 3.362008e+00 2.218527e+00 9.045078e-01 9.280145e-02 2.262170e-01 2.151422e-01 3.632684e-01 3.905650e-01 5.777302e-01 6.881360e-01 6.419271e-01 3.781144e-01 4.887410e-01 7.240716e-01 3.630212e-01 2.027310e-01
<GCONST> 1.092988e+02
<TRANSP> 5
 0.000000e+00 1.000000e+00 0.000000e+00 0.000000e+00 0.000000e+00
 0.000000e+00 6.733839e-01 3.266161e-01 0.000000e+00 0.000000e+00
 0.000000e+00 0.000000e+00 6.082468e-01 3.917532e-01 0.000000e+00
 0.000000e+00 0.000000e+00 0.000000e+00 6.525512e-01 3.474488e-01
 0.000000e+00 0.000000e+00 0.000000e+00 0.000000e+00 0.000000e+00
<ENDHMM>
~h "j"
<BEGINHMM>
<NUMSTATES> 5
<STATE> 2
<MEAN> 39
 -3.549258e+00 8.279169e-01 -3.458801e+00 4.957972e-01 4.441690e+00 -6.477533e+00 -1.150981e+00 3.076533e+00 3.518990e-01 3.131295e+00 -2.388122e+00 -6.042325e+00 6.535278e+01 -1.768184e+00 1.051351e+00 2.190060e-01 -1.355495e+00 1.316301e+00 6.004230e-01 -4.656006e-01 6.376721e-01 -5.633211e-01 4.637883e-02 6.677681e-01 -8.956743e-02 -3.218123e-01 -4.834697e-01 9.135877e-02 1.464041e-01 -3.521286e-01 3.918938e-02 1.287202e-02 -3.219807e-01 3.864292e-01 -4.401322e-02 -6.183413e-02 1.790877e-01 5.441256e-02 3.038973e-01
<VARIANCE> 39
 1.834283e+01 1.687931e+01 1.967297e+01 2.169600e+01 3.233411e+01 4.549210e+01 3.110465e+01 4.066204e+01 2.920592e+01 2.552505e+01 2.489700e+01 2.566822e+01 2.458745e+01 3.537164e+00 2.593760e+00 1.451941e+00 2.974795e+00 3.072341e+00 3.575197e+00 3.892433e+00 5.346719e+00 2.934869e+00 2.849388e+00 2.012580e+00 2.616301e+00 1.328356e+00 6.516744e-01 5.429819e-01 3.011892e-01 5.213596e-01 7.277920e-01 6.594352e-01 6.662039e-01 7.087528e-01 6.104398e-01 6.157379e-01 3.470437e-01 5.742593e-01 2.364578e-01
<GCONST> 1.189536e+02
<STATE> 3
<MEAN> 39
 -1.917948e+01 5.454216e+00 2.282946e+00 -1.145187e+01 8.594970e+00 -2.266262e+00 -8.602467e+00 1.254611e+01 -1.932129e+00 4.497939e-01 4.117521e+00 -4.481304e+00 6.647498e+01 -1.729893e+00 -5.289236e-01 1.081487e+00 -4.173203e-01 -9.742588e-01 -1.918901e-02 -5.398455e-01 1.268429e+00 5.046917e-01 -1.009153e+00 7.227781e-01 1.121159e+00 4.416930e-01 9.589945e-01 -5.563809e-01 -1.605227e-01 8.560387e-01 -4.896195e-01 -2.328572e-01 6.408974e-01 -4.316533e-01 2.578610e-01 7.363771e-02 -2.386308e-01 1.055380e-01 -3.814667e-01
<VARIANCE> 39
 2.722795e+01 2.150522e+01 5.819841e+01 6.162540e+01 4.338995e+01 4.261647e+01 3.342051e+01 3.557772e+01 2.756211e+01 2.834652e+01 2.235962e+01 3.140147e+01 1.913104e+01 4.942207e+00 3.041553e+00 1.427094e+00 5.956006e+00 4.680247e+00 3.492219e+00 3.929107e+00 2.929594e+00 2.386416e+00 2.684124e+00 2.140057e+00 1.876903e+00 1.094298e+00 4.191308e-01 5.215713e-01 2.742196e-01 6.368424e-01 9.504527e-01 6.193242e-01 5.278156e-01 5.532677e-01 5.018741e-01 5.673077e-01 4.439083e-01 4.242547e-01 1.496482e-01
<GCONST> 1.205778e+02
<STATE> 4
<MEAN> 39
 -1.506808e+01 -9.790947e-02 1.801151e+00 -4.774319e+00 2.937012e+00 -2.214380e+00 -4.723079e+00 1.081667e+01 4.472885e-01 -1.112441e+00 3.609013e+00 -2.176188e+00 5.882952e+01 5.504631e-01 -1.462691e-01 -2.038873e-01 4.942200e-01 -4.103461e-02 2.350410e-01 3.506343e-01 -4.168623e-01 -6.613855e-02 7.000712e-02 -2.259557e-01 -2.802785e-02 -8.135455e-01 -1.278588e-02 9.207217e-02 -5.386991e-03 -8.211330e-02 7.269756e-02 5.128444e-02 -2.325603e-02 -5.558145e-02 -5.956715e-02 4.946553e-02 -1.473141e-02 -5.092205e-02 3.430906e-02
<VARIANCE> 39
 1.304973e+01 1.104297e+01 2.500829e+01 3.530380e+01 2.288143e+01 3.388162e+01 2.620273e+01 3.053190e+01 1.908411e+01 2.393143e+01 1.863422e+01 2.004959e+01 3.901191e+01 4.555858e-01 8.225862e-01 1.046044e+00 1.434360e+00 1.678479e+00 1.829328e+00 1.626849e+00 1.857330e+00 1.985765e+00 2.106775e+00 1.443298e+00 1.602167e+00 2.630145e-01 9.319112e-02 1.406840e-01 1.663006e-01 2.482361e-01 3.553115e-01 3.472846e-01 3.230537e-01 3.927310e-01 4.190398e-01 4.274096e-01 2.972202e-01 3.422651e-01 3.997112e-02
<GCONST> 9.616224e+01
<TRANSP> 5
 0.000000e+00 1.000000e+00 0.000000e+00 0.000000e+00 0.000000e+00
 0.000000e+00 8.481549e-01 1.518451e-01 0.000000e+00 0.000000e+00
 0.000000e+00 0.000000e+00 7.794027e-01 2.205973e-01 0.000000e+00
 0.000000e+00 0.000000e+00 0.000000e+00 9.284481e-01 7.155197e-02
 0.000000e+00 0.000000e+00 0.000000e+00 0.000000e+00 0.000000e+00
<ENDHMM>
~h "k"
<BEGINHMM>
<NUMSTATES> 5
<STATE> 2
<MEAN> 39
 -8.165769e+00 6.201924e-01 8.419876e-01 4.409704e+00 -1.423553e+00 -7.061226e+00 -7.689456e-02 3.298151e+00 -1.347305e+00 5.700073e-01 2.807582e+00 1.774559e-01 5.766717e+01 -3.139310e-01 -6.356773e-01 -1.363184e+00 -7.067208e-01 9.804643e-01 -1.617360e-01 -6.348082e-01 -3.248590e-01 -6.329209e-02 1.531640e+00 -1.406725e-01 2.506115e-02 7.297699e-01 5.398572e-02 -1.645817e-01 -3.605891e-01 -1.951421e-01 1.245639e-01 -4.148969e-01 -3.424434e-01 -1.702306e-01 -1.171615e-01 3.997929e-01 -2.949769e-02 -6.036085e-02 5.032595e-01
<VARIANCE> 39
 3.494955e+01 1.807660e+01 2.749855e+01 3.266307e+01 3.543193e+01 6.912027e+01 3.903405e+01 3.498066e+01 3.709052e+01 2.924475e+01 3.681321e+01 2.599516e+01 4.955798e+01 1.500716e+00 2.062692e+00 6.686226e+00 2.597076e+00 6.410636e+00 5.764998e+00 4.113239e+00 5.397933e+00 4.822457e+00 4.648057e+00 3.028748e+00 2.580277e+00 2.792311e+00 2.258587e-01 3.139280e-01 7.400582e-01 3.549989e-01 7.592260e-01 8.418645e-01 7.038569e-01 6.679915e-01 6.896476e-01 7.489951e-01 5.789739e-01 4.632871e-01 2.772538e-01
<GCONST> 1.261472e+02
<STATE> 3
<MEAN> 39
 -7.657468e+00 -3.098770e+00 -5.367668e+00 -3.315558e-01 8.648480e-01 -1.284792e+01 -5.784912e+00 1.352702e+00 -4.303724e+00 8.501506e+00 3.271953e+00 -3.218599e-01 6.391124e+01 8.123189e-01 -1.854119e-01 -8.981534e-01 -6.281971e-01 9.448863e-02 -1.508304e+00 -8.759909e-01 -2.184676e-01 3.500066e-01 9.316835e-01 3.818601e-01 -2.978781e-01 1.714304e+00 2.715475e-01 9.483387e-02 5.827333e-01 2.351848e-01 -4.666954e-01 2.048314e-01 4.455772e-01 3.120776e-01 3.620183e-01 -7.729114e-01 2.265495e-01 -2.675555e-01 -2.795305e-01
<VARIANCE> 39
 3.794879e+01 3.372066e+01 1.462698e+02 4.604165e+01 1.228649e+02 7.880003e+01 4.387796e+01 8.278945e+01 7.179416e+01 5.412727e+01 4.590931e+01 4.270760e+01 3.299531e+01 3.133544e+00 3.076725e+00 8.313356e+00 2.737263e+00 7.787867e+00 6.893185e+00 4.484477e+00 5.042434e+00 5.688477e+00 7.804984e+00 4.711715e+00 3.029633e+00 3.211622e+00 6.712775e-01 7.852973e-01 1.973289e+00 6.903262e-01 1.767636e+00 1.081508e+00 6.627272e-01 1.025807e+00 1.064440e+00 1.156380e+00 1.090748e+00 7.493213e-01 3.474571e-01
<GCONST> 1.433556e+02
<STATE> 4
<MEAN> 39
 -4.854914e+00 -1.393953e+00 -5.695158e+00 -3.835240e-01 -8.213369e-01 -6.807232e+00 -3.146461e+00 -1.078788e-01 2.556297e+00 8.435413e+00 5.270902e+00 -3.130626e+00 6.036109e+01 -1.333520e-01 -1.238756e-01 3.698775e-01 1.619642e-01 -2.362118e-01 4.182220e-01 2.352348e-01 2.323594e-01 1.618216e-01 -3.031730e-01 -4.638219e-02 -4.778291e-03 -3.138454e-01 -5.337573e-02 -8.785494e-02 1.034700e-01 4.339818e-03 -4.460745e-02 -5.209382e-02 6.570765e-02 9.925387e-02 -1.886280e-01 -1.457759e-01 -1.598005e-02 -4.440148e-03 9.948169e-02
<VARIANCE> 39
 1.915475e+01 1.658356e+01 2.853705e+01 2.514236e+01 4.627337e+01 5.101217e+01 3.353459e+01 3.305901e+01 3.462486e+01 3.209050e+01 2.794580e+01 3.141387e+01 4.638958e+01 9.900350e-01 9.793132e-01 2.057150e+00 1.630134e+00 2.383883e+00 2.865065e+00 2.093245e+00 2.345773e+00 2.498808e+00 2.646460e+00 2.592176e+00 2.273068e+00 1.066156e+00 1.458324e-01 2.012530e-01 3.405583e-01 2.735357e-01 4.395364e-01 5.713041e-01 4.523494e-01 4.486788e-01 4.938239e-01 6.226234e-01 4.158491e-01 3.782655e-01 2.125191e-01
<GCONST> 1.113813e+02
<TRANSP> 5
 0.000000e+00 1.000000e+00 0.000000e+00 0.000000e+00 0.000000e+00
 0.000000e+00 6.457836e-01 3.542164e-01 0.000000e+00 0.000000e+00
 0.000000e+00 0.000000e+00 5.965524e-01 4.034476e-01 0.000000e+00
 0.000000e+00 0.000000e+00 0.000000e+00 7.966371e-01 2.033629e-01
 0.000000e+00 0.000000e+00 0.000000e+00 0.000000e+00 0.000000e+00
<ENDHMM>
~h "l"
<BEGINHMM>
<NUMSTATES> 5
<STATE> 2
<MEAN> 39
 -1.167241e+00 4.471932e+00 2.752637e+00 2.235033e+00 -1.947377e+00 -8.441336e+00 -4.218143e+00 -2.919935e+00 -2.863296e+00 1.692270e+00 3.087722e-01 -1.338027e+00 6.106596e+01 5.563312e-01 1.049482e-01 7.398704e-01 2.884012e-01 -6.887205e-01 -4.355790e-01 -1.000940e+00 -2.499057e-01 2.869342e-01 -1.426865e-01 -3.713921e-01 -1.403957e-01 3.630179e-01 -5.175855e-02 -1.964432e-01 -4.601896e-02 -1.695381e-02 2.622049e-02 -1.191248e-02 -1.217799e-01 9.464303e-02 1.791489e-01 3.582388e-02 8.603917e-02 -8.377378e-02 9.624095e-02
<VARIANCE> 39
 2.837595e+01 1.880563e+01 3.596591e+01 5.053147e+01 3.609359e+01 6.818768e+01 3.680376e+01 4.050786e+01 6.931179e+01 4.035849e+01 3.117520e+01 2.060285e+01 4.259653e+01 1.511865e+00 2.102183e+00 2.046515e+00 2.693307e+00 3.037151e+00 6.121789e+00 2.879500e+00 3.190526e+00 2.476114e+00 3.079404e+00 1.971301e+00 2.049657e+00 1.218276e+00 2.451512e-01 3.301451e-01 4.004521e-01 4.916900e-01 6.196184e-01 9.234961e-01 4.452864e-01 5.296398e-01 3.701725e-01 5.996084e-01 4.228792e-01 3.322881e-01 8.987182e-02
<GCONST> 1.183407e+02
<STATE> 3
<MEAN> 39
 -1.909248e-01 1.233446e+00 2.991794e+00 5.588017e+00 -2.923921e+00 -1.140063e+01 -6.836818e+00 -3.360305e-02 2.771941e+00 1.184291e+00 1.071156e-02 -1.965806e+00 6.484190e+01 -3.171660e-01 -3.390232e-01 2.001594e-01 -3.205160e-01 1.466005e-01 6.173960e-01 -3.632282e-01 6.928980e-01 5.417569e-01 6.833661e-02 2.662819e-01 -3.557673e-02 -3.408491e-01 -4.877819e-02 -6.862957e-02 -2.345625e-01 -1.846677e-01 1.495731e-01 -3.210679e-02 1.862853e-01 3.991149e-02 -3.778766e-02 1.281168e-01 1.509052e-01 -1.604777e-01 2.700933e-02
<VARIANCE> 39
 1.082576e+01 1.471546e+01 1.970148e+01 2.095878e+01 2.555708e+01 4.850797e+01 4.796811e+01 5.317149e+01 3.058277e+01 2.868380e+01 2.793189e+01 3.140927e+01 1.832513e+01 4.795086e-01 1.118522e+00 1.691283e+00 1.616629e+00 1.399462e+00 2.769954e+00 2.867102e+00 2.427516e+00 1.627926e+00 2.461250e+00 1.694493e+00 1.730115e+00 9.259701e-01 7.954293e-02 1.744553e-01 2.763211e-01 3.405061e-01 3.099411e-01 4.499514e-01 5.686560e-01 5.497813e-01 3.425335e-01 4.249820e-01 3.320355e-01 3.715582e-01 7.203737e-02
<GCONST> 1.038405e+02
<STATE> 4
<MEAN> 39
 -3.749604e+00 3.512768e-01 1.125537e+00 3.735782e+00 -1.599033e+00 -6.454338e+00 -3.482124e+00 2.811593e+00 5.799365e+00 2.247820e+00 1.292304e+00 -3.292589e-01 5.730135e+01 -2.641061e-01 -4.297132e-02 -2.140725e-01 -2.628283e-01 1.771374e-01 2.134652e-01 8.486329e-02 7.512094e-02 1.111566e-01 1.339400e-01 1.137322e-01 -9.957403e-02 -5.177142e-01 -7.386442e-03 1.316311e-02 -5.267143e-02 -4.908478e-03 1.479862e-02 -6.096070e-03 7.654668e-02 -4.658604e-02 -7.243748e-02 -3.224481e-02 -6.080344e-03 -4.096267e-02 4.872115e-02
<VARIANCE> 39
 1.100686e+01 9.876476e+00 1.521593e+01 1.486335e+01 2.518135e+01 3.432792e+01 3.193105e+01 2.369069e+01 2.270242e+01 2.582833e+01 1.805044e+01 1.899200e+01 2.655724e+01 3.435049e-01 6.865999e-01 1.114277e+00 1.057778e+00 1.317579e+00 1.597460e+00 1.807093e+00 2.084009e+00 1.711119e+00 1.862742e+00 1.737671e+00 1.808084e+00 4.234698e-01 5.984272e-02 1.165591e-01 1.813499e-01 2.253617e-01 2.468440e-01 3.197843e-01 4.516675e-01 3.650014e-01 3.239073e-01 3.600105e-01 3.336761e-01 3.163981e-01 2.535491e-02
<GCONST> 9.232648e+01
<TRANSP> 5
 0.000000e+00 1.000000e+00 0.000000e+00 0.000000e+00 0.000000e+00
 0.000000e+00 7.504096e-01 2.495904e-01 0.000000e+00 0.000000e+00
 0.000000e+00 0.000000e+00 6.856939e-01 3.143061e-01 0.000000e+00
 0.000000e+00 0.000000e+00 0.000000e+00 8.640636e-01 1.359364e-01
 0.000000e+00 0.000000e+00 0.000000e+00 0.000000e+00 0.000000e+00
<ENDHMM>
~h "m"
<BEGINHMM>
<NUMSTATES> 5
<STATE> 2
<MEAN> 39
 1.597474e+00 -2.059701e+00 -1.945816e+00 1.972533e+00 -2.579981e+00 -1.006534e+01 -5.498002e+00 -4.811936e+00 -7.540757e+00 5.304545e+00 7.190294e+00 -5.822812e+00 6.926056e+01 3.352899e-01 -6.542231e-01 -8.486948e-01 -4.137328e-01 1.323643e-01 5.016379e-01 2.823936e-01 8.128909e-01 5.145308e-01 2.317697e-01 2.314346e-01 -6.651496e-01 3.097987e-01 -8.894691e-02 4.628471e-02 7.353841e-02 5.058797e-02 -5.619485e-02 -1.005173e-01 7.555173e-02 3.122744e-01 1.782141e-01 -3.146890e-01 -1.988283e-01 2.791656e-02 -6.251048e-02
<VARIANCE> 39
 6.491025e+00 1.419993e+01 2.339079e+01 3.434763e+01 2.095002e+01 4.713076e+01 2.530785e+01 5.854002e+01 6.274707e+01 4.709406e+01 2.663051e+01 3.358460e+01 1.583711e+01 3.669337e-01 6.131338e-01 2.212993e+00 1.140250e+00 1.114041e+00 2.604539e+00 1.362401e+00 3.621460e+00 1.680662e+00 3.050263e+00 1.937953e+00 2.496459e+00 4.812133e-01 6.901616e-02 1.157079e-01 4.237523e-01 2.589245e-01 2.192533e-01 2.305693e-01 2.371769e-01 4.407335e-01 2.769864e-01 6.052638e-01 4.058853e-01 4.685779e-01 8.901194e-02
<GCONST> 1.010625e+02
<STATE> 3
<MEAN> 39
 1.982297e+00 -3.582052e+00 -3.818352e+00 2.743662e+00 -2.526032e+00 -9.614503e+00 -3.321252e+00 1.114146e-01 -2.289562e+00 1.422381e+00 5.656680e+00 -7.098433e+00 6.969473e+01 -1.742002e-01 2.387291e-02 4.878467e-01 5.420234e-01 3.061558e-01 -6.243073e-02 2.438962e-01 6.131937e-01 5.591264e-01 -1.329448e+00 -5.934059e-01 2.169555e-01 -2.899399e-01 -4.016783e-02 1.178712e-01 1.843084e-01 9.292469e-02 -9.201889e-03 -1.158406e-01 -3.135500e-02 -5.832365e-02 -1.562332e-01 5.606016e-02 -5.737318e-04 2.187857e-01 -8.886140e-02
<VARIANCE> 39
 5.805037e+00 1.836484e+01 2.526530e+01 2.588132e+01 2.203521e+01 4.437255e+01 1.794660e+01 7.683315e+01 5.821032e+01 4.999874e+01 2.665403e+01 4.764367e+01 2.797302e+01 2.603334e-01 5.629628e-01 1.221457e+00 6.568829e-01 1.025444e+00 1.225151e+00 9.292625e-01 2.780243e+00 1.723583e+00 1.651569e+00 1.271533e+00 2.467673e+00 5.053130e-01 4.448125e-02 5.516116e-02 1.896742e-01 1.377908e-01 1.849510e-01 2.529078e-01 1.762242e-01 3.170838e-01 3.081898e-01 3.685766e-01 2.390824e-01 4.323808e-01 2.390846e-02
<GCONST> 9.216178e+01
<STATE> 4
<MEAN> 39
 1.083204e-01 -1.029381e+00 1.158683e+00 6.031261e+00 -1.576868e+00 -7.265748e+00 -2.321619e+00 1.116483e+00 -1.934002e+00 -3.405201e+00 2.507293e+00 -2.292745e+00 6.328813e+01 -2.608035e-01 2.224176e-01 3.643318e-01 1.083516e-01 1.529202e-02 1.596317e-01 2.254611e-01 3.355877e-01 1.033496e-01 -2.100051e-02 -1.397456e-01 4.118841e-01 -6.827034e-01 1.587420e-03 -1.334234e-02 -4.749655e-02 -4.863550e-02 -6.589743e-02 2.625339e-02 -1.207839e-02 -6.561513e-02 -4.698161e-03 9.466285e-02 6.400606e-02 -4.721702e-03 -2.348903e-02
<VARIANCE> 39
 1.062367e+01 3.651743e+01 2.097132e+01 1.819692e+01 2.474268e+01 5.156616e+01 2.121123e+01 6.667241e+01 2.290656e+01 3.396147e+01 2.470766e+01 2.932640e+01 5.568480e+01 2.663049e-01 4.593097e-01 9.877586e-01 1.021916e+00 1.665170e+00 1.815295e+00 1.249199e+00 1.792767e+00 1.650383e+00 1.395289e+00 1.881192e+00 2.020409e+00 1.825629e-01 3.362398e-02 8.064162e-02 1.372867e-01 1.679311e-01 3.080909e-01 2.753135e-01 2.389446e-01 2.955019e-01 2.938583e-01 2.641841e-01 3.727024e-01 3.389329e-01 2.236175e-02
<GCONST> 9.231641e+01
<TRANSP> 5
 0.000000e+00 1.000000e+00 0.000000e+00 0.000000e+00 0.000000e+00
 0.000000e+00 8.092231e-01 1.907769e-01 0.000000e+00 0.000000e+00
 0.000000e+00 0.000000e+00 7.983307e-01 2.016693e-01 0.000000e+00
 0.000000e+00 0.000000e+00 0.000000e+00 8.939888e-01 1.060112e-01
 0.000000e+00 0.000000e+00 0.000000e+00 0.000000e+00 0.000000e+00
<ENDHMM>
~h "n"
<BEGINHMM>
<NUMSTATES> 5
<STATE> 2
<MEAN> 39
 -2.021367e-01 3.832277e+00 5.031064e+00 7.397252e+00 -4.769419e+00 -9.665100e+00 -5.370857e+00 -3.088088e+00 -1.388511e+00 -1.239940e+00 1.968890e-01 -2.839933e+00 6.274409e+01 7.908514e-01 -2.839236e-01 7.135751e-01 1.073786e+00 -1.290169e+00 -1.156943e+00 -8.020717e-01 -6.100637e-01 -2.223465e-01 2.430874e-01 -2.645796e-01 8.148869e-02 1.064487e+00 -2.357319e-01 -4.065399e-01 -2.660161e-01 -7.676186e-02 1.481878e-02 4.088250e-01 7.011472e-02 8.551688e-02 1.314925e-01 7.417032e-02 1.408235e-01 2.971548e-02 -7.433639e-05
<VARIANCE> 39
 1.983260e+01 4.397191e+01 5.257586e+01 5.153932e+01 3.306364e+01 5.945920e+01 2.586766e+01 8.357358e+01 5.489838e+01 5.196009e+01 4.674329e+01 2.384831e+01 7.027905e+01 2.136861e+00 2.791485e+00 3.130284e+00 1.616380e+00 3.276146e+00 5.357470e+00 3.001514e+00 3.797849e+00 3.609213e+00 3.507041e+00 2.127209e+00 2.319410e+00 1.400102e+00 2.325821e-01 3.424746e-01 3.427368e-01 3.082470e-01 5.395360e-01 6.680580e-01 4.841405e-01 7.108929e-01 5.808089e-01 6.006086e-01 3.753621e-01 2.983441e-01 1.318520e-01
<GCONST> 1.218835e+02
<STATE> 3
<MEAN> 39
 1.036040e-01 -3.397791e+00 2.134694e+00 1.099960e+01 -1.070253e+01 -1.154946e+01 -7.679720e+00 -3.159553e+00 2.131627e+00 2.729817e-01 1.735013e+00 -4.256877e+00 7.097004e+01 -4.699257e-02 -2.079005e-01 3.430155e-02 -3.278917e-01 -2.568350e-01 9.007029e-01 -1.308149e-01 -8.490764e-01 -6.925437e-02 9.559635e-03 1.871388e-01 6.683478e-01 3.968143e-01 7.604815e-02 2.715571e-01 -1.506475e-02 -3.781895e-01 2.770989e-01 2.447681e-01 3.352965e-01 -3.781701e-01 -6.012585e-02 1.570821e-02 2.280390e-02 -4.474940e-02 -2.036260e-01
<VARIANCE> 39
 5.553879e+00 1.125681e+01 4.752364e+01 3.424025e+01 3.159535e+01 6.564964e+01 3.712125e+01 7.890059e+01 6.425838e+01 5.301616e+01 3.500491e+01 3.375787e+01 2.413359e+01 5.559046e-01 1.632687e+00 6.428928e+00 1.966933e+00 2.490667e+00 2.804984e+00 3.174986e+00 6.293603e+00 3.539364e+00 2.888079e+00 3.978090e+00 2.998780e+00 1.924734e+00 9.720383e-02 1.835051e-01 6.151941e-01 3.118808e-01 4.478786e-01 5.034752e-01 5.638541e-01 9.874654e-01 8.012678e-01 5.442778e-01 5.670362e-01 5.708326e-01 1.115248e-01
<GCONST> 1.181525e+02
<STATE> 4
<MEAN> 39
 -1.588941e+00 1.208513e+00 5.404661e+00 6.809503e+00 -4.642030e+00 -6.306870e+00 -2.828290e+00 -4.249640e+00 1.408296e+00 -2.009367e+00 -5.197212e-01 -1.587514e+00 6.214009e+01 -1.979256e-01 2.097150e-01 -8.672965e-02 -1.462486e-01 2.466190e-01 3.719830e-01 2.249443e-01 1.037077e-01 -4.175238e-02 1.524065e-02 -1.057566e-01 1.075751e-01 -5.393449e-01 -2.557303e-02 -2.997477e-02 -5.136505e-02 -1.763678e-03 -1.098427e-02 -3.382253e-02 -2.495779e-04 1.054528e-01 -4.264184e-03 8.688149e-03 3.705028e-02 -9.599876e-03 8.434329e-03
<VARIANCE> 39
 2.064293e+01 1.698296e+01 1.870342e+01 2.434792e+01 4.372981e+01 5.470417e+01 2.100999e+01 4.838272e+01 3.089953e+01 3.002916e+01 2.445650e+01 2.075244e+01 6.135943e+01 2.427525e-01 4.612186e-01 6.713562e-01 9.234573e-01 1.198276e+00 1.510491e+00 1.500368e+00 1.998066e+00 1.579068e+00 1.326968e+00 1.374161e+00 1.415096e+00 1.766071e-01 3.023517e-02 6.630510e-02 1.143086e-01 1.617332e-01 2.091013e-01 2.993833e-01 2.890749e-01 3.553957e-01 2.875609e-01 2.505380e-01 2.734889e-01 2.633385e-01 1.788614e-02
<GCONST> 8.970129e+01
<TRANSP> 5
 0.000000e+00 1.000000e+00 0.000000e+00 0.000000e+00 0.000000e+00
 0.000000e+00 7.405251e-01 2.594749e-01 0.000000e+00 0.000000e+00
 0.000000e+00 0.000000e+00 7.859793e-01 2.140207e-01 0.000000e+00
 0.000000e+00 0.000000e+00 0.000000e+00 9.476028e-01 5.239723e-02
 0.000000e+00 0.000000e+00 0.000000e+00 0.000000e+00 0.000000e+00
<ENDHMM>
~h "o"
<BEGINHMM>
<NUMSTATES> 5
<STATE> 2
<MEAN> 39
 1.869966e+00 -1.281625e+00 -4.955982e+00 -1.610251e+00 -7.241172e+00 -6.368659e+00 -5.305587e+00 -6.087901e+00 -6.112608e+00 4.391923e+00 1.162642e+01 -8.215055e-01 7.032243e+01 3.369975e-01 3.060244e-01 7.760546e-02 -7.496318e-01 -9.921150e-02 1.171822e+00 1.778133e+00 -2.438185e-01 -1.596302e+00 -7.724580e-01 -5.923530e-01 8.185532e-01 -2.898665e-01 -1.594336e-01 -5.935962e-02 4.282909e-01 5.260662e-01 -2.213265e-01 -1.904823e-01 -2.815965e-01 3.319245e-01 6.075476e-01 -3.470071e-01 -7.343897e-01 -1.650731e-02 -1.488171e-01
<VARIANCE> 39
 8.957552e+00 8.902305e+00 9.874315e+00 4.308363e+01 2.216087e+01 4.468703e+01 2.475699e+01 4.599917e+01 7.677724e+01 3.815694e+01 3.044769e+01 2.888136e+01 1.478251e+01 2.469423e-01 4.518259e-01 1.798357e+00 1.313304e+00 1.395302e+00 1.359007e+00 1.368594e+00 2.199845e+00 2.457899e+00 2.061379e+00 1.908553e+00 1.446930e+00 2.661050e-01 6.372437e-02 7.071093e-02 2.684596e-01 1.576410e-01 3.468389e-01 2.743128e-01 2.593352e-01 3.671994e-01 4.484747e-01 4.587077e-01 3.809554e-01 2.919971e-01 4.629596e-02
<GCONST> 9.510438e+01
<STATE> 3
<MEAN> 39
 2.728360e+00 1.050314e-01 -3.606167e+00 7.445770e-01 -1.116723e+01 -2.309851e+00 -9.834200e-01 -6.368277e+00 -6.055964e+00 -6.382804e-02 4.418241e+00 2.062089e+00 6.939493e+01 3.130384e-03 2.894500e-01 3.728735e-01 2.134704e-01 2.890265e-01 3.563201e-01 5.406381e-01 1.918492e-01 4.781898e-02 -4.748994e-01 -9.058530e-01 9.201828e-02 -4.761578e-01 -5.739481e-02 -9.394329e-03 2.509077e-02 1.132706e-01 1.527496e-01 -6.822836e-02 -1.222750e-01 6.036408e-02 1.401752e-01 1.154807e-01 7.083795e-02 -9.762213e-02 -5.477640e-02
<VARIANCE> 39
 4.046955e+00 1.374059e+01 1.049998e+01 3.011617e+01 4.052582e+01 5.503727e+01 2.552676e+01 3.345805e+01 6.378125e+01 6.356567e+01 3.870229e+01 2.193824e+01 1.814508e+01 2.290954e-01 3.320144e-01 6.588597e-01 9.388556e-01 1.289582e+00 9.677986e-01 9.769666e-01 1.209565e+00 1.278203e+00 1.287480e+00 1.034014e+00 9.789115e-01 1.938792e-01 2.468499e-02 4.611101e-02 1.236674e-01 1.320040e-01 1.722160e-01 1.509470e-01 1.893925e-01 1.655925e-01 2.664581e-01 2.271026e-01 2.064017e-01 1.621722e-01 1.380441e-02
<GCONST> 8.157374e+01
<STATE> 4
<MEAN> 39
 -2.325230e+00 2.411913e+00 -1.346395e+00 6.971127e-01 -3.884347e+00 1.039416e+00 3.014337e+00 -2.215818e-01 -2.165132e+00 -5.311160e-01 2.095322e+00 1.516403e+00 5.691653e+01 -4.204147e-01 -2.267664e-02 1.024260e-01 -4.093216e-03 3.333341e-01 -3.080834e-02 -5.063720e-02 1.669565e-01 3.357583e-01 6.686479e-02 8.629727e-02 -9.618353e-02 -5.943041e-01 1.253095e-02 -3.255612e-03 -2.088699e-02 -1.651952e-02 -3.874952e-02 -3.632386e-02 -6.757713e-02 -3.451566e-02 -3.664270e-02 3.448933e-03 1.880421e-02 -2.779163e-02 4.629518e-02
<VARIANCE> 39
 1.764227e+01 8.574606e+00 1.051643e+01 1.606690e+01 2.638649e+01 3.128621e+01 2.475043e+01 2.083718e+01 2.937490e+01 3.029197e+01 2.235310e+01 1.728204e+01 3.385152e+01 2.179794e-01 3.478761e-01 7.554562e-01 9.814504e-01 1.521795e+00 1.766253e+00 1.799595e+00 1.761139e+00 1.903941e+00 2.333059e+00 1.879135e+00 1.296588e+00 1.599774e-01 3.711626e-02 6.913649e-02 1.361033e-01 1.778515e-01 2.884032e-01 3.463585e-01 3.434211e-01 3.570625e-01 3.556587e-01 4.537894e-01 3.748565e-01 2.485041e-01 1.123740e-02
<GCONST> 8.809530e+01
<TRANSP> 5
 0.000000e+00 1.000000e+00 0.000000e+00 0.000000e+00 0.000000e+00
 0.000000e+00 5.896743e-01 4.103257e-01 0.000000e+00 0.000000e+00
 0.000000e+00 0.000000e+00 8.618720e-01 1.381280e-01 0.000000e+00
 0.000000e+00 0.000000e+00 0.000000e+00 9.224593e-01 7.754064e-02
 0.000000e+00 0.000000e+00 0.000000e+00 0.000000e+00 0.000000e+00
<ENDHMM>
~h "p"
<BEGINHMM>
<NUMSTATES> 5
<STATE> 2
<MEAN> 39
 -8.371376e+00 -3.097372e-01 -2.249002e+00 1.381283e+00 1.276106e+00 -2.846161e+00 -1.477333e-01 1.327316e+00 5.442746e-01 8.618450e-01 8.591018e-01 -1.952139e+00 5.484675e+01 8.223934e-01 -1.209682e-01 -3.608010e-01 -7.799609e-01 -9.543812e-01 -6.727509e-01 -4.711347e-01 2.293735e-01 7.312405e-02 -1.318904e-01 1.039442e+00 -6.926535e-01 8.620473e-01 4.396302e-01 -1.399289e-01 -3.753791e-01 -5.866679e-01 -1.055306e-01 -2.915940e-01 -4.584805e-02 -5.950248e-02 -7.898691e-02 1.809719e-01 3.372853e-01 -4.086118e-01 6.424273e-01
<VARIANCE> 39
 2.620756e+01 1.077765e+01 2.119410e+01 2.039082e+01 1.670151e+01 7.458339e+01 3.604778e+01 3.449270e+01 2.413095e+01 2.967905e+01 4.045198e+01 2.144156e+01 5.914039e+01 3.035934e+00 1.395946e+00 3.197751e+00 3.012239e+00 3.182820e+00 4.504442e+00 2.922715e+00 2.828361e+00 2.290594e+00 3.461545e+00 4.686695e+00 3.645957e+00 2.768691e+00 4.249636e-01 2.609597e-01 4.934723e-01 5.073381e-01 4.459129e-01 7.287142e-01 6.616977e-01 5.184109e-01 4.511378e-01 6.929362e-01 7.402340e-01 5.448228e-01 3.739209e-01
<GCONST> 1.206407e+02
<STATE> 3
<MEAN> 39
 -6.740384e-01 -7.336965e-01 -7.470026e+00 -5.892346e+00 -2.290676e+00 -1.086422e+01 -3.470061e+00 1.630412e+00 1.536424e+00 4.503068e+00 7.734243e+00 -7.740697e+00 6.450628e+01 2.207978e+00 -1.392199e+00 -1.517826e+00 -2.561869e+00 -4.842585e-01 -1.645023e+00 8.768969e-01 -2.630264e-02 -1.341235e-01 7.190839e-01 2.329890e+00 -3.064151e+00 3.137671e+00 -5.631847e-01 -3.562902e-01 1.003667e-01 1.616170e-01 7.254090e-01 4.376356e-01 7.115591e-01 -1.482198e-02 -7.733064e-02 -7.623257e-02 -4.929085e-01 -8.515988e-02 -2.124292e-02
<VARIANCE> 39
 2.829015e+01 1.887613e+01 4.555859e+01 4.414739e+01 2.408711e+01 9.270417e+01 6.748739e+01 7.843409e+01 4.390890e+01 4.132059e+01 7.621967e+01 4.899737e+01 4.989062e+01 3.901652e+00 2.089751e+00 5.105633e+00 5.007619e+00 3.427877e+00 7.499216e+00 6.916922e+00 4.519937e+00 3.698219e+00 5.485133e+00 4.894311e+00 5.545485e+00 4.603743e+00 5.483561e-01 4.323420e-01 7.392695e-01 6.396466e-01 5.663367e-01 8.191797e-01 7.943076e-01 6.753170e-01 5.590771e-01 8.581080e-01 1.132234e+00 9.853993e-01 4.698456e-01
<GCONST> 1.363954e+02
<STATE> 4
<MEAN> 39
 1.483149e+00 -3.829365e+00 -7.237576e+00 -5.369266e+00 -2.270843e-01 -1.118651e+01 -2.967716e+00 8.721048e-01 3.924039e-01 6.024614e+00 1.122186e+01 -1.353414e+01 6.811153e+01 -2.271621e-01 -1.694835e-01 7.882215e-02 -7.820576e-02 2.767394e-01 6.800443e-01 8.166112e-01 -1.885040e-01 -1.156645e-01 9.703989e-02 -4.294118e-01 -2.579135e-02 -1.410325e-01 -4.290345e-01 2.521232e-01 1.335606e-01 2.238833e-01 1.428928e-01 2.160868e-01 -1.257076e-01 -5.697910e-02 9.638811e-02 -6.355735e-02 -3.868861e-01 4.802096e-01 -3.361255e-01
<VARIANCE> 39
 1.013530e+01 1.185630e+01 2.270377e+01 2.951888e+01 1.941951e+01 6.766248e+01 5.637578e+01 4.939159e+01 4.063190e+01 4.285458e+01 5.253600e+01 3.799506e+01 4.508475e+01 1.479196e+00 1.971269e+00 1.225641e+00 1.689088e+00 1.599584e+00 2.822802e+00 2.954302e+00 2.408662e+00 2.543354e+00 2.306810e+00 2.389144e+00 4.272528e+00 2.980606e+00 2.863308e-01 2.898072e-01 3.112805e-01 3.500527e-01 2.796199e-01 6.486690e-01 4.617643e-01 4.870572e-01 5.286687e-01 5.823013e-01 6.742234e-01 6.533542e-01 3.922763e-01
<GCONST> 1.165695e+02
<TRANSP> 5
 0.000000e+00 1.000000e+00 0.000000e+00 0.000000e+00 0.000000e+00
 0.000000e+00 5.781038e-01 4.218962e-01 0.000000e+00 0.000000e+00
 0.000000e+00 0.000000e+00 5.031577e-01 4.968422e-01 0.000000e+00
 0.000000e+00 0.000000e+00 0.000000e+00 7.173850e-01 2.826150e-01
 0.000000e+00 0.000000e+00 0.000000e+00 0.000000e+00 0.000000e+00
<ENDHMM>
~h "r"
<BEGINHMM>
<NUMSTATES> 5
<STATE> 2
<MEAN> 39
 -4.394366e+00 -1.133758e-01 3.115588e+00 3.353242e+00 -4.348243e+00 -1.052872e+01 -2.959045e+00 3.159651e+00 3.039052e-01 1.646574e+00 1.438626e+00 -3.704352e+00 6.361657e+01 -1.909128e-01 1.406129e-01 2.554527e-01 9.721202e-02 -1.101282e-01 3.944317e-01 -9.054220e-02 -3.995099e-02 -3.066932e-01 3.422890e-02 -1.349375e-01 6.475391e-01 -5.638556e-01 -1.673420e-02 8.187824e-02 -7.917998e-02 -3.695562e-02 1.566631e-01 2.543408e-01 1.711586e-01 -1.385794e-01 -9.002994e-02 -1.164707e-01 -3.824463e-02 -1.085502e-01 -8.133879e-02
<VARIANCE> 39
 2.007252e+01 3.013082e+01 7.703258e+01 2.488949e+01 7.431345e+01 6.946873e+01 2.667265e+01 4.081970e+01 8.646418e+01 3.331006e+01 2.918958e+01 3.452446e+01 1.019017e+02 5.966902e-01 7.545418e-01 1.037785e+00 1.896220e+00 2.167850e+00 2.143115e+00 2.344537e+00 2.214169e+00 2.277318e+00 1.973864e+00 1.608737e+00 3.006730e+00 4.257413e-01 7.020378e-02 1.693868e-01 1.729695e-01 2.453557e-01 3.746447e-01 4.173099e-01 3.579447e-01 4.230855e-01 3.647591e-01 3.303151e-01 3.707698e-01 4.830835e-01 5.452018e-02
<GCONST> 1.078951e+02
<STATE> 3
<MEAN> 39
 -5.236785e+00 1.451341e-01 4.593117e+00 4.425226e+00 -3.548866e+00 -9.817053e+00 -3.389452e+00 2.750175e+00 -1.072217e+00 1.404551e+00 3.769947e-01 -2.860266e+00 6.266282e+01 -1.542099e-01 2.337398e-01 -1.105078e-01 -2.723037e-02 2.626989e-01 7.859723e-01 4.289007e-01 -1.727825e-01 -2.431624e-01 -1.179915e-01 -2.506867e-01 1.522459e-01 -6.300483e-01 -1.623098e-02 4.184434e-03 -5.554356e-02 -1.906232e-02 8.495875e-02 1.120623e-01 1.174773e-01 -2.332115e-02 -1.941181e-02 -6.648711e-02 1.064870e-02 -1.365673e-01 1.194460e-02
<VARIANCE> 39
 1.777763e+01 2.800617e+01 7.892801e+01 3.255236e+01 7.128719e+01 6.074781e+01 3.318578e+01 3.513561e+01 6.746329e+01 2.884234e+01 2.494922e+01 3.170106e+01 8.457951e+01 4.480895e-01 9.002403e-01 8.085650e-01 1.745491e+00 1.943433e+00 2.220528e+00 1.844815e+00 1.656298e+00 2.006269e+00 1.707019e+00 1.679547e+00 2.220903e+00 4.473405e-01 7.864602e-02 1.466341e-01 1.700144e-01 3.968058e-01 3.987015e-01 3.712023e-01 4.331579e-01 4.006829e-01 3.949288e-01 3.405504e-01 3.401154e-01 5.255529e-01 4.500257e-02
<GCONST> 1.059673e+02
<STATE> 4
<MEAN> 39
 -8.113066e+00 1.070369e+00 9.863334e-01 3.351736e+00 -2.259718e-01 -1.888586e+00 -7.582105e-02 8.601572e-01 -1.079576e+00 -4.233494e-01 8.776731e-01 -1.140204e+00 5.271353e+01 -1.810589e-01 -2.362667e-02 -2.294318e-01 -9.322290e-02 9.124867e-02 3.075354e-01 1.433303e-01 -9.639912e-03 1.476524e-02 -6.470378e-02 -8.978414e-03 1.504382e-01 -2.321411e-01 1.057850e-03 1.165264e-02 3.859275e-02 -1.720928e-02 -2.376783e-02 -1.091750e-01 -6.079697e-02 4.254811e-02 -3.092610e-04 2.090169e-02 3.513556e-02 -1.119874e-02 6.658413e-02
<VARIANCE> 39
 1.022893e+01 1.216729e+01 3.191552e+01 1.827767e+01 3.705207e+01 3.379538e+01 2.472207e+01 2.630835e+01 3.389480e+01 2.125559e+01 2.180026e+01 1.973776e+01 4.623405e+01 2.650933e-01 5.721266e-01 7.842889e-01 1.140293e+00 1.667187e+00 1.669023e+00 1.712245e+00 1.609544e+00 1.770653e+00 1.566805e+00 1.624104e+00 1.549532e+00 1.802371e-01 6.459121e-02 1.234244e-01 1.469332e-01 2.528720e-01 3.448606e-01 3.370502e-01 3.314662e-01 3.612837e-01 3.616670e-01 3.277516e-01 3.341237e-01 3.048161e-01 2.725895e-02
<GCONST> 9.280930e+01
<TRANSP> 5
 0.000000e+00 1.000000e+00 0.000000e+00 0.000000e+00 0.000000e+00
 0.000000e+00 2.440639e-01 7.559361e-01 0.000000e+00 0.000000e+00
 0.000000e+00 0.000000e+00 3.688364e-01 6.311636e-01 0.000000e+00
 0.000000e+00 0.000000e+00 0.000000e+00 8.073496e-01 1.926504e-01
 0.000000e+00 0.000000e+00 0.000000e+00 0.000000e+00 0.000000e+00
<ENDHMM>
~h "s"
<BEGINHMM>
<NUMSTATES> 5
<STATE> 2
<MEAN> 39
 -9.691891e+00 4.944254e-01 -4.161769e+00 -1.767162e+00 2.013009e+00 -1.056367e+01 5.052275e+00 8.325353e+00 3.117390e+00 3.480660e+00 -1.621074e+00 -3.125087e+00 6.888165e+01 -3.406483e+00 1.535008e+00 -2.462534e-02 -6.025827e-01 -1.106014e-01 1.011656e+00 -8.920902e-01 8.651009e-01 2.174703e-01 -8.728058e-01 6.779346e-01 5.379888e-01 6.208710e-01 -1.973376e-01 1.721217e-01 -1.486080e-01 -1.261999e-01 -3.879757e-02 -3.708385e-01 -3.594969e-02 -7.012990e-02 2.246633e-02 -5.949610e-03 -2.865538e-02 -2.665445e-01 6.589425e-02
<VARIANCE> 39
 4.802400e+01 2.183351e+01 5.030535e+01 3.261558e+01 6.873241e+01 6.406915e+01 7.411954e+01 5.996178e+01 4.249074e+01 6.355424e+01 3.613772e+01 3.872464e+01 2.283328e+01 2.275272e+00 1.374721e+00 2.117278e+00 1.907688e+00 2.102980e+00 3.723669e+00 3.629498e+00 3.844554e+00 2.986917e+00 3.896111e+00 2.593120e+00 3.041018e+00 1.342569e+00 6.850504e-01 2.538249e-01 3.593213e-01 3.413484e-01 4.021793e-01 5.568845e-01 6.600085e-01 6.984186e-01 5.613925e-01 6.813519e-01 4.710522e-01 5.630035e-01 3.093527e-01
<GCONST> 1.235621e+02
<STATE> 3
<MEAN> 39
 -2.237245e+01 6.476365e+00 -1.897681e+00 -4.605721e+00 7.961441e-01 -1.218229e+01 1.190295e+00 1.033543e+01 2.812988e+00 1.523603e+00 8.660355e-01 -1.333158e+00 6.933094e+01 -7.651414e-01 2.680509e-01 -2.387254e-01 -1.481538e-01 2.625061e-01 -3.272375e-01 1.268669e-01 -1.207316e-01 -2.230825e-01 2.199175e-01 -9.193972e-02 -2.228169e-02 -2.854290e-01 6.563002e-01 -2.855077e-01 8.201195e-02 1.955637e-01 -6.408075e-02 -1.000241e-01 -1.668890e-02 -2.044175e-01 -1.057160e-01 5.000887e-02 -4.732841e-02 -3.121953e-02 -1.310522e-01
<VARIANCE> 39
 1.716641e+01 2.220185e+01 6.595528e+01 6.988444e+01 5.142590e+01 4.173572e+01 4.572630e+01 4.938015e+01 4.905087e+01 3.661598e+01 3.381260e+01 3.265075e+01 1.643589e+01 2.579531e+00 1.669348e+00 1.259183e+00 1.600633e+00 1.867866e+00 2.155270e+00 2.841711e+00 2.712412e+00 2.564559e+00 2.335316e+00 1.768417e+00 1.592697e+00 3.012716e-01 2.968492e-01 2.311322e-01 2.846760e-01 3.506998e-01 3.890016e-01 3.982636e-01 6.264675e-01 5.837460e-01 4.648109e-01 5.283189e-01 4.181613e-01 3.648325e-01 9.057181e-02
<GCONST> 1.124307e+02
<STATE> 4
<MEAN> 39
 -1.829893e+01 5.168581e+00 -7.273272e+00 -2.991278e+00 4.847907e+00 -9.581311e+00 4.796824e+00 5.406872e+00 1.260354e+00 4.609420e+00 -8.701473e-01 -2.898885e+00 6.409837e+01 1.005462e+00 -1.911090e-01 5.045966e-02 2.984816e-01 -1.497088e-01 1.143552e-01 -2.726789e-01 -8.292100e-01 -3.827080e-01 2.301221e-02 1.174320e-01 4.276429e-02 -6.968524e-01 1.675655e-01 -5.657398e-02 6.052024e-02 1.032575e-02 -8.517518e-02 -9.815773e-02 -9.290113e-02 -1.738400e-02 -1.039836e-01 -6.246602e-02 1.043762e-01 2.861194e-02 1.653201e-01
<VARIANCE> 39
 1.884840e+01 2.068433e+01 8.247840e+01 3.949244e+01 3.675384e+01 3.459897e+01 4.584291e+01 4.765292e+01 3.669561e+01 2.787142e+01 2.771373e+01 2.316738e+01 2.580976e+01 2.387749e+00 7.664249e-01 1.804576e+00 2.499949e+00 2.307690e+00 3.044806e+00 2.368533e+00 2.519509e+00 2.633927e+00 2.273871e+00 1.737452e+00 1.660425e+00 7.903802e-01 2.547331e-01 1.473856e-01 2.678047e-01 3.627850e-01 4.029948e-01 4.573792e-01 4.841984e-01 4.999314e-01 4.128786e-01 4.225725e-01 4.104802e-01 3.041414e-01 1.516611e-01
<GCONST> 1.112396e+02
<TRANSP> 5
 0.000000e+00 1.000000e+00 0.000000e+00 0.000000e+00 0.000000e+00
 0.000000e+00 7.092865e-01 2.907135e-01 0.000000e+00 0.000000e+00
 0.000000e+00 0.000000e+00 8.330791e-01 1.669209e-01 0.000000e+00
 0.000000e+00 0.000000e+00 0.000000e+00 8.615838e-01 1.384162e-01
 0.000000e+00 0.000000e+00 0.000000e+00 0.000000e+00 0.000000e+00
<ENDHMM>
~h "t"
<BEGINHMM>
<NUMSTATES> 5
<STATE> 2
<MEAN> 39
 -1.274600e+01 -2.073804e-01 -6.178049e+00 6.578704e-02 5.231120e-01 -6.139111e+00 2.331587e-01 1.363412e+00 1.208707e+00 8.841463e-01 -1.968877e+00 1.826421e+00 5.888061e+01 1.208010e+00 -1.060887e+00 1.337317e+00 9.970490e-01 -2.294520e+00 -3.226439e+00 -3.559919e+00 3.845380e-01 4.058898e-01 -7.914670e-01 -5.036852e-01 5.307075e-01 2.774173e+00 7.466489e-01 3.414232e-01 -3.938876e-02 -5.176598e-02 1.004267e-01 -5.319772e-01 -3.277025e-01 -3.979842e-01 6.859670e-02 3.835104e-01 2.674021e-01 -7.035604e-01 5.368621e-01
<VARIANCE> 39
 1.214588e+01 4.339369e+01 5.696186e+01 7.514904e+01 8.456886e+01 6.318373e+01 6.524478e+01 4.019650e+01 3.112663e+01 5.733055e+01 2.569067e+01 3.027324e+01 4.804855e+01 2.508545e+00 2.338536e+00 1.956769e+00 5.182485e+00 4.429605e+00 4.751216e+00 4.720881e+00 6.019827e+00 3.433334e+00 3.728686e+00 3.340025e+00 4.802919e+00 1.770649e+00 2.150003e-01 6.570271e-01 4.651299e-01 7.151722e-01 1.227527e+00 1.083436e+00 1.507215e+00 1.079513e+00 6.616524e-01 7.494098e-01 7.834918e-01 7.692938e-01 4.157642e-01
<GCONST> 1.327818e+02
<STATE> 3
<MEAN> 39
 -3.778003e+00 1.065741e+00 -2.413790e+00 3.496495e+00 -4.101710e+00 -1.730700e+01 -1.145057e+01 -1.138765e+00 3.040703e+00 1.566790e+00 -1.508967e+00 -2.523560e+00 6.772102e+01 3.107386e+00 6.472201e-01 -4.693110e-01 -5.657976e-01 8.592059e-01 -1.336210e+00 -7.478989e-01 -2.074550e+00 -8.979387e-01 1.429515e+00 1.847366e+00 -2.756546e+00 1.990114e+00 -3.328668e-01 1.936920e-03 -6.247656e-01 -7.205168e-01 8.930649e-01 1.549396e+00 1.757473e+00 -4.395757e-01 -7.619928e-01 1.198293e-01 5.946531e-01 -5.847640e-02 -7.773187e-01
<VARIANCE> 39
 1.372077e+01 1.542944e+01 5.837115e+01 1.114384e+02 5.850751e+01 5.895076e+01 6.374443e+01 8.231439e+01 4.317762e+01 9.897073e+01 4.266249e+01 5.349651e+01 2.446051e+01 9.402153e-01 5.842840e+00 1.779108e+00 3.137414e+00 3.781993e+00 4.289444e+00 6.546959e+00 8.684188e+00 4.434255e+00 3.817678e+00 4.393937e+00 3.215635e+00 1.285811e+00 3.405166e-01 3.547373e-01 3.586648e-01 7.272481e-01 7.554966e-01 5.607545e-01 4.874100e-01 7.310923e-01 4.628069e-01 6.957666e-01 5.877985e-01 8.560469e-01 1.511466e-01
<GCONST> 1.287350e+02
<STATE> 4
<MEAN> 39
 -2.426320e-01 -6.296115e-01 -5.785199e+00 -9.711931e-01 2.033922e-01 -1.508574e+01 -6.491784e+00 -3.395199e+00 -6.895304e-01 5.070700e+00 2.809388e+00 -7.312006e+00 6.999997e+01 1.043565e+00 -3.690049e-01 -1.010585e+00 -1.171332e+00 1.089686e+00 1.873710e+00 2.499066e+00 -1.812950e+00 -2.172775e+00 1.264750e-01 1.899495e+00 -1.013089e+00 5.318534e-01 -7.222145e-01 1.192978e-01 -6.071845e-02 -4.381632e-02 -4.118161e-02 8.180482e-01 7.121317e-01 7.891732e-02 -3.077974e-01 -5.987094e-01 -3.825372e-01 9.624380e-01 -5.966749e-01
<VARIANCE> 39
 7.866148e+00 1.605450e+01 3.671925e+01 7.703779e+01 3.240255e+01 4.394466e+01 7.379294e+01 1.260116e+02 4.766868e+01 7.771200e+01 4.888779e+01 5.695831e+01 2.347469e+01 4.763232e-01 1.401207e+00 1.027594e+00 1.467641e+00 1.697117e+00 1.429303e+00 9.986246e-01 4.323394e+00 2.143446e+00 1.356534e+00 1.372532e+00 3.200361e+00 3.780328e-01 8.284631e-02 3.682124e-01 1.865693e-01 2.707130e-01 3.064407e-01 2.820776e-01 5.361501e-01 7.426183e-01 4.038474e-01 4.749892e-01 6.638216e-01 3.046575e-01 5.974158e-02
<GCONST> 1.081851e+02
<TRANSP> 5
 0.000000e+00 1.000000e+00 0.000000e+00 0.000000e+00 0.000000e+00
 0.000000e+00 7.032466e-01 2.967534e-01 0.000000e+00 0.000000e+00
 0.000000e+00 0.000000e+00 5.568123e-01 4.431877e-01 0.000000e+00
 0.000000e+00 0.000000e+00 0.000000e+00 3.094360e-01 6.905640e-01
 0.000000e+00 0.000000e+00 0.000000e+00 0.000000e+00 0.000000e+00
<ENDHMM>
~h "u"
<BEGINHMM>
<NUMSTATES> 5
<STATE> 2
<MEAN> 39
 -1.268677e+00 -3.564534e+00 4.428186e+00 6.516941e+00 -1.012234e+01 -2.512439e+01 -7.025333e+00 6.947979e+00 1.503910e-01 -4.573572e+00 9.224743e+00 -3.978142e-01 7.351344e+01 -3.106537e-01 7.688055e-01 -8.206825e-01 6.481586e-02 1.066171e+00 -1.095579e+00 1.042390e+00 -7.911063e-01 2.697469e-01 -7.297234e-02 -5.108069e-02 3.714007e-01 1.720831e-01 1.550155e-01 1.002445e-01 6.624671e-02 2.153557e-01 9.343890e-02 4.743007e-01 -2.521075e-01 -4.559713e-01 -9.181724e-02 2.793245e-01 -4.228981e-01 -2.406592e-02 -3.742530e-01
<VARIANCE> 39
 7.641776e+00 7.183620e+00 1.192756e+01 3.890167e+01 3.265941e+01 4.094751e+01 3.345036e+01 8.388057e+01 5.342690e+01 5.908537e+01 1.639202e+01 5.312741e+01 1.534029e+01 3.169870e-01 3.664688e-01 6.750075e-01 1.145949e+00 1.363770e+00 1.976146e+00 2.314718e+00 2.697453e+00 1.839983e+00 1.663526e+00 1.572709e+00 1.482684e+00 4.674478e-01 6.078005e-02 8.190648e-02 1.193437e-01 1.962356e-01 2.293200e-01 2.819564e-01 3.988596e-01 3.650098e-01 3.948567e-01 3.477841e-01 2.454008e-01 2.987889e-01 3.259044e-02
<GCONST> 9.439152e+01
<STATE> 3
<MEAN> 39
 6.698477e-01 2.183215e+00 -1.108107e-01 6.350944e+00 -3.778138e+00 -2.301151e+01 -2.437798e+00 -1.396038e+00 -1.105784e+00 3.321410e+00 3.009351e+00 4.605131e-01 7.047519e+01 9.093501e-02 2.258901e-01 -1.663247e-01 -1.144898e-01 4.105087e-01 4.130205e-01 -6.392916e-02 -7.169929e-01 -1.117198e-02 5.242012e-01 -2.996726e-01 -4.388639e-02 -1.719853e-01 3.280287e-02 -5.449450e-02 7.068172e-02 -4.709476e-02 -7.398637e-02 1.282069e-01 -6.027626e-02 6.163015e-02 -7.012069e-02 3.306759e-03 3.419064e-02 -2.051544e-02 -3.439689e-02
<VARIANCE> 39
 1.003237e+01 2.265201e+01 1.977056e+01 3.208868e+01 4.904667e+01 6.534055e+01 4.586958e+01 6.941893e+01 6.348339e+01 9.343732e+01 2.978396e+01 4.886723e+01 2.076257e+01 4.758961e-01 1.270503e+00 2.235941e+00 1.969395e+00 2.480396e+00 3.704781e+00 2.687689e+00 3.943836e+00 3.765887e+00 4.629749e+00 2.321312e+00 2.340200e+00 8.192160e-01 6.712466e-02 1.527625e-01 3.877578e-01 3.159969e-01 3.556025e-01 6.171716e-01 5.115714e-01 5.213650e-01 5.570168e-01 8.836019e-01 4.510891e-01 4.648680e-01 9.882523e-02
<GCONST> 1.145052e+02
<STATE> 4
<MEAN> 39
 1.188370e+00 -6.998234e-01 4.472989e-01 6.633506e+00 -3.785862e+00 -1.603596e+01 -8.383599e+00 -9.401824e+00 -1.310409e+00 -1.655717e+00 4.719387e+00 1.702718e+00 6.848204e+01 2.360383e-02 9.187510e-02 -1.574697e-01 -4.072476e-02 5.599735e-02 2.147303e-01 1.377943e-01 1.485647e-01 7.332784e-02 1.397245e-01 -1.954645e-01 -5.927515e-02 -1.243285e-01 -1.486449e-02 6.424577e-03 2.407892e-02 2.831487e-03 -2.766675e-02 1.133559e-02 2.900156e-02 6.849375e-02 1.222603e-02 -2.287699e-02 -1.040281e-02 1.474674e-02 -1.631810e-02
<VARIANCE> 39
 7.954712e+00 1.247695e+01 2.389377e+01 2.435050e+01 2.586244e+01 3.492805e+01 3.493243e+01 5.676761e+01 7.287465e+01 3.690730e+01 3.656193e+01 2.975048e+01 1.200206e+01 4.236258e-01 8.438563e-01 2.047629e+00 1.986675e+00 1.806953e+00 2.112950e+00 2.692470e+00 2.781252e+00 2.948545e+00 2.407787e+00 2.189856e+00 2.350284e+00 6.478429e-01 5.699071e-02 1.241908e-01 3.158843e-01 3.204314e-01 3.198391e-01 3.509924e-01 5.167486e-01 5.084836e-01 3.970839e-01 4.996577e-01 4.355752e-01 4.382440e-01 7.828301e-02
<GCONST> 1.047197e+02
<TRANSP> 5
 0.000000e+00 1.000000e+00 0.000000e+00 0.000000e+00 0.000000e+00
 0.000000e+00 7.539862e-01 2.460138e-01 0.000000e+00 0.000000e+00
 0.000000e+00 0.000000e+00 8.757649e-01 1.242351e-01 0.000000e+00
 0.000000e+00 0.000000e+00 0.000000e+00 9.545983e-01 4.540164e-02
 0.000000e+00 0.000000e+00 0.000000e+00 0.000000e+00 0.000000e+00
<ENDHMM>
~h "w"
<BEGINHMM>
<NUMSTATES> 5
<STATE> 2
<MEAN> 39
 1.107882e-02 9.427734e+00 3.287344e+00 8.938059e-01 -4.858485e+00 -4.891123e+00 -1.719806e+00 -3.911215e+00 -4.095503e+00 -1.791617e+00 -2.122958e-01 -1.525602e+00 5.575183e+01 1.746829e+00 1.077446e+00 2.351764e-01 -6.283146e-01 -1.242910e+00 -7.968500e-01 -2.808334e-02 -6.489300e-01 -1.276024e+00 -3.219918e-01 4.455157e-01 -1.292453e-01 1.044177e+00 -1.623799e-01 -3.801723e-01 -3.608170e-01 -1.262988e-01 2.529861e-02 1.674732e-01 2.790697e-01 4.381789e-02 -5.620964e-02 1.085985e-01 3.101605e-01 8.479416e-02 1.005078e-02
<VARIANCE> 39
 1.912755e+01 1.398790e+01 9.338275e+00 1.716705e+01 2.640646e+01 2.500610e+01 2.068390e+01 2.512912e+01 3.131811e+01 2.148328e+01 1.191058e+01 1.085596e+01 1.857837e+01 2.142556e+00 2.049028e+00 1.559093e+00 1.640241e+00 3.091396e+00 3.640243e+00 2.070046e+00 2.447234e+00 2.388583e+00 1.479973e+00 1.421359e+00 1.512191e+00 6.910957e-01 2.668183e-01 2.668003e-01 2.264666e-01 3.064670e-01 4.840776e-01 6.771491e-01 3.567503e-01 4.641763e-01 3.687429e-01 2.415788e-01 3.276423e-01 2.415092e-01 1.136287e-01
<GCONST> 1.021517e+02
<STATE> 3
<MEAN> 39
 5.294919e+00 8.347610e+00 -3.752387e-01 -2.724759e+00 -8.897456e+00 -5.548319e+00 2.061422e+00 -8.176052e+00 -1.218047e+01 -2.102784e+00 6.539786e+00 -3.930029e-01 6.096985e+01 5.791767e-01 -1.273063e+00 -1.439092e+00 -8.263910e-01 -1.175887e-02 -2.957062e-01 4.658281e-01 -1.189300e+00 -1.292335e-01 6.290283e-01 2.873144e+00 4.084497e-02 1.540029e+00 -3.596221e-01 -4.222085e-01 -1.467986e-01 1.507410e-01 3.966301e-01 -4.348999e-02 -2.206999e-01 8.233493e-02 8.592758e-01 2.473083e-01 2.500942e-01 -3.797778e-01 1.716211e-01
<VARIANCE> 39
 6.654460e+00 1.050327e+01 1.275177e+01 2.168487e+01 2.175775e+01 4.768176e+01 2.512864e+01 5.963369e+01 6.124493e+01 2.769629e+01 4.047290e+01 2.079411e+01 1.702673e+01 7.224562e-01 1.441605e+00 1.198913e+00 1.280138e+00 1.307419e+00 3.341894e+00 3.120427e+00 3.158833e+00 5.317455e+00 2.607832e+00 3.716210e+00 2.708964e+00 6.953133e-01 1.220029e-01 1.365323e-01 1.816716e-01 3.132448e-01 2.866498e-01 5.518414e-01 4.036014e-01 5.651729e-01 5.554712e-01 4.014048e-01 6.414043e-01 5.153925e-01 1.048848e-01
<GCONST> 1.064710e+02
<STATE> 4
<MEAN> 39
 2.070663e+00 -2.572099e+00 -7.230748e+00 -1.351395e+00 -6.542480e+00 -1.055445e+01 -1.296098e+00 -4.414070e+00 2.866082e+00 3.150728e+00 1.392963e+01 -9.902205e+00 7.151011e+01 -6.676078e-01 -1.092870e+00 -6.767795e-02 1.187401e+00 -3.031467e-02 -8.771043e-01 -7.381340e-01 1.652249e+00 1.601887e+00 -3.562165e-02 -9.692311e-01 -1.043208e+00 1.002480e+00 -1.408792e-03 2.445066e-01 3.518637e-01 2.210094e-01 -1.509641e-01 -2.458949e-02 -2.334631e-02 1.754263e-01 -3.470302e-01 -2.821861e-01 -4.807309e-01 3.935969e-01 -2.609735e-01
<VARIANCE> 39
 1.222680e+01 1.246201e+01 1.092226e+01 3.025628e+01 1.838424e+01 6.173006e+01 3.420450e+01 1.262922e+02 9.470967e+01 4.428669e+01 4.288013e+01 5.153852e+01 2.420247e+01 3.480106e-01 9.027082e-01 1.491535e+00 1.199068e+00 1.094088e+00 1.956311e+00 1.330880e+00 2.816528e+00 4.675244e+00 2.624158e+00 3.729128e+00 3.993751e+00 6.457407e-01 7.900348e-02 9.124145e-02 1.057833e-01 1.988756e-01 1.595161e-01 4.162847e-01 3.121137e-01 7.616747e-01 5.315210e-01 3.631217e-01 8.863838e-01 5.514680e-01 2.280971e-02
<GCONST> 1.043304e+02
<TRANSP> 5
 0.000000e+00 1.000000e+00 0.000000e+00 0.000000e+00 0.000000e+00
 0.000000e+00 8.277045e-01 1.722955e-01 0.000000e+00 0.000000e+00
 0.000000e+00 0.000000e+00 7.799556e-01 2.200444e-01 0.000000e+00
 0.000000e+00 0.000000e+00 0.000000e+00 8.785379e-01 1.214621e-01
 0.000000e+00 0.000000e+00 0.000000e+00 0.000000e+00 0.000000e+00
<ENDHMM>
~h "y"
<BEGINHMM>
<NUMSTATES> 5
<STATE> 2
<MEAN> 39
 -3.019487e+00 1.000821e+01 1.261397e+01 1.617249e+00 -7.119600e+00 -4.987894e+00 -9.450294e+00 2.878949e+00 -9.415385e+00 -2.987288e+00 2.303415e+00 -3.620485e+00 6.020626e+01 3.795181e-01 3.176387e-01 2.375303e+00 -5.584233e-01 -2.175468e+00 -1.333273e+00 -5.651953e-01 8.144170e-01 -1.753706e+00 -5.610313e-01 1.120178e+00 -3.937083e-01 1.539612e+00 -3.573238e-01 -5.447745e-01 -1.708059e-01 -6.758071e-02 -8.810119e-02 -8.618050e-02 4.904124e-01 1.574999e-01 1.141496e-01 1.122104e-01 1.472871e-01 2.070758e-01 1.310076e-02
<VARIANCE> 39
 1.076003e+01 1.093577e+01 4.979358e+01 4.285968e+01 8.581902e+01 4.127378e+01 3.738817e+01 4.847975e+01 4.320528e+01 2.788691e+01 3.321145e+01 2.402258e+01 2.159298e+01 2.210020e+00 3.374593e+00 1.977419e+00 3.487314e+00 5.098543e+00 5.096371e+00 4.418812e+00 3.009542e+00 3.364359e+00 2.746458e+00 2.294012e+00 1.837083e+00 7.208368e-01 2.424708e-01 2.981131e-01 3.669825e-01 7.226183e-01 7.835441e-01 1.003696e+00 5.552355e-01 5.565174e-01 6.140662e-01 5.778278e-01 4.226040e-01 2.810150e-01 9.425157e-02
<GCONST> 1.188566e+02
<STATE> 3
<MEAN> 39
 -5.675685e+00 2.569953e+00 1.862442e+01 2.276721e+00 -2.103691e+01 -1.669683e+01 -4.911708e+00 1.009957e+01 -1.345176e+01 -3.618711e+00 1.010467e+01 -1.244835e+00 7.111327e+01 4.053250e-03 -1.648160e+00 -1.327078e+00 -1.654063e-01 -4.535166e-01 -2.567714e+00 9.456221e-01 8.130210e-01 1.322933e+00 8.194410e-01 1.121546e-01 3.506672e-01 1.559892e+00 1.831789e-01 9.095428e-03 -6.700921e-01 -6.503422e-02 6.792394e-01 7.816406e-02 -4.142561e-03 3.072172e-02 5.718427e-01 1.361218e-01 -3.259188e-01 -1.865629e-01 -1.183651e-01
<VARIANCE> 39
 6.792910e+00 1.875415e+01 2.751640e+01 6.170319e+01 6.906789e+01 5.367698e+01 3.199646e+01 5.147969e+01 6.546213e+01 4.700958e+01 2.518092e+01 2.376105e+01 2.526517e+01 7.709808e-01 7.178179e-01 3.309358e+00 7.830480e-01 3.091103e+00 1.851123e+00 1.602004e+00 1.672870e+00 3.143252e+00 2.097688e+00 2.385005e+00 1.149578e+00 5.952791e-01 9.460832e-02 1.454672e-01 2.410466e-01 2.174311e-01 3.546019e-01 5.257863e-01 2.761057e-01 3.666117e-01 2.806058e-01 3.397740e-01 4.208075e-01 2.601733e-01 7.927293e-02
<GCONST> 1.044069e+02
<STATE> 4
<MEAN> 39
 -3.271710e+00 -5.074428e+00 4.705895e+00 -2.038040e+00 -1.101725e+01 -2.645569e+01 1.711092e+00 1.372725e+01 -6.590635e-01 2.512027e+00 3.286190e+00 -4.689638e+00 7.685971e+01 2.805510e-01 -1.470515e-01 -1.329264e+00 -2.398091e-01 1.655597e+00 1.622842e-01 5.707625e-01 -3.063367e-01 7.748416e-01 5.188318e-01 -9.221467e-01 -6.785231e-01 5.741796e-02 -4.479915e-02 2.597519e-01 2.628458e-01 9.051701e-02 -5.938701e-02 3.607269e-01 -7.503228e-02 -2.167232e-01 -3.638578e-01 -6.907287e-02 1.488291e-01 7.109158e-02 -1.933030e-01
<VARIANCE> 39
 1.079988e+01 9.368780e+00 4.648053e+01 5.159687e+01 8.541619e+01 5.854561e+01 4.814206e+01 5.025686e+01 1.296501e+02 6.419554e+01 2.841196e+01 3.901870e+01 1.638461e+01 2.152642e-01 8.588432e-01 1.344557e+00 1.059140e+00 1.401575e+00 2.240457e+00 1.602218e+00 1.741135e+00 2.810078e+00 1.140036e+00 1.555105e+00 2.892496e+00 3.657799e-01 4.171295e-02 4.814190e-02 7.184190e-02 1.029645e-01 1.583166e-01 2.632872e-01 2.379273e-01 1.780482e-01 2.973161e-01 2.117166e-01 2.485114e-01 3.582805e-01 1.486274e-02
<GCONST> 9.486767e+01
<TRANSP> 5
 0.000000e+00 1.000000e+00 0.000000e+00 0.000000e+00 0.000000e+00
 0.000000e+00 8.629944e-01 1.370056e-01 0.000000e+00 0.000000e+00
 0.000000e+00 0.000000e+00 8.363980e-01 1.636020e-01 0.000000e+00
 0.000000e+00 0.000000e+00 0.000000e+00 8.864626e-01 1.135374e-01
 0.000000e+00 0.000000e+00 0.000000e+00 0.000000e+00 0.000000e+00
<ENDHMM>
~h "z"
<BEGINHMM>
<NUMSTATES> 5
<STATE> 2
<MEAN> 39
 -9.125986e+00 1.048609e+01 1.917061e+01 5.243404e+00 -1.500154e+01 -1.460013e+01 2.073397e+00 -1.791368e+00 -1.856158e+01 3.057514e-01 1.262962e+00 -3.416886e+00 6.865339e+01 -3.348152e-01 5.541130e-01 -4.546106e-01 -7.408825e-02 1.168468e+00 -7.899551e-01 3.795947e-01 3.069547e-01 9.582856e-02 4.392115e-02 -8.919332e-02 3.913017e-01 -1.472740e-01 -1.386351e-01 4.513690e-02 -4.145741e-02 -7.177849e-02 1.736664e-01 1.767774e-02 -3.420728e-02 8.565186e-02 1.033706e-01 -4.391517e-02 3.443468e-02 -2.681679e-02 -5.804886e-03
<VARIANCE> 39
 1.002532e+01 1.186982e+01 1.680472e+01 2.631548e+01 5.101712e+01 3.453481e+01 3.269942e+01 4.500998e+01 3.764398e+01 3.254510e+01 3.973381e+01 3.133764e+01 1.624984e+01 6.481069e-01 5.866235e-01 6.647238e-01 1.099973e+00 2.188959e+00 1.864740e+00 1.440181e+00 1.603889e+00 1.434825e+00 1.091813e+00 1.396331e+00 1.102629e+00 7.408092e-02 6.638042e-02 7.248488e-02 1.074795e-01 1.822292e-01 2.385564e-01 3.608421e-01 2.265284e-01 2.568687e-01 2.494133e-01 1.966764e-01 2.108185e-01 2.068519e-01 1.285047e-02
<GCONST> 8.851588e+01
<STATE> 3
<MEAN> 39
 -1.786753e+01 1.531544e+01 1.027024e+01 2.513193e+00 3.218973e+00 -1.658995e+01 3.705662e+00 4.171751e+00 -1.254022e+01 3.829986e-01 1.214780e+00 -1.650336e+00 6.680975e+01 -8.055472e-01 -4.894184e-01 -9.594038e-01 -3.985181e-01 1.468462e+00 9.501578e-01 -6.483555e-02 5.639244e-01 1.232992e+00 3.305089e-01 -4.532823e-01 -2.894215e-01 -3.361836e-01 2.693689e-01 -3.113581e-01 6.153962e-02 8.265264e-02 -2.960886e-01 1.177517e-01 -5.025199e-02 -7.725342e-02 -3.884670e-02 6.849860e-02 -6.083594e-02 -8.523439e-02 -7.287003e-02
<VARIANCE> 39
 2.209997e+01 1.633324e+01 3.314611e+01 3.529763e+01 4.133596e+01 3.233582e+01 2.801282e+01 5.292665e+01 5.899908e+01 3.273898e+01 3.085975e+01 2.331699e+01 1.676760e+01 1.040733e+00 1.507619e+00 1.095102e+00 1.043038e+00 1.806386e+00 1.940025e+00 1.883512e+00 2.447295e+00 2.615833e+00 2.238562e+00 1.563679e+00 2.092667e+00 1.618398e-01 7.952922e-02 1.357207e-01 1.987278e-01 2.216377e-01 2.686768e-01 4.127783e-01 3.589261e-01 4.925263e-01 6.213983e-01 4.701941e-01 3.265147e-01 3.831578e-01 3.379467e-02
<GCONST> 1.023120e+02
<STATE> 4
<MEAN> 39
 -1.492192e+01 6.265963e+00 4.221950e+00 1.612977e+00 6.260218e+00 -7.898888e+00 3.627624e+00 2.759179e+00 -6.369916e+00 2.767176e+00 -8.829589e-01 -2.865148e+00 5.756950e+01 4.676273e-01 -4.773149e-01 -3.188505e-01 1.838343e-02 -7.529959e-02 6.177658e-01 -9.311339e-02 -2.993659e-01 2.986258e-01 -4.374553e-02 3.271442e-02 2.019599e-01 -6.906241e-01 2.009838e-02 8.905411e-02 1.883899e-02 7.660198e-03 -4.299949e-02 -3.828095e-02 -3.763861e-02 -3.402170e-02 -2.579639e-02 -5.443348e-02 2.741056e-02 4.324743e-02 3.985976e-02
<VARIANCE> 39
 1.073956e+01 1.557802e+01 2.511003e+01 2.701342e+01 2.077918e+01 3.314199e+01 2.785082e+01 3.948438e+01 3.779511e+01 2.638319e+01 1.954198e+01 2.000368e+01 3.369435e+01 3.338754e-01 6.115031e-01 9.639915e-01 1.397719e+00 1.468579e+00 1.761669e+00 1.857296e+00 2.102087e+00 2.141216e+00 1.948193e+00 1.622909e+00 1.393856e+00 2.414603e-01 6.574626e-02 1.031955e-01 1.956656e-01 2.720794e-01 2.714888e-01 3.372927e-01 3.520097e-01 4.173123e-01 3.860545e-01 3.431720e-01 3.123569e-01 2.908870e-01 3.154648e-02
<GCONST> 9.497952e+01
<TRANSP> 5
 0.000000e+00 1.000000e+00 0.000000e+00 0.000000e+00 0.000000e+00
 0.000000e+00 9.141688e-01 8.583123e-02 0.000000e+00 0.000000e+00
 0.000000e+00 0.000000e+00 8.723861e-01 1.276139e-01 0.000000e+00
 0.000000e+00 0.000000e+00 0.000000e+00 9.335324e-01 6.646763e-02
 0.000000e+00 0.000000e+00 0.000000e+00 0.000000e+00 0.000000e+00
<ENDHMM>
~h "aa"
<BEGINHMM>
<NUMSTATES> 5
<STATE> 2
<MEAN> 39
 -2.507221e-01 -4.332193e+00 -6.341291e+00 -5.749277e+00 2.813691e-01 -1.263717e+01 2.765744e-01 3.043849e-01 3.998127e+00 4.943384e+00 3.627251e+00 -1.543838e+01 7.230365e+01 -2.917024e-01 -7.519313e-01 -1.404551e+00 -1.098013e+00 1.102121e+00 5.606865e-01 2.094839e+00 1.742292e-01 -1.207946e-01 -3.423790e-02 2.418955e-01 -1.615836e+00 1.281317e+00 -4.109329e-02 3.205526e-01 1.622487e-01 2.168095e-01 -9.908133e-02 2.734368e-01 -1.868298e-01 -1.714493e-01 -2.562180e-01 -1.516708e-01 -2.110592e-01 5.583506e-01 -3.909100e-01
<VARIANCE> 39
 1.116530e+01 1.794176e+01 5.758189e+01 6.108460e+01 3.396569e+01 6.032448e+01 1.289154e+02 6.406885e+01 7.702768e+01 5.536362e+01 3.671954e+01 6.703091e+01 3.014521e+01 9.259545e-01 1.352802e+00 3.626618e+00 1.630378e+00 1.642920e+00 3.748148e+00 3.607174e+00 3.656596e+00 3.464443e+00 2.816979e+00 2.239341e+00 3.544921e+00 1.417204e+00 1.563282e-01 2.479004e-01 6.184217e-01 3.288577e-01 2.736381e-01 4.934034e-01 9.198399e-01 5.015988e-01 5.245932e-01 4.920912e-01 3.311606e-01 5.862537e-01 1.870730e-01
<GCONST> 1.201688e+02
<STATE> 3
<MEAN> 39
 -5.545041e-02 -5.251334e+00 -1.081883e+01 -8.710473e+00 4.971941e+00 -8.701082e+00 7.081777e+00 -9.039080e-01 -3.150772e-01 5.564797e+00 3.425301e+00 -1.662012e+01 7.409005e+01 6.814168e-02 4.116717e-01 -5.302621e-02 4.782618e-01 3.826655e-01 3.880397e-01 2.122051e-01 -1.308802e-01 -2.373129e-01 2.317954e-01 -5.835288e-01 4.560528e-01 -3.049120e-01 -2.804949e-02 1.209133e-01 1.377076e-01 2.012735e-01 -9.769181e-02 -1.445612e-01 -1.957316e-01 1.514951e-01 1.631600e-01 4.178813e-02 -1.076793e-01 2.016808e-01 -1.310795e-01
<VARIANCE> 39
 7.443933e+00 9.901500e+00 1.151411e+01 3.708042e+01 2.653470e+01 5.438060e+01 5.947764e+01 6.463686e+01 5.983512e+01 5.427352e+01 2.870530e+01 4.369430e+01 1.936895e+01 2.343032e-01 5.849155e-01 5.071330e-01 1.159674e+00 7.641214e-01 2.029096e+00 1.242263e+00 1.082405e+00 1.539951e+00 1.172135e+00 1.374226e+00 9.670326e-01 3.152265e-01 4.014320e-02 7.378259e-02 9.115244e-02 1.132975e-01 1.339742e-01 1.872800e-01 1.858590e-01 1.748104e-01 2.258313e-01 2.159705e-01 1.736248e-01 2.228704e-01 2.790027e-02
<GCONST> 8.632456e+01
<STATE> 4
<MEAN> 39
 -6.399741e-01 -8.524889e-01 -8.075878e+00 -2.470131e+00 5.833190e+00 -2.875844e+00 4.929921e+00 1.103101e+00 1.294736e+00 5.975453e+00 8.531199e-01 -7.755152e+00 6.484536e+01 -2.698045e-01 1.970934e-01 5.674629e-01 4.837210e-01 -1.495078e-01 4.637860e-01 -3.039585e-01 4.828793e-01 4.910967e-01 -1.673349e-01 -1.961359e-01 9.082009e-01 -8.127868e-01 -6.260775e-02 -6.787706e-02 1.392890e-02 -8.555993e-02 -7.929052e-02 -4.068614e-03 -3.117745e-02 1.413519e-02 -2.317536e-02 -4.640293e-02 1.053871e-01 1.558618e-02 1.116193e-02
<VARIANCE> 39
 6.451036e+00 1.479961e+01 1.567555e+01 2.020618e+01 2.464533e+01 5.871317e+01 2.999531e+01 4.072879e+01 3.804735e+01 3.069250e+01 3.557423e+01 3.479160e+01 4.110815e+01 3.103896e-01 6.584153e-01 7.828957e-01 1.171813e+00 1.652138e+00 1.955872e+00 1.984452e+00 2.523036e+00 2.079591e+00 1.856075e+00 1.785085e+00 2.446089e+00 1.598660e-01 7.212499e-02 1.035503e-01 1.397799e-01 2.068482e-01 2.658115e-01 3.724751e-01 3.287088e-01 4.534955e-01 3.818077e-01 3.459864e-01 3.471142e-01 3.750790e-01 2.702321e-02
<GCONST> 9.604987e+01
<TRANSP> 5
 0.000000e+00 1.000000e+00 0.000000e+00 0.000000e+00 0.000000e+00
 0.000000e+00 6.288127e-01 3.711874e-01 0.000000e+00 0.000000e+00
 0.000000e+00 0.000000e+00 8.671639e-01 1.328361e-01 0.000000e+00
 0.000000e+00 0.000000e+00 0.000000e+00 8.653863e-01 1.346137e-01
 0.000000e+00 0.000000e+00 0.000000e+00 0.000000e+00 0.000000e+00
<ENDHMM>
~h "ax"
<BEGINHMM>
<NUMSTATES> 5
<STATE> 2
<MEAN> 39
 -1.560937e+00 1.920431e+00 -9.634650e+00 -5.588190e+00 -1.101830e+00 -1.287005e+01 7.643902e-01 -5.105854e+00 -3.144883e+00 6.380867e+00 4.552831e+00 -6.124441e+00 7.101968e+01 1.865636e+00 -6.244621e-01 -1.211980e+00 -8.343270e-01 2.308610e-01 7.902968e-01 1.275401e+00 -1.302533e+00 -1.282971e+00 4.333495e-01 1.656717e+00 -7.676817e-01 1.153939e+00 -8.534942e-01 3.260616e-02 2.482119e-01 6.739367e-03 -1.009929e-01 3.718933e-01 6.200735e-01 5.578752e-01 6.138790e-02 -3.627060e-01 -1.251065e-01 2.624845e-01 -2.990264e-01
<VARIANCE> 39
 1.033410e+01 6.078598e+00 1.618743e+01 4.235509e+01 1.018195e+01 3.912161e+01 1.403732e+02 7.764883e+01 8.040429e+01 2.909807e+01 3.142324e+01 2.671559e+01 1.215727e+01 3.340483e+00 5.748509e-01 1.185392e+00 2.051416e+00 1.428552e+00 2.641592e+00 5.352367e+00 3.236740e+00 2.246362e+00 3.492536e+00 2.976091e+00 1.568519e+00 9.797676e-01 2.543579e-01 1.209332e-01 1.895023e-01 4.481231e-01 1.870418e-01 4.905361e-01 1.199887e+00 4.196370e-01 4.431812e-01 4.849364e-01 4.679858e-01 3.368724e-01 1.104993e-01
<GCONST> 1.093115e+02
<STATE> 3
<MEAN> 39
 3.064885e-01 -7.757115e-02 -1.031547e+01 -7.127856e+00 -1.392072e-01 -7.108528e+00 5.665712e+00 -8.429518e+00 -5.645782e+00 3.578357e+00 8.238726e+00 -8.022169e+00 7.250772e+01 1.733876e-01 -1.548166e-01 2.988629e-01 2.369471e-01 3.669193e-01 2.268801e-02 4.773148e-02 1.532635e-02 7.681752e-02 -2.367787e-02 -3.965416e-01 -2.013158e-01 -1.464165e-01 -4.577330e-02 4.360086e-02 1.432716e-01 2.495369e-01 2.377462e-02 -1.873564e-01 -3.210720e-01 2.397605e-02 1.904065e-01 6.193269e-02 -2.742645e-01 1.157617e-01 -1.009946e-01
<VARIANCE> 39
 3.494392e+00 7.293548e+00 1.056245e+01 1.273616e+01 2.099789e+01 4.440899e+01 4.075137e+01 4.436546e+01 6.671327e+01 5.547589e+01 2.465827e+01 3.724495e+01 6.027246e+00 2.411546e-01 4.157587e-01 7.008615e-01 1.665671e+00 1.052723e+00 1.899959e+00 3.296508e+00 9.997736e-01 1.635907e+00 2.526677e+00 2.423375e+00 1.599239e+00 1.452394e-01 3.962979e-02 6.924690e-02 1.002108e-01 1.329326e-01 1.928496e-01 2.780332e-01 2.330949e-01 2.594091e-01 2.152252e-01 4.633237e-01 3.469609e-01 3.265532e-01 3.734143e-02
<GCONST> 8.785635e+01
<STATE> 4
<MEAN> 39
 1.087956e+00 -8.821484e-02 -4.334421e+00 7.392191e-01 1.573138e+00 -7.409050e+00 1.124899e+00 -6.726217e+00 -4.043170e-01 5.751884e+00 1.035263e+00 -5.434435e+00 6.548576e+01 -4.822825e-02 2.584943e-01 6.614926e-01 5.985693e-01 -1.404028e-01 3.332285e-01 -2.127938e-01 4.717253e-01 5.083346e-01 1.286319e-03 -1.622652e-01 3.736748e-01 -8.217947e-01 -4.475204e-02 3.616618e-02 1.957107e-02 -7.454906e-02 -5.693268e-02 1.125172e-01 6.804064e-02 3.095539e-02 -3.423968e-02 -5.834689e-02 1.373902e-01 2.385952e-02 -1.353298e-02
<VARIANCE> 39
 3.743480e+00 6.120623e+00 1.747974e+01 1.231888e+01 1.645039e+01 3.219134e+01 2.467933e+01 3.095858e+01 2.979429e+01 3.378165e+01 2.674025e+01 1.764424e+01 2.017395e+01 2.195030e-01 3.442188e-01 1.028161e+00 1.157918e+00 1.662070e+00 2.258167e+00 1.569218e+00 2.276650e+00 1.375485e+00 1.725834e+00 3.135654e+00 1.583554e+00 1.762745e-01 3.621886e-02 6.772360e-02 1.620056e-01 1.950242e-01 3.406729e-01 3.281468e-01 2.426333e-01 3.573063e-01 2.541820e-01 3.454632e-01 5.609809e-01 2.802471e-01 2.078995e-02
<GCONST> 8.782791e+01
<TRANSP> 5
 0.000000e+00 1.000000e+00 0.000000e+00 0.000000e+00 0.000000e+00
 0.000000e+00 7.712216e-01 2.287784e-01 0.000000e+00 0.000000e+00
 0.000000e+00 0.000000e+00 8.956458e-01 1.043542e-01 0.000000e+00
 0.000000e+00 0.000000e+00 0.000000e+00 9.072905e-01 9.270949e-02
 0.000000e+00 0.000000e+00 0.000000e+00 0.000000e+00 0.000000e+00
<ENDHMM>
~h "dx"
<BEGINHMM>
<NUMSTATES> 5
<STATE> 2
<MEAN> 39
 -5.250513e+00 6.279151e+00 3.973878e+00 5.370250e+00 1.755343e+00 -3.537251e-01 -1.030389e+00 -2.571501e+00 -2.806816e+00 -3.513953e+00 -2.923123e+00 -5.570064e-01 5.117892e+01 7.381578e-01 9.839115e-01 7.962894e-01 5.053556e-01 -1.132662e-01 -8.921400e-01 -8.485188e-01 -8.663609e-01 -6.443797e-01 -4.543864e-01 -6.121727e-01 -1.811024e-01 3.431247e-01 4.390178e-02 -9.153405e-03 -3.352412e-02 -7.491744e-02 -1.656823e-01 -2.867112e-02 -6.664144e-02 -2.194818e-02 1.840980e-02 5.342530e-02 1.097439e-01 -7.823930e-02 5.149778e-02
<VARIANCE> 39
 1.415854e+01 1.829107e+01 1.734704e+01 1.238621e+01 1.853365e+01 2.506061e+01 2.826569e+01 1.990655e+01 1.545865e+01 9.936348e+00 1.504022e+01 1.188339e+01 1.861400e+01 1.224890e+00 1.649855e+00 1.122942e+00 1.006071e+00 1.682815e+00 2.191561e+00 3.275913e+00 1.983181e+00 1.819683e+00 1.612966e+00 1.444020e+00 1.026046e+00 3.017849e-01 1.607124e-01 2.289243e-01 1.520891e-01 2.104330e-01 3.792900e-01 3.780686e-01 5.147571e-01 3.848806e-01 2.495755e-01 2.103565e-01 2.834930e-01 2.306070e-01 4.103766e-02
<GCONST> 9.332223e+01
<STATE> 3
<MEAN> 39
 -1.014196e+00 1.076581e+01 7.402325e+00 6.248783e+00 -1.194543e+00 -4.016414e+00 -5.744853e+00 -6.146430e+00 -4.898740e+00 -4.623241e+00 -3.235421e+00 -1.865385e+00 5.352988e+01 3.534365e-01 -1.574545e-01 5.988556e-01 2.451289e-01 -6.745682e-01 -3.731661e-01 -8.555461e-02 6.661650e-01 1.665548e-01 -4.902783e-01 2.077488e-01 -1.002446e-01 6.133536e-01 -3.232429e-01 -1.095300e+00 -3.121439e-01 -1.085692e-01 -2.943784e-01 -3.649298e-01 3.604429e-01 8.670840e-01 4.927599e-01 5.680184e-02 3.013256e-01 4.215095e-01 4.950976e-01
<VARIANCE> 39
 6.593299e+00 7.833951e+00 8.311736e+00 1.019071e+01 2.296416e+01 2.000586e+01 2.182279e+01 1.666177e+01 1.865055e+01 1.153642e+01 1.116802e+01 1.839197e+01 9.041787e+00 1.331918e+00 3.569034e+00 1.388798e+00 1.148880e+00 2.933002e+00 3.174109e+00 3.831226e+00 3.582264e+00 2.496591e+00 1.817544e+00 1.721798e+00 2.241628e+00 6.556090e-01 1.475888e-01 3.237311e-01 2.532888e-01 3.774786e-01 9.000850e-01 1.607990e+00 7.666621e-01 4.282153e-01 4.845446e-01 3.868290e-01 4.095462e-01 4.156808e-01 5.037684e-01
<GCONST> 1.040390e+02
<STATE> 4
<MEAN> 39
 -1.684953e+00 -2.750109e+00 4.269141e+00 6.530491e+00 -6.245300e+00 -1.572031e+01 -2.003962e+00 3.839456e+00 2.785234e+00 -6.274627e+00 2.865773e-02 7.945297e-01 6.634267e+01 1.883617e-01 -2.898238e+00 -1.514415e+00 -5.086789e-01 -3.910673e-01 -3.649094e+00 8.830081e-01 1.198665e+00 1.899187e+00 -5.905904e-03 6.402844e-01 -3.581650e-01 3.421448e+00 5.744590e-02 4.305664e-01 -1.987899e-01 -2.118686e-01 5.316088e-01 2.467001e-01 2.327940e-01 -4.643443e-01 -1.488804e-01 1.199634e-01 -1.543539e-01 -5.318608e-01 -2.531474e-01
<VARIANCE> 39
 7.939837e+00 5.060820e+01 3.774356e+01 2.402866e+01 5.364082e+01 1.352892e+02 6.323494e+01 6.756158e+01 6.447951e+01 4.489299e+01 3.899224e+01 4.137277e+01 6.662281e+01 7.133808e-01 4.324502e+00 3.335267e+00 2.659995e+00 8.982978e+00 1.172297e+01 6.644479e+00 6.421368e+00 5.292990e+00 5.128917e+00 4.249232e+00 5.805213e+00 3.361041e+00 1.350840e-01 8.091562e-01 6.951768e-01 3.639258e-01 1.358426e+00 3.018005e+00 9.936793e-01 8.995879e-01 9.193910e-01 7.612149e-01 7.281510e-01 7.808362e-01 1.118679e+00
<GCONST> 1.376287e+02
<TRANSP> 5
 0.000000e+00 1.000000e+00 0.000000e+00 0.000000e+00 0.000000e+00
 0.000000e+00 7.906096e-01 2.093904e-01 0.000000e+00 0.000000e+00
 0.000000e+00 0.000000e+00 7.469148e-01 2.530852e-01 0.000000e+00
 0.000000e+00 0.000000e+00 0.000000e+00 8.100069e-01 1.899931e-01
 0.000000e+00 0.000000e+00 0.000000e+00 0.000000e+00 0.000000e+00
<ENDHMM>
~h "ee"
<BEGINHMM>
<NUMSTATES> 5
<STATE> 2
<MEAN> 39
 -1.201303e+01 -5.636061e+00 1.492691e+00 4.333764e-01 -5.612682e+00 -1.108152e+01 -1.736112e+00 3.895381e+00 -6.047187e+00 6.968096e+00 1.277743e+00 6.739435e-01 6.503249e+01 -5.328105e-02 -6.301722e-02 2.428014e+00 6.141512e-01 -2.267228e+00 -3.703653e+00 -2.039380e-01 3.354417e-01 -2.991657e+00 -1.135667e+00 2.580026e-01 9.667998e-01 2.868055e+00 6.675929e-01 5.731375e-01 1.573764e-01 3.237558e-01 -3.521169e-01 -3.167714e-01 -3.502275e-02 -6.951404e-02 3.145873e-01 -5.371392e-01 6.588340e-01 -6.856631e-02 -1.154827e-01
<VARIANCE> 39
 2.705727e+01 4.015771e+01 4.119627e+01 2.198983e+01 3.591921e+01 7.408384e+01 2.910073e+01 6.065701e+01 7.348336e+01 3.048234e+01 2.694756e+01 3.725404e+01 5.561982e+01 6.741821e+00 7.941252e+00 3.413159e+00 3.129027e+00 3.007151e+00 3.161728e+00 3.293065e+00 4.776525e+00 4.011798e+00 4.731547e+00 6.087140e+00 3.942163e+00 2.502885e+00 7.821838e-01 1.171397e+00 6.840404e-01 5.163888e-01 5.898437e-01 8.720279e-01 5.407099e-01 8.760534e-01 1.166757e+00 5.771348e-01 8.831933e-01 6.215188e-01 7.479541e-01
<GCONST> 1.340532e+02
<STATE> 3
<MEAN> 39
 -5.806329e+00 -2.431952e+00 1.082481e+01 5.339208e+00 -1.776737e+01 -2.674174e+01 -2.295449e+00 7.464850e+00 -1.173908e+01 -2.857420e+00 1.065271e+01 2.905977e+00 7.411641e+01 8.189406e-01 -1.031718e-01 4.767729e-02 6.762841e-01 -1.083865e+00 -1.303406e+00 1.593810e-01 1.345705e+00 9.942200e-01 -1.354241e+00 1.419168e+00 3.323874e-01 9.163887e-01 -4.451306e-01 -3.631290e-01 -6.727195e-01 -3.055373e-01 6.974993e-01 9.006640e-01 1.497427e-01 6.195457e-02 4.231989e-01 6.433691e-01 -6.395445e-01 -1.404945e-01 -3.427467e-01
<VARIANCE> 39
 6.664599e+00 5.844732e+00 1.349939e+01 1.648019e+01 1.418244e+01 4.764157e+01 3.783025e+01 6.371511e+01 3.789574e+01 3.590493e+01 2.524793e+01 3.399706e+01 1.518553e+01 8.837194e-01 7.340976e-01 1.360604e+00 7.675769e-01 2.315987e+00 3.638102e+00 1.146995e+00 1.804423e+00 1.511026e+00 3.197461e+00 3.442842e+00 1.151777e+00 5.364367e-01 1.377131e-01 2.495703e-01 3.994379e-01 1.446404e-01 2.862310e-01 2.978042e-01 2.730531e-01 4.316648e-01 5.065216e-01 3.378443e-01 3.321089e-01 2.350391e-01 6.140587e-02
<GCONST> 9.860983e+01
<STATE> 4
<MEAN> 39
 -3.560738e+00 -2.532643e+00 6.971693e+00 8.255206e+00 -1.390508e+01 -2.153252e+01 5.003594e-01 7.714352e+00 -6.114324e+00 -2.942520e+00 8.448997e+00 3.534648e+00 6.681390e+01 5.590121e-02 2.576508e-02 -3.075809e-01 7.135116e-02 3.988335e-01 6.129938e-01 2.565912e-01 -2.116850e-01 2.824749e-01 2.238681e-01 -1.514836e-01 -6.604828e-02 -8.602074e-01 -2.753827e-02 -7.285188e-03 -9.103180e-02 -7.705558e-02 1.019726e-01 7.001930e-02 -1.318217e-02 -9.216049e-02 -4.870431e-02 8.882987e-02 -2.644408e-02 -1.011299e-03 -1.401425e-02
<VARIANCE> 39
 5.403904e+00 8.380697e+00 1.189266e+01 1.526512e+01 2.212001e+01 4.992909e+01 3.147874e+01 3.741679e+01 3.143096e+01 3.428218e+01 2.857289e+01 2.346903e+01 6.218160e+01 2.569785e-01 4.560774e-01 7.328469e-01 9.044715e-01 1.102878e+00 1.253758e+00 1.180065e+00 1.728971e+00 1.518863e+00 1.545278e+00 1.518911e+00 1.217089e+00 4.043450e-01 3.760086e-02 8.961779e-02 2.060290e-01 1.639035e-01 2.912288e-01 2.421412e-01 2.481279e-01 3.270566e-01 2.902612e-01 3.365673e-01 3.044795e-01 2.473377e-01 6.517024e-02
<GCONST> 8.954779e+01
<TRANSP> 5
 0.000000e+00 1.000000e+00 0.000000e+00 0.000000e+00 0.000000e+00
 0.000000e+00 8.017079e-01 1.982921e-01 0.000000e+00 0.000000e+00
 0.000000e+00 0.000000e+00 7.294451e-01 2.705549e-01 0.000000e+00
 0.000000e+00 0.000000e+00 0.000000e+00 9.458758e-01 5.412417e-02
 0.000000e+00 0.000000e+00 0.000000e+00 0.000000e+00 0.000000e+00
<ENDHMM>
~h "ei"
<BEGINHMM>
<NUMSTATES> 5
<STATE> 2
<MEAN> 39
 -3.009612e+00 -6.033951e+00 -4.333055e-01 6.476167e-01 -3.663858e+00 -1.995029e+01 8.225231e-01 9.035918e+00 2.350534e+00 -2.414954e+00 1.243839e+00 -3.786050e+00 7.080287e+01 2.018280e-01 -9.390348e-02 -5.994734e-01 -7.689193e-02 7.933860e-01 -2.993895e-01 7.426689e-01 2.811838e-02 3.319210e-01 -5.224230e-02 -6.780834e-01 -3.779841e-01 3.303507e-01 2.212753e-02 2.826625e-01 2.019270e-01 2.424495e-01 -1.475006e-01 1.390257e-01 -1.629995e-01 -1.761956e-01 -2.528021e-01 1.056237e-01 2.718831e-02 1.484973e-01 -2.117393e-01
<VARIANCE> 39
 1.647795e+01 2.453357e+01 2.193407e+01 3.254921e+01 3.642371e+01 1.131363e+02 3.723999e+01 7.764382e+01 5.374140e+01 5.857693e+01 2.852396e+01 4.518305e+01 8.872395e+01 5.620462e-01 9.476863e-01 1.830890e+00 1.361472e+00 2.805091e+00 3.647466e+00 1.764215e+00 2.466376e+00 2.385277e+00 1.635495e+00 2.299228e+00 2.704658e+00 1.306690e+00 2.089572e-01 1.710530e-01 2.306529e-01 2.917444e-01 4.292004e-01 7.241063e-01 3.083644e-01 4.025032e-01 4.575160e-01 3.519006e-01 4.202455e-01 4.796038e-01 1.826893e-01
<GCONST> 1.133673e+02
<STATE> 3
<MEAN> 39
 -1.118172e+00 -5.171868e+00 -1.869589e+00 2.636890e+00 -1.148146e+00 -2.171619e+01 4.783741e+00 8.097925e+00 1.729243e+00 -1.067385e+00 -9.373899e-01 -3.275976e+00 7.051616e+01 2.936039e-01 6.820906e-01 3.324693e-01 5.428506e-01 -1.125536e-02 4.276090e-01 3.258075e-02 -1.296062e-01 -2.398617e-01 1.664541e-01 -9.630274e-02 5.267744e-01 -7.553930e-01 1.300433e-02 4.418086e-02 1.411624e-01 4.771098e-02 -1.814206e-01 1.306895e-01 -1.969360e-01 4.952709e-02 5.199581e-02 -1.298011e-02 6.412995e-02 -2.741198e-02 -9.978984e-02
<VARIANCE> 39
 1.421063e+01 1.769268e+01 2.072779e+01 3.396773e+01 3.221335e+01 1.041609e+02 5.024560e+01 4.998970e+01 3.903490e+01 5.157165e+01 2.929677e+01 5.218697e+01 6.336135e+01 5.174466e-01 7.932950e-01 1.130718e+00 1.077732e+00 1.746806e+00 2.740487e+00 1.538376e+00 1.866731e+00 1.778004e+00 1.941265e+00 1.507927e+00 2.857105e+00 9.268972e-01 1.490255e-01 1.527199e-01 2.277539e-01 2.614915e-01 3.222722e-01 5.853762e-01 3.058505e-01 3.254912e-01 3.392416e-01 3.456022e-01 3.036223e-01 5.796290e-01 1.589494e-01
<GCONST> 1.070499e+02
<STATE> 4
<MEAN> 39
 -1.268659e+00 -1.069170e+00 9.926341e-01 5.091530e+00 -2.047668e+00 -1.414109e+01 2.164167e+00 7.066802e+00 3.822329e-01 -1.203003e+00 -4.377692e-01 -5.300223e-01 6.382738e+01 7.402579e-02 4.820220e-01 2.511481e-01 4.007361e-01 -4.296540e-01 7.870775e-01 -3.096661e-01 -1.028899e-01 4.534436e-01 2.331739e-01 -4.964485e-02 -3.954999e-01 -7.484414e-01 -8.415999e-02 -2.924198e-01 -1.143173e-01 -9.803902e-02 -2.066032e-01 -2.501317e-01 -2.149116e-01 4.799462e-02 1.221867e-01 5.794488e-02 8.514573e-02 -1.592903e-01 2.799949e-01
<VARIANCE> 39
 1.859801e+01 2.242164e+01 1.774122e+01 2.783049e+01 2.836939e+01 7.444963e+01 3.304253e+01 3.557810e+01 2.879700e+01 3.802162e+01 2.446702e+01 2.716643e+01 5.350118e+01 1.966150e+00 1.275724e+00 1.404769e+00 2.289636e+00 3.041081e+00 6.769673e+00 2.731268e+00 2.629976e+00 2.280275e+00 2.269809e+00 2.291819e+00 2.649406e+00 2.462838e+00 2.288543e-01 1.840413e-01 2.348507e-01 3.998573e-01 3.645415e-01 5.378115e-01 4.974084e-01 4.739767e-01 4.429420e-01 3.940502e-01 4.076120e-01 5.810679e-01 1.649459e-01
<GCONST> 1.139529e+02
<TRANSP> 5
 0.000000e+00 1.000000e+00 0.000000e+00 0.000000e+00 0.000000e+00
 0.000000e+00 5.515820e-01 4.484180e-01 0.000000e+00 0.000000e+00
 0.000000e+00 0.000000e+00 7.087446e-01 2.912554e-01 0.000000e+00
 0.000000e+00 0.000000e+00 0.000000e+00 4.545245e-01 5.454755e-01
 0.000000e+00 0.000000e+00 0.000000e+00 0.000000e+00 0.000000e+00
<ENDHMM>
~h "ii"
<BEGINHMM>
<NUMSTATES> 5
<STATE> 2
<MEAN> 39
 -8.973234e+00 4.261025e+00 1.449018e+01 5.614465e+00 -1.436302e+01 -2.166852e+01 -4.588374e+00 4.482753e+00 -1.412057e+01 -5.984859e+00 6.267373e+00 -1.746401e+00 7.060169e+01 1.284530e+00 -2.148776e-02 6.164998e-01 1.075451e+00 -9.211911e-01 -1.054565e+00 -2.704625e-01 -5.109591e-01 -1.220905e+00 -5.601808e-01 7.284777e-01 1.647919e-01 6.191413e-01 -5.855137e-01 1.457516e-01 -5.905944e-01 -5.289795e-01 8.850777e-01 8.658417e-01 2.438684e-01 1.367313e-01 6.321649e-01 4.018754e-01 -4.818633e-01 -9.312854e-02 -3.914641e-01
<VARIANCE> 39
 1.169282e+01 9.640899e+00 4.300432e+01 1.839258e+01 2.972483e+01 7.582822e+01 2.763932e+01 5.092401e+01 5.398909e+01 2.725125e+01 2.492530e+01 2.560745e+01 1.976765e+01 3.162707e+00 6.503120e-01 2.268483e+00 2.354527e+00 4.474690e+00 5.824853e+00 2.493212e+00 2.154754e+00 3.711629e+00 2.420242e+00 3.207414e+00 1.337364e+00 1.042278e+00 2.522497e-01 1.120225e-01 2.552992e-01 2.823022e-01 5.456774e-01 7.560971e-01 3.760726e-01 4.674474e-01 4.309215e-01 3.553924e-01 5.166203e-01 2.521851e-01 1.575323e-01
<GCONST> 1.112307e+02
<STATE> 3
<MEAN> 39
 -8.151728e+00 7.475583e+00 1.985641e+01 5.695848e+00 -1.766628e+01 -1.341093e+01 -1.760287e+00 -8.493765e-01 -1.785042e+01 -2.323825e+00 4.487118e+00 -4.002335e+00 6.916261e+01 2.024402e-01 2.165267e-01 -2.679795e-01 3.944012e-02 3.324973e-01 5.751153e-01 1.719004e-01 -2.279450e-01 1.657414e-01 4.336744e-01 -3.236976e-01 -6.256514e-02 -4.437514e-01 -6.131572e-03 -1.478027e-02 -5.635080e-02 -2.068981e-02 9.302092e-02 4.842051e-02 -3.506296e-03 7.171306e-04 6.186473e-02 3.425745e-02 1.245476e-02 -2.239203e-04 -7.800927e-02
<VARIANCE> 39
 8.643084e+00 7.906293e+00 3.815125e+01 2.052344e+01 3.119781e+01 4.560537e+01 3.689367e+01 3.825638e+01 3.959021e+01 3.181775e+01 2.605007e+01 2.980602e+01 1.869581e+01 2.300133e-01 3.288238e-01 7.244017e-01 7.326433e-01 1.187504e+00 1.143082e+00 1.130494e+00 1.015844e+00 1.222920e+00 1.038375e+00 1.047469e+00 9.661773e-01 3.594900e-01 3.981033e-02 6.481168e-02 1.122585e-01 1.244823e-01 1.934919e-01 1.800270e-01 2.215116e-01 1.575113e-01 2.394523e-01 2.054709e-01 1.984770e-01 1.939922e-01 2.890857e-02
<GCONST> 8.349986e+01
<STATE> 4
<MEAN> 39
 -7.361852e+00 3.757194e+00 8.568000e+00 5.027301e+00 -5.237617e+00 -2.759907e+00 6.172684e-01 -1.238098e+00 -7.913786e+00 -5.284263e-02 1.787876e+00 -3.957670e+00 5.573629e+01 -1.093722e-01 -2.207607e-01 -6.342636e-01 -9.696132e-02 5.798064e-01 3.671152e-01 5.613032e-02 1.058337e-02 5.585853e-01 7.749941e-02 -8.146901e-02 7.495804e-02 -4.980980e-01 3.118471e-03 -1.667875e-02 -8.625101e-03 -6.623033e-03 -5.616108e-02 -8.417419e-02 -2.703277e-02 1.624833e-02 -1.702769e-02 1.102524e-02 4.353792e-02 3.121881e-02 7.369930e-02
<VARIANCE> 39
 9.028759e+00 1.486925e+01 5.563428e+01 1.542226e+01 3.944091e+01 5.920681e+01 2.366570e+01 2.094558e+01 4.492610e+01 2.197960e+01 2.183148e+01 2.144904e+01 4.389894e+01 2.454295e-01 5.126115e-01 7.988666e-01 8.508402e-01 1.192703e+00 1.587819e+00 1.735345e+00 1.607695e+00 1.803064e+00 2.050948e+00 1.623713e+00 1.477773e+00 2.119479e-01 4.567952e-02 8.506373e-02 1.450437e-01 1.759067e-01 2.244660e-01 2.753751e-01 3.321911e-01 3.278749e-01 3.671743e-01 3.869223e-01 3.451801e-01 2.870632e-01 3.199722e-02
<GCONST> 9.203143e+01
<TRANSP> 5
 0.000000e+00 1.000000e+00 0.000000e+00 0.000000e+00 0.000000e+00
 0.000000e+00 5.379370e-01 4.620630e-01 0.000000e+00 0.000000e+00
 0.000000e+00 0.000000e+00 8.709964e-01 1.290036e-01 0.000000e+00
 0.000000e+00 0.000000e+00 0.000000e+00 8.917869e-01 1.082131e-01
 0.000000e+00 0.000000e+00 0.000000e+00 0.000000e+00 0.000000e+00
<ENDHMM>
~h "sp"
<BEGINHMM>
<NUMSTATES> 3
<STATE> 2
~s "silst"
<TRANSP> 3
 0.000000e+00 7.000000e-01 3.000000e-01
 0.000000e+00 9.000000e-01 9.999999e-02
 0.000000e+00 0.000000e+00 0.000000e+00
<ENDHMM>
~h "th"
<BEGINHMM>
<NUMSTATES> 5
<STATE> 2
<MEAN> 39
 -1.659539e+01 1.750848e-01 -5.360910e-01 -3.491215e+00 -1.348385e+00 -8.842347e+00 1.272928e+00 7.623579e+00 -2.843863e+00 8.707251e-02 4.202698e+00 3.858041e+00 5.917294e+01 -1.164729e+00 -2.450031e-01 2.120444e-01 -6.472186e-01 -8.209150e-01 -1.799158e+00 1.684575e-02 1.665981e+00 -5.374714e-01 -3.292181e-01 6.041616e-01 7.367982e-01 1.707503e+00 3.862298e-01 3.664742e-02 3.198265e-01 5.519167e-01 -8.062726e-03 3.626443e-01 -1.232941e-01 -2.249282e-01 9.299470e-02 -1.700551e-01 -1.760024e-01 -2.240312e-01 -2.951939e-01
<VARIANCE> 39
 2.640924e+01 1.037618e+01 2.148900e+01 4.850244e+01 3.447805e+01 7.873860e+01 2.890265e+01 5.199263e+01 4.261631e+01 2.827503e+01 2.523133e+01 3.958157e+01 5.356688e+01 3.159354e+00 1.017174e+00 2.331642e+00 6.705020e+00 4.143982e+00 1.102311e+01 2.881375e+00 4.604502e+00 4.254731e+00 2.454439e+00 2.513668e+00 4.429560e+00 6.002155e+00 9.350027e-01 2.666714e-01 5.771472e-01 1.124107e+00 9.532297e-01 2.154461e+00 5.539489e-01 1.240900e+00 8.425860e-01 4.293486e-01 5.696959e-01 9.790165e-01 1.306788e+00
<GCONST> 1.315047e+02
<STATE> 3
<MEAN> 39
 -1.176534e+01 2.219072e+00 8.652017e+00 4.924649e+00 -5.018992e+00 -1.240063e+01 -2.391601e+00 7.397114e+00 -5.241968e+00 -4.674891e+00 2.057693e+00 2.262156e+00 6.226920e+01 2.325116e+00 9.187694e-01 2.860744e+00 2.233674e+00 -1.713280e+00 -1.526337e+00 -1.456388e+00 -1.637841e+00 -8.879719e-01 -1.139164e+00 -5.571729e-01 -5.281160e-01 9.038020e-01 -8.628702e-02 -1.662755e-01 -2.456037e-02 -2.364629e-01 -5.150814e-01 -4.657042e-01 3.847456e-02 -1.009451e-01 -1.467054e-01 3.195483e-02 2.286321e-01 1.369910e-01 3.384174e-01
<VARIANCE> 39
 2.710314e+01 2.265232e+01 5.099890e+01 4.989424e+01 3.922980e+01 6.503870e+01 3.862757e+01 3.084548e+01 4.057302e+01 3.161532e+01 2.651996e+01 2.847474e+01 1.889744e+01 1.945868e+00 2.323339e+00 1.900458e+00 2.310696e+00 5.322053e+00 6.959253e+00 4.028020e+00 2.708956e+00 3.171155e+00 3.064061e+00 3.625823e+00 2.430382e+00 1.523672e+00 6.592178e-01 6.578521e-01 5.084412e-01 5.687236e-01 7.412959e-01 1.247428e+00 1.052983e+00 8.118507e-01 6.199064e-01 6.433890e-01 7.782512e-01 4.668917e-01 2.306379e-01
<GCONST> 1.257403e+02
<STATE> 4
<MEAN> 39
 -6.855190e+00 3.176090e+00 2.095440e+01 9.671144e+00 -1.772366e+01 -1.671658e+01 -6.687975e+00 -2.921271e-02 -1.412488e+01 -9.434148e+00 5.582659e+00 -2.644709e-01 6.839919e+01 1.430093e-02 6.205460e-02 6.716251e-01 -2.314152e-01 -7.990087e-01 1.061662e-01 2.777418e-01 -4.841922e-01 -1.003664e+00 3.429877e-01 6.071470e-01 -5.945147e-01 4.772403e-01 -1.736772e-01 1.239918e-01 -2.523201e-01 -2.117019e-01 3.429234e-01 3.174747e-01 1.950183e-01 5.048895e-02 6.782652e-02 2.319492e-01 -1.605246e-01 -1.598352e-02 -1.583062e-01
<VARIANCE> 39
 6.147142e+00 1.375495e+01 2.266187e+01 1.398002e+01 2.043116e+01 4.820786e+01 2.152499e+01 3.934193e+01 4.776925e+01 2.016964e+01 3.658328e+01 2.140667e+01 1.264542e+01 5.427721e-01 1.216927e+00 1.529152e+00 1.369601e+00 1.603523e+00 2.517573e+00 2.137942e+00 2.145325e+00 2.974371e+00 2.182251e+00 3.313281e+00 1.266666e+00 5.998836e-01 1.327660e-01 2.303029e-01 2.370692e-01 2.684616e-01 2.637815e-01 4.882506e-01 3.942941e-01 4.552616e-01 5.232010e-01 3.760392e-01 6.762864e-01 2.528552e-01 6.078436e-02
<GCONST> 1.014135e+02
<TRANSP> 5
 0.000000e+00 1.000000e+00 0.000000e+00 0.000000e+00 0.000000e+00
 0.000000e+00 8.463411e-01 1.536589e-01 0.000000e+00 0.000000e+00
 0.000000e+00 0.000000e+00 7.974034e-01 2.025966e-01 0.000000e+00
 0.000000e+00 0.000000e+00 0.000000e+00 8.626001e-01 1.373999e-01
 0.000000e+00 0.000000e+00 0.000000e+00 0.000000e+00 0.000000e+00
<ENDHMM>
~h "tx"
<BEGINHMM>
<NUMSTATES> 5
<STATE> 2
<MEAN> 39
 -3.662279e+00 -2.866626e+00 -2.843434e-01 6.529250e+00 -2.092840e+00 -6.743277e+00 2.415983e+00 5.558635e+00 1.167045e+00 -2.197059e+00 -5.853634e-01 -4.933297e-01 5.804897e+01 -1.857994e-01 -8.466715e-01 2.790295e-01 2.524139e-01 -2.047419e+00 -5.133004e-01 -1.363333e+00 1.022673e-02 6.677392e-01 4.361214e-01 -7.150616e-02 3.021677e-01 7.787230e-01 1.300221e-01 -9.562640e-02 -2.778138e-02 -1.845206e-01 -5.044496e-01 -5.870464e-01 -8.293701e-01 -1.841833e-01 1.999632e-01 2.521460e-01 4.205227e-01 -4.581702e-04 8.436522e-01
<VARIANCE> 39
 2.638575e+01 1.522283e+01 1.220249e+01 3.424073e+01 3.287148e+01 6.192361e+01 2.636417e+01 3.005533e+01 2.593121e+01 2.265309e+01 1.771971e+01 2.101561e+01 3.527436e+01 1.344767e+00 1.826394e+00 2.153419e+00 4.440370e+00 5.366021e+00 6.692632e+00 5.489230e+00 4.381261e+00 3.917749e+00 2.647290e+00 2.455571e+00 3.267026e+00 4.195096e+00 3.839152e-01 3.101022e-01 4.094550e-01 7.236771e-01 1.045699e+00 7.422196e-01 6.559849e-01 8.951300e-01 7.330549e-01 5.967510e-01 6.209151e-01 6.615082e-01 2.203654e-01
<GCONST> 1.222737e+02
<STATE> 3
<MEAN> 39
 -2.760090e+00 -5.725750e+00 1.691118e+00 6.952530e+00 -1.201253e+01 -1.221282e+01 -8.091455e+00 4.641540e+00 4.582577e+00 5.709019e-02 1.738217e+00 4.915136e-01 6.552022e+01 7.887364e-01 5.183417e-01 -1.036399e+00 -1.295256e+00 -3.244472e-01 -1.659151e+00 -2.823954e+00 -1.757034e+00 3.717220e-01 1.670915e+00 2.256829e+00 -1.193600e+00 2.684682e+00 -4.240391e-02 6.550364e-01 -6.647040e-01 -6.208299e-01 1.303216e+00 6.659431e-01 8.947644e-01 -5.793067e-01 -8.137283e-01 1.672557e-01 5.879924e-01 -2.166060e-01 -2.571608e-01
<VARIANCE> 39
 1.414591e+01 1.902469e+01 2.990482e+01 5.013130e+01 4.487953e+01 6.411421e+01 9.201288e+01 5.274070e+01 5.587674e+01 3.109991e+01 3.534174e+01 3.369095e+01 3.017780e+01 5.834538e+00 2.076561e+00 2.596370e+00 3.290085e+00 7.385132e+00 6.685897e+00 5.090565e+00 7.466532e+00 5.799623e+00 4.437949e+00 3.924318e+00 3.872331e+00 3.031435e+00 5.721630e-01 3.502802e-01 5.207251e-01 7.960359e-01 8.163207e-01 1.421625e+00 1.336958e+00 9.987401e-01 8.421118e-01 7.203255e-01 6.526095e-01 9.455081e-01 7.287624e-01
<GCONST> 1.348925e+02
<STATE> 4
<MEAN> 39
 -1.989941e-01 -2.474990e+00 -3.979055e+00 1.411838e+00 -6.071930e+00 -1.276984e+01 -8.244702e+00 -1.762000e+00 1.543498e+00 4.913777e+00 8.729528e+00 -3.831856e+00 6.807987e+01 9.837780e-03 7.564082e-01 -1.430004e+00 -1.760243e+00 1.085961e+00 1.432327e+00 1.138145e+00 -2.010629e+00 -2.373564e+00 9.723013e-01 2.015542e+00 -4.398016e-04 7.992080e-01 -5.054139e-01 -4.302821e-02 3.943425e-01 1.930165e-01 -1.423912e-01 6.919935e-01 9.946219e-01 4.022333e-01 -3.976375e-01 -7.229160e-01 -7.409222e-01 7.278585e-01 -4.356886e-01
<VARIANCE> 39
 1.912486e+01 1.130871e+01 1.628487e+01 2.352708e+01 1.499008e+01 4.827540e+01 7.696529e+01 6.804288e+01 6.698747e+01 4.410610e+01 4.665199e+01 3.030431e+01 2.568263e+01 5.191483e+00 1.452744e+00 1.917272e+00 1.970465e+00 2.640434e+00 2.707711e+00 3.732091e+00 3.268114e+00 3.498305e+00 3.123264e+00 2.902317e+00 3.189874e+00 1.301253e+00 3.168293e-01 3.653148e-01 3.596016e-01 3.219405e-01 5.889622e-01 6.376355e-01 8.412168e-01 8.112654e-01 7.530540e-01 6.617180e-01 5.685014e-01 4.471192e-01 4.937760e-01
<GCONST> 1.208928e+02
<TRANSP> 5
 0.000000e+00 1.000000e+00 0.000000e+00 0.000000e+00 0.000000e+00
 0.000000e+00 6.087269e-01 3.912731e-01 0.000000e+00 0.000000e+00
 0.000000e+00 0.000000e+00 5.145167e-01 4.854833e-01 0.000000e+00
 0.000000e+00 0.000000e+00 0.000000e+00 4.569350e-01 5.430650e-01
 0.000000e+00 0.000000e+00 0.000000e+00 0.000000e+00 0.000000e+00
<ENDHMM>
~h "uu"
<BEGINHMM>
<NUMSTATES> 5
<STATE> 2
<MEAN> 39
 2.652563e+00 5.988880e+00 -2.534833e+00 4.822258e+00 -4.148035e+00 -6.595425e+00 -9.100514e+00 -2.150975e+01 -1.095034e+01 -6.825328e+00 8.690438e+00 3.354914e+00 6.560330e+01 4.024003e-01 1.267955e+00 -1.002010e+00 -1.835333e+00 5.613167e-01 1.462692e+00 2.842692e+00 -9.302330e-01 -2.387865e+00 -6.956660e-01 -5.756487e-01 1.404757e+00 -2.263661e-02 -2.915856e-01 -5.616411e-03 3.378862e-01 1.033091e-01 -3.150702e-01 -2.450267e-01 -1.301068e-02 1.125496e+00 2.805277e-01 -2.831476e-02 -9.011493e-01 -7.239902e-02 -1.224816e-01
<VARIANCE> 39
 4.291361e+00 8.067307e+00 1.399111e+01 2.637571e+01 1.699823e+01 2.288271e+01 2.592858e+01 5.500835e+01 4.631512e+01 2.757481e+01 3.132460e+01 3.247145e+01 1.218137e+01 2.742098e-01 3.385756e-01 6.899665e-01 1.087518e+00 9.590895e-01 1.253242e+00 1.262240e+00 3.222951e+00 1.319581e+00 1.462630e+00 2.505560e+00 9.113247e-01 1.386128e-01 8.510344e-02 8.768999e-02 9.558076e-02 1.926807e-01 2.052700e-01 3.713714e-01 4.048849e-01 3.653356e-01 3.108838e-01 4.148537e-01 3.442617e-01 3.717043e-01 1.987054e-02
<GCONST> 8.796596e+01
<STATE> 3
<MEAN> 39
 3.168246e+00 1.314953e+01 -4.201065e+00 -5.254328e+00 -3.038014e+00 -6.913448e+00 3.797737e+00 -1.438613e+01 -1.961272e+01 -5.519090e+00 -1.029628e+00 3.990099e+00 6.484452e+01 9.238964e-02 3.248943e-01 6.853429e-02 -4.923761e-01 -1.336903e-01 8.737493e-03 4.961043e-01 6.971128e-01 -3.956144e-01 1.695507e-01 -6.346221e-01 -5.371839e-02 -1.857180e-01 -1.933706e-02 -1.082488e-01 4.842985e-02 1.636163e-01 -4.502297e-02 -1.038295e-02 -1.936012e-01 1.576756e-02 1.430837e-01 5.735562e-02 7.833442e-02 -4.879508e-02 -2.284562e-02
<VARIANCE> 39
 9.677854e+00 1.109270e+01 1.298418e+01 3.596111e+01 1.404491e+01 2.465026e+01 3.676400e+01 6.618046e+01 4.562670e+01 2.439553e+01 3.729858e+01 2.399011e+01 1.494151e+01 1.753294e-01 4.413976e-01 4.678249e-01 8.683349e-01 8.491586e-01 1.044610e+00 1.666473e+00 1.009063e+00 1.352292e+00 1.142025e+00 1.546942e+00 9.145143e-01 8.526830e-02 3.192963e-02 5.207000e-02 8.519121e-02 1.000598e-01 1.443622e-01 2.006662e-01 1.903375e-01 1.900114e-01 2.102878e-01 2.106284e-01 2.648155e-01 1.933810e-01 1.262487e-02
<GCONST> 7.943255e+01
<STATE> 4
<MEAN> 39
 -3.311601e+00 6.441369e+00 2.083581e-01 7.723663e-01 -1.477808e+00 -8.777403e-01 8.277101e-01 -2.798604e+00 -7.518903e+00 -3.287523e+00 -2.339768e+00 6.037584e-01 5.391005e+01 -4.024693e-01 -3.432251e-01 4.580650e-02 2.576712e-01 1.735285e-01 1.431353e-01 -8.817124e-02 2.468513e-01 5.468662e-01 9.225769e-02 1.020664e-01 -1.157563e-01 -3.585037e-01 -2.693769e-03 5.724356e-03 -1.176971e-02 -1.698244e-02 1.412575e-02 -8.341474e-03 1.474509e-02 -2.753812e-02 -1.607925e-02 -1.591398e-02 1.892565e-02 2.268127e-03 1.598139e-02
<VARIANCE> 39
 3.148588e+01 2.397623e+01 1.248185e+01 1.873590e+01 1.967883e+01 2.106154e+01 2.367008e+01 3.265496e+01 6.538889e+01 2.446530e+01 1.791223e+01 1.946642e+01 3.349606e+01 2.477355e-01 4.468682e-01 7.152374e-01 1.108574e+00 1.158913e+00 1.461665e+00 1.538075e+00 1.580068e+00 1.891012e+00 1.930962e+00 1.507216e+00 1.552189e+00 1.165411e-01 3.917075e-02 7.608984e-02 1.307077e-01 1.954673e-01 2.363698e-01 2.844839e-01 2.941972e-01 2.921883e-01 3.472617e-01 3.707573e-01 2.899830e-01 3.064578e-01 1.292485e-02
<GCONST> 8.870139e+01
<TRANSP> 5
 0.000000e+00 1.000000e+00 0.000000e+00 0.000000e+00 0.000000e+00
 0.000000e+00 7.030483e-01 2.969517e-01 0.000000e+00 0.000000e+00
 0.000000e+00 0.000000e+00 9.327953e-01 6.720468e-02 0.000000e+00
 0.000000e+00 0.000000e+00 0.000000e+00 9.709788e-01 2.902116e-02
 0.000000e+00 0.000000e+00 0.000000e+00 0.000000e+00 0.000000e+00
<ENDHMM>
~h "sil"
<BEGINHMM>
<NUMSTATES> 5
<STATE> 2
<MEAN> 39
 -7.921324e+00 2.836739e-01 -1.569853e+00 1.615825e+00 2.264097e+00 2.008115e-01 1.211725e+00 1.828811e+00 1.748806e+00 1.744737e+00 1.968849e+00 -2.010949e-01 5.385026e+01 -6.362735e-02 5.260608e-02 1.082047e-01 1.362089e-01 8.574478e-02 2.132250e-01 2.086651e-02 -3.950341e-02 -3.695832e-02 -1.771817e-01 -1.587101e-02 9.097484e-02 -3.513456e-02 -2.992982e-02 -2.036413e-02 -2.984028e-02 -5.235661e-03 -2.561759e-02 -4.311449e-02 -2.052285e-02 -2.483534e-02 -2.829113e-02 6.879314e-03 -2.189859e-02 -8.396653e-03 -5.136264e-02
<VARIANCE> 39
 2.267734e+01 1.185746e+01 1.427089e+01 1.789318e+01 2.392686e+01 2.485781e+01 1.871265e+01 2.017077e+01 2.257158e+01 2.390480e+01 1.756794e+01 1.435270e+01 4.221114e+01 6.045992e-01 3.569520e-01 6.560562e-01 8.895130e-01 1.362411e+00 1.309077e+00 1.405464e+00 1.590867e+00 1.749065e+00 1.663867e+00 1.451621e+00 1.265180e+00 2.569957e+00 4.865644e-02 5.121344e-02 9.895296e-02 1.570144e-01 1.958250e-01 1.997480e-01 2.347423e-01 2.644693e-01 2.960233e-01 2.699236e-01 2.538836e-01 2.062177e-01 2.342568e-01
<GCONST> 8.952280e+01
<STATE> 3
~s "silst"
<STATE> 4
<MEAN> 39
 -1.048456e+01 6.768809e-02 -8.026751e-01 2.905075e+00 1.428795e+00 1.061072e+00 9.141444e-01 1.675409e+00 6.753376e-01 -2.387902e-01 7.655897e-01 4.229452e-01 5.181236e+01 4.304814e-01 5.119636e-01 5.085594e-01 2.694939e-01 -5.808969e-02 -3.336912e-01 -4.038645e-01 -2.603853e-01 -3.162745e-01 -2.029880e-01 -2.016747e-01 -1.756665e-01 2.972023e-01 2.519646e-01 1.868248e-01 1.804662e-01 -4.468140e-02 -2.643036e-01 -3.978105e-01 -2.989773e-01 -1.616597e-01 -1.712393e-01 -4.906424e-02 -1.227908e-02 -5.201804e-04 3.542201e-01
<VARIANCE> 39
 6.087304e+00 1.015283e+01 1.127306e+01 2.131178e+01 1.442838e+01 1.857615e+01 1.695898e+01 1.789513e+01 1.655210e+01 1.809576e+01 1.779542e+01 1.421018e+01 2.304039e+01 9.288697e-01 1.529860e+00 1.569506e+00 1.436712e+00 1.389352e+00 1.809535e+00 1.933154e+00 2.386890e+00 1.825142e+00 1.712400e+00 1.650712e+00 1.476180e+00 3.828644e-01 2.695854e-01 2.802970e-01 3.392935e-01 3.843717e-01 4.157860e-01 4.454945e-01 4.150133e-01 4.487986e-01 3.395979e-01 3.662064e-01 2.987736e-01 2.854443e-01 1.427644e-01
<GCONST> 9.716779e+01
<TRANSP> 5
 0.000000e+00 1.000000e+00 0.000000e+00 0.000000e+00 0.000000e+00
 0.000000e+00 5.751364e-01 2.248636e-01 2.000000e-01 0.000000e+00
 0.000000e+00 0.000000e+00 9.124702e-01 8.752980e-02 0.000000e+00
 0.000000e+00 2.000000e-01 0.000000e+00 3.286558e-01 4.713442e-01
 0.000000e+00 0.000000e+00 0.000000e+00 0.000000e+00 0.000000e+00
<ENDHMM>
