~o
<STREAMINFO> 1 39
<VECSIZE> 39<NULLD><MFCC_D_A_0><DIAGC>
~s "silst"
<MEAN> 39
 -9.564727e+00 7.665114e-01 -1.112111e+00 2.338748e+00 1.548741e+00 1.570878e+00 4.363821e-01 3.053034e-01 9.756663e-02 -5.361488e-01 3.566219e-01 -2.279952e-01 4.930291e+01 -1.221222e-01 -6.651688e-02 -6.675116e-02 -1.299587e-02 -1.517846e-02 3.574920e-02 2.711673e-02 3.684222e-03 1.827950e-02 -2.275095e-02 -3.911300e-02 6.822883e-02 -9.589276e-02 2.305746e-02 1.862994e-02 2.013260e-02 -5.418663e-04 -9.642991e-03 -2.538203e-02 -5.069259e-03 1.606868e-02 -4.193101e-04 5.100065e-03 3.104071e-03 -2.746208e-03 2.519402e-02
<VARIANCE> 39
 4.902298e+00 5.394570e+00 8.351172e+00 1.285598e+01 1.376183e+01 1.479255e+01 1.501813e+01 1.491290e+01 1.642552e+01 1.681612e+01 1.453131e+01 1.224653e+01 8.062502e+00 1.864023e-01 3.589698e-01 6.132231e-01 9.294364e-01 1.111286e+00 1.282141e+00 1.387489e+00 1.505820e+00 1.576953e+00 1.713193e+00 1.516459e+00 1.309004e+00 6.034231e-02 3.277348e-02 6.912511e-02 1.220997e-01 1.882858e-01 2.214805e-01 2.500730e-01 2.801327e-01 2.990143e-01 3.160535e-01 3.451528e-01 3.045931e-01 2.660476e-01 1.079827e-02
<GCONST> 7.544935e+01
~h "c"
<BEGINHMM>
<NUMSTATES> 5
<STATE> 2
<MEAN> 39
 -1.536246e+01 1.595536e+00 1.803023e+00 -4.522546e+00 4.433360e+00 7.929520e-02 -4.011953e+00 6.202250e+00 -2.137524e+00 -4.248807e-01 2.769377e+00 -6.258693e-01 5.596151e+01 -3.070053e+00 7.520047e-01 1.351395e+00 -2.835590e+00 5.210148e-01 1.215532e-01 -1.211576e+00 1.466800e+00 -1.729626e+00 1.222654e-01 6.882066e-01 -4.834901e-01 2.219659e+00 -1.518900e-01 2.278508e-01 3.315508e-01 1.489764e-01 -4.832154e-01 -1.307354e-01 1.493219e-01 -2.552424e-01 -2.566698e-01 -1.311240e-02 -7.753027e-02 -2.060387e-01 3.195192e-01
<VARIANCE> 39
 4.968607e+01 1.933630e+01 2.600878e+01 6.317410e+01 2.951274e+01 4.256810e+01 3.541291e+01 4.824422e+01 4.984943e+01 2.174409e+01 2.885773e+01 2.287614e+01 4.771142e+01 3.713833e+00 2.429054e+00 2.013009e+00 4.691391e+00 3.235149e+00 2.839009e+00 3.574602e+00 4.139642e+00 3.183829e+00 1.998378e+00 3.045274e+00 2.206424e+00 1.966977e+00 1.703683e+00 4.141099e-01 3.362980e-01 2.165168e+00 8.217291e-01 6.120338e-01 8.347172e-01 1.229523e+00 6.328653e-01 4.289111e-01 6.401909e-01 3.772373e-01 4.820713e-01
<GCONST> 1.268813e+02
<STATE> 3
<MEAN> 39
 -2.456023e+01 5.138554e+00 9.515253e+00 -9.216658e+00 1.046769e+00 1.523361e-01 -4.193220e+00 6.716216e+00 -9.164877e+00 -3.866473e-02 4.021149e+00 -4.190554e+00 6.422377e+01 2.364840e+00 8.425424e-01 3.146085e+00 2.877736e+00 -3.365886e+00 -2.151810e+00 5.646416e-01 -2.081048e+00 -2.466354e+00 -7.699914e-01 -4.104789e-01 -1.141307e+00 9.058349e-01 1.669930e+00 -1.398767e-01 2.986561e-01 1.149219e+00 -9.392446e-01 -9.456094e-01 -4.628591e-02 -3.336004e-01 -2.915442e-01 -3.095734e-01 -7.534039e-03 2.991393e-02 -2.747403e-01
<VARIANCE> 39
 2.995777e+01 1.900846e+01 4.684976e+01 4.022606e+01 2.635799e+01 3.826752e+01 3.041758e+01 4.033423e+01 3.759371e+01 2.417743e+01 2.189319e+01 2.214143e+01 1.919943e+01 5.347934e+00 1.292671e+00 2.209330e+00 2.832020e+00 3.338661e+00 5.155900e+00 3.100931e+00 2.121794e+00 3.936501e+00 1.963543e+00 1.864372e+00 1.063472e+00 5.680512e-01 8.497498e-01 4.076557e-01 4.684665e-01 1.113580e+00 4.223049e-01 4.674855e-01 7.312410e-01 8.639059e-01 5.686241e-01 3.807887e-01 5.483468e-01 3.199700e-01 2.139974e-01
<GCONST> 1.175987e+02
<STATE> 4
<MEAN> 39
 -1.153932e+01 7.727392e+00 2.036766e+01 1.537674e+00 -1.418625e+01 -1.231479e+01 -5.862942e+00 1.446188e+00 -1.841118e+01 -3.197991e+00 4.507920e+00 -7.236729e+00 6.709869e+01 2.544601e+00 9.464958e-03 2.110398e+00 2.216541e+00 -4.278834e+00 -2.471769e+00 2.090722e-01 -5.057166e-01 -1.944261e+00 -7.267536e-01 7.815779e-01 -4.601488e-01 1.291513e+00 -9.845431e-01 -2.846132e-01 -8.383812e-01 -8.411184e-01 8.990479e-01 9.018614e-01 1.902176e-01 4.905871e-01 7.240797e-01 2.788578e-01 9.918884e-02 3.362882e-01 -6.765452e-02
<VARIANCE> 39
 1.235856e+01 6.697412e+00 1.961435e+01 2.003183e+01 3.581170e+01 1.735777e+01 2.423518e+01 3.878288e+01 3.361131e+01 1.691274e+01 2.662967e+01 2.174282e+01 1.332792e+01 2.355263e+00 8.686792e-01 2.386400e+00 1.907565e+00 3.088637e+00 4.338747e+00 2.564511e+00 2.623202e+00 2.374737e+00 1.983215e+00 2.005029e+00 1.789647e+00 2.039333e-01 1.329829e-01 1.255027e-01 2.059639e-01 1.970624e-01 5.304467e-01 3.987113e-01 2.667737e-01 3.634032e-01 3.979398e-01 3.110947e-01 2.906101e-01 2.511301e-01 5.074587e-02
<GCONST> 9.973735e+01
<TRANSP> 5
 0.000000e+00 1.000000e+00 0.000000e+00 0.000000e+00 0.000000e+00
 0.000000e+00 7.949160e-01 2.050839e-01 0.000000e+00 0.000000e+00
 0.000000e+00 0.000000e+00 6.735466e-01 3.264534e-01 0.000000e+00
 0.000000e+00 0.000000e+00 0.000000e+00 6.261417e-01 3.738583e-01
 0.000000e+00 0.000000e+00 0.000000e+00 0.000000e+00 0.000000e+00
<ENDHMM>
~h "g"
<BEGINHMM>
<NUMSTATES> 5
<STATE> 2
<MEAN> 39
 -2.557965e+00 5.203622e+00 2.820653e+00 6.205711e+00 -4.983451e+00 -9.407744e+00 -6.059484e+00 1.854620e+00 -4.211407e-01 -1.164328e+00 8.215054e-01 -6.509565e-01 5.696164e+01 1.909871e+00 -5.554309e-01 1.007444e+00 1.710214e+00 -2.203209e+00 -2.965157e+00 -1.653688e+00 5.305240e-01 6.423221e-03 -4.867929e-01 4.674245e-02 -1.256999e-01 2.281540e+00 -1.965470e-01 -7.789077e-01 7.472448e-02 2.838331e-02 -1.212554e-01 2.010817e-01 1.183176e-01 4.054033e-02 2.570259e-02 4.108141e-02 3.005948e-02 7.923178e-02 2.066073e-01
<VARIANCE> 39
 2.234418e+01 1.277119e+01 2.841907e+01 3.552843e+01 3.701736e+01 6.649932e+01 4.686620e+01 4.869931e+01 3.309845e+01 2.710467e+01 2.884423e+01 2.333397e+01 2.825095e+01 2.600608e+00 3.725996e+00 2.052971e+00 3.595199e+00 3.494426e+00 7.041017e+00 5.035509e+00 4.685107e+00 2.747528e+00 3.715932e+00 2.529487e+00 3.474737e+00 1.363652e+00 5.817288e-01 3.632163e-01 3.583843e-01 6.015804e-01 6.590128e-01 1.758100e+00 8.813501e-01 8.008161e-01 4.439029e-01 6.087632e-01 6.433916e-01 4.539946e-01 3.277346e-01
<GCONST> 1.249381e+02
<STATE> 3
<MEAN> 39
 1.003536e+00 -2.192487e+00 6.824049e+00 1.198498e+01 -1.257613e+01 -1.367080e+01 -8.618579e+00 6.079891e-01 -1.702506e+00 -2.741426e+00 -2.795193e-01 6.003142e-01 6.332257e+01 2.084487e-01 -2.002417e+00 1.180093e+00 1.186938e-01 -1.412451e+00 -4.698451e-01 -1.151730e+00 2.683676e-01 1.408422e-01 -4.859917e-01 5.258098e-01 3.667606e-01 1.730836e+00 -2.778083e-01 2.196466e-01 -3.681815e-01 -5.558690e-01 3.783081e-01 -7.634556e-02 -1.665239e-03 2.321901e-01 7.086836e-02 -1.078672e-01 6.307782e-01 -5.333247e-02 -2.206199e-02
<VARIANCE> 39
 6.269874e+00 1.980814e+01 2.405043e+01 2.809651e+01 2.448510e+01 3.756427e+01 4.840680e+01 5.152494e+01 2.603536e+01 3.863534e+01 2.754905e+01 3.135708e+01 1.467129e+01 7.872813e-01 2.095804e+00 1.519256e+00 2.418336e+00 2.555182e+00 6.056047e+00 4.186094e+00 4.264727e+00 2.191823e+00 2.850070e+00 4.361357e+00 1.847172e+00 1.688731e+00 2.800506e-01 3.980860e-01 3.730421e-01 5.204048e-01 5.335409e-01 1.259450e+00 8.078761e-01 7.329689e-01 4.892353e-01 6.153969e-01 6.943586e-01 4.788766e-01 3.086234e-01
<GCONST> 1.176558e+02
<STATE> 4
<MEAN> 39
 1.304578e+00 -6.996987e+00 8.047932e+00 8.749586e+00 -1.487442e+01 -1.857550e+01 -1.352258e+01 7.147236e+00 -1.389039e+00 -3.626858e+00 6.822723e+00 -4.159170e-01 7.026843e+01 -3.673283e-01 -2.100676e-02 -8.982993e-01 -8.856758e-01 5.899092e-01 -2.031074e+00 6.110023e-01 7.583296e-01 2.945614e-01 -7.162167e-01 2.227014e+00 -9.354889e-02 1.636478e+00 -3.091534e-01 7.538328e-01 -3.840584e-01 -1.147872e-02 7.103295e-01 -2.104440e-02 1.036693e+00 -4.935039e-01 1.913814e-01 -2.280496e-02 -4.272416e-01 1.114049e-01 -4.272983e-01
<VARIANCE> 39
 4.147665e+00 6.582056e+00 1.456485e+01 3.797955e+01 3.094597e+01 3.581122e+01 3.746902e+01 8.748682e+01 3.226253e+01 6.172959e+01 2.225002e+01 4.335666e+01 8.445953e+00 9.127449e-01 1.166543e+00 1.054959e+00 1.460248e+00 1.716650e+00 3.416920e+00 4.044279e+00 4.535629e+00 4.548606e+00 3.612999e+00 2.341285e+00 2.345826e+00 5.700172e-01 8.250404e-02 2.115672e-01 2.117462e-01 2.930382e-01 2.967263e-01 7.231253e-01 4.551572e-01 6.181704e-01 4.805541e-01 4.950584e-01 4.120122e-01 4.336710e-01 7.329424e-02
<GCONST> 1.067148e+02
<TRANSP> 5
 0.000000e+00 1.000000e+00 0.000000e+00 0.000000e+00 0.000000e+00
 0.000000e+00 7.257110e-01 2.742890e-01 0.000000e+00 0.000000e+00
 0.000000e+00 0.000000e+00 7.048976e-01 2.951024e-01 0.000000e+00
 0.000000e+00 0.000000e+00 0.000000e+00 6.226335e-01 3.773665e-01
 0.000000e+00 0.000000e+00 0.000000e+00 0.000000e+00 0.000000e+00
<ENDHMM>
~h "j"
<BEGINHMM>
<NUMSTATES> 5
<STATE> 2
<MEAN> 39
 -3.160214e+00 6.963753e-01 -4.150000e+00 6.550342e-01 4.538115e+00 -6.008705e+00 -4.176510e-01 2.511754e+00 6.036776e-01 3.168569e+00 -2.472991e+00 -6.571520e+00 6.484305e+01 -1.648013e+00 9.779085e-01 2.171158e-01 -1.310706e+00 1.312423e+00 6.676500e-01 -4.965799e-01 6.785932e-01 -4.714487e-01 1.530447e-01 6.558160e-01 -4.027233e-02 -3.356693e-01 -4.975474e-01 9.934015e-02 1.625048e-01 -3.557746e-01 7.736847e-02 -2.217168e-03 -3.681344e-01 4.028550e-01 -8.351312e-02 -6.969789e-02 1.461098e-01 9.839914e-02 3.108860e-01
<VARIANCE> 39
 1.663897e+01 1.549022e+01 1.558319e+01 2.073885e+01 2.823205e+01 4.817778e+01 2.736614e+01 4.117411e+01 2.798677e+01 2.552112e+01 2.409434e+01 2.637749e+01 2.404082e+01 3.405301e+00 2.570201e+00 1.363799e+00 2.980852e+00 2.681026e+00 3.612375e+00 3.816350e+00 5.046561e+00 3.062251e+00 2.905711e+00 2.181463e+00 2.834904e+00 1.248398e+00 6.380243e-01 5.313380e-01 2.875571e-01 4.958582e-01 6.294519e-01 6.873752e-01 6.237758e-01 6.929149e-01 5.819587e-01 5.885696e-01 3.765577e-01 5.942724e-01 2.407320e-01
<GCONST> 1.177867e+02
<STATE> 3
<MEAN> 39
 -1.905535e+01 5.024178e+00 3.176879e+00 -1.157659e+01 8.426167e+00 -2.050438e+00 -8.727840e+00 1.258507e+01 -2.208443e+00 3.107717e-01 4.253006e+00 -4.441504e+00 6.629841e+01 -1.536841e+00 -5.523094e-01 9.119522e-01 -1.952201e-01 -9.459463e-01 -1.254805e-02 -3.588431e-01 1.090766e+00 4.504417e-01 -8.813042e-01 7.065494e-01 1.035770e+00 3.377448e-01 8.813643e-01 -4.759997e-01 -1.843078e-01 7.347835e-01 -4.210982e-01 -1.955759e-01 5.349568e-01 -4.005132e-01 2.554931e-01 6.160539e-02 -2.200883e-01 5.524540e-02 -3.514268e-01
<VARIANCE> 39
 2.497551e+01 2.145150e+01 6.669345e+01 6.966876e+01 3.929647e+01 4.036430e+01 3.186402e+01 3.310016e+01 2.634414e+01 3.038108e+01 2.249306e+01 3.016580e+01 2.016564e+01 5.146476e+00 2.877926e+00 1.641168e+00 5.922580e+00 4.433484e+00 3.204817e+00 3.760162e+00 3.161673e+00 2.226924e+00 2.632568e+00 1.987812e+00 1.940577e+00 1.098027e+00 3.905130e-01 4.891801e-01 2.610904e-01 6.454712e-01 8.870001e-01 5.744956e-01 5.487946e-01 5.286006e-01 4.754671e-01 5.568627e-01 4.198488e-01 4.513262e-01 1.395927e-01
<GCONST> 1.199458e+02
<STATE> 4
<MEAN> 39
 -1.471678e+01 -1.622311e-01 1.448797e+00 -4.233487e+00 3.126918e+00 -2.380103e+00 -4.150320e+00 1.098528e+01 5.466090e-01 -9.683727e-01 3.125754e+00 -1.942848e+00 5.865577e+01 5.825499e-01 -8.075826e-02 -1.953943e-01 4.124648e-01 2.378386e-02 3.057582e-01 3.172202e-01 -4.808368e-01 -9.243739e-02 1.021157e-01 -1.996752e-01 -5.559549e-02 -8.581433e-01 -4.186628e-02 9.217211e-02 -6.180207e-03 -6.388231e-02 5.485479e-02 5.067078e-02 -2.458293e-02 -6.756362e-02 -5.233034e-02 3.163358e-02 -1.315972e-03 -4.072472e-02 4.165686e-02
<VARIANCE> 39
 1.251506e+01 1.032832e+01 1.843140e+01 2.583020e+01 2.318042e+01 3.406458e+01 2.590580e+01 2.681007e+01 1.942583e+01 2.454559e+01 2.005379e+01 2.028970e+01 3.323147e+01 4.032783e-01 7.806797e-01 1.047160e+00 1.269726e+00 1.651552e+00 1.821206e+00 1.608877e+00 1.892398e+00 1.990452e+00 2.144935e+00 1.509553e+00 1.538278e+00 2.224669e-01 6.957869e-02 1.362247e-01 1.629966e-01 2.220745e-01 3.650352e-01 3.462862e-01 3.147885e-01 3.955946e-01 4.207029e-01 4.373463e-01 3.062209e-01 3.228286e-01 2.855898e-02
<GCONST> 9.404164e+01
<TRANSP> 5
 0.000000e+00 1.000000e+00 0.000000e+00 0.000000e+00 0.000000e+00
 0.000000e+00 8.444037e-01 1.555963e-01 0.000000e+00 0.000000e+00
 0.000000e+00 0.000000e+00 8.160974e-01 1.839026e-01 0.000000e+00
 0.000000e+00 0.000000e+00 0.000000e+00 9.269256e-01 7.307445e-02
 0.000000e+00 0.000000e+00 0.000000e+00 0.000000e+00 0.000000e+00
<ENDHMM>
~h "k"
<BEGINHMM>
<NUMSTATES> 5
<STATE> 2
<MEAN> 39
 -7.522120e+00 8.563169e-01 1.387675e+00 4.500526e+00 -1.969040e+00 -6.692093e+00 2.422534e-01 3.130708e+00 -1.165409e+00 1.423185e-01 3.023651e+00 3.403859e-01 5.711089e+01 -2.936005e-01 -6.234661e-01 -1.282399e+00 -6.845716e-01 9.341413e-01 -9.267902e-03 -4.887931e-01 -2.469128e-01 5.984302e-03 1.464556e+00 -1.372430e-01 3.108717e-02 5.295805e-01 3.022192e-02 -1.981031e-01 -4.281579e-01 -2.149902e-01 1.943485e-01 -4.467308e-01 -3.960789e-01 -1.607203e-01 -1.096841e-01 4.693563e-01 -7.438675e-02 -7.515673e-02 5.327925e-01
<VARIANCE> 39
 2.769848e+01 1.677464e+01 2.295900e+01 3.274019e+01 3.667393e+01 6.762308e+01 3.413192e+01 3.439414e+01 3.496660e+01 2.614747e+01 3.784357e+01 2.466851e+01 4.101129e+01 1.175496e+00 1.861139e+00 5.995692e+00 2.507518e+00 6.037115e+00 5.453383e+00 3.909660e+00 5.023397e+00 4.328617e+00 4.440986e+00 3.157788e+00 2.314270e+00 2.657037e+00 1.826895e-01 2.572309e-01 6.976972e-01 3.443159e-01 7.866564e-01 7.149738e-01 6.726171e-01 6.718284e-01 6.271147e-01 7.080719e-01 5.920228e-01 4.355337e-01 2.320585e-01
<GCONST> 1.231014e+02
<STATE> 3
<MEAN> 39
 -7.792504e+00 -3.263512e+00 -5.239134e+00 -3.773047e-01 8.207963e-01 -1.347838e+01 -5.251664e+00 2.129758e+00 -3.841418e+00 8.341390e+00 3.316160e+00 -1.077507e-01 6.429265e+01 7.150221e-01 -1.216623e-01 -7.378953e-01 -6.310362e-01 5.689213e-02 -1.693249e+00 -8.769131e-01 -8.359237e-02 4.316803e-01 7.517004e-01 3.519851e-01 -2.977519e-01 1.654708e+00 2.604875e-01 9.432434e-02 5.630800e-01 2.403817e-01 -4.620877e-01 1.935392e-01 4.129570e-01 2.718834e-01 3.374580e-01 -7.280615e-01 2.168681e-01 -3.003368e-01 -2.666157e-01
<VARIANCE> 39
 3.748578e+01 3.195325e+01 1.424642e+02 4.646271e+01 1.221014e+02 8.663740e+01 4.781403e+01 8.916724e+01 6.926056e+01 5.441230e+01 4.531010e+01 4.178401e+01 3.320868e+01 3.698683e+00 2.942083e+00 8.138949e+00 2.716408e+00 7.242049e+00 7.010601e+00 4.804952e+00 5.087476e+00 5.724001e+00 7.620946e+00 4.558881e+00 3.089025e+00 3.336054e+00 6.829058e-01 7.648826e-01 1.925293e+00 6.675537e-01 1.724300e+00 1.100591e+00 7.235675e-01 1.001613e+00 1.036749e+00 1.188964e+00 1.127953e+00 7.521504e-01 3.500436e-01
<GCONST> 1.436183e+02
<STATE> 4
<MEAN> 39
 -4.491842e+00 -1.821685e+00 -5.763434e+00 -8.403025e-01 -5.856406e-01 -6.578050e+00 -3.360460e+00 -2.465311e-01 2.198606e+00 8.190308e+00 5.407356e+00 -3.662338e+00 5.991505e+01 -1.398383e-01 -4.610174e-02 2.963148e-01 1.419764e-01 -2.691521e-01 4.214488e-01 1.569828e-01 1.891925e-01 2.011730e-01 -2.785484e-01 -1.005527e-01 -4.500687e-02 -4.331845e-01 -3.967477e-02 -7.027045e-02 3.010589e-02 -2.755989e-03 -4.835322e-03 -1.237438e-02 6.866443e-02 5.562486e-02 -1.497588e-01 -1.034839e-01 9.266982e-04 -1.126708e-02 8.731686e-02
<VARIANCE> 39
 1.944214e+01 1.654507e+01 2.356292e+01 2.303309e+01 3.970475e+01 4.877800e+01 3.232478e+01 3.578661e+01 3.232386e+01 2.832676e+01 2.526318e+01 3.521250e+01 4.112376e+01 8.725837e-01 7.731100e-01 1.876687e+00 1.608042e+00 2.288940e+00 2.474050e+00 1.935619e+00 2.189966e+00 2.388265e+00 2.490392e+00 2.490780e+00 2.180947e+00 7.819833e-01 1.310015e-01 1.842101e-01 2.591082e-01 2.638164e-01 3.558387e-01 5.278470e-01 4.170102e-01 4.484727e-01 4.574169e-01 5.412529e-01 3.608987e-01 3.433736e-01 1.423478e-01
<GCONST> 1.076254e+02
<TRANSP> 5
 0.000000e+00 1.000000e+00 0.000000e+00 0.000000e+00 0.000000e+00
 0.000000e+00 6.815802e-01 3.184198e-01 0.000000e+00 0.000000e+00
 0.000000e+00 0.000000e+00 6.459416e-01 3.540584e-01 0.000000e+00
 0.000000e+00 0.000000e+00 0.000000e+00 8.165261e-01 1.834740e-01
 0.000000e+00 0.000000e+00 0.000000e+00 0.000000e+00 0.000000e+00
<ENDHMM>
~h "l"
<BEGINHMM>
<NUMSTATES> 5
<STATE> 2
<MEAN> 39
 -2.057465e+00 4.841892e+00 3.550061e+00 1.908077e+00 -2.081100e+00 -6.552998e+00 -4.372895e+00 -2.789889e+00 -2.639779e+00 5.616726e-01 1.464035e-01 -1.216002e+00 5.932130e+01 7.618688e-01 1.345010e-01 8.801666e-01 3.825400e-01 -8.161437e-01 -8.710327e-01 -1.283693e+00 -2.316726e-01 4.033740e-01 1.066321e-01 -4.007742e-01 -3.084596e-01 6.015818e-01 -1.148536e-02 -2.514025e-01 -8.292195e-02 2.673368e-02 -1.712130e-02 -1.035224e-01 -1.343489e-01 1.037890e-01 2.230068e-01 1.095005e-01 7.334830e-02 -1.206382e-01 1.401035e-01
<VARIANCE> 39
 3.007302e+01 2.129954e+01 3.534976e+01 4.679712e+01 3.567372e+01 5.769022e+01 4.002046e+01 3.809213e+01 5.626294e+01 3.902286e+01 3.042446e+01 2.011564e+01 4.110407e+01 1.566488e+00 2.408339e+00 2.110079e+00 3.086906e+00 3.238908e+00 5.235934e+00 2.481601e+00 3.354285e+00 2.607427e+00 2.853381e+00 2.235579e+00 2.208197e+00 1.179819e+00 2.852345e-01 3.856270e-01 4.762867e-01 5.534963e-01 6.682368e-01 9.453239e-01 4.889710e-01 5.361618e-01 4.127947e-01 6.253653e-01 4.904768e-01 3.997905e-01 1.144620e-01
<GCONST> 1.197675e+02
<STATE> 3
<MEAN> 39
 2.238744e-01 2.601195e-01 3.045773e+00 6.190657e+00 -4.679966e+00 -1.181087e+01 -7.551553e+00 -2.074237e-01 2.636676e+00 4.385269e-01 5.254424e-01 -2.203859e+00 6.591125e+01 -2.979309e-01 -3.214612e-01 2.437959e-01 -1.883588e-01 1.245713e-01 5.302331e-01 -2.236698e-01 6.554661e-01 5.439835e-01 8.221314e-02 1.687492e-01 -2.768577e-02 -2.369354e-01 -3.689075e-02 5.902822e-03 -2.310537e-01 -1.970862e-01 2.265871e-01 -5.883301e-02 1.814088e-01 2.408351e-02 -5.328288e-02 1.507809e-01 1.661232e-01 -1.193483e-01 1.096307e-02
<VARIANCE> 39
 1.187090e+01 1.561361e+01 1.941481e+01 2.690318e+01 3.269236e+01 4.481425e+01 4.004782e+01 5.034205e+01 3.520863e+01 3.052056e+01 2.335691e+01 3.045273e+01 1.659777e+01 5.133720e-01 1.297371e+00 1.796428e+00 1.874379e+00 1.642403e+00 3.059805e+00 3.091912e+00 2.835268e+00 1.695854e+00 2.726185e+00 1.629755e+00 1.701501e+00 1.086341e+00 1.002965e-01 2.011834e-01 3.117388e-01 3.953578e-01 3.692822e-01 5.392958e-01 5.191601e-01 5.986298e-01 3.465628e-01 4.941003e-01 3.119521e-01 3.920564e-01 9.171961e-02
<GCONST> 1.066053e+02
<STATE> 4
<MEAN> 39
 -3.239209e+00 3.786605e-01 1.319970e+00 3.834423e+00 -1.333596e+00 -6.050512e+00 -3.108726e+00 2.625579e+00 5.761297e+00 2.435976e+00 1.614421e+00 -2.907499e-01 5.788939e+01 -2.613214e-01 -4.668936e-02 -2.756962e-01 -2.756640e-01 1.663203e-01 1.130881e-01 6.677030e-02 1.744963e-01 1.289067e-01 1.812965e-01 1.523044e-01 -1.383085e-01 -5.738024e-01 -2.878404e-02 9.700232e-03 -6.436255e-02 -9.789801e-03 2.150016e-03 -1.380298e-02 5.764731e-02 -4.367106e-02 -6.342445e-02 -6.279118e-02 -2.445901e-02 -4.013580e-02 4.317873e-02
<VARIANCE> 39
 9.866324e+00 8.888052e+00 1.460259e+01 1.656718e+01 2.547251e+01 3.851012e+01 3.291153e+01 2.481631e+01 2.235939e+01 2.563740e+01 1.897936e+01 1.837626e+01 2.326015e+01 3.234420e-01 6.641990e-01 1.121531e+00 1.097943e+00 1.368937e+00 1.707220e+00 1.832953e+00 2.175840e+00 1.709562e+00 1.997418e+00 1.789850e+00 1.899262e+00 4.861166e-01 5.310360e-02 1.030847e-01 1.755638e-01 2.294979e-01 2.550809e-01 3.116959e-01 4.761980e-01 3.781088e-01 3.263351e-01 3.475978e-01 3.456087e-01 2.934159e-01 1.951760e-02
<GCONST> 9.215150e+01
<TRANSP> 5
 0.000000e+00 1.000000e+00 0.000000e+00 0.000000e+00 0.000000e+00
 0.000000e+00 7.015938e-01 2.984062e-01 0.000000e+00 0.000000e+00
 0.000000e+00 0.000000e+00 7.473785e-01 2.526215e-01 0.000000e+00
 0.000000e+00 0.000000e+00 0.000000e+00 8.708874e-01 1.291126e-01
 0.000000e+00 0.000000e+00 0.000000e+00 0.000000e+00 0.000000e+00
<ENDHMM>
~h "m"
<BEGINHMM>
<NUMSTATES> 5
<STATE> 2
<MEAN> 39
 1.329645e+00 -1.221420e+00 -1.426099e+00 2.490947e+00 -2.784193e+00 -1.152596e+01 -6.230602e+00 -4.766775e+00 -6.738855e+00 4.902020e+00 7.117748e+00 -5.213458e+00 6.901315e+01 3.804763e-01 -7.998863e-01 -1.451605e+00 -5.586693e-01 5.357077e-02 4.296784e-01 1.557871e-01 1.030728e+00 7.056768e-01 8.494153e-01 5.632499e-01 -1.167121e+00 6.637598e-01 -1.091167e-01 -4.139378e-02 5.900945e-03 -9.568955e-03 -5.775691e-02 2.169521e-02 2.047390e-01 4.258850e-01 1.366159e-01 -3.036192e-01 -1.867607e-01 -8.701890e-02 -7.034350e-03
<VARIANCE> 39
 8.980247e+00 1.529232e+01 2.498737e+01 3.587112e+01 2.127497e+01 5.929053e+01 2.712979e+01 5.396316e+01 6.592215e+01 5.055971e+01 2.675371e+01 3.009330e+01 1.534395e+01 3.932342e-01 5.671497e-01 1.660560e+00 1.016797e+00 1.225832e+00 2.730922e+00 1.409749e+00 3.701553e+00 1.608477e+00 2.507016e+00 1.829190e+00 2.053821e+00 3.971623e-01 7.160134e-02 1.076833e-01 4.495122e-01 2.741489e-01 2.532659e-01 2.487912e-01 2.545397e-01 3.876720e-01 2.973334e-01 6.379763e-01 4.288039e-01 4.107988e-01 1.045300e-01
<GCONST> 1.013422e+02
<STATE> 3
<MEAN> 39
 1.293124e+00 -5.485691e+00 -5.838999e+00 2.140580e+00 -2.940284e+00 -1.164418e+01 -3.464484e+00 4.844950e+00 -2.180094e+00 1.394926e+00 5.384428e+00 -9.356745e+00 7.222958e+01 6.136333e-02 -2.847719e-01 5.996719e-01 3.181250e-01 -9.817784e-02 -5.541577e-02 5.450905e-01 6.957999e-01 3.406955e-03 -1.269797e+00 -6.097656e-01 7.882918e-01 -1.690407e-01 1.798986e-02 1.574925e-01 3.447127e-01 1.319081e-01 -6.144098e-02 -1.617485e-01 -7.178135e-02 -2.533864e-01 -1.052680e-01 -1.007596e-01 3.241556e-03 4.288104e-01 -1.906660e-01
<VARIANCE> 39
 7.161829e+00 1.356660e+01 1.405042e+01 2.108013e+01 2.844553e+01 4.116450e+01 2.258313e+01 6.962588e+01 5.697010e+01 7.167336e+01 2.368496e+01 4.444567e+01 1.870673e+01 3.650609e-01 4.149424e-01 1.044537e+00 6.938077e-01 1.113477e+00 1.675861e+00 8.226906e-01 2.500961e+00 1.490095e+00 1.152763e+00 1.176985e+00 2.345446e+00 3.533766e-01 4.829672e-02 5.888051e-02 1.020722e-01 1.201830e-01 1.844950e-01 1.990167e-01 1.616123e-01 2.456981e-01 2.766893e-01 2.787452e-01 2.377016e-01 3.314963e-01 1.578846e-02
<GCONST> 8.817953e+01
<STATE> 4
<MEAN> 39
 1.840521e-01 1.056952e+00 2.467111e+00 6.117931e+00 -1.049914e+00 -4.974432e+00 -2.122449e+00 -2.478526e+00 -2.101045e+00 -1.232177e+00 3.264337e+00 -1.821494e+00 6.134023e+01 -3.354337e-01 3.217164e-01 3.451813e-01 1.690390e-01 2.617890e-01 2.884357e-01 7.657445e-02 2.265845e-01 4.214441e-01 -1.645220e-01 -2.115447e-01 1.673501e-01 -7.429185e-01 -4.238415e-02 -2.160995e-02 -9.475497e-02 -3.177685e-02 -9.275462e-03 2.148339e-03 1.561701e-02 3.689450e-02 -2.171347e-02 1.063644e-01 3.796811e-02 -4.011310e-02 1.346846e-02
<VARIANCE> 39
 7.570542e+00 2.415725e+01 1.326031e+01 1.850804e+01 2.047253e+01 4.431808e+01 2.136026e+01 4.739011e+01 3.303101e+01 2.822209e+01 2.862339e+01 1.893429e+01 4.112711e+01 2.065889e-01 4.300559e-01 9.142811e-01 9.533673e-01 1.449777e+00 1.682405e+00 1.301549e+00 1.711178e+00 1.932933e+00 1.819341e+00 1.729491e+00 1.723548e+00 1.138242e-01 2.437074e-02 7.594506e-02 1.233280e-01 1.495852e-01 2.763790e-01 3.040248e-01 2.591521e-01 3.183928e-01 3.609326e-01 3.190335e-01 3.585004e-01 3.135403e-01 1.329747e-02
<GCONST> 8.835592e+01
<TRANSP> 5
 0.000000e+00 1.000000e+00 0.000000e+00 0.000000e+00 0.000000e+00
 0.000000e+00 7.882848e-01 2.117152e-01 0.000000e+00 0.000000e+00
 0.000000e+00 0.000000e+00 8.336154e-01 1.663846e-01 0.000000e+00
 0.000000e+00 0.000000e+00 0.000000e+00 8.955753e-01 1.044247e-01
 0.000000e+00 0.000000e+00 0.000000e+00 0.000000e+00 0.000000e+00
<ENDHMM>
~h "n"
<BEGINHMM>
<NUMSTATES> 5
<STATE> 2
<MEAN> 39
 1.096413e-01 3.129091e+00 5.828176e+00 8.871888e+00 -5.408004e+00 -9.827636e+00 -5.629050e+00 -4.651928e+00 -7.885073e-01 -9.679922e-01 -9.577321e-01 -2.781814e+00 6.323619e+01 5.982124e-01 -5.627617e-01 4.104062e-01 9.163752e-01 -1.355936e+00 -9.064288e-01 -8.760597e-01 -2.705705e-01 -1.614706e-03 2.747422e-01 -5.013280e-02 6.033808e-02 1.216675e+00 -2.275633e-01 -2.890133e-01 -3.312594e-01 -1.612335e-01 4.939927e-03 3.994029e-01 5.165530e-02 1.417841e-01 3.993287e-02 1.137429e-01 2.359486e-01 4.320733e-02 7.725638e-03
<VARIANCE> 39
 1.765290e+01 4.061387e+01 5.380052e+01 5.488680e+01 3.431898e+01 5.130607e+01 2.554645e+01 8.324769e+01 5.367683e+01 5.048830e+01 4.578582e+01 2.293476e+01 6.245527e+01 2.007350e+00 2.787412e+00 3.477359e+00 1.553756e+00 2.994768e+00 5.183887e+00 2.867415e+00 3.844417e+00 3.283097e+00 3.525825e+00 2.046094e+00 2.316516e+00 1.208748e+00 2.160281e-01 3.988727e-01 4.378761e-01 3.697056e-01 5.359576e-01 5.812979e-01 4.354785e-01 6.553817e-01 5.745340e-01 5.794063e-01 3.680187e-01 2.516283e-01 1.262835e-01
<GCONST> 1.208793e+02
<STATE> 3
<MEAN> 39
 -7.510434e-01 -4.386691e+00 1.114065e+00 8.830309e+00 -1.118866e+01 -1.319000e+01 -7.208153e+00 8.671773e-01 1.935239e+00 5.130733e-01 4.120940e+00 -3.780578e+00 7.248778e+01 5.272425e-02 1.306602e-01 3.800523e-01 -5.018530e-01 2.368857e-01 1.022669e+00 6.145300e-02 -1.400296e+00 -4.320721e-01 2.326006e-02 7.867800e-02 7.202396e-01 -6.256851e-02 1.010443e-01 2.485003e-01 6.979933e-02 -2.712209e-01 3.031330e-01 2.691417e-01 3.184530e-01 -5.415372e-01 3.235542e-02 -6.946790e-03 -1.312258e-01 -1.313743e-01 -2.287318e-01
<VARIANCE> 39
 8.269850e+00 9.052447e+00 2.980450e+01 3.695088e+01 3.550949e+01 7.455386e+01 3.644371e+01 8.587790e+01 6.525947e+01 5.471495e+01 2.677281e+01 3.760825e+01 2.139531e+01 5.252130e-01 1.039741e+00 6.236217e+00 1.753109e+00 2.145910e+00 2.481483e+00 2.795819e+00 5.517504e+00 3.605497e+00 2.541869e+00 4.160717e+00 2.811688e+00 1.668015e+00 7.416446e-02 1.523690e-01 4.681489e-01 2.690709e-01 4.080460e-01 5.330780e-01 5.547104e-01 9.494156e-01 7.658445e-01 5.152266e-01 5.233082e-01 5.781304e-01 1.041770e-01
<GCONST> 1.153586e+02
<STATE> 4
<MEAN> 39
 -4.416459e-01 1.780273e+00 6.807510e+00 7.432224e+00 -4.359469e+00 -7.701462e+00 -3.366215e+00 -5.234729e+00 1.756766e+00 -2.484488e+00 -7.949662e-01 -2.387187e+00 6.216787e+01 -2.301115e-01 3.038156e-01 -1.049470e-01 -1.665098e-01 2.294160e-01 3.565335e-01 2.518013e-01 1.484065e-01 -7.274663e-02 3.970608e-02 -7.573489e-02 1.337754e-01 -6.220536e-01 -3.693063e-02 -5.480555e-02 -6.844494e-02 -2.911453e-03 -3.346286e-02 -3.698315e-02 -8.033299e-03 1.251552e-01 -1.621558e-02 -8.684561e-03 2.882346e-02 8.379056e-03 1.450884e-02
<VARIANCE> 39
 1.207715e+01 1.792068e+01 1.292850e+01 2.248723e+01 2.607415e+01 4.073730e+01 2.192316e+01 4.355493e+01 3.572993e+01 3.098882e+01 2.219851e+01 2.087599e+01 4.291330e+01 2.479897e-01 4.043332e-01 6.276439e-01 9.542938e-01 1.210399e+00 1.655817e+00 1.645239e+00 1.910834e+00 1.684459e+00 1.338815e+00 1.372578e+00 1.507894e+00 1.241230e-01 2.855275e-02 5.823515e-02 1.179682e-01 1.656540e-01 2.186822e-01 3.283381e-01 3.099605e-01 3.839594e-01 3.067823e-01 2.617764e-01 2.931649e-01 2.571832e-01 1.692339e-02
<GCONST> 8.766356e+01
<TRANSP> 5
 0.000000e+00 1.000000e+00 0.000000e+00 0.000000e+00 0.000000e+00
 0.000000e+00 7.819098e-01 2.180902e-01 0.000000e+00 0.000000e+00
 0.000000e+00 0.000000e+00 7.908427e-01 2.091573e-01 0.000000e+00
 0.000000e+00 0.000000e+00 0.000000e+00 9.325069e-01 6.749316e-02
 0.000000e+00 0.000000e+00 0.000000e+00 0.000000e+00 0.000000e+00
<ENDHMM>
~h "o"
<BEGINHMM>
<NUMSTATES> 5
<STATE> 2
<MEAN> 39
 2.407526e+00 -7.383085e-01 -5.308536e+00 -2.309839e+00 -7.040142e+00 -6.968186e+00 -4.662997e+00 -6.353404e+00 -6.961855e+00 4.813791e+00 1.219994e+01 -1.216927e+00 7.015482e+01 3.282025e-01 3.501872e-01 2.004673e-01 -5.926363e-01 -2.226578e-01 1.146076e+00 1.701690e+00 -2.310396e-01 -1.438518e+00 -8.453289e-01 -7.535472e-01 8.538764e-01 -3.187186e-01 -1.963091e-01 -6.922129e-02 4.419122e-01 5.181955e-01 -1.595977e-01 -1.939329e-01 -3.113895e-01 3.428596e-01 6.614285e-01 -3.101890e-01 -7.053038e-01 -5.894821e-02 -1.351354e-01
<VARIANCE> 39
 6.465521e+00 8.455105e+00 7.786312e+00 3.930440e+01 2.105375e+01 4.810867e+01 2.571519e+01 4.526434e+01 7.275517e+01 3.769489e+01 2.149870e+01 3.123972e+01 1.469014e+01 2.603269e-01 4.771734e-01 1.569225e+00 1.379953e+00 1.218909e+00 1.334753e+00 1.361332e+00 2.231487e+00 2.635648e+00 1.733570e+00 1.677544e+00 1.260976e+00 1.967690e-01 7.292645e-02 7.530843e-02 2.110257e-01 1.562341e-01 3.581366e-01 2.475744e-01 2.576301e-01 3.826562e-01 3.845416e-01 4.607378e-01 3.391719e-01 3.451713e-01 3.112928e-02
<GCONST> 9.272183e+01
<STATE> 3
<MEAN> 39
 2.641374e+00 -4.008179e-01 -3.006378e+00 2.294147e+00 -1.291864e+01 -1.657767e+00 -1.419270e+00 -6.533220e+00 -4.780149e+00 -5.537770e-01 2.599008e+00 2.498128e+00 7.019680e+01 2.113228e-02 3.141963e-01 3.591455e-01 1.893127e-01 2.978329e-01 2.437447e-01 4.073389e-01 1.675948e-01 5.889131e-02 -3.972553e-01 -8.436731e-01 -1.273434e-02 -4.461771e-01 -4.924410e-02 1.102014e-02 -6.767018e-04 7.583304e-02 1.857570e-01 -4.851387e-02 -7.950578e-02 4.467014e-02 5.063037e-02 1.257819e-01 1.165222e-01 -8.550702e-02 -6.507420e-02
<VARIANCE> 39
 4.080830e+00 1.113775e+01 9.956112e+00 3.164142e+01 3.981413e+01 5.514782e+01 2.317977e+01 3.221586e+01 5.973402e+01 6.118666e+01 4.258638e+01 1.902373e+01 1.756271e+01 2.000738e-01 3.227274e-01 5.729596e-01 8.442908e-01 1.355383e+00 8.676203e-01 8.494842e-01 1.060098e+00 1.077018e+00 1.126784e+00 9.756412e-01 8.349501e-01 2.158488e-01 2.273044e-02 4.687340e-02 1.073297e-01 1.093718e-01 1.429984e-01 1.413382e-01 1.638654e-01 1.391009e-01 2.199758e-01 1.973729e-01 1.926466e-01 1.446829e-01 1.411838e-02
<GCONST> 7.842050e+01
<STATE> 4
<MEAN> 39
 -7.948599e-01 3.006130e+00 -1.161673e+00 8.515576e-01 -4.522797e+00 1.026791e+00 3.543768e+00 -5.021245e-01 -3.036950e+00 -2.168240e-01 2.281113e+00 1.455733e+00 5.849910e+01 -4.785022e-01 -1.106174e-02 1.004596e-01 -6.747695e-02 3.695260e-01 -1.019742e-02 1.445775e-02 2.116231e-01 3.517742e-01 1.486908e-02 1.037088e-01 -6.678999e-02 -7.082542e-01 1.572136e-04 -3.269176e-02 -4.725983e-02 -3.736429e-02 -5.241581e-02 -5.122988e-02 -8.974779e-02 -2.944082e-02 1.038728e-02 1.371294e-02 2.307587e-02 3.993175e-03 4.656689e-02
<VARIANCE> 39
 1.018001e+01 7.652808e+00 1.100952e+01 1.739951e+01 2.356542e+01 3.344065e+01 2.572649e+01 2.303226e+01 3.287997e+01 3.278049e+01 2.515647e+01 1.897330e+01 2.639750e+01 2.097003e-01 3.626082e-01 7.740885e-01 9.951813e-01 1.574734e+00 1.939865e+00 2.041699e+00 1.921665e+00 2.121727e+00 2.433675e+00 1.986677e+00 1.355942e+00 1.306983e-01 3.577218e-02 7.010213e-02 1.304277e-01 1.629654e-01 2.850441e-01 3.681340e-01 3.648833e-01 3.764020e-01 3.906964e-01 4.644004e-01 3.951913e-01 2.557413e-01 1.063192e-02
<GCONST> 8.838808e+01
<TRANSP> 5
 0.000000e+00 1.000000e+00 0.000000e+00 0.000000e+00 0.000000e+00
 0.000000e+00 6.667677e-01 3.332323e-01 0.000000e+00 0.000000e+00
 0.000000e+00 0.000000e+00 8.612889e-01 1.387111e-01 0.000000e+00
 0.000000e+00 0.000000e+00 0.000000e+00 9.065347e-01 9.346531e-02
 0.000000e+00 0.000000e+00 0.000000e+00 0.000000e+00 0.000000e+00
<ENDHMM>
~h "p"
<BEGINHMM>
<NUMSTATES> 5
<STATE> 2
<MEAN> 39
 -7.480806e+00 -5.921997e-02 -2.464472e+00 1.557309e+00 8.408251e-01 -4.077329e+00 -7.985691e-01 1.536558e+00 5.979307e-01 9.010442e-01 1.516269e+00 -2.159875e+00 5.545893e+01 1.490710e+00 -9.717007e-02 -6.586433e-01 -1.410600e+00 -1.272263e+00 -1.098708e+00 -6.262369e-01 7.505506e-02 2.250801e-03 1.875884e-02 1.741010e+00 -1.141656e+00 1.611199e+00 4.952309e-01 -2.784157e-01 -5.320510e-01 -7.537191e-01 -5.027586e-03 -2.712514e-01 1.660740e-01 -9.133112e-02 -5.845956e-02 2.974831e-01 4.513902e-01 -5.680418e-01 8.119653e-01
<VARIANCE> 39
 2.156492e+01 1.122123e+01 2.416434e+01 2.461297e+01 1.482872e+01 7.230196e+01 3.823778e+01 3.258463e+01 2.614129e+01 2.822100e+01 4.490450e+01 2.015359e+01 6.418984e+01 3.820588e+00 1.708060e+00 4.505510e+00 4.746757e+00 3.061804e+00 4.645819e+00 3.292145e+00 4.024133e+00 3.015302e+00 3.939104e+00 4.969751e+00 4.557675e+00 3.705566e+00 5.145441e-01 2.787199e-01 4.478922e-01 4.506581e-01 4.659993e-01 8.190334e-01 7.641981e-01 5.982867e-01 5.019467e-01 6.146097e-01 6.989174e-01 5.938444e-01 3.627772e-01
<GCONST> 1.239572e+02
<STATE> 3
<MEAN> 39
 1.433269e+00 -1.643671e+00 -9.268337e+00 -7.991842e+00 -2.376122e+00 -1.058506e+01 -2.090917e+00 8.492116e-01 6.980562e-01 5.457852e+00 9.165025e+00 -9.300222e+00 6.583913e+01 1.820428e+00 -1.825098e+00 -1.387634e+00 -2.322973e+00 1.922755e-02 -1.530519e+00 1.591471e+00 1.550618e-01 -6.819709e-02 7.022394e-01 1.963663e+00 -3.231223e+00 3.112163e+00 -9.065647e-01 -2.685747e-01 3.030770e-01 4.092422e-01 7.962533e-01 5.039921e-01 5.643991e-01 9.385362e-02 -8.091473e-03 -2.426016e-01 -7.741267e-01 1.623402e-01 -2.535322e-01
<VARIANCE> 39
 1.744728e+01 1.989534e+01 4.025998e+01 3.995058e+01 1.973952e+01 8.926985e+01 7.239408e+01 7.801794e+01 5.310424e+01 4.614588e+01 6.609003e+01 4.997609e+01 3.541854e+01 3.944671e+00 1.712753e+00 4.211705e+00 4.553347e+00 3.289999e+00 7.514296e+00 5.481236e+00 3.801419e+00 3.130576e+00 5.447865e+00 4.529845e+00 5.195523e+00 4.527244e+00 2.971846e-01 4.258668e-01 6.990451e-01 5.523631e-01 4.329836e-01 8.016841e-01 8.048323e-01 7.233322e-01 5.970513e-01 8.993621e-01 8.409269e-01 8.483718e-01 4.138609e-01
<GCONST> 1.326513e+02
<STATE> 4
<MEAN> 39
 1.512873e+00 -4.211179e+00 -7.466984e+00 -5.587649e+00 -3.637660e-02 -1.292690e+01 -2.167861e+00 1.629688e+00 3.974881e-01 5.776611e+00 1.217665e+01 -1.443071e+01 7.048343e+01 -2.097251e-01 -4.483969e-02 2.758913e-01 8.312881e-03 4.374826e-01 9.803428e-01 9.447843e-01 -3.162124e-01 -2.438265e-01 -3.895940e-02 -5.339313e-01 6.754206e-02 -1.761562e-01 -4.193681e-01 3.804680e-01 1.173607e-01 2.255785e-01 1.163797e-01 3.081751e-01 -2.304304e-01 -1.344685e-01 8.981773e-02 -1.486507e-02 -4.464481e-01 6.183474e-01 -4.637688e-01
<VARIANCE> 39
 1.007935e+01 1.230352e+01 2.323341e+01 3.617989e+01 1.952916e+01 6.422198e+01 6.199865e+01 4.807698e+01 4.600826e+01 4.819750e+01 5.933236e+01 4.184068e+01 3.072407e+01 1.033751e+00 1.723486e+00 1.024351e+00 1.320697e+00 1.445529e+00 2.026340e+00 2.805281e+00 2.459736e+00 2.415246e+00 1.936488e+00 2.567579e+00 3.993787e+00 2.559837e+00 2.166871e-01 2.926777e-01 2.820358e-01 3.085976e-01 2.665068e-01 5.991674e-01 4.783961e-01 4.257558e-01 5.189689e-01 5.903754e-01 6.788515e-01 6.982987e-01 3.698551e-01
<GCONST> 1.144592e+02
<TRANSP> 5
 0.000000e+00 1.000000e+00 0.000000e+00 0.000000e+00 0.000000e+00
 0.000000e+00 5.191919e-01 4.808081e-01 0.000000e+00 0.000000e+00
 0.000000e+00 0.000000e+00 4.525124e-01 5.474876e-01 0.000000e+00
 0.000000e+00 0.000000e+00 0.000000e+00 6.439656e-01 3.560344e-01
 0.000000e+00 0.000000e+00 0.000000e+00 0.000000e+00 0.000000e+00
<ENDHMM>
~h "r"
<BEGINHMM>
<NUMSTATES> 5
<STATE> 2
<MEAN> 39
 -3.407097e+00 -1.815560e+00 9.702635e-01 2.900149e+00 -5.295251e+00 -1.246609e+01 -3.780345e+00 5.113542e+00 1.734827e+00 2.052319e+00 1.405320e+00 -4.632627e+00 6.646167e+01 -5.585843e-02 1.338470e-01 4.657543e-01 3.679277e-01 -4.272152e-01 1.637584e-01 -2.363069e-01 3.110534e-02 -2.778135e-01 -9.984637e-02 -2.159888e-01 8.954241e-01 -5.249953e-01 -5.577361e-02 1.389401e-01 -6.731611e-02 -5.542527e-02 2.679629e-01 3.613126e-01 2.528117e-01 -2.570992e-01 -8.550256e-02 -1.201821e-01 -1.790882e-02 -1.163279e-01 -1.389398e-01
<VARIANCE> 39
 1.889911e+01 2.532475e+01 6.701153e+01 2.552066e+01 6.189717e+01 8.107467e+01 2.465131e+01 4.753142e+01 7.152442e+01 3.817258e+01 3.328104e+01 4.549082e+01 1.194203e+02 5.046641e-01 6.836673e-01 1.193811e+00 1.954411e+00 2.223396e+00 2.213064e+00 2.440581e+00 2.559509e+00 2.098412e+00 2.067246e+00 1.376545e+00 3.620420e+00 5.196223e-01 5.860204e-02 1.529295e-01 1.645118e-01 2.423525e-01 3.389546e-01 3.666183e-01 2.823857e-01 5.219947e-01 3.960285e-01 2.891534e-01 4.004078e-01 5.361642e-01 5.702141e-02
<GCONST> 1.080175e+02
<STATE> 3
<MEAN> 39
 -5.185379e+00 -9.490977e-01 2.773267e+00 4.258149e+00 -1.319259e+00 -9.752599e+00 -3.342517e+00 3.813527e+00 -3.430387e-01 2.576428e-01 -5.620445e-01 -2.320311e+00 6.269685e+01 -2.614008e-01 4.103977e-01 -1.515661e-02 -1.385107e-01 4.009881e-01 7.822658e-01 4.791352e-01 -1.283631e-01 -2.796903e-01 -1.512924e-01 -2.424204e-01 1.294515e-01 -5.500877e-01 -1.914248e-02 -2.123862e-02 -7.053889e-02 -5.066456e-02 5.129246e-02 1.131501e-01 1.587628e-01 2.385086e-02 5.393800e-02 5.661364e-02 7.181181e-02 -1.370538e-01 1.459462e-02
<VARIANCE> 39
 2.031723e+01 2.575506e+01 6.448232e+01 3.507887e+01 7.515546e+01 5.948917e+01 3.581305e+01 3.212674e+01 5.397882e+01 3.464009e+01 3.081312e+01 3.440241e+01 7.507890e+01 5.917141e-01 9.790853e-01 9.160097e-01 1.674447e+00 1.937944e+00 2.272933e+00 1.907926e+00 1.859891e+00 2.036780e+00 1.665261e+00 1.724856e+00 2.280842e+00 4.979867e-01 9.388820e-02 1.826720e-01 1.639100e-01 4.129513e-01 4.500328e-01 4.085214e-01 3.867887e-01 3.804225e-01 4.169219e-01 3.393411e-01 3.500287e-01 5.820575e-01 4.726120e-02
<GCONST> 1.074907e+02
<STATE> 4
<MEAN> 39
 -7.105172e+00 1.048181e+00 1.626641e+00 2.673034e+00 -1.043468e+00 -4.620667e+00 -4.507070e-01 2.090539e+00 -4.220403e-01 4.716298e-01 1.649056e+00 -1.155369e+00 5.713752e+01 -2.233676e-01 8.067176e-02 -1.681680e-01 -1.657362e-01 -5.320426e-02 4.738224e-01 2.243665e-01 -1.625488e-01 -2.346556e-02 1.315486e-02 1.726182e-01 4.856964e-02 -3.068359e-01 -3.318210e-02 -6.835749e-03 1.802980e-02 -5.627597e-02 2.813120e-03 -1.593664e-01 -8.943214e-02 2.754595e-02 1.167165e-02 5.238157e-02 5.675081e-02 -1.082762e-02 8.540747e-02
<VARIANCE> 39
 1.264923e+01 1.456739e+01 4.681125e+01 2.376197e+01 5.000339e+01 4.481762e+01 3.479360e+01 2.297382e+01 4.774215e+01 2.577822e+01 2.551312e+01 2.026894e+01 5.519264e+01 2.651572e-01 8.078445e-01 8.092604e-01 1.200398e+00 2.101439e+00 1.896814e+00 1.865001e+00 1.885241e+00 1.975153e+00 1.460409e+00 1.914289e+00 1.905064e+00 3.282408e-01 7.901978e-02 1.323403e-01 1.401914e-01 3.005518e-01 3.912820e-01 3.796577e-01 3.795762e-01 4.248281e-01 4.062749e-01 3.228855e-01 3.724352e-01 3.242814e-01 3.564559e-02
<GCONST> 9.905223e+01
<TRANSP> 5
 0.000000e+00 1.000000e+00 0.000000e+00 0.000000e+00 0.000000e+00
 0.000000e+00 4.069493e-01 5.930506e-01 0.000000e+00 0.000000e+00
 0.000000e+00 0.000000e+00 4.932621e-01 5.067379e-01 0.000000e+00
 0.000000e+00 0.000000e+00 0.000000e+00 5.835890e-01 4.164110e-01
 0.000000e+00 0.000000e+00 0.000000e+00 0.000000e+00 0.000000e+00
<ENDHMM>
~h "s"
<BEGINHMM>
<NUMSTATES> 5
<STATE> 2
<MEAN> 39
 -1.053502e+01 9.720498e-01 -4.817471e+00 -2.362192e+00 2.903528e+00 -9.703818e+00 5.038358e+00 8.084857e+00 3.126192e+00 3.434134e+00 -1.312200e+00 -3.078148e+00 6.893749e+01 -3.625335e+00 1.571724e+00 -1.183669e-01 -7.285641e-01 -2.616850e-01 8.082587e-01 -9.431281e-01 8.951178e-01 2.626609e-01 -9.543830e-01 7.811829e-01 4.163699e-01 6.617950e-01 -1.032099e-01 1.484351e-01 -1.639230e-01 -1.052673e-01 -6.319378e-03 -3.828101e-01 6.575423e-03 -1.464998e-01 5.879151e-03 2.436581e-02 -1.274795e-01 -2.911963e-01 3.776374e-02
<VARIANCE> 39
 4.751470e+01 1.779781e+01 6.004502e+01 3.360896e+01 6.712766e+01 4.818000e+01 7.917953e+01 6.074288e+01 4.338422e+01 6.335448e+01 3.707870e+01 3.510809e+01 1.929852e+01 1.506569e+00 1.309141e+00 2.308626e+00 2.038269e+00 1.940803e+00 4.167831e+00 3.539324e+00 3.885695e+00 2.825738e+00 3.878705e+00 2.604835e+00 2.844456e+00 9.367262e-01 7.479966e-01 2.134480e-01 3.653427e-01 3.392007e-01 4.142756e-01 5.241718e-01 6.714473e-01 7.575050e-01 6.051875e-01 7.410451e-01 5.109909e-01 5.486154e-01 2.983604e-01
<GCONST> 1.224997e+02
<STATE> 3
<MEAN> 39
 -2.266812e+01 7.071771e+00 -2.755107e+00 -4.290228e+00 1.101973e+00 -1.235980e+01 1.394709e+00 1.028258e+01 2.452008e+00 2.032981e+00 1.142417e+00 -1.901581e+00 6.936172e+01 -6.118119e-01 1.238716e-01 -1.924926e-01 -4.711314e-02 3.821486e-01 -1.616292e-01 3.091530e-01 -8.616393e-02 -1.272950e-01 2.582907e-01 -2.038832e-01 -1.290895e-03 -3.908719e-01 5.628221e-01 -2.822697e-01 1.162689e-01 1.828284e-01 -3.281740e-02 -5.228116e-02 2.035416e-02 -1.341913e-01 -1.026587e-01 4.417098e-02 -5.296174e-02 2.157095e-02 -1.523090e-01
<VARIANCE> 39
 1.292379e+01 2.014339e+01 7.308912e+01 6.180773e+01 5.029837e+01 4.260097e+01 4.199895e+01 4.618916e+01 4.864388e+01 3.454805e+01 3.506715e+01 3.376952e+01 1.592797e+01 1.251833e+00 1.613969e+00 9.879131e-01 1.289638e+00 1.695641e+00 1.950331e+00 2.308508e+00 2.362801e+00 2.427869e+00 2.124926e+00 1.711125e+00 1.371331e+00 2.199737e-01 2.523672e-01 2.098245e-01 2.505649e-01 3.035589e-01 3.765270e-01 3.867699e-01 5.218918e-01 4.791309e-01 4.212815e-01 4.643444e-01 3.652998e-01 3.190421e-01 6.009252e-02
<GCONST> 1.075641e+02
<STATE> 4
<MEAN> 39
 -1.763070e+01 4.519604e+00 -7.041041e+00 -2.940589e+00 5.141344e+00 -8.868217e+00 5.295346e+00 4.428582e+00 1.344803e+00 4.507573e+00 -1.538102e+00 -2.283786e+00 6.269252e+01 1.188639e+00 -1.678652e-01 1.264299e-01 3.101046e-01 -3.068993e-01 6.565634e-02 -4.773389e-01 -9.015797e-01 -4.642495e-01 -4.626877e-03 1.770241e-01 8.194172e-02 -7.602124e-01 1.837820e-01 -3.105646e-02 5.668414e-02 6.289747e-03 -1.545981e-01 -1.861486e-01 -2.120166e-01 -7.907333e-03 -7.487264e-02 -8.009364e-02 1.495397e-01 3.436449e-03 2.561105e-01
<VARIANCE> 39
 1.592810e+01 2.055251e+01 7.845929e+01 4.406890e+01 3.757269e+01 3.148321e+01 4.494278e+01 4.511210e+01 3.417457e+01 2.884835e+01 2.259377e+01 2.169101e+01 2.386346e+01 2.359427e+00 7.160925e-01 1.942921e+00 2.581381e+00 2.419389e+00 3.361567e+00 2.591573e+00 2.405667e+00 2.460864e+00 2.328082e+00 1.573161e+00 1.780301e+00 7.173636e-01 3.303621e-01 1.524563e-01 2.868063e-01 4.052697e-01 4.261226e-01 4.921869e-01 5.512365e-01 5.997943e-01 4.385580e-01 4.503137e-01 4.205008e-01 3.488075e-01 1.658321e-01
<GCONST> 1.119259e+02
<TRANSP> 5
 0.000000e+00 1.000000e+00 0.000000e+00 0.000000e+00 0.000000e+00
 0.000000e+00 7.058272e-01 2.941728e-01 0.000000e+00 0.000000e+00
 0.000000e+00 0.000000e+00 8.542225e-01 1.457774e-01 0.000000e+00
 0.000000e+00 0.000000e+00 0.000000e+00 8.393665e-01 1.606335e-01
 0.000000e+00 0.000000e+00 0.000000e+00 0.000000e+00 0.000000e+00
<ENDHMM>
~h "t"
<BEGINHMM>
<NUMSTATES> 5
<STATE> 2
<MEAN> 39
 -1.279979e+01 -8.670317e-01 -5.706205e+00 1.704486e-01 1.818075e-01 -5.759179e+00 3.560940e-02 1.614433e+00 1.354360e+00 5.143295e-01 -1.934981e+00 2.139270e+00 5.870361e+01 1.226940e+00 -1.083218e+00 1.446377e+00 1.129390e+00 -2.468423e+00 -3.392059e+00 -3.767609e+00 3.833732e-01 4.877559e-01 -9.011530e-01 -6.469015e-01 6.308699e-01 2.959130e+00 8.147325e-01 4.112800e-01 -5.985901e-02 -2.229965e-02 1.032958e-01 -5.619174e-01 -3.642016e-01 -4.545757e-01 3.809224e-02 4.294276e-01 3.011660e-01 -7.740061e-01 5.358736e-01
<VARIANCE> 39
 1.264104e+01 4.393451e+01 5.564717e+01 7.970104e+01 8.522717e+01 6.179823e+01 6.033990e+01 4.036147e+01 3.448896e+01 5.755869e+01 2.755132e+01 2.946956e+01 4.969621e+01 2.417930e+00 2.414313e+00 1.985827e+00 5.410172e+00 4.520725e+00 4.362876e+00 4.465528e+00 6.399195e+00 3.604573e+00 3.690155e+00 3.315801e+00 4.866345e+00 1.406393e+00 1.863010e-01 6.784470e-01 4.593276e-01 7.124183e-01 1.186333e+00 9.711919e-01 1.333105e+00 1.012404e+00 7.119764e-01 7.325484e-01 8.074391e-01 6.587230e-01 4.007270e-01
<GCONST> 1.322023e+02
<STATE> 3
<MEAN> 39
 -4.453249e+00 1.535889e+00 -1.962538e+00 4.393486e+00 -4.788002e+00 -1.687889e+01 -1.194787e+01 -1.419855e+00 2.973296e+00 5.043260e-01 -1.993031e+00 -1.450166e+00 6.710828e+01 3.278496e+00 8.298551e-01 -3.419379e-01 -4.254834e-01 6.231579e-01 -1.805894e+00 -1.299487e+00 -2.082379e+00 -7.531933e-01 1.421302e+00 1.703216e+00 -2.686067e+00 2.135543e+00 -1.976613e-01 -2.453568e-03 -6.617486e-01 -7.833769e-01 9.883667e-01 1.528578e+00 1.852201e+00 -4.665440e-01 -7.240639e-01 2.590543e-01 6.496549e-01 -2.325133e-01 -7.569413e-01
<VARIANCE> 39
 1.667058e+01 1.488935e+01 6.055474e+01 1.070026e+02 6.166053e+01 5.565379e+01 6.169184e+01 8.040736e+01 4.050902e+01 9.353011e+01 3.849636e+01 4.852659e+01 2.177146e+01 7.911999e-01 5.686933e+00 1.769337e+00 3.253935e+00 4.267704e+00 4.334492e+00 5.714725e+00 9.214601e+00 4.730095e+00 3.957435e+00 4.824083e+00 3.199236e+00 1.409959e+00 3.455864e-01 3.722400e-01 3.704212e-01 7.326434e-01 7.807872e-01 5.688149e-01 4.545319e-01 8.132997e-01 4.824570e-01 6.289651e-01 5.304090e-01 8.790951e-01 1.732997e-01
<GCONST> 1.287466e+02
<STATE> 4
<MEAN> 39
 -7.136435e-01 -5.001654e-01 -5.967355e+00 -1.185503e+00 -1.676144e-01 -1.665114e+01 -6.857238e+00 -2.217219e+00 5.147024e-01 5.915104e+00 2.328685e+00 -7.427812e+00 7.034715e+01 1.269137e+00 -5.781868e-01 -9.823868e-01 -1.252118e+00 1.163258e+00 1.534025e+00 2.434394e+00 -1.628181e+00 -1.987869e+00 4.481543e-01 2.006795e+00 -1.418449e+00 7.993845e-01 -8.005034e-01 3.642928e-02 -1.263284e-01 -1.103821e-01 5.592970e-02 1.063766e+00 9.116324e-01 -1.210061e-02 -4.291577e-01 -6.417840e-01 -2.174126e-01 9.039871e-01 -6.377215e-01
<VARIANCE> 39
 7.942345e+00 1.420755e+01 3.545642e+01 7.445877e+01 2.883431e+01 5.203999e+01 7.049957e+01 1.265104e+02 4.965119e+01 7.526677e+01 4.946912e+01 6.027804e+01 2.578285e+01 6.073191e-01 1.759406e+00 1.176548e+00 1.561157e+00 1.728985e+00 1.810511e+00 1.072572e+00 4.942825e+00 2.458408e+00 1.843987e+00 1.493482e+00 3.894701e+00 4.475963e-01 6.940077e-02 2.992072e-01 2.004411e-01 2.361655e-01 3.471434e-01 3.177075e-01 4.541846e-01 7.528430e-01 4.077401e-01 4.180461e-01 7.233751e-01 3.928303e-01 5.860909e-02
<GCONST> 1.100520e+02
<TRANSP> 5
 0.000000e+00 1.000000e+00 0.000000e+00 0.000000e+00 0.000000e+00
 0.000000e+00 6.656512e-01 3.343488e-01 0.000000e+00 0.000000e+00
 0.000000e+00 0.000000e+00 5.230876e-01 4.769125e-01 0.000000e+00
 0.000000e+00 0.000000e+00 0.000000e+00 3.407496e-01 6.592504e-01
 0.000000e+00 0.000000e+00 0.000000e+00 0.000000e+00 0.000000e+00
<ENDHMM>
~h "u"
<BEGINHMM>
<NUMSTATES> 5
<STATE> 2
<MEAN> 39
 -1.649105e+00 -3.081800e+00 3.715025e+00 8.005350e+00 -9.775910e+00 -2.499085e+01 -6.713806e+00 3.186163e+00 1.257410e+00 -6.184988e+00 9.074667e+00 1.717976e+00 7.293633e+01 -9.433986e-02 8.349425e-01 -7.712442e-01 1.732153e-01 1.168976e+00 -6.351889e-01 5.451556e-01 -1.210053e+00 4.932230e-02 3.055313e-01 -3.002692e-01 1.376981e-01 -9.644104e-02 2.038478e-01 4.683122e-02 9.128281e-02 6.357522e-02 1.162499e-01 5.255598e-01 -3.118342e-01 -3.290329e-01 -2.564489e-01 4.128189e-01 -3.173673e-01 -1.464665e-01 -3.494564e-01
<VARIANCE> 39
 5.752873e+00 5.940948e+00 9.376927e+00 3.250582e+01 2.651610e+01 4.245063e+01 3.453593e+01 8.910168e+01 4.123785e+01 5.051608e+01 1.661518e+01 4.115231e+01 1.128178e+01 3.896155e-01 2.978180e-01 5.351729e-01 9.379700e-01 1.130111e+00 1.835081e+00 2.389850e+00 1.603033e+00 1.445030e+00 2.113334e+00 1.251085e+00 1.223451e+00 4.166112e-01 3.939311e-02 6.138038e-02 9.120143e-02 2.254808e-01 2.087729e-01 2.578863e-01 3.425888e-01 2.635716e-01 3.132110e-01 3.256215e-01 2.519722e-01 2.615024e-01 2.875968e-02
<GCONST> 8.868787e+01
<STATE> 3
<MEAN> 39
 6.180561e-01 2.691073e+00 -1.059093e+00 6.723337e+00 -1.876096e+00 -2.437321e+01 -1.812798e+00 -1.666389e+00 3.562004e-01 6.341050e+00 1.164657e+00 -1.758284e-01 7.120506e+01 1.069819e-01 1.984646e-01 -1.475182e-01 -2.691745e-01 3.098474e-01 7.791891e-01 -4.526008e-02 -4.867662e-01 -2.930143e-01 3.981991e-01 -1.555066e-01 -6.071812e-02 -2.959658e-01 -1.928760e-02 -7.702531e-02 8.264893e-02 -5.662084e-02 -1.291904e-01 1.263691e-01 -4.242709e-03 1.164284e-01 -3.857059e-02 -1.753696e-01 7.773320e-02 7.398251e-02 -4.971467e-03
<VARIANCE> 39
 7.295500e+00 1.608013e+01 2.100304e+01 2.683225e+01 3.968938e+01 3.617456e+01 4.362374e+01 5.909598e+01 6.882553e+01 5.379831e+01 3.023434e+01 4.140949e+01 1.734466e+01 4.533418e-01 1.166182e+00 2.114336e+00 2.075016e+00 2.191701e+00 4.270841e+00 2.679362e+00 4.026775e+00 3.505878e+00 4.109565e+00 2.211915e+00 2.141823e+00 8.018793e-01 5.589104e-02 1.497836e-01 3.738129e-01 3.575499e-01 3.014569e-01 6.408618e-01 4.831143e-01 5.216234e-01 4.774732e-01 7.063851e-01 4.363226e-01 3.686567e-01 7.681142e-02
<GCONST> 1.102637e+02
<STATE> 4
<MEAN> 39
 1.629365e+00 -1.483633e-01 3.664955e-01 5.490098e+00 -3.081104e+00 -1.455203e+01 -8.428506e+00 -1.110006e+01 -3.495954e+00 -2.259699e+00 5.369545e+00 2.021994e+00 6.762496e+01 -1.893998e-02 1.311775e-02 -1.005295e-01 -4.647604e-02 -5.407521e-02 2.157528e-01 1.436519e-01 1.847115e-01 1.531376e-01 -5.756095e-02 -2.317186e-01 3.217851e-03 -1.149032e-02 -2.267438e-02 -6.651873e-03 3.092216e-02 4.167355e-02 -4.907468e-02 -4.022931e-02 7.942632e-03 9.506654e-02 6.133776e-02 -1.409835e-02 -2.941726e-02 2.214276e-03 1.068706e-02
<VARIANCE> 39
 8.554159e+00 1.573171e+01 2.507082e+01 2.919844e+01 2.205555e+01 3.080121e+01 3.543153e+01 4.216993e+01 7.210731e+01 3.282628e+01 3.543930e+01 3.018040e+01 1.010800e+01 4.642598e-01 8.848819e-01 2.254359e+00 2.046436e+00 1.803567e+00 2.254466e+00 2.893574e+00 2.719301e+00 3.117163e+00 2.466490e+00 2.379529e+00 2.569018e+00 6.009465e-01 6.110124e-02 1.288422e-01 3.286375e-01 2.983606e-01 3.334190e-01 3.373450e-01 5.493593e-01 5.534900e-01 4.131090e-01 5.288341e-01 4.627689e-01 4.760865e-01 8.362065e-02
<GCONST> 1.054516e+02
<TRANSP> 5
 0.000000e+00 1.000000e+00 0.000000e+00 0.000000e+00 0.000000e+00
 0.000000e+00 8.262471e-01 1.737529e-01 0.000000e+00 0.000000e+00
 0.000000e+00 0.000000e+00 8.868546e-01 1.131454e-01 0.000000e+00
 0.000000e+00 0.000000e+00 0.000000e+00 9.456822e-01 5.431785e-02
 0.000000e+00 0.000000e+00 0.000000e+00 0.000000e+00 0.000000e+00
<ENDHMM>
~h "w"
<BEGINHMM>
<NUMSTATES> 5
<STATE> 2
<MEAN> 39
 1.402725e+00 9.964031e+00 3.300573e+00 3.092090e-01 -6.233027e+00 -5.518920e+00 -1.365088e+00 -4.362907e+00 -5.416958e+00 -1.957878e+00 1.379873e-01 -1.728913e+00 5.683315e+01 1.491657e+00 7.135535e-01 -6.739097e-02 -6.362802e-01 -1.067908e+00 -5.089429e-01 2.600488e-01 -5.898764e-01 -1.279874e+00 -2.815551e-01 5.878505e-01 -4.225251e-02 9.666935e-01 -2.486003e-01 -4.306872e-01 -3.703819e-01 -8.037012e-02 1.510216e-01 1.972386e-01 2.575604e-01 2.355327e-02 2.768113e-02 1.417306e-01 3.347786e-01 8.536572e-02 -1.553123e-02
<VARIANCE> 39
 1.253423e+01 1.018864e+01 8.427906e+00 1.734888e+01 2.562837e+01 2.384226e+01 2.400871e+01 2.625813e+01 3.648761e+01 2.345699e+01 1.157132e+01 1.270481e+01 1.851101e+01 1.925017e+00 1.776808e+00 1.493678e+00 1.635967e+00 2.830197e+00 3.636593e+00 1.930455e+00 2.130889e+00 2.357783e+00 1.569509e+00 1.595834e+00 1.594542e+00 6.700435e-01 1.848337e-01 2.241930e-01 2.215344e-01 2.918292e-01 4.047036e-01 6.585593e-01 3.664187e-01 4.594517e-01 3.550734e-01 2.615205e-01 3.331120e-01 2.795951e-01 1.022290e-01
<GCONST> 1.006883e+02
<STATE> 3
<MEAN> 39
 5.676575e+00 6.506752e+00 -2.353331e+00 -3.748532e+00 -8.298577e+00 -5.811892e+00 1.801761e+00 -9.912953e+00 -1.139115e+01 -1.447285e+00 1.083734e+01 -1.429484e-02 6.268662e+01 1.752555e-01 -1.815135e+00 -1.592416e+00 -6.822752e-01 3.222789e-01 -5.277089e-01 1.020417e-01 -9.987607e-01 1.025529e+00 9.571268e-01 3.238495e+00 -5.458790e-01 1.860761e+00 -3.779355e-01 -3.059208e-01 -2.912427e-03 3.007695e-01 3.019381e-01 -3.799328e-02 -2.738818e-01 3.289658e-01 8.928475e-01 1.653788e-01 -2.367679e-01 -5.739161e-01 1.194434e-01
<VARIANCE> 39
 6.182224e+00 1.547251e+01 1.406957e+01 2.158496e+01 1.873510e+01 5.879204e+01 2.905420e+01 7.078358e+01 8.346880e+01 3.241287e+01 5.511878e+01 2.115681e+01 2.031169e+01 8.219373e-01 1.007756e+00 1.098694e+00 1.295792e+00 1.301663e+00 3.041082e+00 3.092449e+00 3.683180e+00 6.623361e+00 2.643621e+00 2.588612e+00 3.493934e+00 5.474893e-01 1.075796e-01 1.901539e-01 1.884211e-01 3.133787e-01 2.807483e-01 5.455985e-01 4.377373e-01 6.923040e-01 6.504617e-01 4.388399e-01 1.073592e+00 3.852131e-01 1.056342e-01
<GCONST> 1.088255e+02
<STATE> 4
<MEAN> 39
 1.506636e+00 -3.275971e+00 -7.665539e+00 -2.846276e-01 -6.561843e+00 -1.024037e+01 -1.581766e+00 -4.440473e+00 4.277530e+00 3.157216e+00 1.281270e+01 -1.098279e+01 7.217306e+01 -6.896734e-01 -8.960493e-01 7.477593e-02 1.463090e+00 -1.787535e-01 -9.573956e-01 -7.337589e-01 2.005329e+00 1.541341e+00 -2.691101e-01 -1.582369e+00 -9.486492e-01 8.605233e-01 5.545382e-02 2.589416e-01 3.667533e-01 1.458032e-01 -1.969660e-01 -1.057615e-01 4.607254e-03 1.650812e-01 -4.861378e-01 -3.457470e-01 -2.797267e-01 5.864871e-01 -2.609277e-01
<VARIANCE> 39
 1.015977e+01 8.531067e+00 1.029125e+01 3.586801e+01 1.763511e+01 5.459729e+01 3.249228e+01 1.074733e+02 7.295104e+01 4.542737e+01 4.676217e+01 4.212497e+01 2.008267e+01 3.211111e-01 7.459309e-01 1.001086e+00 9.669799e-01 9.809805e-01 1.951741e+00 1.333137e+00 2.143594e+00 3.502585e+00 2.404678e+00 1.731247e+00 3.895916e+00 3.979892e-01 5.488899e-02 7.138694e-02 9.729555e-02 1.962481e-01 1.402905e-01 3.308598e-01 2.664968e-01 4.869696e-01 3.787338e-01 3.332121e-01 8.390145e-01 3.786483e-01 1.966819e-02
<GCONST> 9.736858e+01
<TRANSP> 5
 0.000000e+00 1.000000e+00 0.000000e+00 0.000000e+00 0.000000e+00
 0.000000e+00 8.459796e-01 1.540204e-01 0.000000e+00 0.000000e+00
 0.000000e+00 0.000000e+00 7.773471e-01 2.226528e-01 0.000000e+00
 0.000000e+00 0.000000e+00 0.000000e+00 8.615016e-01 1.384984e-01
 0.000000e+00 0.000000e+00 0.000000e+00 0.000000e+00 0.000000e+00
<ENDHMM>
~h "y"
<BEGINHMM>
<NUMSTATES> 5
<STATE> 2
<MEAN> 39
 -2.739351e+00 1.035241e+01 1.252707e+01 1.299802e+00 -6.827967e+00 -5.247752e+00 -9.768816e+00 2.796148e+00 -9.528275e+00 -2.724907e+00 2.090009e+00 -3.770474e+00 6.028784e+01 3.759410e-01 2.930048e-01 2.396887e+00 -6.113577e-01 -2.188026e+00 -1.332715e+00 -5.239793e-01 9.109889e-01 -1.793605e+00 -5.615784e-01 1.160775e+00 -4.194774e-01 1.518338e+00 -4.016138e-01 -5.869679e-01 -1.438693e-01 -3.015468e-02 -9.015769e-02 -4.155716e-02 5.322273e-01 1.735151e-01 1.131578e-01 9.969318e-02 1.552464e-01 2.169845e-01 -7.773407e-03
<VARIANCE> 39
 9.474240e+00 9.390662e+00 4.420224e+01 4.304610e+01 7.679735e+01 3.990121e+01 3.608282e+01 4.949221e+01 4.236169e+01 2.599181e+01 3.233110e+01 2.391261e+01 1.999343e+01 2.082370e+00 3.096104e+00 1.879534e+00 3.565618e+00 5.320024e+00 5.161436e+00 4.292819e+00 2.792066e+00 3.379522e+00 2.860664e+00 2.349652e+00 1.862564e+00 7.596466e-01 2.295415e-01 2.875644e-01 3.186738e-01 7.083699e-01 7.582318e-01 1.028663e+00 5.532824e-01 5.690797e-01 6.102852e-01 5.748493e-01 4.110146e-01 2.876585e-01 8.925786e-02
<GCONST> 1.177049e+02
<STATE> 3
<MEAN> 39
 -5.659847e+00 2.815957e+00 1.896213e+01 2.174209e+00 -2.100511e+01 -1.620784e+01 -4.983017e+00 9.862784e+00 -1.367330e+01 -3.782413e+00 1.009149e+01 -1.365821e+00 7.079325e+01 -5.689070e-02 -1.646772e+00 -1.187845e+00 -1.468399e-01 -5.511708e-01 -2.489136e+00 9.029385e-01 8.137083e-01 1.207993e+00 7.709810e-01 1.973214e-01 3.796544e-01 1.568570e+00 1.761442e-01 2.576027e-03 -6.944121e-01 -6.240804e-02 6.782811e-01 4.749600e-02 -2.302336e-02 2.756271e-02 5.738930e-01 1.458728e-01 -3.237912e-01 -1.609825e-01 -1.070085e-01
<VARIANCE> 39
 7.120124e+00 1.894967e+01 2.542855e+01 6.058235e+01 6.720023e+01 5.925322e+01 3.346812e+01 5.141100e+01 5.989955e+01 4.887578e+01 2.506146e+01 2.420995e+01 2.707841e+01 8.176866e-01 7.609260e-01 3.445457e+00 8.152689e-01 2.971309e+00 2.077240e+00 1.635578e+00 1.622539e+00 2.916136e+00 2.095473e+00 2.254029e+00 1.086382e+00 5.742648e-01 9.302896e-02 1.481380e-01 2.552317e-01 2.352872e-01 3.539062e-01 5.377302e-01 2.654299e-01 3.530813e-01 2.776335e-01 3.599662e-01 4.215142e-01 2.611901e-01 7.809038e-02
<GCONST> 1.046727e+02
<STATE> 4
<MEAN> 39
 -3.477849e+00 -5.007106e+00 5.492932e+00 -2.337857e+00 -1.194913e+01 -2.729620e+01 1.472694e+00 1.522768e+01 -1.529402e+00 2.940461e+00 3.733650e+00 -4.364728e+00 7.718481e+01 3.086293e-01 -3.573585e-01 -1.540606e+00 -3.627601e-01 1.786228e+00 -1.664131e-02 6.883676e-01 -1.592900e-01 1.149678e+00 5.758514e-01 -1.217909e+00 -8.636950e-01 2.012827e-01 -3.764262e-02 2.613149e-01 2.942814e-01 6.878959e-02 -3.524336e-02 4.134389e-01 -1.015530e-01 -2.940282e-01 -4.053689e-01 -6.587928e-02 9.457237e-02 9.539980e-03 -2.055884e-01
<VARIANCE> 39
 1.048948e+01 7.632802e+00 4.407263e+01 5.045744e+01 8.685416e+01 5.332108e+01 5.269885e+01 3.675001e+01 1.197616e+02 5.907309e+01 2.616722e+01 2.598608e+01 1.624547e+01 2.237065e-01 6.770427e-01 1.396599e+00 8.941301e-01 1.561386e+00 2.235369e+00 1.793541e+00 1.804152e+00 2.894282e+00 1.154917e+00 1.203555e+00 2.640242e+00 2.944609e-01 3.999729e-02 4.894118e-02 6.909634e-02 1.033910e-01 1.582631e-01 2.740176e-01 2.679701e-01 1.702432e-01 3.080669e-01 2.205001e-01 2.563505e-01 3.436549e-01 1.510630e-02
<GCONST> 9.313541e+01
<TRANSP> 5
 0.000000e+00 1.000000e+00 0.000000e+00 0.000000e+00 0.000000e+00
 0.000000e+00 8.519763e-01 1.480236e-01 0.000000e+00 0.000000e+00
 0.000000e+00 0.000000e+00 8.445879e-01 1.554121e-01 0.000000e+00
 0.000000e+00 0.000000e+00 0.000000e+00 8.572656e-01 1.427344e-01
 0.000000e+00 0.000000e+00 0.000000e+00 0.000000e+00 0.000000e+00
<ENDHMM>
~h "z"
<BEGINHMM>
<NUMSTATES> 5
<STATE> 2
<MEAN> 39
 -7.697250e+00 1.044750e+01 1.809200e+01 5.160439e+00 -1.263436e+01 -1.585678e+01 3.322430e+00 -1.873708e+00 -1.905177e+01 2.062315e+00 8.242262e-02 -3.484060e+00 6.699862e+01 -6.452166e-01 8.821374e-01 -6.206889e-01 -5.227990e-01 1.989677e+00 -1.304116e+00 4.415064e-01 5.614707e-01 2.085639e-02 8.564172e-02 -1.525237e-01 5.641615e-01 -1.173564e-01 -2.891890e-01 1.260919e-01 -3.460449e-02 -2.098881e-01 2.958184e-01 1.302465e-01 -5.410874e-02 4.159815e-02 1.589723e-01 -4.363008e-02 4.195195e-02 -2.278827e-02 3.415575e-02
<VARIANCE> 39
 9.305541e+00 1.188767e+01 1.544040e+01 3.562907e+01 4.005613e+01 3.557860e+01 4.206991e+01 4.767140e+01 2.917992e+01 4.385485e+01 4.425669e+01 2.826976e+01 1.503412e+01 6.094403e-01 5.364143e-01 7.681721e-01 1.365178e+00 2.032949e+00 2.109548e+00 1.903046e+00 2.032361e+00 1.723499e+00 1.421253e+00 2.135407e+00 1.439764e+00 7.541060e-02 6.961106e-02 7.339332e-02 1.134384e-01 2.290335e-01 2.726205e-01 3.929834e-01 2.884884e-01 3.401584e-01 2.942930e-01 2.552590e-01 3.161910e-01 2.734764e-01 1.458919e-02
<GCONST> 9.298164e+01
<STATE> 3
<MEAN> 39
 -1.761712e+01 1.540768e+01 1.050531e+01 2.861813e+00 2.704255e+00 -1.686288e+01 3.493030e+00 3.779030e+00 -1.278854e+01 8.344851e-02 1.409126e+00 -1.371960e+00 6.681924e+01 -8.414577e-01 -3.761208e-01 -9.277862e-01 -3.716508e-01 1.451573e+00 8.469362e-01 -4.739648e-02 5.054948e-01 1.262523e+00 2.590540e-01 -3.637628e-01 -2.674912e-01 -3.084741e-01 2.483374e-01 -2.991232e-01 5.679236e-02 8.957583e-02 -3.095154e-01 1.550812e-01 -5.012637e-02 -5.161121e-02 -1.020805e-03 6.231867e-02 -6.383052e-02 -9.584492e-02 -7.547721e-02
<VARIANCE> 39
 2.082685e+01 1.524301e+01 3.106913e+01 3.422675e+01 4.571217e+01 3.609520e+01 2.760793e+01 4.930660e+01 5.585258e+01 3.051859e+01 3.038399e+01 2.313693e+01 1.683523e+01 1.047751e+00 1.602983e+00 1.073641e+00 9.276066e-01 1.833138e+00 2.075767e+00 1.867864e+00 2.309533e+00 2.449070e+00 2.221321e+00 1.599638e+00 2.095574e+00 1.584453e-01 8.011752e-02 1.272970e-01 1.896940e-01 2.233596e-01 2.707326e-01 4.330126e-01 3.521408e-01 4.545731e-01 5.730131e-01 4.459969e-01 3.010958e-01 3.790521e-01 3.223327e-02
<GCONST> 1.015330e+02
<STATE> 4
<MEAN> 39
 -1.487987e+01 6.321773e+00 4.038651e+00 1.721906e+00 6.235456e+00 -8.238449e+00 3.966473e+00 2.633711e+00 -6.311513e+00 3.054410e+00 -1.109490e+00 -2.861621e+00 5.777063e+01 4.642992e-01 -4.996737e-01 -3.224803e-01 -1.731852e-02 -7.564142e-02 6.069491e-01 -4.824733e-02 -3.106134e-01 2.464944e-01 -9.264708e-02 3.150045e-02 1.890798e-01 -7.317085e-01 -2.153213e-03 8.088811e-02 1.019655e-02 1.715997e-02 -1.612957e-02 -2.468758e-03 -2.854677e-02 -3.339763e-02 -3.491992e-02 -6.489810e-02 4.305184e-02 6.346421e-02 3.167470e-02
<VARIANCE> 39
 1.090024e+01 1.424679e+01 2.463582e+01 2.598112e+01 2.010853e+01 3.095667e+01 2.657879e+01 4.094656e+01 3.761528e+01 2.639237e+01 1.955300e+01 2.138869e+01 3.233372e+01 3.216352e-01 6.018026e-01 9.156605e-01 1.396492e+00 1.493230e+00 1.669442e+00 1.888440e+00 2.096428e+00 2.093426e+00 1.892385e+00 1.608210e+00 1.407016e+00 2.072266e-01 5.855466e-02 1.029685e-01 1.881113e-01 2.463099e-01 2.642646e-01 3.189480e-01 3.597863e-01 4.158705e-01 4.038401e-01 3.399757e-01 3.049622e-01 2.933770e-01 2.846415e-02
<GCONST> 9.402042e+01
<TRANSP> 5
 0.000000e+00 1.000000e+00 0.000000e+00 0.000000e+00 0.000000e+00
 0.000000e+00 8.310649e-01 1.689351e-01 0.000000e+00 0.000000e+00
 0.000000e+00 0.000000e+00 8.860880e-01 1.139120e-01 0.000000e+00
 0.000000e+00 0.000000e+00 0.000000e+00 9.304236e-01 6.957642e-02
 0.000000e+00 0.000000e+00 0.000000e+00 0.000000e+00 0.000000e+00
<ENDHMM>
~h "aa"
<BEGINHMM>
<NUMSTATES> 5
<STATE> 2
<MEAN> 39
 -4.453200e-01 -4.485978e+00 -6.352035e+00 -4.884196e+00 4.460935e-02 -1.365999e+01 -5.322864e-01 4.906868e-01 4.554451e+00 5.100696e+00 3.366983e+00 -1.553005e+01 7.285701e+01 -3.198008e-01 -7.144610e-01 -1.636230e+00 -1.149960e+00 1.197825e+00 7.381424e-01 2.328944e+00 4.979751e-02 -9.619474e-02 -6.532736e-02 3.701710e-01 -1.714579e+00 1.252399e+00 -1.403065e-02 3.510895e-01 1.979860e-01 1.837290e-01 -1.029920e-01 3.403784e-01 -1.361910e-01 -2.400907e-01 -2.950358e-01 -2.023975e-01 -2.070589e-01 6.004298e-01 -4.028797e-01
<VARIANCE> 39
 1.079955e+01 1.420414e+01 5.381886e+01 5.598216e+01 3.242633e+01 5.356133e+01 1.307841e+02 6.826230e+01 7.467706e+01 5.412987e+01 3.522957e+01 6.236537e+01 2.401688e+01 8.670394e-01 1.163438e+00 3.285552e+00 1.399368e+00 1.306655e+00 2.985020e+00 3.234881e+00 3.502237e+00 3.666215e+00 2.601267e+00 2.096771e+00 3.214218e+00 1.300832e+00 1.334915e-01 2.118733e-01 5.966369e-01 2.917658e-01 2.429924e-01 4.030745e-01 1.018815e+00 4.933834e-01 4.928912e-01 4.329409e-01 3.400761e-01 4.561571e-01 1.562211e-01
<GCONST> 1.166152e+02
<STATE> 3
<MEAN> 39
 -1.630042e-01 -5.689802e+00 -1.066294e+01 -8.347040e+00 4.646396e+00 -8.919282e+00 6.988098e+00 -1.257614e+00 3.451541e-01 4.907335e+00 3.308173e+00 -1.662006e+01 7.429281e+01 9.863917e-02 3.474854e-01 -9.537711e-02 4.434251e-01 3.522452e-01 3.171581e-01 1.991155e-01 -7.597989e-02 -2.557011e-01 2.460862e-01 -5.622441e-01 3.938930e-01 -2.566926e-01 -1.134071e-02 1.388448e-01 1.267889e-01 2.068450e-01 -1.089997e-01 -1.430772e-01 -2.123490e-01 1.631906e-01 1.389054e-01 4.803369e-02 -1.154235e-01 2.246280e-01 -1.385340e-01
<VARIANCE> 39
 7.294536e+00 8.270791e+00 1.154195e+01 3.815854e+01 2.653763e+01 5.232874e+01 5.878374e+01 6.405360e+01 6.170654e+01 5.192040e+01 3.049143e+01 4.281417e+01 1.765339e+01 2.329158e-01 5.304362e-01 4.945298e-01 1.124866e+00 7.634888e-01 2.019526e+00 1.226621e+00 1.221174e+00 1.508437e+00 1.121676e+00 1.432961e+00 9.070500e-01 2.751217e-01 3.769936e-02 6.978695e-02 9.102024e-02 1.094467e-01 1.320358e-01 1.756884e-01 1.769585e-01 1.671362e-01 2.234865e-01 2.119582e-01 1.745195e-01 2.256660e-01 2.832585e-02
<GCONST> 8.542673e+01
<STATE> 4
<MEAN> 39
 -8.507670e-01 1.352365e-01 -7.795428e+00 -2.746046e+00 6.222587e+00 -1.488963e+00 4.741601e+00 1.341462e+00 1.307832e+00 6.555739e+00 1.321473e+00 -6.773467e+00 6.298291e+01 -3.277937e-01 2.334372e-01 5.294675e-01 4.538009e-01 -1.059018e-01 5.396242e-01 -2.967881e-01 3.571890e-01 4.531901e-01 -2.192688e-01 -1.613842e-01 8.181323e-01 -8.394223e-01 -7.679821e-02 -8.397619e-02 1.602042e-02 -6.252655e-02 -7.868176e-02 -2.853627e-02 -6.269350e-03 1.910142e-02 -1.514586e-02 -4.369021e-02 9.766889e-02 -5.628167e-03 2.469598e-02
<VARIANCE> 39
 6.787955e+00 1.131777e+01 1.641438e+01 2.309576e+01 2.293289e+01 6.004402e+01 3.093995e+01 3.470845e+01 4.286557e+01 3.004481e+01 3.110333e+01 3.596225e+01 4.417716e+01 2.583129e-01 6.671251e-01 7.361132e-01 1.168316e+00 1.582964e+00 1.835363e+00 1.856313e+00 2.275987e+00 2.119294e+00 1.855061e+00 1.688851e+00 2.050699e+00 1.258680e-01 6.635471e-02 9.421045e-02 1.400453e-01 2.171599e-01 2.607845e-01 3.406593e-01 3.193244e-01 4.033009e-01 3.846100e-01 3.484592e-01 3.396522e-01 3.157114e-01 1.865244e-02
<GCONST> 9.400630e+01
<TRANSP> 5
 0.000000e+00 1.000000e+00 0.000000e+00 0.000000e+00 0.000000e+00
 0.000000e+00 5.834093e-01 4.165907e-01 0.000000e+00 0.000000e+00
 0.000000e+00 0.000000e+00 8.708984e-01 1.291016e-01 0.000000e+00
 0.000000e+00 0.000000e+00 0.000000e+00 8.780405e-01 1.219595e-01
 0.000000e+00 0.000000e+00 0.000000e+00 0.000000e+00 0.000000e+00
<ENDHMM>
~h "ax"
<BEGINHMM>
<NUMSTATES> 5
<STATE> 2
<MEAN> 39
 -3.280939e+00 1.789969e+00 -8.464523e+00 -3.576553e+00 -1.066640e+00 -1.237625e+01 -3.534511e+00 -6.910005e+00 -1.333834e+00 5.804329e+00 3.476134e+00 -4.395108e+00 7.033602e+01 2.563453e+00 -7.142804e-01 -1.465973e+00 -1.358319e+00 3.525867e-01 9.675282e-01 1.251587e+00 -1.703197e+00 -1.706903e+00 2.692881e-01 2.198111e+00 -1.101933e+00 1.459885e+00 -8.746355e-01 1.670277e-03 2.120101e-01 -5.715263e-02 -9.574623e-02 4.726093e-01 8.847608e-01 5.459734e-01 -5.556128e-02 -4.991615e-01 -1.208752e-02 2.644134e-01 -2.360915e-01
<VARIANCE> 39
 1.118042e+01 7.634325e+00 1.988485e+01 3.631963e+01 1.255933e+01 3.338702e+01 6.799809e+01 6.049459e+01 6.896124e+01 3.048659e+01 3.019318e+01 2.431880e+01 2.024728e+01 3.597584e+00 5.205025e-01 1.240452e+00 1.616215e+00 1.558252e+00 2.483155e+00 6.372118e+00 4.028022e+00 2.323619e+00 3.707582e+00 1.861841e+00 1.609224e+00 9.795647e-01 2.688630e-01 1.489705e-01 2.984973e-01 4.752144e-01 1.926395e-01 4.494593e-01 9.617425e-01 4.318358e-01 4.278732e-01 4.728650e-01 5.297198e-01 3.644986e-01 1.842402e-01
<GCONST> 1.100461e+02
<STATE> 3
<MEAN> 39
 7.962413e-01 5.525777e-01 -1.070467e+01 -7.827407e+00 -3.809254e-01 -6.502160e+00 7.347063e+00 -8.395438e+00 -6.295255e+00 2.661116e+00 8.906467e+00 -7.827369e+00 7.183050e+01 1.645518e-01 -9.230514e-02 6.486696e-02 3.052712e-01 3.356527e-01 -3.538875e-02 1.774994e-01 -1.168157e-01 1.218220e-01 2.761894e-01 -4.349154e-01 -3.747720e-01 -9.526742e-02 -9.601097e-02 8.927483e-03 1.201656e-01 2.609607e-01 8.016789e-02 -3.070829e-01 -4.038939e-01 1.210305e-01 2.090674e-01 1.840298e-01 -3.762001e-01 6.562113e-02 -5.590116e-02
<VARIANCE> 39
 3.767010e+00 7.585808e+00 8.811239e+00 1.323920e+01 2.031634e+01 3.932515e+01 5.010475e+01 4.933313e+01 6.474474e+01 3.973907e+01 1.780762e+01 3.270398e+01 7.715046e+00 2.980240e-01 3.796239e-01 3.488296e-01 1.570946e+00 1.047141e+00 1.761668e+00 2.964720e+00 9.763956e-01 1.634304e+00 2.247509e+00 2.038848e+00 1.243338e+00 1.182995e-01 3.486658e-02 6.815019e-02 8.469572e-02 1.331310e-01 1.608748e-01 1.963770e-01 2.052220e-01 2.258807e-01 2.229386e-01 3.002824e-01 2.547469e-01 2.739264e-01 3.145269e-02
<GCONST> 8.366015e+01
<STATE> 4
<MEAN> 39
 7.965786e-01 -3.213792e-01 -4.228239e+00 8.601035e-01 1.634772e+00 -8.836013e+00 5.694141e-01 -5.863126e+00 -3.490936e-01 6.827895e+00 3.108822e-01 -5.876282e+00 6.615447e+01 -3.397615e-02 2.169519e-01 8.579006e-01 6.068687e-01 -1.683878e-01 3.703413e-01 -3.174002e-01 5.352958e-01 4.653892e-01 -2.293136e-01 -1.965130e-01 5.731266e-01 -8.363451e-01 -1.192495e-02 6.228958e-02 2.605459e-02 -9.677720e-02 -9.901411e-02 2.324807e-01 1.256039e-01 -4.831857e-02 -2.894274e-02 -1.396364e-01 2.330988e-01 4.852290e-02 -5.202805e-02
<VARIANCE> 39
 3.988311e+00 6.216275e+00 1.761915e+01 1.155295e+01 1.617140e+01 4.218312e+01 2.201262e+01 3.370093e+01 2.872455e+01 4.079593e+01 2.329476e+01 2.360300e+01 2.508964e+01 2.355147e-01 4.048637e-01 1.165831e+00 1.185618e+00 1.767926e+00 2.378379e+00 1.698455e+00 2.235166e+00 1.360847e+00 1.985698e+00 3.242194e+00 1.739457e+00 1.770150e-01 4.525455e-02 6.668748e-02 1.735268e-01 1.980599e-01 3.691025e-01 3.258109e-01 2.197707e-01 3.815257e-01 2.491971e-01 4.194634e-01 5.268118e-01 3.351863e-01 3.247203e-02
<GCONST> 9.048229e+01
<TRANSP> 5
 0.000000e+00 1.000000e+00 0.000000e+00 0.000000e+00 0.000000e+00
 0.000000e+00 7.584268e-01 2.415732e-01 0.000000e+00 0.000000e+00
 0.000000e+00 0.000000e+00 9.017370e-01 9.826301e-02 0.000000e+00
 0.000000e+00 0.000000e+00 0.000000e+00 9.103968e-01 8.960330e-02
 0.000000e+00 0.000000e+00 0.000000e+00 0.000000e+00 0.000000e+00
<ENDHMM>
~h "dx"
<BEGINHMM>
<NUMSTATES> 5
<STATE> 2
<MEAN> 39
 -3.859351e+00 7.914404e+00 5.175570e+00 5.961740e+00 1.114278e+00 -2.104598e+00 -2.544727e+00 -3.438069e+00 -3.382324e+00 -3.855735e+00 -3.651775e+00 -6.820664e-01 5.221921e+01 1.098514e+00 1.352212e+00 1.049961e+00 6.505509e-01 -3.186974e-01 -1.228945e+00 -1.365679e+00 -1.157125e+00 -7.216471e-01 -5.392124e-01 -6.375096e-01 -3.104403e-01 5.295748e-01 -2.584831e-02 -1.205661e-01 -9.049540e-02 -1.238272e-01 -1.225782e-01 1.135176e-01 7.227226e-02 8.647542e-02 8.425809e-02 4.370128e-02 1.465686e-01 -1.307497e-01 3.046388e-02
<VARIANCE> 39
 1.250457e+01 1.466202e+01 1.611504e+01 1.323506e+01 2.015330e+01 2.355251e+01 3.080449e+01 2.257730e+01 1.749308e+01 9.490955e+00 1.372147e+01 1.060382e+01 1.800608e+01 1.383874e+00 1.837580e+00 1.434760e+00 9.691409e-01 1.421443e+00 2.397415e+00 3.533142e+00 1.975112e+00 2.048101e+00 1.577339e+00 1.543547e+00 1.109335e+00 3.472569e-01 1.756091e-01 2.270527e-01 1.631042e-01 2.129386e-01 3.539923e-01 4.138537e-01 5.538348e-01 3.661082e-01 2.280253e-01 1.776675e-01 3.174262e-01 2.033818e-01 5.751466e-02
<GCONST> 9.412543e+01
<STATE> 3
<MEAN> 39
 -9.413134e-01 1.094835e+01 7.549866e+00 6.214966e+00 -1.592043e+00 -3.736375e+00 -4.961195e+00 -5.471178e+00 -4.470868e+00 -4.801258e+00 -3.217347e+00 -2.002391e+00 5.370381e+01 5.158599e-02 -9.702582e-01 4.716530e-01 1.733965e-01 -8.939856e-01 -2.307749e-01 4.523169e-02 1.249456e+00 4.518722e-01 -5.311885e-01 3.224434e-01 4.381599e-01 9.111896e-01 -2.547697e-01 -1.187016e+00 -3.128238e-01 -3.788533e-02 -3.253123e-01 -6.246717e-01 2.230658e-01 8.120435e-01 4.895577e-01 5.691709e-02 3.122423e-01 4.326710e-01 6.695080e-01
<VARIANCE> 39
 5.398290e+00 6.323041e+00 8.023643e+00 1.002837e+01 2.064660e+01 1.785578e+01 2.499009e+01 1.894710e+01 2.095411e+01 1.139552e+01 1.076600e+01 1.832627e+01 8.977870e+00 9.519188e-01 4.723250e+00 1.207916e+00 1.073035e+00 4.226444e+00 3.689159e+00 3.455626e+00 3.320434e+00 2.976622e+00 1.874463e+00 2.253032e+00 3.147686e+00 1.699519e+00 1.883504e-01 2.897648e-01 2.642526e-01 3.486541e-01 9.520161e-01 1.698923e+00 8.342830e-01 4.514464e-01 5.140392e-01 4.588899e-01 4.078147e-01 4.375423e-01 5.395262e-01
<GCONST> 1.062049e+02
<STATE> 4
<MEAN> 39
 -2.007069e+00 -3.021962e+00 5.828163e+00 6.039854e+00 -7.367498e+00 -1.520433e+01 -4.012151e+00 5.527999e+00 2.108636e+00 -4.863153e+00 4.609448e-01 1.635135e+00 6.602940e+01 4.389687e-01 -3.265111e+00 -1.732080e+00 -4.137582e-01 -8.078717e-01 -5.330190e+00 7.606333e-01 1.583564e+00 2.014570e+00 3.230728e-01 1.007724e+00 -2.634812e-01 4.143796e+00 5.135351e-02 5.754183e-01 -4.535283e-01 -2.376064e-01 8.581880e-01 2.522815e-01 5.505132e-01 -6.712148e-01 -2.757044e-02 7.850417e-02 -2.930675e-01 -7.177456e-01 -2.713752e-01
<VARIANCE> 39
 1.085086e+01 3.750756e+01 3.001325e+01 3.990107e+01 6.234294e+01 1.372905e+02 5.572396e+01 7.852933e+01 8.114794e+01 5.720972e+01 4.240776e+01 4.752829e+01 5.511010e+01 8.927897e-01 3.742943e+00 3.340731e+00 3.928161e+00 8.633617e+00 6.714020e+00 6.835720e+00 6.987680e+00 6.223900e+00 6.143839e+00 4.451490e+00 4.954878e+00 2.058628e+00 1.597838e-01 6.976674e-01 5.557030e-01 6.475204e-01 1.312716e+00 3.304356e+00 8.702027e-01 1.077880e+00 1.078266e+00 8.784161e-01 8.739698e-01 7.348351e-01 1.002281e+00
<GCONST> 1.391326e+02
<TRANSP> 5
 0.000000e+00 1.000000e+00 0.000000e+00 0.000000e+00 0.000000e+00
 0.000000e+00 7.542422e-01 2.457578e-01 0.000000e+00 0.000000e+00
 0.000000e+00 0.000000e+00 7.459185e-01 2.540815e-01 0.000000e+00
 0.000000e+00 0.000000e+00 0.000000e+00 7.384311e-01 2.615688e-01
 0.000000e+00 0.000000e+00 0.000000e+00 0.000000e+00 0.000000e+00
<ENDHMM>
~h "ee"
<BEGINHMM>
<NUMSTATES> 5
<STATE> 2
<MEAN> 39
 -1.182331e+01 -5.473811e+00 3.137367e-01 1.104002e-01 -4.643829e+00 -9.197854e+00 -1.705291e+00 3.773587e+00 -4.408655e+00 7.300312e+00 1.571566e+00 1.247078e-01 6.351250e+01 -3.849836e-01 -4.108715e-01 2.281155e+00 4.350093e-01 -1.971909e+00 -3.422852e+00 -1.696673e-01 3.393145e-01 -3.055410e+00 -8.949979e-01 -7.269296e-02 9.757172e-01 2.874141e+00 5.994766e-01 5.280515e-01 2.666715e-01 2.943936e-01 -4.324650e-01 -4.824339e-01 -3.725901e-02 -9.593054e-02 8.833089e-02 -5.181089e-01 5.370685e-01 -2.005696e-02 6.142885e-02
<VARIANCE> 39
 2.730353e+01 3.951828e+01 3.843365e+01 2.037306e+01 3.372582e+01 6.953429e+01 2.741875e+01 5.795394e+01 7.211148e+01 2.881240e+01 2.796859e+01 3.466332e+01 6.326629e+01 6.161343e+00 7.819735e+00 3.261463e+00 3.027789e+00 3.459102e+00 3.513529e+00 3.260266e+00 4.814242e+00 3.724658e+00 4.441584e+00 5.151252e+00 3.981047e+00 2.366650e+00 8.505745e-01 1.176534e+00 5.991800e-01 5.392400e-01 5.210822e-01 8.454475e-01 5.451461e-01 8.261225e-01 1.221247e+00 5.709292e-01 1.022598e+00 6.428065e-01 9.355712e-01
<GCONST> 1.336292e+02
<STATE> 3
<MEAN> 39
 -5.982845e+00 -2.057360e+00 1.099499e+01 5.562330e+00 -1.707176e+01 -2.578820e+01 -2.814822e+00 5.550544e+00 -1.249941e+01 -2.448728e+00 9.684952e+00 3.584200e+00 7.313984e+01 1.180608e+00 3.602763e-02 4.499797e-01 9.489899e-01 -1.671898e+00 -1.982544e+00 4.016780e-02 1.513076e+00 8.631375e-01 -1.889976e+00 2.028921e+00 4.368727e-01 1.156733e+00 -5.189299e-01 -5.422756e-01 -8.788751e-01 -3.808019e-01 7.816283e-01 1.003739e+00 1.322261e-01 2.513872e-01 6.967677e-01 6.996265e-01 -5.971211e-01 -1.662236e-01 -3.511717e-01
<VARIANCE> 39
 6.926740e+00 5.907758e+00 1.244014e+01 1.437075e+01 1.632506e+01 4.058154e+01 3.913622e+01 5.630458e+01 4.076576e+01 3.381934e+01 2.755013e+01 3.101684e+01 1.598455e+01 1.137683e+00 1.147923e+00 2.418259e+00 1.121598e+00 2.541413e+00 4.242900e+00 1.713144e+00 2.060530e+00 1.819856e+00 3.188840e+00 3.606971e+00 1.370029e+00 4.399381e-01 1.446478e-01 2.346555e-01 3.074838e-01 1.176273e-01 2.993538e-01 2.435164e-01 3.133312e-01 4.327405e-01 5.230227e-01 3.295843e-01 4.798437e-01 2.767242e-01 7.672317e-02
<GCONST> 1.012947e+02
<STATE> 4
<MEAN> 39
 -3.632771e+00 -2.553115e+00 7.216292e+00 8.077901e+00 -1.428676e+01 -2.215450e+01 3.379982e-01 8.018891e+00 -6.403397e+00 -3.062451e+00 8.632662e+00 3.410578e+00 6.763531e+01 7.261510e-02 4.714788e-02 -2.578423e-01 1.388906e-01 3.775450e-01 5.667247e-01 2.671529e-01 -1.509822e-01 3.062242e-01 1.762023e-01 -1.689516e-01 -6.101114e-02 -8.315536e-01 -3.407355e-02 3.613806e-03 -4.713722e-02 -5.547782e-02 7.186534e-02 8.816377e-02 -8.847891e-03 -9.503300e-02 -6.235008e-02 7.092710e-02 -2.506159e-02 -5.284162e-03 -4.942708e-02
<VARIANCE> 39
 5.496539e+00 8.272914e+00 1.214527e+01 1.611960e+01 2.201483e+01 5.227829e+01 3.148107e+01 3.891359e+01 3.223195e+01 3.473257e+01 2.853935e+01 2.472958e+01 6.161546e+01 2.547827e-01 4.413203e-01 5.882975e-01 7.747242e-01 9.882739e-01 1.235495e+00 1.158188e+00 1.672981e+00 1.517974e+00 1.478738e+00 1.450227e+00 1.174950e+00 4.325078e-01 3.779474e-02 8.714496e-02 1.521552e-01 1.578042e-01 2.312524e-01 2.508833e-01 2.297180e-01 3.037695e-01 2.813984e-01 3.071048e-01 2.811833e-01 2.345842e-01 5.349094e-02
<GCONST> 8.797462e+01
<TRANSP> 5
 0.000000e+00 1.000000e+00 0.000000e+00 0.000000e+00 0.000000e+00
 0.000000e+00 8.106115e-01 1.893884e-01 0.000000e+00 0.000000e+00
 0.000000e+00 0.000000e+00 6.864857e-01 3.135143e-01 0.000000e+00
 0.000000e+00 0.000000e+00 0.000000e+00 9.457954e-01 5.420462e-02
 0.000000e+00 0.000000e+00 0.000000e+00 0.000000e+00 0.000000e+00
<ENDHMM>
~h "ei"
<BEGINHMM>
<NUMSTATES> 5
<STATE> 2
<MEAN> 39
 -2.769396e+00 -6.723817e+00 -1.192241e+00 3.127991e-01 -2.631519e+00 -2.082033e+01 1.976204e+00 9.169525e+00 3.449834e+00 -2.060639e+00 7.026440e-02 -4.353139e+00 7.153585e+01 3.823911e-02 -1.320004e-01 -9.247690e-01 -1.689957e-01 1.245087e+00 1.607973e-02 1.078554e+00 -4.730885e-01 4.865381e-01 -7.044924e-02 -6.880288e-01 -6.095581e-01 3.212154e-01 1.509786e-02 4.104907e-01 3.257400e-01 2.549795e-01 -2.264473e-01 2.872493e-01 -2.410561e-01 -2.083130e-01 -4.858560e-01 9.858093e-02 1.349280e-01 1.930370e-01 -3.386895e-01
<VARIANCE> 39
 1.550163e+01 2.260880e+01 2.078140e+01 3.454910e+01 3.613280e+01 1.204176e+02 5.163055e+01 7.914143e+01 5.457336e+01 6.372260e+01 2.953116e+01 4.712304e+01 8.402727e+01 2.793714e-01 8.994740e-01 1.501456e+00 1.238831e+00 2.470625e+00 1.470056e+00 1.769632e+00 1.926748e+00 1.975541e+00 1.341643e+00 1.776944e+00 2.834656e+00 5.980470e-01 1.203315e-01 1.211795e-01 1.778657e-01 1.702543e-01 3.450284e-01 5.871847e-01 2.858247e-01 3.591931e-01 3.349461e-01 3.388025e-01 3.764358e-01 4.081481e-01 1.589313e-01
<GCONST> 1.069766e+02
<STATE> 3
<MEAN> 39
 -1.199826e+00 -5.229781e+00 -1.826887e+00 3.010324e+00 -1.161216e+00 -2.194843e+01 4.421553e+00 7.125170e+00 1.525377e+00 -1.664696e+00 -7.303645e-01 -2.354933e+00 7.113557e+01 2.918014e-01 7.407774e-01 5.255450e-01 7.242215e-01 -1.703524e-02 5.139090e-01 -9.664722e-02 -1.203301e-01 -5.848471e-01 1.180751e-01 -8.547602e-04 8.560939e-01 -8.750625e-01 7.216398e-03 7.183427e-02 1.168691e-01 1.576752e-02 -1.138496e-01 2.203516e-01 -1.091379e-01 7.615644e-02 9.452701e-02 -1.936733e-02 1.102883e-02 -1.102718e-01 -1.783263e-01
<VARIANCE> 39
 1.453923e+01 1.633422e+01 2.056266e+01 3.219757e+01 3.447688e+01 9.533585e+01 5.110695e+01 5.021782e+01 3.676995e+01 5.974353e+01 2.906433e+01 5.116776e+01 5.897497e+01 2.928864e-01 5.520803e-01 7.749866e-01 8.656294e-01 1.190609e+00 1.959125e+00 1.194901e+00 1.601129e+00 1.262724e+00 1.747509e+00 1.266699e+00 2.244944e+00 6.102259e-01 1.169107e-01 1.413607e-01 2.362588e-01 2.089185e-01 2.938018e-01 4.683806e-01 2.635896e-01 2.708322e-01 2.937653e-01 3.047077e-01 2.787134e-01 5.995345e-01 9.350832e-02
<GCONST> 1.009776e+02
<STATE> 4
<MEAN> 39
 -8.253677e-01 -2.647958e+00 6.817493e-01 5.686395e+00 -2.520215e+00 -1.331254e+01 2.467168e+00 8.116689e+00 8.187259e-01 -2.005503e+00 -5.197623e-01 -1.117153e+00 6.330323e+01 -2.789340e-01 3.288416e-01 -1.285105e-01 -8.019045e-02 -1.754592e-01 1.049637e+00 7.659554e-02 -4.846759e-02 6.424077e-01 4.869891e-01 -1.441201e-01 -5.980197e-01 -1.141969e+00 -1.113906e-01 -1.574274e-01 -3.153915e-02 -1.551579e-01 -2.335270e-01 -2.992618e-01 -2.449204e-01 -1.824239e-02 5.726248e-02 8.095752e-03 1.008776e-01 2.062519e-02 3.252841e-01
<VARIANCE> 39
 1.609576e+01 1.719123e+01 1.708836e+01 2.702366e+01 2.830480e+01 5.408393e+01 3.045703e+01 2.699341e+01 3.454367e+01 3.987293e+01 2.171248e+01 2.666390e+01 3.560118e+01 9.071680e-01 8.976903e-01 1.073947e+00 1.601049e+00 2.034565e+00 3.554126e+00 1.784484e+00 2.190757e+00 2.315310e+00 2.186913e+00 2.311474e+00 2.500426e+00 9.999856e-01 2.087940e-01 1.410341e-01 2.571776e-01 4.456216e-01 4.103688e-01 5.223733e-01 4.089775e-01 4.207923e-01 5.250860e-01 4.257336e-01 3.800123e-01 6.232732e-01 1.132159e-01
<GCONST> 1.075889e+02
<TRANSP> 5
 0.000000e+00 1.000000e+00 0.000000e+00 0.000000e+00 0.000000e+00
 0.000000e+00 5.559219e-01 4.440781e-01 0.000000e+00 0.000000e+00
 0.000000e+00 0.000000e+00 7.009442e-01 2.990557e-01 0.000000e+00
 0.000000e+00 0.000000e+00 0.000000e+00 6.576054e-01 3.423946e-01
 0.000000e+00 0.000000e+00 0.000000e+00 0.000000e+00 0.000000e+00
<ENDHMM>
~h "ii"
<BEGINHMM>
<NUMSTATES> 5
<STATE> 2
<MEAN> 39
 -8.720516e+00 4.053802e+00 1.424014e+01 6.064044e+00 -1.386647e+01 -2.250468e+01 -4.931873e+00 4.881669e+00 -1.394931e+01 -6.622169e+00 6.340010e+00 -1.418729e+00 7.071528e+01 1.193058e+00 8.460165e-02 5.296125e-01 9.794667e-01 -6.203756e-01 -8.085618e-01 -2.186126e-01 -7.144801e-01 -1.148328e+00 -3.729026e-01 4.872606e-01 5.967889e-02 4.937554e-01 -5.411355e-01 1.498880e-01 -5.356313e-01 -4.967962e-01 8.114570e-01 8.118811e-01 2.034780e-01 7.506502e-02 6.069428e-01 4.190262e-01 -4.680524e-01 -8.120940e-02 -3.896711e-01
<VARIANCE> 39
 1.221235e+01 8.212646e+00 4.121761e+01 2.023431e+01 2.766858e+01 5.974475e+01 2.328590e+01 4.766451e+01 4.829418e+01 2.898132e+01 2.434978e+01 2.408389e+01 1.344796e+01 3.053328e+00 7.113319e-01 2.347779e+00 2.552870e+00 4.968946e+00 6.041839e+00 2.596914e+00 2.343504e+00 4.218263e+00 2.732243e+00 3.774441e+00 1.387991e+00 1.265217e+00 2.389854e-01 1.091848e-01 2.802842e-01 2.669926e-01 5.450051e-01 6.899161e-01 3.762163e-01 4.957583e-01 4.550837e-01 3.523366e-01 5.480642e-01 2.666225e-01 1.485809e-01
<GCONST> 1.112046e+02
<STATE> 3
<MEAN> 39
 -8.674677e+00 7.858897e+00 2.124584e+01 5.625728e+00 -1.866757e+01 -1.256296e+01 -1.764699e+00 -1.760394e+00 -1.834953e+01 -2.702453e+00 4.228554e+00 -4.147399e+00 6.965275e+01 1.601314e-01 2.241032e-01 -1.619716e-01 7.734602e-02 1.041787e-01 4.274778e-01 1.840896e-01 -1.714893e-01 3.032827e-02 3.838088e-01 -2.518665e-01 -1.025826e-02 -2.850195e-01 1.512384e-02 -1.817081e-02 -6.250790e-02 1.610112e-02 6.825296e-02 -1.639846e-02 -8.958573e-03 4.790282e-02 4.004839e-02 -7.134507e-04 1.942087e-02 2.130111e-02 -7.339817e-02
<VARIANCE> 39
 8.505136e+00 7.478054e+00 2.571994e+01 2.055175e+01 2.588507e+01 3.121346e+01 3.547810e+01 3.795424e+01 3.604327e+01 2.994867e+01 2.782333e+01 2.965286e+01 1.429026e+01 2.116639e-01 2.946743e-01 6.637912e-01 6.527261e-01 8.417419e-01 1.008384e+00 1.046926e+00 9.428067e-01 1.080244e+00 9.347946e-01 8.241106e-01 8.104710e-01 2.429087e-01 3.466097e-02 5.678876e-02 1.034966e-01 1.098766e-01 1.579563e-01 1.753047e-01 2.082142e-01 1.498495e-01 2.103950e-01 1.729440e-01 1.510854e-01 1.635912e-01 1.696243e-02
<GCONST> 7.791044e+01
<STATE> 4
<MEAN> 39
 -6.284526e+00 5.230547e+00 1.262609e+01 5.868158e+00 -8.515485e+00 -4.765686e+00 2.615618e-01 -1.635793e+00 -1.102672e+01 3.370892e-02 2.601068e+00 -5.014914e+00 5.844499e+01 -1.235070e-01 -2.985027e-01 -7.988954e-01 -7.547926e-02 7.765501e-01 4.500290e-01 1.972318e-01 4.528806e-03 6.891353e-01 8.488377e-02 -4.983503e-02 -3.001456e-02 -7.404377e-01 -2.571927e-02 -3.069716e-02 -1.439977e-02 -1.957829e-02 -2.083512e-02 -7.839521e-02 -1.669294e-02 4.328505e-02 -4.537868e-03 -7.155687e-03 4.898912e-02 4.968707e-02 6.971248e-02
<VARIANCE> 39
 6.997794e+00 1.363999e+01 3.754559e+01 1.655289e+01 3.429914e+01 6.741432e+01 2.909448e+01 2.467120e+01 4.108704e+01 2.500765e+01 2.404348e+01 2.149363e+01 3.584018e+01 2.815130e-01 5.645880e-01 8.633016e-01 9.904170e-01 1.336320e+00 1.854561e+00 2.103653e+00 1.673529e+00 1.977301e+00 2.074043e+00 1.813297e+00 1.591535e+00 1.950561e-01 4.534429e-02 1.010911e-01 1.602865e-01 1.902617e-01 2.703474e-01 3.170547e-01 3.861589e-01 3.348013e-01 4.151278e-01 3.892931e-01 3.840570e-01 2.868424e-01 2.744259e-02
<GCONST> 9.375675e+01
<TRANSP> 5
 0.000000e+00 1.000000e+00 0.000000e+00 0.000000e+00 0.000000e+00
 0.000000e+00 6.111090e-01 3.888910e-01 0.000000e+00 0.000000e+00
 0.000000e+00 0.000000e+00 8.999134e-01 1.000866e-01 0.000000e+00
 0.000000e+00 0.000000e+00 0.000000e+00 8.600654e-01 1.399346e-01
 0.000000e+00 0.000000e+00 0.000000e+00 0.000000e+00 0.000000e+00
<ENDHMM>
~h "sp"
<BEGINHMM>
<NUMSTATES> 3
<STATE> 2
~s "silst"
<TRANSP> 3
 0.000000e+00 3.245530e-01 6.754469e-01
 0.000000e+00 9.176705e-01 8.232952e-02
 0.000000e+00 0.000000e+00 0.000000e+00
<ENDHMM>
~h "th"
<BEGINHMM>
<NUMSTATES> 5
<STATE> 2
<MEAN> 39
 -1.690148e+01 1.074818e-01 -6.617501e-01 -3.621592e+00 -1.579282e+00 -9.401936e+00 1.427885e+00 7.930350e+00 -3.115199e+00 6.550214e-02 4.276149e+00 4.047466e+00 5.959356e+01 -1.135771e+00 -2.820871e-01 2.171528e-01 -5.752654e-01 -8.414770e-01 -1.787635e+00 3.920923e-02 1.697172e+00 -5.217450e-01 -3.434749e-01 6.293739e-01 7.183703e-01 1.683981e+00 4.564748e-01 4.750667e-02 3.476800e-01 6.010879e-01 3.961784e-02 4.675510e-01 -1.396237e-01 -2.786904e-01 1.284263e-01 -1.707571e-01 -2.192944e-01 -2.674271e-01 -3.711373e-01
<VARIANCE> 39
 2.608298e+01 1.059342e+01 2.116966e+01 4.908215e+01 3.512544e+01 7.722144e+01 2.915923e+01 5.292624e+01 4.106686e+01 2.806949e+01 2.543312e+01 3.941428e+01 5.213572e+01 3.366164e+00 1.019083e+00 2.386510e+00 7.012076e+00 4.210128e+00 1.131442e+01 2.889838e+00 4.533147e+00 4.345041e+00 2.479987e+00 2.485253e+00 4.619272e+00 6.302536e+00 9.376835e-01 2.809932e-01 5.907058e-01 1.077100e+00 9.506232e-01 1.975844e+00 5.768063e-01 1.277377e+00 7.862864e-01 4.105617e-01 5.604209e-01 9.351339e-01 1.230355e+00
<GCONST> 1.315207e+02
<STATE> 3
<MEAN> 39
 -1.237016e+01 2.026257e+00 7.889524e+00 3.937614e+00 -3.696526e+00 -1.056303e+01 -1.871197e+00 7.588781e+00 -4.981334e+00 -4.183710e+00 2.086443e+00 2.154118e+00 6.143924e+01 2.539628e+00 1.220792e+00 3.024015e+00 2.457554e+00 -1.575377e+00 -1.460566e+00 -1.689561e+00 -1.700389e+00 -9.495871e-01 -1.238393e+00 -8.030426e-01 -5.401226e-01 8.827406e-01 -4.567628e-02 -1.663329e-01 1.674749e-02 -1.593648e-01 -7.111523e-01 -7.675061e-01 -5.131402e-02 -9.676372e-02 -1.884835e-01 -1.687846e-02 2.467789e-01 1.592616e-01 4.699876e-01
<VARIANCE> 39
 2.363712e+01 2.223232e+01 4.786716e+01 4.823557e+01 3.234144e+01 5.825913e+01 3.493898e+01 2.896090e+01 4.391428e+01 3.048723e+01 2.373720e+01 2.585015e+01 1.650804e+01 1.700047e+00 1.957117e+00 1.843559e+00 1.677773e+00 5.360768e+00 6.463492e+00 3.280212e+00 2.667559e+00 2.673012e+00 2.820033e+00 2.839821e+00 2.306730e+00 1.507028e+00 5.415412e-01 6.826012e-01 5.043821e-01 4.775861e-01 5.729689e-01 9.969038e-01 1.007716e+00 7.680935e-01 5.714670e-01 6.335459e-01 6.702656e-01 4.355047e-01 1.629475e-01
<GCONST> 1.216285e+02
<STATE> 4
<MEAN> 39
 -6.002801e+00 1.114298e+00 1.804081e+01 1.096331e+01 -1.580532e+01 -2.080692e+01 -6.459870e+00 3.846956e+00 -9.603615e+00 -9.262624e+00 4.591659e+00 1.382736e+00 6.806322e+01 3.629144e-01 -6.138283e-01 1.392245e+00 1.043380e-01 -1.788256e+00 -9.477689e-01 -6.999705e-03 -4.942547e-01 -1.432004e+00 -2.617099e-01 1.331840e+00 -5.913985e-01 1.120875e+00 -4.484365e-01 1.793323e-01 -4.463357e-01 -5.454341e-01 5.475021e-01 6.754152e-01 4.322246e-01 6.134635e-02 -5.056662e-02 4.466218e-01 -1.619523e-02 -9.258474e-02 -2.232874e-01
<VARIANCE> 39
 5.005040e+00 1.018438e+01 2.583041e+01 1.621927e+01 2.393829e+01 2.927523e+01 2.725147e+01 3.025099e+01 5.353445e+01 2.621781e+01 3.910755e+01 2.479104e+01 1.929249e+01 7.476827e-01 1.357233e+00 1.484379e+00 2.203220e+00 2.075370e+00 4.733339e+00 3.110158e+00 2.704940e+00 3.695778e+00 3.037348e+00 4.192302e+00 1.717966e+00 3.605307e-01 1.728187e-01 4.160445e-01 2.297959e-01 3.474548e-01 3.734382e-01 5.809262e-01 4.937481e-01 5.985577e-01 6.471872e-01 4.813310e-01 1.019548e+00 4.241050e-01 9.480170e-02
<GCONST> 1.087149e+02
<TRANSP> 5
 0.000000e+00 1.000000e+00 0.000000e+00 0.000000e+00 0.000000e+00
 0.000000e+00 8.423520e-01 1.576480e-01 0.000000e+00 0.000000e+00
 0.000000e+00 0.000000e+00 7.629155e-01 2.370845e-01 0.000000e+00
 0.000000e+00 0.000000e+00 0.000000e+00 7.216687e-01 2.783313e-01
 0.000000e+00 0.000000e+00 0.000000e+00 0.000000e+00 0.000000e+00
<ENDHMM>
~h "tx"
<BEGINHMM>
<NUMSTATES> 5
<STATE> 2
<MEAN> 39
 -5.174494e+00 -1.721627e+00 -8.527644e-01 4.903373e+00 -1.378348e+00 -4.860970e+00 1.804379e+00 4.220198e+00 4.959562e-01 -1.895944e+00 -2.614292e-03 -2.808069e-01 5.590890e+01 -2.516602e-01 -1.032876e+00 6.466996e-01 4.080289e-01 -2.413589e+00 -5.699447e-01 -1.677262e+00 -1.914410e-01 3.434135e-01 1.630324e-01 -1.439005e-01 8.016092e-01 1.398492e+00 1.418552e-01 -1.240058e-01 1.741553e-02 -4.358473e-02 -5.892835e-01 -6.269590e-01 -9.996799e-01 -1.351393e-01 2.191329e-01 2.922723e-01 4.344767e-01 2.370445e-02 1.103211e+00
<VARIANCE> 39
 2.658490e+01 1.372927e+01 1.121138e+01 2.963575e+01 2.693479e+01 6.230563e+01 2.124705e+01 3.001781e+01 2.113965e+01 2.008019e+01 1.739422e+01 1.756973e+01 2.941850e+01 1.988220e+00 2.119388e+00 2.215122e+00 5.162124e+00 5.414824e+00 7.128093e+00 5.213310e+00 4.875289e+00 4.478678e+00 2.305640e+00 2.312602e+00 2.506760e+00 2.530946e+00 6.199344e-01 3.180793e-01 3.779548e-01 6.635796e-01 1.027194e+00 8.795892e-01 6.883016e-01 1.019761e+00 6.791075e-01 5.828292e-01 5.564822e-01 6.748865e-01 9.717385e-02
<GCONST> 1.205060e+02
<STATE> 3
<MEAN> 39
 -3.404427e+00 -6.746723e+00 2.343236e+00 7.778397e+00 -1.297911e+01 -1.097036e+01 -7.465440e+00 5.214978e+00 4.647026e+00 -7.359626e-01 6.496217e-01 1.391928e+00 6.477795e+01 4.702064e-01 3.232092e-01 -6.777414e-01 -9.191396e-01 -8.633426e-01 -1.856724e+00 -3.413582e+00 -1.575804e+00 4.567742e-01 1.474742e+00 2.056932e+00 -7.617249e-01 3.244992e+00 2.302423e-02 8.207232e-01 -7.837809e-01 -7.321655e-01 1.386687e+00 4.754677e-01 7.492929e-01 -6.451057e-01 -6.794280e-01 3.090792e-01 7.472081e-01 -4.128182e-01 -1.504197e-01
<VARIANCE> 39
 1.474501e+01 1.662821e+01 3.027364e+01 5.321102e+01 4.344938e+01 6.731425e+01 8.891126e+01 4.867915e+01 5.525079e+01 2.890566e+01 3.022817e+01 3.230483e+01 3.007265e+01 7.247705e+00 2.118175e+00 2.648728e+00 3.399614e+00 7.179081e+00 7.780694e+00 4.036582e+00 7.362849e+00 5.348407e+00 4.955885e+00 3.645166e+00 4.455187e+00 1.954206e+00 6.064531e-01 2.775423e-01 4.648441e-01 8.488018e-01 8.160950e-01 1.494883e+00 1.312921e+00 9.518399e-01 8.713473e-01 6.904505e-01 5.763652e-01 8.738456e-01 6.203425e-01
<GCONST> 1.336980e+02
<STATE> 4
<MEAN> 39
 -9.134272e-01 -2.364578e+00 -3.417462e+00 1.776082e+00 -6.242829e+00 -1.270601e+01 -1.008223e+01 -1.528731e+00 1.378474e+00 4.847895e+00 8.671600e+00 -3.456555e+00 6.880902e+01 1.544877e-01 1.141122e+00 -1.784536e+00 -1.960966e+00 1.407313e+00 1.141568e+00 8.597344e-01 -2.263766e+00 -2.299247e+00 1.289486e+00 2.512650e+00 -3.579966e-01 1.098463e+00 -3.745497e-01 -1.923002e-02 2.586288e-01 8.354675e-02 -5.440734e-02 8.032144e-01 1.272161e+00 3.411117e-01 -5.456823e-01 -6.594392e-01 -6.156142e-01 6.176448e-01 -6.768258e-01
<VARIANCE> 39
 2.782138e+01 1.213004e+01 1.706783e+01 2.630779e+01 1.766426e+01 5.392017e+01 6.149070e+01 6.797398e+01 6.420493e+01 4.591789e+01 3.808216e+01 2.943692e+01 1.934566e+01 6.764762e+00 1.400873e+00 1.626453e+00 2.068207e+00 3.295191e+00 3.281282e+00 4.168565e+00 4.156053e+00 3.328684e+00 3.450200e+00 2.498194e+00 3.998621e+00 1.478324e+00 3.077278e-01 3.844534e-01 4.201269e-01 3.539081e-01 6.254346e-01 8.310933e-01 6.701857e-01 8.807254e-01 7.437317e-01 6.709667e-01 5.766940e-01 4.302889e-01 2.928899e-01
<GCONST> 1.220657e+02
<TRANSP> 5
 0.000000e+00 1.000000e+00 0.000000e+00 0.000000e+00 0.000000e+00
 0.000000e+00 4.902048e-01 5.097952e-01 0.000000e+00 0.000000e+00
 0.000000e+00 0.000000e+00 4.684832e-01 5.315168e-01 0.000000e+00
 0.000000e+00 0.000000e+00 0.000000e+00 4.616139e-01 5.383861e-01
 0.000000e+00 0.000000e+00 0.000000e+00 0.000000e+00 0.000000e+00
<ENDHMM>
~h "uu"
<BEGINHMM>
<NUMSTATES> 5
<STATE> 2
<MEAN> 39
 2.669679e+00 6.166238e+00 -2.436727e+00 4.210588e+00 -4.292528e+00 -6.640681e+00 -8.567837e+00 -2.076762e+01 -1.100833e+01 -6.871094e+00 8.331053e+00 3.181074e+00 6.569290e+01 3.664533e-01 1.259027e+00 -9.455587e-01 -1.823224e+00 5.459550e-01 1.347388e+00 2.760396e+00 -8.027416e-01 -2.326049e+00 -6.478589e-01 -6.003286e-01 1.296545e+00 -2.449425e-02 -2.770482e-01 -2.298305e-02 3.210941e-01 1.111586e-01 -2.893872e-01 -2.330545e-01 -4.041580e-02 1.019814e+00 2.763301e-01 2.020950e-03 -8.057979e-01 -8.225092e-02 -1.204592e-01
<VARIANCE> 39
 4.710938e+00 8.574232e+00 1.671395e+01 2.965180e+01 1.835221e+01 2.339111e+01 3.013659e+01 5.908370e+01 5.061309e+01 2.757744e+01 3.200471e+01 3.166165e+01 1.273842e+01 2.878151e-01 3.356978e-01 7.101232e-01 1.005538e+00 9.064554e-01 1.285640e+00 1.261091e+00 3.462128e+00 1.349270e+00 1.491742e+00 2.627891e+00 9.659795e-01 1.344277e-01 8.727340e-02 8.824836e-02 9.877129e-02 2.113592e-01 2.118962e-01 3.651805e-01 4.132003e-01 4.172238e-01 3.119655e-01 4.360611e-01 4.049421e-01 3.994094e-01 2.257997e-02
<GCONST> 8.975299e+01
<STATE> 3
<MEAN> 39
 3.501468e+00 1.302372e+01 -3.448602e+00 -5.567408e+00 -3.377695e+00 -6.506215e+00 3.643479e+00 -1.258382e+01 -1.934570e+01 -5.350297e+00 -1.850293e+00 3.907831e+00 6.419627e+01 5.960845e-02 1.864593e-01 8.745331e-02 -2.406506e-01 -1.666702e-01 7.934605e-02 3.109712e-01 6.078155e-01 -2.240680e-01 1.765327e-01 -5.352843e-01 -6.218490e-02 -2.298261e-01 -3.580929e-02 -1.004981e-01 4.131544e-02 1.565832e-01 -1.687771e-02 1.309214e-02 -1.488454e-01 -1.256510e-02 1.380665e-01 2.902994e-02 8.504849e-02 -3.442540e-02 -2.573270e-02
<VARIANCE> 39
 9.560475e+00 1.051026e+01 1.744251e+01 3.223360e+01 1.469386e+01 2.312505e+01 3.474046e+01 7.119651e+01 4.728952e+01 2.376408e+01 3.364169e+01 2.352573e+01 1.433680e+01 1.894266e-01 4.488248e-01 4.913801e-01 1.047603e+00 9.515533e-01 1.189402e+00 1.625928e+00 1.240502e+00 1.410070e+00 1.325191e+00 1.616087e+00 8.986794e-01 9.410372e-02 3.439335e-02 5.188452e-02 8.468518e-02 1.040364e-01 1.660526e-01 2.006463e-01 1.945581e-01 2.221912e-01 2.275857e-01 2.401663e-01 2.933905e-01 1.873962e-01 1.260241e-02
<GCONST> 8.116879e+01
<STATE> 4
<MEAN> 39
 -1.314456e+00 8.515305e+00 1.033341e+00 1.124730e+00 -2.322259e+00 -1.113037e+00 9.579239e-01 -3.452481e+00 -9.442000e+00 -4.433762e+00 -2.882029e+00 6.263098e-01 5.568863e+01 -5.831594e-01 -4.647979e-01 1.292318e-01 3.650177e-01 3.073956e-01 1.564664e-01 -1.545009e-01 3.805922e-01 8.873516e-01 -3.685711e-02 1.340625e-01 -2.148004e-01 -5.179880e-01 -4.029998e-03 -1.051574e-03 -5.034567e-02 -6.359822e-02 2.343682e-02 -7.230747e-03 3.727709e-02 -1.764438e-02 -2.057585e-02 1.485406e-02 8.752333e-03 -6.125315e-03 2.028188e-02
<VARIANCE> 39
 1.641640e+01 1.255295e+01 1.263195e+01 1.301694e+01 1.987205e+01 2.107747e+01 2.865587e+01 3.798703e+01 4.903950e+01 2.514681e+01 1.734491e+01 2.127028e+01 2.166521e+01 2.116942e-01 4.562872e-01 8.173207e-01 1.117795e+00 1.251284e+00 1.594813e+00 1.819982e+00 1.585963e+00 1.983576e+00 2.047578e+00 1.281725e+00 1.787627e+00 9.713601e-02 3.579637e-02 7.379250e-02 1.427469e-01 1.976494e-01 2.734579e-01 3.213826e-01 3.418662e-01 2.926863e-01 3.834105e-01 4.087218e-01 2.307683e-01 3.358160e-01 1.359716e-02
<GCONST> 8.751718e+01
<TRANSP> 5
 0.000000e+00 1.000000e+00 0.000000e+00 0.000000e+00 0.000000e+00
 0.000000e+00 7.474812e-01 2.525188e-01 0.000000e+00 0.000000e+00
 0.000000e+00 0.000000e+00 9.452780e-01 5.472203e-02 0.000000e+00
 0.000000e+00 0.000000e+00 0.000000e+00 9.464728e-01 5.352728e-02
 0.000000e+00 0.000000e+00 0.000000e+00 0.000000e+00 0.000000e+00
<ENDHMM>
~h "sil"
<BEGINHMM>
<NUMSTATES> 5
<STATE> 2
<MEAN> 39
 -9.505569e+00 -2.473727e-01 -9.792472e-01 1.644601e+00 1.422998e+00 -1.041670e+00 1.338743e+00 2.057076e+00 1.599643e+00 1.169000e+00 2.151525e+00 4.834796e-01 5.493336e+01 4.795083e-02 2.109377e-02 1.038158e-01 1.970534e-01 1.009101e-01 2.151857e-01 1.077837e-01 -8.475412e-02 -1.032168e-01 -1.803465e-01 3.793324e-02 5.500646e-02 1.369164e-01 -2.724716e-02 -3.250599e-02 -4.346222e-02 -1.718987e-02 -3.529659e-03 1.246691e-03 -3.633513e-02 3.972467e-04 -2.231418e-02 1.408160e-02 -2.708557e-02 -1.898291e-02 -7.927351e-02
<VARIANCE> 39
 1.854507e+01 1.238853e+01 1.433799e+01 2.407113e+01 2.803829e+01 2.553341e+01 2.104268e+01 2.338450e+01 2.431954e+01 2.585481e+01 1.978038e+01 1.663990e+01 5.085820e+01 6.822230e-01 4.136628e-01 7.661182e-01 9.600044e-01 1.396995e+00 1.426845e+00 1.588238e+00 1.799677e+00 1.982015e+00 1.856456e+00 1.675335e+00 1.452976e+00 2.958202e+00 6.522372e-02 6.471419e-02 1.121514e-01 1.528497e-01 2.079249e-01 2.135294e-01 2.607282e-01 3.065237e-01 3.442819e-01 3.088546e-01 2.896002e-01 2.414182e-01 2.784783e-01
<GCONST> 9.398899e+01
<STATE> 3
~s "silst"
<STATE> 4
<MEAN> 39
 -1.037013e+01 2.056470e-01 -9.436007e-01 2.684805e+00 1.565564e+00 1.517496e+00 1.065561e+00 1.668914e+00 8.554003e-01 -2.970605e-01 7.698266e-01 4.831001e-01 5.172889e+01 4.524684e-01 5.839589e-01 5.688308e-01 3.063631e-01 1.466469e-02 -2.947237e-01 -3.690957e-01 -2.254601e-01 -3.072023e-01 -2.083231e-01 -2.515389e-01 -1.736807e-01 2.789064e-01 2.164295e-01 1.699200e-01 1.867769e-01 -2.775895e-02 -2.708229e-01 -3.981695e-01 -2.814546e-01 -1.507539e-01 -1.901579e-01 -6.458381e-02 -2.645731e-02 -1.144807e-02 3.218013e-01
<VARIANCE> 39
 5.697100e+00 9.045016e+00 9.877278e+00 1.880853e+01 1.456146e+01 1.681681e+01 1.641159e+01 1.853614e+01 1.693766e+01 1.795829e+01 1.860413e+01 1.421703e+01 1.990459e+01 9.817306e-01 1.535097e+00 1.489840e+00 1.465197e+00 1.580450e+00 1.911067e+00 2.053885e+00 2.394729e+00 2.004236e+00 1.772611e+00 1.718822e+00 1.369366e+00 3.448829e-01 2.524920e-01 2.622200e-01 2.943556e-01 3.816198e-01 4.163827e-01 4.170941e-01 3.976297e-01 4.721744e-01 3.656786e-01 3.721993e-01 3.432119e-01 2.851867e-01 1.365922e-01
<GCONST> 9.666354e+01
<TRANSP> 5
 0.000000e+00 1.000000e+00 0.000000e+00 0.000000e+00 0.000000e+00
 0.000000e+00 6.369093e-01 2.888002e-01 7.429050e-02 0.000000e+00
 0.000000e+00 0.000000e+00 9.152411e-01 8.475885e-02 0.000000e+00
 0.000000e+00 3.992424e-02 0.000000e+00 4.880743e-01 4.720015e-01
 0.000000e+00 0.000000e+00 0.000000e+00 0.000000e+00 0.000000e+00
<ENDHMM>
