~o
<STREAMINFO> 1 39
<VECSIZE> 39<NULLD><MFCC_D_A_0><DIAGC>
~h "c"
<BEGINHMM>
<NUMSTATES> 5
<STATE> 2
<MEAN> 39
 -1.637214e+01 1.873357e+00 2.803281e+00 -5.282338e+00 3.350841e+00 -1.119774e-01 -4.010727e+00 6.098782e+00 -2.617072e+00 -4.206667e-03 2.670107e+00 -9.723172e-01 5.639048e+01 -2.159528e+00 6.789603e-01 1.466508e+00 -1.873763e+00 -2.647470e-02 -1.680730e-01 -9.131207e-01 8.496811e-01 -1.617589e+00 2.126390e-02 4.285029e-01 -5.657240e-01 1.843061e+00 2.017048e-01 1.639277e-01 3.442316e-01 3.742852e-01 -5.194706e-01 -2.649521e-01 1.500023e-01 -2.989364e-01 -2.876862e-01 -9.001177e-02 -8.130611e-02 -1.566668e-01 1.985868e-01
<VARIANCE> 39
 5.935617e+01 1.941604e+01 3.437033e+01 7.001933e+01 3.040190e+01 4.088639e+01 3.462064e+01 4.778211e+01 5.031372e+01 2.183976e+01 2.654739e+01 2.452047e+01 5.150600e+01 6.455600e+00 2.166676e+00 2.574278e+00 8.552160e+00 4.295136e+00 3.197713e+00 4.025044e+00 5.494185e+00 3.671655e+00 2.030773e+00 3.230366e+00 2.280534e+00 2.216082e+00 2.060714e+00 4.253972e-01 3.570916e-01 2.272203e+00 8.255631e-01 7.033365e-01 8.144283e-01 1.144172e+00 6.397222e-01 4.203507e-01 6.171398e-01 3.828902e-01 4.901269e-01
<GCONST> 1.302952e+02
<STATE> 3
<MEAN> 39
 -2.134080e+01 5.964521e+00 1.181329e+01 -6.291821e+00 -1.454184e+00 -2.743505e+00 -4.962293e+00 5.052398e+00 -1.124656e+01 -9.739618e-01 3.588291e+00 -4.535528e+00 6.403697e+01 2.323445e+00 8.600680e-01 3.069367e+00 2.542409e+00 -3.865590e+00 -2.537145e+00 2.156002e-01 -1.548832e+00 -2.664333e+00 -8.373733e-01 1.278562e-01 -9.611508e-01 1.275528e+00 9.573613e-01 -1.901660e-01 3.203541e-02 5.667931e-01 -6.263426e-01 -5.001881e-01 9.870106e-03 -4.988803e-02 -4.726871e-02 -1.486754e-01 1.026895e-01 8.286352e-02 -1.588196e-01
<VARIANCE> 39
 5.719960e+01 1.590766e+01 5.647723e+01 4.411658e+01 5.485294e+01 5.305686e+01 2.841888e+01 4.236383e+01 5.078752e+01 2.323934e+01 2.175865e+01 2.484833e+01 1.926608e+01 8.615410e+00 1.322210e+00 2.497132e+00 5.007799e+00 4.366460e+00 4.644076e+00 3.403521e+00 3.401560e+00 3.200990e+00 1.782139e+00 2.218947e+00 1.226068e+00 8.065127e-01 1.789959e+00 2.982907e-01 5.669249e-01 1.361848e+00 8.360541e-01 8.993399e-01 6.598147e-01 9.131798e-01 6.712029e-01 4.094280e-01 4.966622e-01 3.163487e-01 1.865228e-01
<GCONST> 1.241503e+02
<STATE> 4
<MEAN> 39
 -1.180622e+01 7.353012e+00 2.033899e+01 1.959629e+00 -1.518583e+01 -1.194099e+01 -5.177598e+00 2.119357e+00 -1.905503e+01 -3.578097e+00 5.420169e+00 -7.201341e+00 6.778812e+01 1.977596e+00 -2.949917e-02 1.747799e+00 1.785863e+00 -3.385851e+00 -1.909922e+00 3.218862e-01 -3.682306e-01 -1.600267e+00 -5.381738e-01 6.029517e-01 -3.729083e-01 1.141676e+00 -8.229110e-01 -1.808333e-01 -7.262079e-01 -7.159112e-01 9.296737e-01 7.971067e-01 1.441545e-01 2.973244e-01 7.083024e-01 2.870961e-01 -2.400158e-02 2.646741e-01 -1.306731e-01
<VARIANCE> 39
 1.923686e+01 6.506734e+00 2.673478e+01 2.174035e+01 4.422940e+01 2.086274e+01 2.611821e+01 3.795291e+01 3.573523e+01 1.771700e+01 2.743011e+01 2.150156e+01 1.393256e+01 2.762887e+00 6.926473e-01 2.196837e+00 2.073363e+00 4.158628e+00 4.972289e+00 2.014177e+00 2.074162e+00 2.454897e+00 1.803220e+00 1.745516e+00 1.717738e+00 2.448266e-01 3.247627e-01 1.369516e-01 2.479028e-01 2.784791e-01 5.142411e-01 5.420876e-01 2.684659e-01 3.833728e-01 3.483476e-01 2.675534e-01 2.871326e-01 2.289003e-01 5.095415e-02
<GCONST> 1.024564e+02
<TRANSP> 5
 0.000000e+00 1.000000e+00 0.000000e+00 0.000000e+00 0.000000e+00
 0.000000e+00 8.203046e-01 1.796953e-01 0.000000e+00 0.000000e+00
 0.000000e+00 0.000000e+00 6.579721e-01 3.420279e-01 0.000000e+00
 0.000000e+00 0.000000e+00 0.000000e+00 5.904104e-01 4.095896e-01
 0.000000e+00 0.000000e+00 0.000000e+00 0.000000e+00 0.000000e+00
<ENDHMM>
~h "g"
<BEGINHMM>
<NUMSTATES> 5
<STATE> 2
<MEAN> 39
 -4.985747e-01 2.436686e+00 4.189818e+00 8.738825e+00 -8.441986e+00 -1.454629e+01 -6.388820e+00 1.289644e+00 -1.414284e+00 -1.800639e+00 1.404468e+00 -6.162994e-01 6.104203e+01 1.197644e+00 -1.061688e+00 8.233684e-01 1.139242e+00 -1.433797e+00 -1.267465e+00 -1.222339e+00 7.920284e-02 -3.196045e-01 -4.768997e-01 8.180989e-02 3.505692e-01 1.778772e+00 -3.428802e-01 -3.456504e-01 -5.158004e-02 -3.316907e-01 1.902243e-01 3.343972e-01 1.963044e-01 1.322032e-01 4.219658e-03 -2.340872e-02 1.376132e-01 7.730661e-02 -1.979948e-02
<VARIANCE> 39
 1.079771e+01 2.533729e+01 2.785581e+01 3.133430e+01 4.445615e+01 8.246377e+01 5.367738e+01 5.119096e+01 2.962714e+01 3.917223e+01 3.410983e+01 2.731341e+01 5.138873e+01 2.097157e+00 3.465886e+00 1.809975e+00 3.969637e+00 4.886363e+00 8.306908e+00 5.676528e+00 4.144192e+00 2.389065e+00 3.223998e+00 3.470996e+00 2.508816e+00 2.449552e+00 3.392451e-01 6.488142e-01 3.535832e-01 5.535080e-01 7.299205e-01 1.302874e+00 8.210346e-01 7.385914e-01 4.497713e-01 5.191762e-01 6.894406e-01 4.051969e-01 2.395423e-01
<GCONST> 1.260839e+02
<STATE> 3
<MEAN> 39
 7.557367e-01 -9.039626e-01 5.469418e+00 9.605391e+00 -1.057413e+01 -1.580520e+01 -8.365974e+00 2.104059e+00 -1.627869e+00 -2.724602e+00 2.112929e+00 2.566975e-01 6.481334e+01 3.510720e-01 -1.359204e+00 5.748139e-01 1.230657e-01 -7.437533e-01 -7.404945e-01 -7.254295e-01 3.414049e-01 -2.052523e-01 -6.069578e-01 6.820685e-01 3.627245e-01 1.605306e+00 -3.109700e-01 1.169465e-01 -1.702488e-01 -3.608566e-01 3.366930e-01 2.085581e-02 2.909748e-01 5.269178e-02 4.024975e-02 2.733922e-02 1.952803e-01 -5.045738e-02 -1.265111e-01
<VARIANCE> 39
 6.909383e+00 3.076103e+01 3.022705e+01 3.147559e+01 4.411552e+01 7.021523e+01 6.496654e+01 5.066902e+01 2.717558e+01 4.429116e+01 3.594006e+01 3.226329e+01 3.592694e+01 1.197087e+00 3.313000e+00 2.179048e+00 3.274480e+00 3.678546e+00 5.963542e+00 5.049590e+00 4.689325e+00 2.602588e+00 3.060587e+00 4.380963e+00 1.905838e+00 1.928788e+00 2.524732e-01 6.140091e-01 3.616478e-01 4.938347e-01 6.539136e-01 1.345100e+00 9.936690e-01 7.931757e-01 4.737980e-01 5.659290e-01 8.034182e-01 4.665315e-01 2.598875e-01
<GCONST> 1.246137e+02
<STATE> 4
<MEAN> 39
 6.591340e-01 -2.681165e+00 5.343325e+00 8.663917e+00 -1.074835e+01 -1.762631e+01 -9.439158e+00 1.681546e+00 -1.892188e+00 -5.333992e+00 5.333139e+00 1.603256e+00 6.808838e+01 -1.621343e-01 -3.865605e-01 -6.818726e-02 -3.347175e-01 6.836259e-02 -8.857209e-01 6.008190e-02 -5.488160e-02 3.657177e-02 -3.612425e-01 8.505845e-01 1.514273e-01 1.083428e+00 -1.216642e-01 3.201489e-01 -2.258921e-01 -7.707743e-02 2.591848e-01 -2.643664e-02 2.604810e-01 -1.604609e-01 8.958271e-02 1.057295e-01 -4.990909e-02 -4.905109e-02 -2.043474e-01
<VARIANCE> 39
 7.844157e+00 3.141007e+01 2.808127e+01 4.024699e+01 4.349999e+01 5.515739e+01 6.042163e+01 6.394647e+01 3.450134e+01 5.396207e+01 3.602427e+01 3.129219e+01 2.624782e+01 6.809350e-01 2.351532e+00 2.036726e+00 2.045464e+00 2.561420e+00 3.984598e+00 4.432529e+00 4.289735e+00 2.966176e+00 2.967509e+00 4.254838e+00 2.092438e+00 1.484661e+00 1.449410e-01 3.479498e-01 2.966610e-01 4.108252e-01 4.151433e-01 6.992548e-01 9.290138e-01 6.588411e-01 4.436770e-01 5.645047e-01 7.760971e-01 3.811451e-01 2.209765e-01
<GCONST> 1.190716e+02
<TRANSP> 5
 0.000000e+00 1.000000e+00 0.000000e+00 0.000000e+00 0.000000e+00
 0.000000e+00 5.014633e-01 4.985367e-01 0.000000e+00 0.000000e+00
 0.000000e+00 0.000000e+00 5.341154e-01 4.658847e-01 0.000000e+00
 0.000000e+00 0.000000e+00 0.000000e+00 6.823356e-01 3.176644e-01
 0.000000e+00 0.000000e+00 0.000000e+00 0.000000e+00 0.000000e+00
<ENDHMM>
~h "j"
<BEGINHMM>
<NUMSTATES> 5
<STATE> 2
<MEAN> 39
 -5.029305e+00 1.085153e+00 -2.836476e+00 -1.297257e+00 4.667428e+00 -5.517434e+00 -2.107607e+00 4.461370e+00 3.465791e-01 2.822619e+00 -1.628245e+00 -6.569924e+00 6.566842e+01 -1.809049e+00 8.999962e-01 3.552074e-01 -1.252360e+00 1.003118e+00 6.108273e-01 -5.954005e-01 7.421319e-01 -4.888087e-01 -1.552447e-01 6.682705e-01 1.466197e-01 -1.552503e-01 -2.859555e-01 -1.476421e-02 8.611781e-02 -1.392689e-01 -7.460956e-02 -6.594688e-02 -1.744417e-01 1.997155e-01 1.727194e-02 -8.837379e-02 1.097656e-01 1.165011e-01 2.033880e-01
<VARIANCE> 39
 4.370142e+01 2.532347e+01 2.595602e+01 4.537976e+01 3.847453e+01 4.408027e+01 3.662951e+01 5.062139e+01 3.192149e+01 2.799329e+01 2.877077e+01 2.930659e+01 2.515113e+01 3.972873e+00 2.772566e+00 1.784795e+00 3.700506e+00 3.495334e+00 3.645344e+00 4.270727e+00 5.035105e+00 2.843594e+00 3.059273e+00 2.000421e+00 2.767719e+00 1.574800e+00 8.172385e-01 6.312786e-01 3.072896e-01 7.569167e-01 7.996049e-01 6.312044e-01 7.913162e-01 8.339229e-01 6.042341e-01 5.990083e-01 3.779724e-01 5.840228e-01 2.675965e-01
<GCONST> 1.246402e+02
<STATE> 3
<MEAN> 39
 -1.686877e+01 3.755607e+00 9.895910e-01 -8.407463e+00 6.779912e+00 -3.274030e+00 -6.775123e+00 1.126009e+01 -1.126500e+00 7.755358e-01 3.292398e+00 -3.983571e+00 6.609624e+01 -1.479236e+00 -3.499374e-01 7.021844e-01 -4.072818e-01 -4.878776e-01 2.883153e-02 -3.479811e-01 1.073542e+00 1.687914e-01 -6.010087e-01 6.654736e-01 6.946755e-01 1.816954e-01 5.992712e-01 -3.182114e-01 -8.757687e-02 4.977366e-01 -2.884656e-01 -1.221781e-01 3.651438e-01 -2.677960e-01 1.345358e-01 4.325084e-02 -1.541352e-01 1.289975e-02 -2.295975e-01
<VARIANCE> 39
 5.673840e+01 2.698466e+01 4.812917e+01 6.394281e+01 4.727272e+01 4.820800e+01 3.738697e+01 4.182823e+01 2.469592e+01 3.099425e+01 2.663515e+01 3.279372e+01 2.101729e+01 5.162921e+00 3.462199e+00 1.632693e+00 5.302603e+00 5.839748e+00 3.411470e+00 3.438930e+00 3.553864e+00 2.888342e+00 3.126083e+00 2.350165e+00 2.538299e+00 1.319769e+00 8.757715e-01 6.984064e-01 3.259160e-01 9.320109e-01 1.028851e+00 6.364396e-01 7.116255e-01 6.672716e-01 5.425126e-01 5.809336e-01 4.683240e-01 4.792025e-01 2.553804e-01
<GCONST> 1.265230e+02
<STATE> 4
<MEAN> 39
 -1.545035e+01 1.856538e-01 2.241319e+00 -5.749728e+00 3.530121e+00 -2.135205e+00 -5.249787e+00 1.091189e+01 1.136552e-01 -8.142192e-01 4.178403e+00 -2.710614e+00 6.005012e+01 4.042166e-01 -2.481107e-01 -1.161373e-01 4.870286e-01 -2.321566e-01 6.341522e-02 3.866527e-01 -2.160833e-01 4.381489e-03 1.515649e-02 -9.784964e-02 6.980382e-02 -6.655164e-01 5.629071e-02 6.444933e-02 -2.292472e-02 -4.143088e-02 6.345060e-02 2.345266e-02 2.838767e-03 -8.464668e-02 -7.618240e-02 4.671089e-02 -4.770893e-02 -4.707884e-02 4.089936e-03
<VARIANCE> 39
 1.557921e+01 1.438423e+01 2.993309e+01 4.432885e+01 2.831498e+01 3.631172e+01 2.910426e+01 3.374518e+01 2.264287e+01 2.417332e+01 1.697773e+01 2.106338e+01 4.477134e+01 9.264979e-01 1.088549e+00 1.155685e+00 1.964954e+00 1.938257e+00 2.050949e+00 1.761091e+00 2.143512e+00 2.045328e+00 2.149076e+00 1.545268e+00 1.771219e+00 5.120143e-01 2.028582e-01 1.861204e-01 1.661718e-01 3.352311e-01 3.873906e-01 4.029849e-01 3.644860e-01 4.219230e-01 4.174199e-01 4.267379e-01 3.041139e-01 3.556508e-01 7.017008e-02
<GCONST> 1.029465e+02
<TRANSP> 5
 0.000000e+00 1.000000e+00 0.000000e+00 0.000000e+00 0.000000e+00
 0.000000e+00 8.525129e-01 1.474871e-01 0.000000e+00 0.000000e+00
 0.000000e+00 0.000000e+00 7.459561e-01 2.540439e-01 0.000000e+00
 0.000000e+00 0.000000e+00 0.000000e+00 9.193991e-01 8.060086e-02
 0.000000e+00 0.000000e+00 0.000000e+00 0.000000e+00 0.000000e+00
<ENDHMM>
~h "k"
<BEGINHMM>
<NUMSTATES> 5
<STATE> 2
<MEAN> 39
 -7.080802e+00 -1.319517e-03 -1.264993e+00 2.755905e+00 -1.162632e+00 -9.054687e+00 -2.255057e+00 1.951113e+00 -1.887750e+00 3.325326e+00 3.591570e+00 -1.012959e+00 5.966056e+01 -6.037278e-02 -3.692593e-01 -9.070888e-01 -4.665504e-01 5.086960e-01 -2.552159e-01 -6.491616e-01 -3.370721e-01 -1.056482e-01 1.140224e+00 1.028277e-01 1.861452e-02 7.614765e-01 5.389582e-02 -7.180616e-02 -2.930813e-02 -5.280381e-02 -1.402170e-01 -2.136295e-01 -9.403314e-02 2.212669e-02 -4.917818e-02 4.793297e-02 4.422643e-02 -3.995481e-02 2.551906e-01
<VARIANCE> 39
 3.391200e+01 2.438315e+01 5.727918e+01 3.247387e+01 4.786924e+01 8.479188e+01 4.410795e+01 4.466379e+01 4.978992e+01 4.576136e+01 3.881628e+01 3.504713e+01 6.441984e+01 1.917201e+00 2.010700e+00 6.661043e+00 2.268777e+00 5.585181e+00 5.509525e+00 3.957367e+00 4.701764e+00 4.186654e+00 4.880120e+00 3.158396e+00 2.766131e+00 2.929728e+00 3.172291e-01 4.279340e-01 1.031536e+00 3.754949e-01 7.878591e-01 8.359116e-01 7.665336e-01 7.180651e-01 7.694746e-01 9.137622e-01 6.042342e-01 5.153986e-01 3.887694e-01
<GCONST> 1.311807e+02
<STATE> 3
<MEAN> 39
 -6.425024e+00 -1.410232e+00 -3.826463e+00 1.070019e+00 -7.838491e-01 -1.065274e+01 -3.997146e+00 1.011780e+00 -2.306798e+00 6.328095e+00 4.329345e+00 -1.466793e+00 6.225497e+01 3.429416e-01 -4.321741e-01 -7.213301e-01 -3.988630e-01 1.225811e-01 -4.949102e-01 -4.491891e-01 -2.129607e-01 1.556154e-01 7.451205e-01 2.209691e-01 -1.210415e-01 1.041418e+00 8.893234e-02 -1.175029e-02 2.389219e-01 7.346776e-02 -1.767538e-01 3.711926e-02 1.790517e-01 1.547558e-01 1.347787e-01 -3.546647e-01 -2.544737e-04 -8.621465e-02 -4.317323e-02
<VARIANCE> 39
 3.307965e+01 2.581069e+01 9.359538e+01 3.388065e+01 8.217497e+01 8.157922e+01 4.441003e+01 5.497636e+01 6.154080e+01 6.259809e+01 4.500224e+01 3.859891e+01 5.238642e+01 2.292630e+00 2.463520e+00 7.311810e+00 2.312202e+00 6.418283e+00 6.055705e+00 4.114172e+00 3.988955e+00 4.593803e+00 6.678028e+00 4.017103e+00 2.703672e+00 3.221862e+00 3.854361e-01 5.179445e-01 1.491986e+00 4.516099e-01 1.348286e+00 9.366792e-01 7.090836e-01 7.759791e-01 8.680694e-01 1.235147e+00 8.385433e-01 5.832035e-01 3.987013e-01
<GCONST> 1.368351e+02
<STATE> 4
<MEAN> 39
 -5.457922e+00 -1.749671e+00 -4.898112e+00 8.355447e-01 -6.087996e-01 -7.746179e+00 -3.033899e+00 4.956410e-01 1.505878e+00 7.425778e+00 4.948178e+00 -1.798981e+00 6.131940e+01 -3.668572e-02 -2.783766e-01 6.797519e-02 -6.822634e-02 -7.655949e-02 1.913332e-01 1.543094e-01 1.262619e-01 1.729663e-01 -1.657742e-01 -1.201478e-01 -9.170627e-03 8.108923e-02 -4.035576e-02 -3.673658e-02 1.619593e-01 1.868336e-02 -7.204847e-02 -7.577371e-02 7.000370e-02 1.283299e-01 -1.274353e-01 -1.787343e-01 -3.157536e-02 -4.933457e-02 5.362606e-02
<VARIANCE> 39
 2.323024e+01 1.765688e+01 4.572204e+01 2.608765e+01 5.593078e+01 6.952855e+01 3.548458e+01 4.034489e+01 4.301115e+01 4.726471e+01 3.805471e+01 3.179451e+01 5.210807e+01 1.222007e+00 1.363412e+00 3.116348e+00 1.763176e+00 3.278210e+00 4.210463e+00 2.663730e+00 2.716310e+00 3.112904e+00 3.758033e+00 2.850149e+00 2.361942e+00 1.951634e+00 1.864082e-01 2.712017e-01 6.086836e-01 3.132727e-01 7.398147e-01 6.947125e-01 5.014692e-01 5.104835e-01 5.632381e-01 8.209952e-01 5.690211e-01 4.336636e-01 2.809627e-01
<GCONST> 1.207220e+02
<TRANSP> 5
 0.000000e+00 1.000000e+00 0.000000e+00 0.000000e+00 0.000000e+00
 0.000000e+00 5.714671e-01 4.285329e-01 0.000000e+00 0.000000e+00
 0.000000e+00 0.000000e+00 6.098852e-01 3.901148e-01 0.000000e+00
 0.000000e+00 0.000000e+00 0.000000e+00 7.362303e-01 2.637696e-01
 0.000000e+00 0.000000e+00 0.000000e+00 0.000000e+00 0.000000e+00
<ENDHMM>
~h "l"
<BEGINHMM>
<NUMSTATES> 5
<STATE> 2
<MEAN> 39
 -4.295814e-01 3.308165e+00 1.783831e+00 3.582555e+00 -2.013875e+00 -1.083751e+01 -3.812703e+00 -3.029965e+00 -1.624288e+00 2.156982e+00 7.204888e-01 -1.227560e+00 6.331414e+01 2.426211e-01 -1.425651e-02 3.800583e-01 1.960449e-01 -3.135109e-01 -3.895850e-02 -5.719587e-01 -2.193389e-02 3.039272e-01 -1.117418e-01 -1.796176e-01 -5.380522e-02 5.158986e-03 -8.089162e-02 -1.510951e-01 -4.511417e-02 -5.912127e-02 4.733739e-02 4.924174e-02 -3.183224e-02 1.125153e-01 9.244352e-02 2.977266e-02 7.765185e-02 -5.617199e-02 4.297227e-02
<VARIANCE> 39
 2.044128e+01 2.154097e+01 2.786342e+01 4.216923e+01 3.323740e+01 6.799053e+01 3.906082e+01 5.803811e+01 7.734651e+01 3.568435e+01 3.332076e+01 2.046434e+01 3.839822e+01 9.849187e-01 1.483192e+00 1.648048e+00 2.082551e+00 2.542230e+00 4.312158e+00 2.886670e+00 2.648312e+00 2.087066e+00 2.648146e+00 2.025811e+00 1.819242e+00 1.072520e+00 1.310068e-01 2.321837e-01 2.986981e-01 3.396576e-01 4.361581e-01 6.464258e-01 4.637159e-01 4.273040e-01 3.309134e-01 5.063530e-01 3.822371e-01 3.266755e-01 5.385765e-02
<GCONST> 1.120496e+02
<STATE> 3
<MEAN> 39
 -9.220726e-01 2.145631e+00 2.501610e+00 5.333096e+00 -2.659308e+00 -1.049763e+01 -5.179462e+00 -1.260357e+00 2.571387e+00 1.655893e+00 2.058450e-01 -1.509501e+00 6.320335e+01 -1.776161e-01 -2.125782e-01 8.632245e-02 -1.185240e-01 1.076446e-01 4.448480e-01 -2.463089e-01 5.023485e-01 4.129000e-01 1.427276e-02 1.234821e-01 -1.160691e-01 -2.913593e-01 -6.025473e-02 -8.870515e-02 -1.662304e-01 -1.239644e-01 7.220685e-02 5.345089e-02 1.337985e-01 6.759539e-02 -3.020670e-03 4.537054e-02 7.816063e-02 -1.199707e-01 3.481786e-02
<VARIANCE> 39
 1.250268e+01 1.611306e+01 2.281919e+01 2.157326e+01 2.779199e+01 6.729474e+01 4.776310e+01 5.378629e+01 3.769389e+01 2.982349e+01 3.122942e+01 2.400221e+01 3.251961e+01 4.887464e-01 1.149344e+00 1.709008e+00 1.466921e+00 1.537764e+00 2.809922e+00 2.504680e+00 2.522748e+00 1.694211e+00 2.437243e+00 2.039575e+00 1.778691e+00 9.126898e-01 7.107371e-02 1.642886e-01 2.776150e-01 2.762828e-01 3.264686e-01 4.805664e-01 5.434860e-01 4.833580e-01 3.292791e-01 4.270427e-01 3.939086e-01 3.396658e-01 4.269120e-02
<GCONST> 1.046239e+02
<STATE> 4
<MEAN> 39
 -4.151276e+00 1.366080e+00 9.285725e-01 3.815787e+00 -1.759964e+00 -6.585808e+00 -3.606971e+00 2.006917e+00 3.414179e+00 1.602282e+00 5.824627e-01 -1.489123e+00 5.656686e+01 -2.725269e-01 -9.640004e-02 -1.638065e-01 -2.564777e-01 1.750416e-01 3.298796e-01 6.500252e-02 1.737200e-01 9.409376e-02 8.007632e-03 7.181264e-02 -8.711550e-02 -3.159506e-01 -5.536474e-03 -1.611657e-02 -4.164072e-02 -3.384938e-02 8.958933e-03 -1.339259e-02 5.775302e-02 -1.326129e-02 -3.041689e-02 -5.247267e-03 -6.477900e-03 -3.989010e-02 5.004515e-02
<VARIANCE> 39
 1.708327e+01 1.227748e+01 1.790679e+01 1.479584e+01 2.045327e+01 4.852108e+01 3.243696e+01 2.774413e+01 3.231395e+01 2.675694e+01 2.083416e+01 2.234715e+01 4.391771e+01 3.944824e-01 8.009215e-01 1.565247e+00 1.092177e+00 1.292563e+00 1.800476e+00 2.079862e+00 2.002809e+00 1.648992e+00 1.925567e+00 1.680961e+00 1.878932e+00 5.491799e-01 6.223338e-02 1.383623e-01 2.359968e-01 2.229288e-01 2.383821e-01 3.068008e-01 4.212416e-01 3.424705e-01 2.941098e-01 3.690161e-01 3.174686e-01 3.334404e-01 3.275578e-02
<GCONST> 9.621845e+01
<TRANSP> 5
 0.000000e+00 1.000000e+00 0.000000e+00 0.000000e+00 0.000000e+00
 0.000000e+00 6.844691e-01 3.155309e-01 0.000000e+00 0.000000e+00
 0.000000e+00 0.000000e+00 5.975664e-01 4.024336e-01 0.000000e+00
 0.000000e+00 0.000000e+00 0.000000e+00 8.599549e-01 1.400451e-01
 0.000000e+00 0.000000e+00 0.000000e+00 0.000000e+00 0.000000e+00
<ENDHMM>
~h "m"
<BEGINHMM>
<NUMSTATES> 5
<STATE> 2
<MEAN> 39
 1.016664e+00 -1.313526e+00 -1.498833e+00 2.231983e+00 -2.290833e+00 -8.958478e+00 -4.279806e+00 -3.698137e+00 -6.677714e+00 3.505083e+00 5.894100e+00 -5.026867e+00 6.785524e+01 1.800371e-01 -2.636775e-01 -1.982186e-01 -9.249728e-03 2.404127e-01 3.949527e-01 1.874226e-01 3.861534e-01 4.644747e-01 -5.044228e-01 5.652784e-03 -2.044734e-01 -4.730672e-02 -5.635160e-02 6.445882e-02 4.622948e-02 5.538921e-02 -4.586058e-02 -8.740244e-02 1.519939e-02 1.563526e-01 7.379130e-02 -9.371273e-02 -4.917112e-02 3.272653e-02 -6.825022e-02
<VARIANCE> 39
 1.047186e+01 2.038585e+01 2.671794e+01 3.183982e+01 2.030379e+01 4.549155e+01 2.407054e+01 5.693999e+01 5.823364e+01 4.038774e+01 2.577484e+01 3.198709e+01 2.504849e+01 5.204560e-01 8.141713e-01 2.481870e+00 1.321747e+00 1.440125e+00 2.582122e+00 1.226048e+00 3.177140e+00 1.806009e+00 3.256479e+00 1.907148e+00 2.343073e+00 6.590744e-01 7.100800e-02 1.043025e-01 3.364856e-01 2.287936e-01 2.549136e-01 2.968749e-01 2.249995e-01 4.203908e-01 3.016641e-01 5.767264e-01 3.713799e-01 3.957466e-01 6.861424e-02
<GCONST> 1.026364e+02
<STATE> 3
<MEAN> 39
 1.206173e+00 -1.819796e+00 -1.561234e+00 3.617408e+00 -2.089221e+00 -8.247514e+00 -3.549201e+00 -1.917186e+00 -3.903838e+00 9.152402e-01 5.188107e+00 -4.863316e+00 6.714210e+01 -9.360744e-02 -3.485555e-02 1.345866e-01 2.521320e-01 1.949581e-01 2.443003e-01 2.049381e-01 6.276187e-01 5.576217e-01 -6.099905e-01 -2.603621e-01 -3.346324e-02 -2.761628e-01 -5.121075e-02 5.528689e-02 6.906767e-02 3.537932e-02 -3.466202e-02 -4.609733e-02 1.225759e-02 4.541466e-02 -1.594015e-02 1.358014e-02 -4.424775e-02 6.600142e-02 -3.668857e-02
<VARIANCE> 39
 9.851065e+00 2.598567e+01 2.853180e+01 2.780685e+01 1.997546e+01 4.062280e+01 2.132351e+01 6.354004e+01 4.842775e+01 4.281912e+01 2.665198e+01 3.653603e+01 3.616509e+01 3.466260e-01 6.780549e-01 1.838590e+00 1.114318e+00 1.285549e+00 1.686174e+00 1.218808e+00 3.072612e+00 1.835426e+00 2.341994e+00 1.561129e+00 2.638437e+00 5.629718e-01 5.047663e-02 8.515833e-02 2.447282e-01 2.082672e-01 2.333961e-01 2.831182e-01 2.149291e-01 4.027756e-01 3.236120e-01 4.216851e-01 3.156736e-01 4.234638e-01 3.891409e-02
<GCONST> 9.873768e+01
<STATE> 4
<MEAN> 39
 -3.700438e-01 -1.703189e+00 -3.365659e-02 4.971081e+00 -1.713147e+00 -6.735498e+00 -2.717418e+00 9.170876e-01 -2.151634e+00 -2.399085e+00 3.612069e+00 -3.798491e+00 6.312624e+01 -1.906674e-01 1.294473e-01 2.078802e-01 9.088057e-02 -3.704308e-02 3.864329e-02 1.652769e-01 3.819205e-01 2.112825e-01 -1.622708e-01 -2.087460e-01 2.749562e-01 -4.806057e-01 2.176987e-03 6.829255e-03 2.361001e-02 -5.391761e-03 -6.255820e-02 -2.134154e-02 -2.713015e-02 -6.173947e-02 -2.883391e-02 5.381127e-02 1.854376e-02 5.523168e-02 -1.460177e-03
<VARIANCE> 39
 1.578465e+01 3.039458e+01 2.334696e+01 2.064831e+01 2.233088e+01 4.717071e+01 2.238688e+01 6.123574e+01 2.684297e+01 3.915875e+01 2.989320e+01 3.560371e+01 7.166743e+01 4.181966e-01 5.900643e-01 1.252697e+00 1.045029e+00 1.659476e+00 1.815319e+00 1.404040e+00 2.208337e+00 1.657875e+00 1.677063e+00 1.756230e+00 2.350617e+00 4.215740e-01 5.232693e-02 1.030251e-01 1.777199e-01 1.836860e-01 3.002849e-01 2.980853e-01 2.656179e-01 3.032568e-01 3.041696e-01 2.886790e-01 3.561989e-01 3.902886e-01 4.434349e-02
<GCONST> 9.799342e+01
<TRANSP> 5
 0.000000e+00 1.000000e+00 0.000000e+00 0.000000e+00 0.000000e+00
 0.000000e+00 7.136946e-01 2.863053e-01 0.000000e+00 0.000000e+00
 0.000000e+00 0.000000e+00 7.033706e-01 2.966295e-01 0.000000e+00
 0.000000e+00 0.000000e+00 0.000000e+00 8.979879e-01 1.020121e-01
 0.000000e+00 0.000000e+00 0.000000e+00 0.000000e+00 0.000000e+00
<ENDHMM>
~h "n"
<BEGINHMM>
<NUMSTATES> 5
<STATE> 2
<MEAN> 39
 -6.022633e-01 2.460642e+00 3.479006e+00 6.531284e+00 -5.287676e+00 -9.480227e+00 -5.036139e+00 -2.579263e+00 2.402551e-02 2.096897e-01 1.230066e+00 -3.645387e+00 6.428245e+01 7.108260e-01 -1.383658e-01 8.040881e-01 9.548821e-01 -1.263417e+00 -1.183002e+00 -8.141418e-01 -7.309849e-01 -6.299834e-02 1.266555e-01 -3.159013e-01 -3.096964e-02 1.086927e+00 -1.893370e-01 -3.096449e-01 -2.205113e-01 -1.051149e-01 5.374423e-02 3.022965e-01 1.346908e-01 5.627740e-02 9.605452e-02 4.896463e-03 1.750332e-01 4.400098e-02 -3.222021e-02
<VARIANCE> 39
 1.961887e+01 4.869872e+01 6.156765e+01 5.247848e+01 3.538184e+01 6.574268e+01 3.889170e+01 9.016351e+01 5.612103e+01 4.864067e+01 5.196438e+01 2.892671e+01 7.522843e+01 2.420329e+00 2.931975e+00 3.475483e+00 1.999862e+00 3.285936e+00 5.823580e+00 3.263416e+00 5.373792e+00 4.113096e+00 3.218015e+00 2.745654e+00 2.690164e+00 1.665366e+00 2.641578e-01 4.433283e-01 4.234816e-01 3.696963e-01 5.056653e-01 7.163714e-01 5.157831e-01 8.545727e-01 6.581202e-01 6.020796e-01 4.184118e-01 3.854962e-01 1.257722e-01
<GCONST> 1.262318e+02
<STATE> 3
<MEAN> 39
 3.091895e-01 -1.672653e+00 2.886729e+00 1.026327e+01 -9.378923e+00 -1.189495e+01 -7.224143e+00 -4.459891e+00 1.844982e+00 4.537498e-01 1.578040e+00 -5.176845e+00 6.938980e+01 -7.849569e-02 -5.165929e-01 -2.446508e-01 1.263249e-01 -4.702893e-01 4.546733e-01 -3.058099e-01 -3.426778e-01 2.035589e-01 4.103017e-02 1.564298e-01 4.508117e-01 6.924716e-01 2.283759e-02 1.476572e-01 -9.472904e-02 -3.062344e-01 1.711223e-01 2.791149e-01 2.657313e-01 -1.357923e-01 -9.680307e-02 -1.938268e-03 7.417783e-02 1.160488e-01 -1.619116e-01
<VARIANCE> 39
 6.777422e+00 2.519703e+01 6.058279e+01 3.191255e+01 3.658255e+01 6.009283e+01 3.837461e+01 7.147675e+01 6.814398e+01 4.841712e+01 3.635670e+01 3.766233e+01 4.324662e+01 5.969857e-01 1.854262e+00 5.325673e+00 2.350875e+00 2.400044e+00 2.985219e+00 3.211450e+00 5.815883e+00 3.654447e+00 2.708668e+00 3.389699e+00 2.984287e+00 1.620464e+00 1.319039e-01 2.626387e-01 5.704286e-01 2.957075e-01 4.731088e-01 5.411168e-01 5.079062e-01 9.246113e-01 7.700045e-01 4.532262e-01 5.289651e-01 5.309809e-01 1.307838e-01
<GCONST> 1.200843e+02
<STATE> 4
<MEAN> 39
 -7.254581e-01 6.068941e-01 4.640034e+00 7.578619e+00 -6.261182e+00 -6.709624e+00 -3.291175e+00 -4.869591e+00 1.768776e+00 -1.824230e+00 -5.796761e-01 -1.576056e+00 6.344714e+01 -1.441862e-01 2.147524e-01 -2.928923e-02 -1.776698e-01 1.935649e-01 4.010928e-01 2.214051e-01 6.068206e-02 -1.149198e-01 -1.654354e-02 -1.550682e-01 1.748644e-01 -4.963030e-01 -2.327840e-02 -9.065195e-03 -4.343787e-02 -1.040393e-02 1.413284e-02 -8.386900e-03 -2.851111e-03 6.430803e-02 3.799517e-03 1.613475e-02 1.815609e-02 -2.584340e-02 -8.329813e-03
<VARIANCE> 39
 1.619467e+01 1.834979e+01 2.591321e+01 2.291001e+01 5.120337e+01 5.386235e+01 2.111851e+01 5.044346e+01 3.351859e+01 3.746157e+01 2.500508e+01 2.168123e+01 6.840742e+01 2.651530e-01 4.857101e-01 1.035067e+00 9.782031e-01 1.304243e+00 1.571177e+00 1.602104e+00 2.251688e+00 1.599927e+00 1.456885e+00 1.464384e+00 1.497183e+00 2.625363e-01 3.062912e-02 7.215318e-02 1.407240e-01 1.741640e-01 2.322997e-01 3.036381e-01 3.132428e-01 3.909016e-01 3.062377e-01 2.673573e-01 2.762409e-01 2.739341e-01 2.485517e-02
<GCONST> 9.321091e+01
<TRANSP> 5
 0.000000e+00 1.000000e+00 0.000000e+00 0.000000e+00 0.000000e+00
 0.000000e+00 7.140366e-01 2.859633e-01 0.000000e+00 0.000000e+00
 0.000000e+00 0.000000e+00 7.196721e-01 2.803279e-01 0.000000e+00
 0.000000e+00 0.000000e+00 0.000000e+00 9.516769e-01 4.832313e-02
 0.000000e+00 0.000000e+00 0.000000e+00 0.000000e+00 0.000000e+00
<ENDHMM>
~h "o"
<BEGINHMM>
<NUMSTATES> 5
<STATE> 2
<MEAN> 39
 1.894290e+00 -5.459087e-01 -3.529128e+00 8.543159e-01 -8.043606e+00 -5.233523e+00 -4.651043e+00 -6.157221e+00 -6.814209e+00 2.503400e+00 8.351700e+00 -2.451406e-02 6.915793e+01 1.733237e-01 2.940731e-01 -5.143600e-02 -4.298626e-01 5.694019e-02 9.026511e-01 1.206700e+00 -1.168104e-01 -7.837178e-01 -5.334316e-01 -5.231650e-01 5.731334e-01 -2.434315e-01 -9.212582e-02 -4.005197e-02 2.195822e-01 2.421270e-01 -3.370510e-02 -1.531242e-01 -1.318901e-01 1.956712e-01 3.715490e-01 -1.324529e-01 -3.228887e-01 -5.217614e-02 -1.010726e-01
<VARIANCE> 39
 9.817375e+00 1.118276e+01 1.978846e+01 6.097526e+01 3.453332e+01 4.766987e+01 3.860527e+01 5.225453e+01 6.304188e+01 4.271992e+01 5.118848e+01 2.819693e+01 1.837842e+01 3.747448e-01 4.612026e-01 1.847010e+00 1.607793e+00 1.749312e+00 1.869150e+00 2.364305e+00 2.332652e+00 2.851455e+00 2.616754e+00 2.476922e+00 1.440404e+00 4.888727e-01 6.361223e-02 7.827649e-02 3.035342e-01 3.021463e-01 3.499162e-01 2.824248e-01 4.438883e-01 4.005199e-01 4.735794e-01 5.916657e-01 5.582361e-01 2.660699e-01 6.061173e-02
<GCONST> 1.036470e+02
<STATE> 3
<MEAN> 39
 2.293257e+00 6.904141e-01 -3.611308e+00 4.278789e-02 -8.102266e+00 -3.158219e+00 -1.336074e+00 -5.869030e+00 -7.350555e+00 1.238157e+00 5.806108e+00 1.460729e+00 6.811776e+01 -2.398583e-02 2.304770e-01 2.387100e-01 8.097564e-02 3.530037e-01 4.905659e-01 6.827680e-01 1.872092e-01 -1.869301e-02 -3.830506e-01 -7.013773e-01 1.968361e-01 -4.487459e-01 -5.980085e-02 -4.227968e-02 4.653935e-02 1.333704e-01 9.044773e-02 -1.089169e-01 -1.887302e-01 1.016612e-01 1.999558e-01 7.752033e-02 3.288005e-02 -1.244640e-01 -3.252719e-02
<VARIANCE> 39
 7.271873e+00 1.530159e+01 1.677019e+01 3.947578e+01 3.573251e+01 5.164108e+01 2.985165e+01 4.609912e+01 5.182798e+01 5.020171e+01 3.761877e+01 2.585087e+01 2.097708e+01 3.043670e-01 3.807776e-01 1.063622e+00 1.284450e+00 1.496385e+00 1.391164e+00 1.340950e+00 1.817286e+00 1.854542e+00 1.893998e+00 1.729112e+00 1.199568e+00 2.754737e-01 3.696441e-02 5.322138e-02 1.901026e-01 1.847742e-01 2.387242e-01 1.990213e-01 2.316701e-01 2.552332e-01 3.440807e-01 3.655051e-01 3.223405e-01 2.068318e-01 2.400558e-02
<GCONST> 9.193110e+01
<STATE> 4
<MEAN> 39
 -1.558708e+00 1.816867e+00 -1.534389e+00 9.124528e-01 -4.949711e+00 4.505143e-01 2.002200e+00 -1.320887e+00 -3.320628e+00 -1.017481e+00 2.467497e+00 1.374312e+00 5.942318e+01 -2.864105e-01 3.771119e-02 1.346518e-01 6.776820e-02 3.520235e-01 1.826120e-02 7.082009e-02 2.226880e-01 2.796594e-01 -4.101110e-03 -1.080395e-01 -8.360972e-02 -5.401921e-01 3.234600e-03 -8.860918e-04 -3.778826e-03 1.795397e-03 -1.744492e-02 -3.719926e-02 -5.650678e-02 -7.233152e-03 3.141272e-03 1.003044e-02 1.291621e-02 -2.931349e-02 2.477586e-02
<VARIANCE> 39
 2.255335e+01 1.137858e+01 1.147914e+01 1.752395e+01 3.951353e+01 3.907916e+01 2.784337e+01 2.491221e+01 3.590631e+01 3.850265e+01 2.532857e+01 1.912244e+01 5.482537e+01 2.597201e-01 3.942801e-01 7.436138e-01 9.422640e-01 1.426399e+00 1.631323e+00 1.646017e+00 1.689276e+00 1.767876e+00 2.093289e+00 1.799236e+00 1.300212e+00 2.171540e-01 4.017511e-02 6.746335e-02 1.286617e-01 1.613204e-01 2.738882e-01 3.194421e-01 3.011636e-01 3.169698e-01 3.283218e-01 3.880075e-01 3.463838e-01 2.441072e-01 1.816754e-02
<GCONST> 9.058574e+01
<TRANSP> 5
 0.000000e+00 1.000000e+00 0.000000e+00 0.000000e+00 0.000000e+00
 0.000000e+00 6.526334e-01 3.473666e-01 0.000000e+00 0.000000e+00
 0.000000e+00 0.000000e+00 6.960958e-01 3.039043e-01 0.000000e+00
 0.000000e+00 0.000000e+00 0.000000e+00 9.359480e-01 6.405201e-02
 0.000000e+00 0.000000e+00 0.000000e+00 0.000000e+00 0.000000e+00
<ENDHMM>
~h "p"
<BEGINHMM>
<NUMSTATES> 5
<STATE> 2
<MEAN> 39
 -6.485270e+00 -6.824172e-01 -3.600955e+00 -2.539030e-01 9.428567e-01 -5.716098e+00 -1.790059e+00 1.027757e+00 1.000057e+00 2.290584e+00 2.424145e+00 -3.417341e+00 5.796380e+01 5.610393e-01 -2.259666e-01 -3.674820e-01 -5.978801e-01 -5.244736e-01 -5.760828e-01 -7.742684e-02 2.166380e-01 3.881898e-01 1.447231e-01 6.334191e-01 -8.015098e-01 5.758603e-01 1.623119e-01 -7.485866e-02 -9.978022e-02 -1.815575e-01 -4.236984e-02 -1.028497e-01 6.449864e-02 -4.174992e-02 -1.257230e-01 2.648026e-03 1.206206e-01 -2.349419e-01 2.687415e-01
<VARIANCE> 39
 3.076623e+01 1.472616e+01 3.139289e+01 2.729399e+01 2.234834e+01 9.686053e+01 4.587344e+01 4.885007e+01 2.760079e+01 3.388910e+01 5.266467e+01 3.728214e+01 9.212825e+01 2.220299e+00 1.487291e+00 3.116921e+00 2.720812e+00 3.161209e+00 4.758556e+00 3.051848e+00 2.963000e+00 2.508598e+00 3.813569e+00 4.477401e+00 4.172830e+00 3.255526e+00 3.494515e-01 3.003655e-01 5.748736e-01 5.727104e-01 5.214962e-01 7.273284e-01 6.430460e-01 5.301215e-01 4.831569e-01 7.289276e-01 7.416717e-01 6.536173e-01 3.864422e-01
<GCONST> 1.253701e+02
<STATE> 3
<MEAN> 39
 -2.678180e+00 -1.708635e+00 -5.980791e+00 -3.816251e+00 -1.121240e-01 -9.255083e+00 -3.066528e+00 1.431202e+00 1.160783e+00 4.197145e+00 6.217474e+00 -8.054297e+00 6.316112e+01 1.012802e+00 -4.636575e-01 -6.506569e-01 -1.137970e+00 -3.015903e-01 -7.675735e-01 4.305009e-01 -8.384106e-02 3.134038e-04 4.581269e-01 9.534667e-01 -1.516931e+00 1.317416e+00 -1.327110e-01 -8.731615e-02 2.663770e-02 1.929291e-02 1.951259e-01 1.622460e-01 2.402006e-01 -7.594984e-02 -9.046197e-02 -2.172246e-02 -1.135598e-01 2.867155e-02 2.446367e-02
<VARIANCE> 39
 3.549512e+01 1.784534e+01 3.665518e+01 4.089756e+01 2.534137e+01 9.870400e+01 5.720401e+01 6.282091e+01 4.213470e+01 4.125214e+01 7.247144e+01 6.423651e+01 8.497077e+01 3.360246e+00 2.063620e+00 3.645782e+00 4.777478e+00 2.998017e+00 6.019691e+00 4.944036e+00 3.513384e+00 3.356436e+00 4.031517e+00 5.433456e+00 6.280262e+00 5.723858e+00 5.396101e-01 4.049280e-01 6.059468e-01 6.558797e-01 6.402608e-01 7.926653e-01 8.178362e-01 6.110363e-01 6.016755e-01 7.889147e-01 9.663517e-01 9.535908e-01 5.280309e-01
<GCONST> 1.349414e+02
<STATE> 4
<MEAN> 39
 -1.308494e+00 -2.595098e+00 -6.657175e+00 -5.637241e+00 -2.391328e-01 -8.852490e+00 -2.017040e+00 9.511675e-01 7.263330e-01 6.074808e+00 7.505629e+00 -1.004353e+01 6.412563e+01 1.265650e-02 -2.868099e-01 -9.703104e-02 -4.740551e-01 1.155101e-01 1.279466e-01 5.592646e-01 -8.912206e-02 5.334103e-02 1.209663e-01 3.388193e-02 -3.436636e-01 4.040988e-01 -2.212732e-01 7.572834e-02 1.261756e-01 1.520582e-01 9.486045e-02 1.550098e-01 -3.544732e-03 2.616552e-02 1.350674e-02 -9.199750e-02 -2.072213e-01 2.136599e-01 -1.534159e-01
<VARIANCE> 39
 3.445201e+01 1.938603e+01 3.622897e+01 4.123479e+01 2.286221e+01 7.749125e+01 5.731555e+01 5.950771e+01 4.138262e+01 4.535437e+01 5.569370e+01 5.381057e+01 6.562064e+01 3.216673e+00 2.031722e+00 2.385376e+00 3.207143e+00 2.387913e+00 4.022265e+00 3.654562e+00 2.678009e+00 3.042190e+00 3.206779e+00 3.568160e+00 4.264798e+00 4.185526e+00 5.067096e-01 3.485231e-01 4.390434e-01 5.136935e-01 3.881832e-01 7.047886e-01 6.103784e-01 5.287198e-01 5.518415e-01 6.692973e-01 6.889110e-01 6.741142e-01 4.471744e-01
<GCONST> 1.275005e+02
<TRANSP> 5
 0.000000e+00 1.000000e+00 0.000000e+00 0.000000e+00 0.000000e+00
 0.000000e+00 6.185185e-01 3.814815e-01 0.000000e+00 0.000000e+00
 0.000000e+00 0.000000e+00 6.829531e-01 3.170469e-01 0.000000e+00
 0.000000e+00 0.000000e+00 0.000000e+00 8.034450e-01 1.965550e-01
 0.000000e+00 0.000000e+00 0.000000e+00 0.000000e+00 0.000000e+00
<ENDHMM>
~h "r"
<BEGINHMM>
<NUMSTATES> 5
<STATE> 2
<MEAN> 39
 -4.781342e+00 1.034694e+00 4.254651e+00 3.724459e+00 -5.071646e+00 -8.968481e+00 -2.502053e+00 2.120739e+00 -1.272800e+00 7.114723e-01 1.040208e+00 -2.996607e+00 6.216083e+01 -1.517638e-01 1.714559e-02 2.681291e-01 2.554366e-02 -1.201577e-01 3.094594e-01 -2.870473e-01 7.051687e-02 -6.093915e-02 6.440563e-02 -1.889544e-01 4.404560e-01 -4.682593e-01 1.184666e-02 2.046865e-02 -7.103799e-02 -2.574383e-02 1.354212e-01 9.443732e-02 1.006959e-01 -8.223460e-02 -5.040391e-02 -7.102977e-03 9.321227e-03 -1.216370e-01 -3.900225e-02
<VARIANCE> 39
 1.865700e+01 3.015601e+01 8.986858e+01 2.458571e+01 7.118530e+01 6.454446e+01 3.213312e+01 4.404951e+01 9.169984e+01 3.025583e+01 2.919719e+01 3.887107e+01 9.141941e+01 5.787032e-01 9.176025e-01 1.261546e+00 1.714737e+00 2.136536e+00 2.580230e+00 2.191732e+00 2.335108e+00 2.111291e+00 1.915034e+00 1.603829e+00 2.553589e+00 5.029709e-01 7.972160e-02 1.781212e-01 2.064615e-01 2.699445e-01 3.593754e-01 5.039590e-01 3.579610e-01 4.901228e-01 3.708110e-01 3.674412e-01 3.709841e-01 4.373031e-01 5.995961e-02
<GCONST> 1.092575e+02
<STATE> 3
<MEAN> 39
 -5.147969e+00 1.373832e+00 5.149721e+00 3.941416e+00 -5.103308e+00 -8.206625e+00 -2.619507e+00 1.757960e+00 -2.079692e+00 8.804269e-01 9.057972e-01 -2.629949e+00 6.111864e+01 -1.428278e-01 8.556728e-02 2.681911e-02 -2.159769e-02 2.082041e-01 5.198455e-01 7.042769e-02 -5.243883e-02 -7.888088e-02 4.196799e-02 -1.381192e-01 1.359071e-01 -5.355876e-01 -2.530208e-03 2.415963e-02 -6.485403e-02 -3.617533e-02 1.022790e-01 5.653435e-02 1.187057e-01 -3.302634e-02 -2.559045e-02 -1.780618e-02 5.559387e-02 -1.331540e-01 1.273435e-02
<VARIANCE> 39
 1.759153e+01 2.582833e+01 8.777855e+01 2.568907e+01 6.699386e+01 6.348360e+01 3.424148e+01 3.882249e+01 8.645034e+01 2.779522e+01 2.627247e+01 3.348577e+01 8.617560e+01 4.512560e-01 8.776081e-01 1.001637e+00 1.474551e+00 1.852906e+00 2.294002e+00 1.935784e+00 2.019608e+00 1.939977e+00 1.786680e+00 1.735924e+00 2.200365e+00 4.654568e-01 8.985267e-02 1.570643e-01 1.813451e-01 3.188805e-01 3.689609e-01 4.457535e-01 4.028630e-01 4.568362e-01 4.002544e-01 3.741298e-01 3.561785e-01 4.341506e-01 5.634336e-02
<GCONST> 1.069275e+02
<STATE> 4
<MEAN> 39
 -7.541634e+00 8.350260e-01 3.151268e+00 4.366921e+00 -2.313302e+00 -2.647891e+00 -5.127741e-01 3.959360e-01 -2.637860e+00 -2.593874e-01 7.353018e-01 -2.385316e+00 5.382685e+01 -1.603359e-01 -4.587287e-02 -3.371439e-01 -1.095944e-01 2.802684e-01 3.287566e-01 1.365388e-01 1.100435e-02 1.710665e-01 -1.034238e-02 -5.768941e-02 1.645248e-01 -3.311315e-01 -6.735660e-03 2.194655e-02 2.169307e-02 -1.272899e-02 -8.275175e-03 -5.834113e-02 -1.290960e-03 1.437639e-02 -2.426340e-02 8.094355e-03 2.649528e-02 -2.201018e-02 6.001304e-02
<VARIANCE> 39
 1.217476e+01 1.516941e+01 5.475214e+01 2.127393e+01 4.608047e+01 4.912189e+01 2.796823e+01 3.374915e+01 4.911124e+01 2.224161e+01 2.259323e+01 2.729582e+01 6.133626e+01 3.329413e-01 6.524451e-01 8.822390e-01 1.247215e+00 1.621502e+00 1.770970e+00 1.688283e+00 1.694324e+00 1.723326e+00 1.711189e+00 1.685697e+00 1.703927e+00 2.716594e-01 8.480131e-02 1.371333e-01 1.445803e-01 2.826411e-01 3.241555e-01 3.558163e-01 3.429781e-01 3.773817e-01 3.432444e-01 3.428567e-01 3.474609e-01 3.363693e-01 3.850520e-02
<GCONST> 9.817613e+01
<TRANSP> 5
 0.000000e+00 1.000000e+00 0.000000e+00 0.000000e+00 0.000000e+00
 0.000000e+00 2.542592e-01 7.457408e-01 0.000000e+00 0.000000e+00
 0.000000e+00 0.000000e+00 3.129295e-01 6.870705e-01 0.000000e+00
 0.000000e+00 0.000000e+00 0.000000e+00 7.767128e-01 2.232872e-01
 0.000000e+00 0.000000e+00 0.000000e+00 0.000000e+00 0.000000e+00
<ENDHMM>
~h "s"
<BEGINHMM>
<NUMSTATES> 5
<STATE> 2
<MEAN> 39
 -1.198237e+01 1.227766e+00 -2.690444e+00 -2.646044e+00 8.905653e-01 -1.385491e+01 4.245959e+00 9.330508e+00 2.817520e+00 3.348264e+00 -1.122416e+00 -3.661482e+00 6.937888e+01 -2.101616e+00 9.986017e-01 -1.565052e-01 -4.231044e-01 1.909927e-01 5.963955e-01 -3.921415e-01 3.082731e-01 7.284447e-04 -2.176359e-01 2.221581e-01 3.691151e-01 1.861971e-01 3.632367e-02 9.487224e-03 -5.580219e-02 7.032433e-03 -1.464721e-02 -1.267712e-01 -1.693469e-02 -5.585506e-02 -2.381965e-02 -1.595225e-02 1.656885e-02 -8.837940e-02 -2.979903e-02
<VARIANCE> 39
 8.044561e+01 3.883713e+01 5.551144e+01 5.427205e+01 6.402959e+01 8.845962e+01 6.137431e+01 5.479807e+01 5.457139e+01 5.134827e+01 3.357912e+01 4.682675e+01 2.904766e+01 4.144094e+00 1.745415e+00 1.756570e+00 2.208436e+00 2.024604e+00 3.935965e+00 3.220456e+00 3.653445e+00 2.869986e+00 3.269799e+00 2.347488e+00 2.585242e+00 1.670219e+00 6.828695e-01 3.266033e-01 3.376319e-01 3.534922e-01 3.883047e-01 5.972819e-01 5.838782e-01 6.271046e-01 5.355385e-01 5.732648e-01 4.529070e-01 5.094438e-01 2.772989e-01
<GCONST> 1.255727e+02
<STATE> 3
<MEAN> 39
 -1.956119e+01 4.835668e+00 -3.468818e+00 -4.559024e+00 2.277576e+00 -1.186051e+01 2.577653e+00 9.663746e+00 2.442136e+00 2.742452e+00 -4.472463e-02 -2.499587e+00 6.852117e+01 -7.169080e-01 3.179541e-01 -2.105481e-01 -1.347792e-01 3.045016e-02 -8.429117e-02 -2.241726e-01 -8.949986e-02 -2.081490e-01 9.596775e-03 1.766812e-01 2.678085e-02 -2.115778e-01 4.930140e-01 -1.770861e-01 5.336275e-02 1.268461e-01 -7.545282e-02 -1.056258e-01 -1.845041e-02 -1.979076e-01 -9.375729e-02 1.390656e-02 -6.437765e-03 -5.773888e-02 -4.607942e-02
<VARIANCE> 39
 5.150020e+01 2.401274e+01 7.252068e+01 6.409084e+01 4.865049e+01 4.181882e+01 5.898579e+01 5.133136e+01 4.621286e+01 4.033616e+01 3.325881e+01 3.392380e+01 2.002715e+01 4.811379e+00 1.615549e+00 1.582928e+00 2.007036e+00 2.052202e+00 2.764914e+00 3.484051e+00 3.236337e+00 2.763451e+00 2.969016e+00 2.129601e+00 2.087858e+00 7.621455e-01 4.830396e-01 2.280327e-01 3.127365e-01 3.821951e-01 4.141910e-01 4.500645e-01 6.773512e-01 5.914553e-01 5.002641e-01 5.738799e-01 4.433987e-01 4.148646e-01 1.523124e-01
<GCONST> 1.193739e+02
<STATE> 4
<MEAN> 39
 -1.813252e+01 5.194081e+00 -6.995942e+00 -3.706847e+00 3.744591e+00 -1.065033e+01 4.385090e+00 6.421621e+00 1.154649e+00 4.536121e+00 -1.455697e-01 -3.392245e+00 6.583438e+01 9.013757e-01 -2.202215e-01 2.511556e-02 2.597305e-01 -1.134265e-01 2.589696e-02 -1.763425e-01 -7.368178e-01 -3.803901e-01 6.007098e-02 9.948008e-02 7.528518e-03 -4.931581e-01 2.128356e-01 -5.833422e-02 6.462629e-02 6.757382e-02 -7.605463e-02 -4.528799e-02 -5.222107e-02 -6.355004e-02 -7.584389e-02 -4.846991e-02 7.977002e-02 1.131689e-02 7.721584e-02
<VARIANCE> 39
 4.334558e+01 1.971870e+01 7.697108e+01 3.955085e+01 3.755692e+01 3.812585e+01 5.470485e+01 5.662653e+01 4.130054e+01 3.311244e+01 3.222649e+01 2.760502e+01 2.584022e+01 2.865089e+00 8.908536e-01 1.864415e+00 2.351446e+00 2.209928e+00 3.128064e+00 2.871522e+00 2.789102e+00 2.790201e+00 2.394677e+00 1.956436e+00 1.727995e+00 1.102033e+00 3.514750e-01 1.519377e-01 2.708610e-01 3.532813e-01 3.910703e-01 4.514247e-01 5.503567e-01 5.000905e-01 4.091384e-01 4.468959e-01 4.098696e-01 3.208738e-01 1.425440e-01
<GCONST> 1.146844e+02
<TRANSP> 5
 0.000000e+00 1.000000e+00 0.000000e+00 0.000000e+00 0.000000e+00
 0.000000e+00 8.051372e-01 1.948628e-01 0.000000e+00 0.000000e+00
 0.000000e+00 0.000000e+00 7.765877e-01 2.234124e-01 0.000000e+00
 0.000000e+00 0.000000e+00 0.000000e+00 8.622324e-01 1.377677e-01
 0.000000e+00 0.000000e+00 0.000000e+00 0.000000e+00 0.000000e+00
<ENDHMM>
~h "t"
<BEGINHMM>
<NUMSTATES> 5
<STATE> 2
<MEAN> 39
 -1.160824e+01 1.283270e+00 -6.812666e+00 6.872430e-02 1.341425e+00 -7.298585e+00 5.925080e-02 7.057248e-01 1.645715e+00 1.963658e+00 -2.022503e+00 4.218985e-01 6.000940e+01 1.295762e+00 -7.213520e-01 8.391621e-01 6.786112e-01 -1.444285e+00 -2.270438e+00 -2.592362e+00 -1.178112e-01 8.962456e-02 -2.868448e-01 -5.047533e-02 -2.993300e-03 2.080279e+00 4.118160e-01 1.827533e-01 -6.169146e-02 -1.396281e-01 1.523061e-01 -2.511747e-01 -8.870327e-02 -2.850333e-01 -7.393058e-02 2.098212e-01 2.620779e-01 -4.423185e-01 3.739171e-01
<VARIANCE> 39
 2.132989e+01 3.942649e+01 6.387513e+01 7.392490e+01 8.112726e+01 7.470222e+01 8.609811e+01 4.216211e+01 3.047412e+01 5.946358e+01 2.682166e+01 3.393512e+01 4.930397e+01 2.714458e+00 2.999453e+00 2.228859e+00 4.360091e+00 5.331492e+00 6.238492e+00 6.522430e+00 6.208487e+00 3.208894e+00 4.203115e+00 3.775297e+00 5.616541e+00 3.154956e+00 4.184697e-01 5.790623e-01 4.874775e-01 7.573966e-01 1.186856e+00 1.505121e+00 1.824967e+00 1.076418e+00 6.759453e-01 7.282221e-01 7.542619e-01 8.787667e-01 5.567436e-01
<GCONST> 1.375094e+02
<STATE> 3
<MEAN> 39
 -3.482710e+00 3.635971e-01 -3.168602e+00 2.514313e+00 -2.944418e+00 -1.546822e+01 -1.014221e+01 -2.010958e+00 1.264322e+00 2.052265e+00 -1.712661e-01 -3.173514e+00 6.765788e+01 2.451432e+00 4.287274e-01 -4.709353e-01 -6.410065e-01 7.387165e-01 -6.767938e-01 -1.631055e-01 -2.031221e+00 -1.186553e+00 9.652817e-01 1.746816e+00 -1.976760e+00 1.635611e+00 -3.323122e-01 6.294480e-02 -4.405008e-01 -5.259326e-01 6.135148e-01 1.208943e+00 1.413213e+00 -2.745738e-01 -5.530032e-01 -5.577825e-02 2.828762e-01 1.766169e-01 -6.896102e-01
<VARIANCE> 39
 2.339527e+01 2.163152e+01 5.279696e+01 1.111007e+02 6.599984e+01 5.870625e+01 8.101581e+01 9.041357e+01 4.817771e+01 9.876376e+01 4.769611e+01 6.135543e+01 2.736847e+01 1.583331e+00 4.776162e+00 2.047658e+00 3.399061e+00 4.477420e+00 6.319760e+00 8.289801e+00 7.936133e+00 4.657675e+00 3.676601e+00 4.105527e+00 4.190909e+00 1.683539e+00 4.194245e-01 4.416326e-01 3.706845e-01 7.122270e-01 8.481924e-01 7.688128e-01 9.444963e-01 7.791501e-01 5.727710e-01 8.484615e-01 7.957368e-01 1.008848e+00 2.052753e-01
<GCONST> 1.349230e+02
<STATE> 4
<MEAN> 39
 -1.087525e-01 1.131455e-01 -6.132788e+00 -3.655086e-01 7.728519e-01 -1.321483e+01 -4.806998e+00 -5.347430e+00 -2.425999e+00 4.366041e+00 2.959605e+00 -6.483895e+00 6.946806e+01 9.767398e-01 8.484778e-02 -8.504173e-01 -9.761834e-01 9.789017e-01 1.791112e+00 2.241168e+00 -1.689931e+00 -1.918325e+00 -2.263875e-01 1.386403e+00 -4.611118e-01 2.195334e-01 -5.922667e-01 9.387757e-02 1.008513e-02 -7.224211e-03 -7.511020e-02 6.037883e-01 4.542203e-01 2.847340e-01 -1.308788e-01 -4.809712e-01 -4.110726e-01 7.554474e-01 -4.811379e-01
<VARIANCE> 39
 8.078253e+00 1.784745e+01 3.544801e+01 7.182303e+01 4.184083e+01 6.071144e+01 8.693771e+01 1.254507e+02 6.060426e+01 7.428749e+01 5.023341e+01 5.548582e+01 2.478709e+01 8.346421e-01 1.504044e+00 1.095592e+00 2.005761e+00 1.576857e+00 1.848657e+00 1.556195e+00 4.196986e+00 2.645767e+00 1.705159e+00 1.982847e+00 4.116536e+00 7.212914e-01 1.184349e-01 3.264397e-01 2.005722e-01 2.835389e-01 3.549638e-01 5.525080e-01 7.078798e-01 7.354214e-01 5.038695e-01 4.427654e-01 6.606339e-01 3.379016e-01 7.832956e-02
<GCONST> 1.144755e+02
<TRANSP> 5
 0.000000e+00 1.000000e+00 0.000000e+00 0.000000e+00 0.000000e+00
 0.000000e+00 7.818767e-01 2.181232e-01 0.000000e+00 0.000000e+00
 0.000000e+00 0.000000e+00 5.340877e-01 4.659123e-01 0.000000e+00
 0.000000e+00 0.000000e+00 0.000000e+00 2.132648e-01 7.867352e-01
 0.000000e+00 0.000000e+00 0.000000e+00 0.000000e+00 0.000000e+00
<ENDHMM>
~h "u"
<BEGINHMM>
<NUMSTATES> 5
<STATE> 2
<MEAN> 39
 5.760363e-01 -1.108770e+00 2.990186e+00 6.659808e+00 -7.830663e+00 -1.985365e+01 -7.124756e+00 2.361381e-01 -2.516633e+00 -3.550477e+00 6.492404e+00 1.132756e+00 6.987880e+01 -1.118317e-01 2.715334e-01 -4.262453e-01 -1.576134e-01 5.041080e-01 -4.146991e-01 3.858812e-01 -6.632900e-01 1.171437e-01 1.069665e-01 2.054946e-01 6.303106e-02 2.925692e-01 1.444367e-02 1.117129e-01 -3.010073e-02 6.372225e-02 7.647136e-02 1.471229e-01 3.609819e-02 -1.304132e-01 4.101242e-02 9.312987e-02 -1.522675e-01 -2.077351e-02 -1.846551e-01
<VARIANCE> 39
 9.468204e+00 3.304443e+01 2.513775e+01 4.938971e+01 5.576201e+01 6.531908e+01 5.522795e+01 8.895581e+01 5.214064e+01 6.862019e+01 3.362423e+01 4.038416e+01 2.124444e+01 5.067436e-01 1.243135e+00 1.511368e+00 1.891237e+00 2.219428e+00 3.410924e+00 3.831862e+00 3.513656e+00 3.152488e+00 3.393371e+00 3.115664e+00 2.372945e+00 1.052091e+00 7.926787e-02 2.049185e-01 2.753642e-01 3.339204e-01 3.686697e-01 4.515044e-01 7.857727e-01 6.167881e-01 5.002002e-01 6.275039e-01 5.962087e-01 4.206672e-01 1.375437e-01
<GCONST> 1.157836e+02
<STATE> 3
<MEAN> 39
 8.179898e-01 3.016844e-01 1.743200e+00 6.587499e+00 -5.519612e+00 -2.033137e+01 -5.399703e+00 -2.042590e+00 -2.458127e+00 -1.165587e-02 5.210402e+00 8.426890e-01 7.015949e+01 -5.043920e-03 1.879382e-01 -2.247792e-01 -5.319932e-02 3.428723e-01 -4.270251e-02 8.392307e-02 -5.251796e-01 1.954609e-01 3.085694e-01 -8.244064e-02 -3.349346e-02 4.123931e-02 3.804018e-02 -1.382277e-03 2.727476e-02 6.038692e-03 1.842977e-03 1.080001e-01 -4.931984e-02 8.792418e-03 -3.986804e-02 6.334972e-02 -7.626297e-02 -2.167552e-02 -8.385527e-02
<VARIANCE> 39
 1.094868e+01 2.498665e+01 2.315322e+01 4.311414e+01 5.836662e+01 6.135994e+01 5.024702e+01 7.917346e+01 7.007288e+01 8.870110e+01 3.447673e+01 4.665553e+01 1.888318e+01 5.131679e-01 1.188722e+00 2.216520e+00 2.132564e+00 2.476346e+00 3.414550e+00 3.261049e+00 3.572787e+00 3.578286e+00 4.874358e+00 2.425618e+00 2.442171e+00 8.158490e-01 7.267601e-02 1.550767e-01 3.880541e-01 3.572429e-01 3.864378e-01 5.245796e-01 6.143898e-01 5.711921e-01 5.256242e-01 9.503735e-01 5.028377e-01 4.826010e-01 1.135749e-01
<GCONST> 1.164165e+02
<STATE> 4
<MEAN> 39
 1.062100e+00 -6.420767e-01 6.599330e-01 6.660504e+00 -4.293166e+00 -1.689771e+01 -7.905756e+00 -7.115338e+00 -8.124014e-01 -7.309101e-01 4.405902e+00 1.255691e+00 6.894605e+01 -1.450613e-02 8.901899e-02 -1.438831e-01 -4.927406e-02 1.217864e-01 1.714534e-01 1.286463e-01 8.248200e-02 1.619795e-01 1.753981e-01 -1.977548e-01 -3.952226e-02 -1.305919e-01 -6.674550e-03 5.132202e-03 1.677613e-02 -9.230422e-03 -1.067470e-02 3.938846e-02 1.836301e-02 3.860533e-02 3.298619e-03 -3.349944e-03 -5.207157e-03 3.438699e-03 -2.729924e-02
<VARIANCE> 39
 8.573984e+00 1.401403e+01 2.237804e+01 2.651156e+01 3.218696e+01 4.410093e+01 3.659744e+01 7.681661e+01 7.091389e+01 4.659247e+01 3.455192e+01 3.363951e+01 1.558296e+01 4.274358e-01 9.148518e-01 2.040601e+00 1.988688e+00 1.855497e+00 2.462123e+00 2.709798e+00 3.001686e+00 2.930306e+00 2.654972e+00 2.150853e+00 2.213320e+00 6.832864e-01 6.283148e-02 1.358711e-01 3.115397e-01 3.284454e-01 3.158894e-01 4.079903e-01 5.138429e-01 5.113326e-01 4.107258e-01 5.284230e-01 4.243704e-01 4.152305e-01 8.127344e-02
<GCONST> 1.070643e+02
<TRANSP> 5
 0.000000e+00 1.000000e+00 0.000000e+00 0.000000e+00 0.000000e+00
 0.000000e+00 6.937394e-01 3.062607e-01 0.000000e+00 0.000000e+00
 0.000000e+00 0.000000e+00 7.838001e-01 2.161998e-01 0.000000e+00
 0.000000e+00 0.000000e+00 0.000000e+00 9.628708e-01 3.712921e-02
 0.000000e+00 0.000000e+00 0.000000e+00 0.000000e+00 0.000000e+00
<ENDHMM>
~h "w"
<BEGINHMM>
<NUMSTATES> 5
<STATE> 2
<MEAN> 39
 -7.687455e-01 8.610375e+00 2.481465e+00 6.859062e-01 -4.292308e+00 -3.837561e+00 -1.002355e+00 -3.703709e+00 -4.497641e+00 -2.037208e+00 -1.071585e-01 -1.191693e+00 5.521276e+01 1.797231e+00 1.134331e+00 3.302170e-01 -5.013920e-01 -1.115829e+00 -7.794669e-01 -4.188093e-02 -7.641908e-01 -1.284620e+00 -3.252709e-01 4.470657e-01 -1.001480e-01 1.044745e+00 -7.776941e-02 -2.842577e-01 -2.679611e-01 -9.787827e-02 -3.028921e-02 6.126476e-02 1.748440e-01 5.144325e-03 -6.056665e-02 1.243592e-01 3.069371e-01 4.511953e-02 5.454195e-02
<VARIANCE> 39
 2.880883e+01 1.920366e+01 1.068013e+01 1.791082e+01 3.066697e+01 2.484719e+01 2.265970e+01 2.628390e+01 3.800686e+01 2.046157e+01 1.293031e+01 1.178219e+01 1.969302e+01 1.995151e+00 2.266678e+00 1.796905e+00 1.623279e+00 2.819454e+00 3.410956e+00 2.186883e+00 2.418576e+00 2.394470e+00 1.466220e+00 1.742985e+00 1.513130e+00 6.063439e-01 3.548014e-01 3.559540e-01 2.721291e-01 3.030907e-01 4.941065e-01 6.392592e-01 3.837707e-01 4.607683e-01 4.505086e-01 2.559761e-01 3.431463e-01 2.720474e-01 1.245910e-01
<GCONST> 1.051056e+02
<STATE> 3
<MEAN> 39
 4.632152e+00 8.655523e+00 3.049425e-01 -2.158518e+00 -8.584240e+00 -5.551683e+00 7.856830e-01 -7.368314e+00 -1.076448e+01 -1.957177e+00 5.392263e+00 -9.490752e-01 6.043163e+01 7.553202e-01 -9.420521e-01 -1.222472e+00 -7.778016e-01 -2.926576e-01 -2.765015e-01 3.574349e-01 -9.742524e-01 -5.353422e-01 5.155455e-01 2.469847e+00 -1.950473e-02 1.425948e+00 -3.385051e-01 -4.194744e-01 -1.707978e-01 1.001820e-01 3.875147e-01 3.124086e-02 -1.007610e-01 5.531267e-02 6.808890e-01 1.878115e-01 2.647341e-01 -2.308103e-01 1.314184e-01
<VARIANCE> 39
 8.619819e+00 1.333567e+01 1.504133e+01 2.322502e+01 2.230328e+01 4.066901e+01 2.441187e+01 4.877742e+01 6.392407e+01 2.798806e+01 3.879095e+01 2.020959e+01 1.929878e+01 1.018985e+00 1.917113e+00 1.287209e+00 1.421038e+00 1.856211e+00 3.604662e+00 2.295007e+00 2.872840e+00 4.668878e+00 2.646213e+00 3.965611e+00 2.578293e+00 7.454559e-01 1.468474e-01 1.867120e-01 2.007326e-01 3.352056e-01 3.449559e-01 6.497183e-01 4.083059e-01 4.926744e-01 6.478440e-01 4.236454e-01 6.629809e-01 4.980795e-01 1.175298e-01
<GCONST> 1.089529e+02
<STATE> 4
<MEAN> 39
 2.499421e+00 -1.662713e+00 -6.105930e+00 -1.842498e+00 -6.902945e+00 -1.076355e+01 -1.013624e+00 -3.807024e+00 1.010734e+00 2.813976e+00 1.383999e+01 -8.788492e+00 7.048116e+01 -5.808629e-01 -1.139011e+00 -1.390644e-01 8.741947e-01 5.899585e-02 -7.955313e-01 -6.272236e-01 1.153341e+00 1.466935e+00 9.672316e-02 -4.777653e-01 -9.099092e-01 1.032228e+00 -4.548045e-02 1.883860e-01 2.907787e-01 2.057973e-01 -8.653546e-02 2.464165e-02 -5.921698e-02 1.139477e-01 -1.701482e-01 -2.008652e-01 -4.869514e-01 2.183881e-01 -2.095883e-01
<VARIANCE> 39
 1.345074e+01 2.136417e+01 1.749616e+01 2.781997e+01 1.880051e+01 6.271647e+01 3.106118e+01 1.319585e+02 1.216532e+02 4.344461e+01 4.357974e+01 5.705272e+01 3.128770e+01 4.191429e-01 1.064258e+00 1.920462e+00 1.630696e+00 1.122066e+00 2.088530e+00 1.421725e+00 4.135743e+00 5.514703e+00 2.764910e+00 5.629606e+00 4.279531e+00 8.760929e-01 8.906795e-02 1.266371e-01 1.429130e-01 2.318056e-01 1.876938e-01 4.628524e-01 2.884006e-01 8.657685e-01 7.918224e-01 4.186908e-01 8.588809e-01 6.734048e-01 4.778079e-02
<GCONST> 1.110669e+02
<TRANSP> 5
 0.000000e+00 1.000000e+00 0.000000e+00 0.000000e+00 0.000000e+00
 0.000000e+00 8.331873e-01 1.668127e-01 0.000000e+00 0.000000e+00
 0.000000e+00 0.000000e+00 7.426152e-01 2.573847e-01 0.000000e+00
 0.000000e+00 0.000000e+00 0.000000e+00 8.830434e-01 1.169566e-01
 0.000000e+00 0.000000e+00 0.000000e+00 0.000000e+00 0.000000e+00
<ENDHMM>
~h "y"
<BEGINHMM>
<NUMSTATES> 5
<STATE> 2
<MEAN> 39
 -3.574142e+00 9.212946e+00 1.283556e+01 2.148167e+00 -8.224677e+00 -5.252249e+00 -8.782753e+00 3.461657e+00 -9.442822e+00 -3.238235e+00 3.135892e+00 -3.048177e+00 6.067836e+01 3.600980e-01 2.316041e-01 2.156351e+00 -4.033538e-01 -2.061478e+00 -1.439672e+00 -5.318701e-01 6.887277e-01 -1.523263e+00 -4.414190e-01 9.840161e-01 -3.055477e-01 1.577709e+00 -2.611333e-01 -4.605116e-01 -2.102390e-01 -1.001309e-01 -4.959243e-02 -1.362145e-01 3.764304e-01 1.317533e-01 1.555630e-01 1.161266e-01 9.757944e-02 1.572864e-01 3.979480e-02
<VARIANCE> 39
 1.269449e+01 1.525012e+01 5.667239e+01 4.284518e+01 1.002438e+02 4.632504e+01 3.963916e+01 4.991389e+01 4.856067e+01 2.885478e+01 3.820704e+01 2.522594e+01 2.871149e+01 2.278189e+00 3.768763e+00 2.516020e+00 3.366997e+00 4.781547e+00 4.821060e+00 4.368713e+00 2.905561e+00 3.483049e+00 2.844292e+00 2.418938e+00 1.816214e+00 6.801428e-01 2.898747e-01 3.384396e-01 4.330073e-01 6.815670e-01 8.493354e-01 9.757342e-01 5.871404e-01 5.229863e-01 6.329237e-01 5.588774e-01 4.551700e-01 2.820831e-01 1.060493e-01
<GCONST> 1.213517e+02
<STATE> 3
<MEAN> 39
 -5.654380e+00 2.588198e+00 1.854123e+01 2.253549e+00 -2.070069e+01 -1.669085e+01 -5.101614e+00 9.903820e+00 -1.329558e+01 -3.762492e+00 9.919792e+00 -1.602143e+00 7.117452e+01 4.621142e-02 -1.602432e+00 -1.288691e+00 -2.082788e-01 -4.361153e-01 -2.580348e+00 9.726250e-01 8.187559e-01 1.364691e+00 7.506531e-01 8.666429e-02 2.818275e-01 1.536251e+00 1.922078e-01 -1.000633e-02 -6.644303e-01 -4.854760e-02 6.203126e-01 8.542486e-02 7.251649e-02 2.296152e-02 5.386514e-01 1.565574e-01 -3.101363e-01 -1.610411e-01 -1.226842e-01
<VARIANCE> 39
 6.876250e+00 1.992181e+01 3.059872e+01 6.247767e+01 8.450508e+01 5.069044e+01 3.253578e+01 5.081627e+01 7.167905e+01 4.450557e+01 2.656212e+01 2.322055e+01 2.528145e+01 7.009142e-01 7.267922e-01 3.681297e+00 8.620061e-01 3.567774e+00 1.983963e+00 1.675164e+00 1.866714e+00 3.774127e+00 2.080244e+00 2.613675e+00 1.283385e+00 6.588179e-01 9.819287e-02 1.396746e-01 2.463618e-01 2.147926e-01 4.112931e-01 5.280263e-01 2.941760e-01 4.092264e-01 3.054099e-01 3.354580e-01 4.079070e-01 2.783286e-01 7.276645e-02
<GCONST> 1.061324e+02
<STATE> 4
<MEAN> 39
 -2.823531e+00 -4.851228e+00 4.350212e+00 -2.933869e+00 -9.591744e+00 -2.527945e+01 1.645120e+00 1.340407e+01 -1.529161e+00 3.031847e+00 4.336812e+00 -6.270237e+00 7.627472e+01 2.837365e-01 -1.765553e-01 -1.343000e+00 -1.661881e-01 1.433281e+00 2.042704e-01 6.469033e-01 -2.558124e-01 7.115697e-01 4.911972e-01 -6.302912e-01 -5.173159e-01 5.116318e-02 -4.698833e-02 2.366129e-01 2.154803e-01 9.487985e-02 -2.070665e-02 3.382190e-01 -8.141172e-02 -1.797450e-01 -2.511934e-01 -8.184740e-02 6.365822e-02 7.696337e-02 -1.893549e-01
<VARIANCE> 39
 1.352904e+01 1.174930e+01 6.667510e+01 5.712040e+01 1.216389e+02 6.237555e+01 4.855537e+01 5.109462e+01 1.498312e+02 6.194250e+01 3.628255e+01 5.969609e+01 1.905364e+01 2.335443e-01 9.582828e-01 1.381515e+00 1.034987e+00 1.506438e+00 2.639535e+00 1.421084e+00 1.807988e+00 2.709318e+00 1.225610e+00 1.860444e+00 2.672643e+00 4.899287e-01 4.507603e-02 5.590725e-02 9.438977e-02 1.066020e-01 2.143157e-01 2.580847e-01 2.246777e-01 1.879006e-01 3.383673e-01 2.341475e-01 2.838308e-01 3.689676e-01 1.794759e-02
<GCONST> 9.932578e+01
<TRANSP> 5
 0.000000e+00 1.000000e+00 0.000000e+00 0.000000e+00 0.000000e+00
 0.000000e+00 8.808645e-01 1.191355e-01 0.000000e+00 0.000000e+00
 0.000000e+00 0.000000e+00 7.858943e-01 2.141057e-01 0.000000e+00
 0.000000e+00 0.000000e+00 0.000000e+00 9.060811e-01 9.391894e-02
 0.000000e+00 0.000000e+00 0.000000e+00 0.000000e+00 0.000000e+00
<ENDHMM>
~h "z"
<BEGINHMM>
<NUMSTATES> 5
<STATE> 2
<MEAN> 39
 -1.042151e+01 1.105400e+01 1.828804e+01 5.045749e+00 -1.356547e+01 -1.435520e+01 1.656284e+00 -1.102069e+00 -1.810635e+01 -3.551161e-01 2.004339e+00 -3.560644e+00 6.884967e+01 -4.080280e-01 4.435793e-01 -5.572444e-01 -6.208771e-02 1.100993e+00 -3.617898e-01 3.166091e-01 2.260913e-01 2.482956e-01 1.248979e-01 -1.235706e-01 2.661778e-01 -1.682970e-01 -6.381976e-02 -2.337434e-02 -4.510431e-02 -3.047851e-02 9.584536e-02 3.104722e-02 -2.986673e-02 6.778930e-02 7.580558e-02 -9.263866e-03 1.362981e-02 -3.109124e-02 -1.676542e-02
<VARIANCE> 39
 1.799975e+01 1.624472e+01 2.681742e+01 2.423130e+01 7.599046e+01 3.671038e+01 3.418544e+01 4.339387e+01 4.073108e+01 3.095510e+01 3.701090e+01 2.917708e+01 1.652223e+01 8.416603e-01 6.293740e-01 7.988516e-01 1.072591e+00 2.109761e+00 2.185460e+00 1.376306e+00 1.623954e+00 1.741384e+00 1.159162e+00 1.349098e+00 1.213806e+00 9.125533e-02 8.107276e-02 9.942319e-02 1.235343e-01 1.911842e-01 2.532616e-01 3.674132e-01 2.366400e-01 2.550217e-01 2.969767e-01 2.161267e-01 2.304107e-01 2.233583e-01 1.432672e-02
<GCONST> 9.263364e+01
<STATE> 3
<MEAN> 39
 -1.704362e+01 1.439758e+01 1.033871e+01 2.581764e+00 2.641677e+00 -1.659486e+01 3.808640e+00 4.197274e+00 -1.216092e+01 9.276909e-01 7.033842e-01 -2.069845e+00 6.655091e+01 -5.413184e-01 -5.156543e-01 -8.046726e-01 -3.094331e-01 1.367889e+00 7.728880e-01 -9.121967e-02 5.741758e-01 1.061716e+00 2.410988e-01 -4.015399e-01 -1.676186e-01 -4.038495e-01 2.085455e-01 -2.320740e-01 6.172378e-02 5.122478e-02 -2.170498e-01 8.065771e-02 -4.096007e-02 -9.168205e-02 -4.974590e-02 2.112553e-02 -2.723645e-02 -3.842098e-02 -6.356002e-02
<VARIANCE> 39
 2.592894e+01 1.971375e+01 3.858681e+01 3.659210e+01 5.092463e+01 3.239600e+01 2.889203e+01 5.203863e+01 5.565471e+01 3.492331e+01 3.094465e+01 2.679431e+01 1.947285e+01 9.692461e-01 1.362157e+00 1.070504e+00 1.232696e+00 2.057812e+00 2.210180e+00 2.033307e+00 2.611742e+00 2.875236e+00 2.147599e+00 1.623457e+00 1.960598e+00 2.298959e-01 9.860992e-02 1.659864e-01 1.932970e-01 2.442321e-01 3.136534e-01 3.901965e-01 3.627428e-01 4.855882e-01 6.227723e-01 4.427173e-01 3.200364e-01 3.584350e-01 3.649542e-02
<GCONST> 1.046331e+02
<STATE> 4
<MEAN> 39
 -1.522566e+01 7.560133e+00 5.304236e+00 1.241019e+00 6.493606e+00 -8.391885e+00 3.252023e+00 2.676979e+00 -7.152741e+00 2.422893e+00 -7.589660e-01 -2.656844e+00 5.823621e+01 4.093131e-01 -5.496544e-01 -3.663276e-01 3.111162e-03 1.003916e-02 5.726192e-01 -1.487768e-01 -2.381277e-01 4.593045e-01 3.780585e-02 -1.150986e-02 9.010947e-02 -6.071467e-01 6.514969e-02 5.537408e-02 2.776582e-02 1.373087e-02 -9.772450e-02 -6.182065e-02 -4.444058e-02 -4.170838e-02 -1.830600e-02 -2.646469e-02 1.287397e-02 2.180619e-02 2.394508e-02
<VARIANCE> 39
 1.501004e+01 1.852052e+01 2.764721e+01 3.038175e+01 2.328918e+01 4.150511e+01 3.219281e+01 3.967329e+01 4.034467e+01 2.637208e+01 1.971299e+01 2.113586e+01 3.798607e+01 5.257747e-01 7.798994e-01 1.107563e+00 1.620689e+00 1.706449e+00 2.058296e+00 1.937568e+00 2.179433e+00 2.192126e+00 1.968928e+00 1.600089e+00 1.531355e+00 3.180102e-01 7.740416e-02 1.124554e-01 2.003939e-01 3.219235e-01 3.067817e-01 3.632204e-01 3.507360e-01 4.221506e-01 4.038682e-01 3.661803e-01 3.080476e-01 3.013249e-01 3.929729e-02
<GCONST> 9.919260e+01
<TRANSP> 5
 0.000000e+00 1.000000e+00 0.000000e+00 0.000000e+00 0.000000e+00
 0.000000e+00 9.365510e-01 6.344897e-02 0.000000e+00 0.000000e+00
 0.000000e+00 0.000000e+00 7.754895e-01 2.245105e-01 0.000000e+00
 0.000000e+00 0.000000e+00 0.000000e+00 9.349442e-01 6.505577e-02
 0.000000e+00 0.000000e+00 0.000000e+00 0.000000e+00 0.000000e+00
<ENDHMM>
~h "aa"
<BEGINHMM>
<NUMSTATES> 5
<STATE> 2
<MEAN> 39
 -1.973506e-01 -3.855613e+00 -7.250687e+00 -7.072385e+00 1.856588e+00 -1.085378e+01 2.738905e+00 2.043067e-01 1.308075e+00 5.584837e+00 3.471284e+00 -1.508258e+01 7.162585e+01 -7.998153e-03 -2.875269e-01 -6.954427e-01 -4.450359e-01 6.688542e-01 5.038640e-01 1.048260e+00 -3.676252e-02 -2.063066e-01 1.122208e-01 -3.778042e-02 -7.225431e-01 6.522206e-01 -4.797199e-02 1.965632e-01 9.847157e-02 1.717582e-01 -6.769761e-02 8.184982e-02 -1.718654e-01 -1.632003e-02 -3.785338e-02 -1.528151e-02 -1.011629e-01 3.240627e-01 -2.348823e-01
<VARIANCE> 39
 1.192087e+01 2.071092e+01 5.946575e+01 7.170802e+01 4.466216e+01 7.319134e+01 1.202174e+02 5.588392e+01 8.410099e+01 5.332897e+01 3.287373e+01 6.853537e+01 4.632985e+01 9.538695e-01 1.555060e+00 2.953903e+00 2.046844e+00 2.029730e+00 3.651626e+00 4.060741e+00 2.575557e+00 2.916368e+00 2.423130e+00 2.039217e+00 3.684325e+00 1.674868e+00 1.522058e-01 2.178657e-01 4.169690e-01 2.885250e-01 3.176587e-01 4.738173e-01 6.222809e-01 4.023196e-01 4.733315e-01 4.292299e-01 3.045184e-01 5.098537e-01 1.442398e-01
<GCONST> 1.192499e+02
<STATE> 3
<MEAN> 39
 -1.938050e-01 -4.011673e+00 -1.053908e+01 -7.768641e+00 5.255395e+00 -8.250088e+00 6.978626e+00 -3.100222e-01 -2.530311e-01 6.416760e+00 2.611255e+00 -1.554906e+01 7.286621e+01 -3.669600e-02 4.070922e-01 5.039698e-02 4.996714e-01 3.892671e-01 5.413640e-01 1.840975e-01 -1.423914e-03 -7.265241e-02 1.293019e-01 -4.770462e-01 5.292291e-01 -4.072534e-01 -2.952566e-02 6.820447e-02 1.430134e-01 1.214672e-01 -8.749840e-02 -1.087810e-01 -1.693100e-01 1.112205e-01 1.345688e-01 1.963431e-03 -4.286361e-02 1.741003e-01 -1.143434e-01
<VARIANCE> 39
 7.186494e+00 1.559694e+01 1.395692e+01 3.402874e+01 2.694884e+01 5.822660e+01 5.920668e+01 6.147784e+01 5.184852e+01 5.097536e+01 2.875324e+01 5.292023e+01 2.913179e+01 3.053196e-01 6.711922e-01 7.548444e-01 1.347305e+00 9.487752e-01 2.095165e+00 1.727715e+00 1.452908e+00 1.988256e+00 1.354302e+00 1.595276e+00 1.604773e+00 4.320893e-01 5.148828e-02 1.056098e-01 1.238779e-01 1.629987e-01 1.657062e-01 2.672718e-01 2.497952e-01 2.565559e-01 2.868191e-01 2.500733e-01 2.310962e-01 2.808661e-01 3.905780e-02
<GCONST> 9.423350e+01
<STATE> 4
<MEAN> 39
 -7.010851e-01 -2.255329e+00 -8.609116e+00 -3.304054e+00 5.413683e+00 -4.431907e+00 5.152051e+00 2.038395e-01 1.322119e+00 5.303488e+00 8.959070e-01 -9.916229e+00 6.775423e+01 -1.941557e-01 2.321179e-01 4.243910e-01 4.913649e-01 -9.672282e-02 2.739858e-01 -1.978157e-01 3.767240e-01 3.540090e-01 -4.768977e-02 -2.942244e-01 8.144211e-01 -6.744577e-01 -6.454878e-02 -1.452349e-02 3.547676e-02 -1.613658e-02 -6.557952e-02 -4.069962e-02 -5.996532e-02 3.324761e-02 -6.688046e-03 -4.154040e-02 4.239568e-02 4.988122e-02 -8.021287e-03
<VARIANCE> 39
 6.891841e+00 1.670833e+01 1.565012e+01 2.190618e+01 2.273862e+01 5.600630e+01 3.507219e+01 4.909667e+01 3.414458e+01 3.587513e+01 3.263332e+01 4.393493e+01 4.976850e+01 3.807116e-01 6.776319e-01 7.428764e-01 1.143051e+00 1.476719e+00 1.979074e+00 1.792290e+00 2.327807e+00 1.850251e+00 1.728262e+00 1.668501e+00 2.128800e+00 2.417711e-01 7.796776e-02 1.007762e-01 1.324738e-01 2.008449e-01 2.482831e-01 3.363725e-01 3.091978e-01 4.141247e-01 3.311352e-01 3.099220e-01 3.000770e-01 3.634170e-01 3.423057e-02
<GCONST> 9.626194e+01
<TRANSP> 5
 0.000000e+00 1.000000e+00 0.000000e+00 0.000000e+00 0.000000e+00
 0.000000e+00 7.689220e-01 2.310780e-01 0.000000e+00 0.000000e+00
 0.000000e+00 0.000000e+00 7.792965e-01 2.207035e-01 0.000000e+00
 0.000000e+00 0.000000e+00 0.000000e+00 8.733753e-01 1.266247e-01
 0.000000e+00 0.000000e+00 0.000000e+00 0.000000e+00 0.000000e+00
<ENDHMM>
~h "ax"
<BEGINHMM>
<NUMSTATES> 5
<STATE> 2
<MEAN> 39
 -1.163764e+00 1.347088e+00 -9.957205e+00 -5.408921e+00 -2.219460e-01 -1.018507e+01 2.366043e+00 -6.952905e+00 -4.482912e+00 5.446186e+00 6.661684e+00 -7.503139e+00 7.172281e+01 1.216887e+00 -4.193855e-01 -4.882698e-01 -2.507171e-01 2.346261e-01 6.050460e-01 7.908327e-01 -7.338654e-01 -6.322634e-01 1.620848e-01 1.013138e+00 -6.066899e-01 5.211794e-01 -5.122182e-01 5.116839e-02 1.965780e-01 -6.824388e-02 -8.353771e-02 1.156219e-01 2.117867e-01 3.392116e-01 1.417665e-01 -1.245390e-01 -8.977405e-02 2.174994e-01 -1.949223e-01
<VARIANCE> 39
 1.803907e+01 5.865947e+00 1.678842e+01 3.435405e+01 2.063774e+01 3.357535e+01 1.099171e+02 5.508158e+01 1.034727e+02 4.415742e+01 4.199588e+01 4.212255e+01 9.340341e+00 2.923742e+00 7.086825e-01 1.457472e+00 1.916743e+00 1.170230e+00 1.974743e+00 4.474095e+00 2.537446e+00 2.127868e+00 2.800695e+00 3.077218e+00 1.508411e+00 6.670506e-01 3.537848e-01 1.127406e-01 1.584228e-01 2.977987e-01 1.599971e-01 3.852619e-01 9.181662e-01 4.472153e-01 3.326825e-01 5.248125e-01 4.712157e-01 3.037728e-01 1.114882e-01
<GCONST> 1.081883e+02
<STATE> 3
<MEAN> 39
 2.210653e-01 -3.487402e-01 -9.420012e+00 -5.757030e+00 1.641717e-01 -8.379701e+00 4.331176e+00 -8.178331e+00 -5.092019e+00 4.628165e+00 7.375038e+00 -7.623536e+00 7.251311e+01 1.983637e-01 -1.664996e-01 3.904202e-01 -3.377119e-02 1.691695e-02 3.455173e-01 1.420475e-01 -1.206913e-01 -1.339209e-01 -3.193677e-01 -1.803522e-01 1.215811e-01 -1.909812e-01 -7.762834e-02 8.126124e-02 1.194691e-01 1.370388e-01 -1.457793e-02 -8.665576e-02 -1.873659e-01 2.119431e-02 1.731866e-01 -4.903355e-02 -2.320729e-01 1.168306e-01 -1.484580e-01
<VARIANCE> 39
 3.784494e+00 6.248208e+00 1.260494e+01 1.691568e+01 2.083257e+01 4.187814e+01 4.276956e+01 4.251147e+01 6.287864e+01 5.693551e+01 2.952148e+01 3.355758e+01 7.548260e+00 2.738952e-01 4.813135e-01 1.038282e+00 1.908218e+00 1.023047e+00 2.513174e+00 3.675891e+00 1.426697e+00 1.996359e+00 2.868252e+00 3.170988e+00 1.873872e+00 2.846982e-01 8.240698e-02 6.804995e-02 1.516843e-01 1.880375e-01 1.997074e-01 3.196067e-01 2.990350e-01 3.375902e-01 2.311534e-01 6.206133e-01 3.752868e-01 3.156853e-01 4.409793e-02
<GCONST> 9.413068e+01
<STATE> 4
<MEAN> 39
 6.221938e-01 -5.167679e-02 -5.369650e+00 -1.305468e+00 9.091023e-01 -6.285774e+00 1.495887e+00 -7.376325e+00 -1.097021e+00 4.651470e+00 2.934395e+00 -5.287361e+00 6.686387e+01 -1.907135e-02 1.399907e-01 5.442994e-01 4.938743e-01 6.047328e-02 2.152272e-01 -2.354740e-01 4.047973e-01 4.419505e-01 2.080920e-02 -2.657953e-01 1.790635e-01 -6.414599e-01 -4.238237e-02 1.719204e-02 2.503833e-02 3.003127e-02 1.564911e-03 2.506330e-04 -4.767004e-02 5.247523e-02 2.366132e-03 2.905057e-03 1.227891e-02 1.732488e-02 -2.329869e-02
<VARIANCE> 39
 5.109973e+00 6.682807e+00 2.200693e+01 2.588808e+01 1.642828e+01 2.861025e+01 2.489683e+01 3.819966e+01 4.106081e+01 3.725545e+01 3.356380e+01 2.071594e+01 2.823286e+01 2.610665e-01 3.486756e-01 9.685366e-01 1.358297e+00 1.530298e+00 2.194597e+00 1.836288e+00 2.060769e+00 1.505756e+00 1.928528e+00 2.905703e+00 1.630951e+00 2.136290e-01 4.332132e-02 6.352714e-02 1.468427e-01 2.212151e-01 3.083656e-01 3.325435e-01 2.681671e-01 3.774707e-01 2.881783e-01 3.730741e-01 5.358807e-01 2.961180e-01 2.399391e-02
<GCONST> 9.158821e+01
<TRANSP> 5
 0.000000e+00 1.000000e+00 0.000000e+00 0.000000e+00 0.000000e+00
 0.000000e+00 7.833299e-01 2.166701e-01 0.000000e+00 0.000000e+00
 0.000000e+00 0.000000e+00 7.596145e-01 2.403855e-01 0.000000e+00
 0.000000e+00 0.000000e+00 0.000000e+00 9.315168e-01 6.848320e-02
 0.000000e+00 0.000000e+00 0.000000e+00 0.000000e+00 0.000000e+00
<ENDHMM>
~h "dx"
<BEGINHMM>
<NUMSTATES> 5
<STATE> 2
<MEAN> 39
 -4.789787e+00 6.295182e+00 3.703673e+00 4.950243e+00 8.693213e-01 -5.340695e-01 -1.337438e+00 -3.149312e+00 -3.067132e+00 -3.745811e+00 -2.953139e+00 -3.978611e-01 5.155409e+01 5.819948e-01 7.149642e-01 6.120570e-01 3.023689e-01 -1.774449e-01 -7.472370e-01 -5.820354e-01 -5.370670e-01 -4.055662e-01 -4.362694e-01 -5.245745e-01 -1.240331e-01 2.510639e-01 -3.059398e-02 -7.573546e-02 -4.831369e-02 -5.842929e-02 -9.936403e-02 2.546596e-02 5.100770e-02 9.011646e-02 5.914560e-02 6.331931e-02 1.406264e-01 -3.600015e-02 2.900883e-02
<VARIANCE> 39
 1.699455e+01 2.108170e+01 2.092830e+01 1.385369e+01 2.040928e+01 2.963485e+01 3.606166e+01 2.208154e+01 1.614305e+01 1.193190e+01 1.614637e+01 1.198265e+01 1.883928e+01 1.082248e+00 1.373257e+00 9.292939e-01 9.428340e-01 1.762898e+00 2.158085e+00 3.031795e+00 2.001037e+00 1.740716e+00 1.588653e+00 1.558294e+00 1.053091e+00 2.916027e-01 1.553063e-01 2.553574e-01 1.512189e-01 2.290529e-01 3.718038e-01 4.204509e-01 6.253695e-01 4.673690e-01 2.739476e-01 2.630548e-01 3.140875e-01 2.345104e-01 4.956764e-02
<GCONST> 9.553893e+01
<STATE> 3
<MEAN> 39
 -1.802467e+00 9.744867e+00 6.779809e+00 6.002872e+00 -1.021747e+00 -3.342272e+00 -4.741196e+00 -5.208731e+00 -4.488330e+00 -4.559433e+00 -3.436164e+00 -9.484165e-01 5.322241e+01 5.677436e-01 4.604179e-01 8.226418e-01 3.506631e-01 -4.381261e-01 -3.930645e-01 -2.776291e-01 1.917164e-01 -9.478582e-02 -4.209599e-01 2.292223e-01 -4.784936e-01 5.074336e-01 -2.272492e-01 -7.999984e-01 -1.844482e-01 -1.223346e-01 -1.654007e-01 -2.074971e-01 2.598751e-01 6.901829e-01 3.860005e-01 3.389262e-02 2.547542e-01 2.120194e-01 3.610094e-01
<VARIANCE> 39
 1.230731e+01 1.572130e+01 1.469156e+01 1.020079e+01 2.767077e+01 2.445590e+01 2.788465e+01 2.129470e+01 1.651971e+01 1.292416e+01 1.129706e+01 1.469258e+01 1.242780e+01 1.349606e+00 3.259794e+00 1.483533e+00 1.247876e+00 2.343754e+00 2.808650e+00 3.762857e+00 3.650782e+00 2.492033e+00 1.709812e+00 1.493575e+00 1.417692e+00 6.174778e-01 1.838614e-01 4.702555e-01 2.984620e-01 3.668388e-01 7.857353e-01 1.322509e+00 7.114985e-01 5.907971e-01 3.740913e-01 3.718699e-01 3.734140e-01 3.687378e-01 3.471611e-01
<GCONST> 1.056695e+02
<STATE> 4
<MEAN> 39
 -1.005680e+00 -2.827510e+00 1.208816e+00 5.809356e+00 -2.972708e+00 -1.845587e+01 2.267333e+00 2.397335e+00 2.230041e+00 -6.239071e+00 -8.903891e-01 -1.488904e+00 6.772107e+01 1.388567e-01 -1.462178e+00 -6.211282e-01 -9.854147e-02 -2.065538e-01 -1.669026e+00 4.164599e-01 7.461118e-01 8.196305e-01 -6.979688e-02 2.724247e-01 1.206122e-01 1.602385e+00 9.311074e-03 6.862029e-02 -5.850113e-02 -4.792209e-02 8.074857e-02 1.859726e-02 3.450592e-03 -7.252809e-02 -2.962640e-02 8.077046e-02 1.659885e-02 -5.902072e-02 -8.604017e-02
<VARIANCE> 39
 5.989995e+00 5.744798e+01 4.153695e+01 1.789457e+01 4.148191e+01 1.485839e+02 8.751935e+01 5.213278e+01 4.526479e+01 3.346253e+01 3.388926e+01 4.216686e+01 7.472878e+01 5.052145e-01 4.796958e+00 2.914596e+00 1.723534e+00 5.488352e+00 9.823576e+00 4.268237e+00 4.399054e+00 4.308558e+00 2.764753e+00 2.816727e+00 4.367146e+00 5.005110e+00 1.009987e-01 7.800643e-01 4.768550e-01 2.740901e-01 1.033610e+00 1.819015e+00 6.924503e-01 7.372460e-01 6.784138e-01 4.733199e-01 4.845225e-01 8.661106e-01 7.402578e-01
<GCONST> 1.292780e+02
<TRANSP> 5
 0.000000e+00 1.000000e+00 0.000000e+00 0.000000e+00 0.000000e+00
 0.000000e+00 8.095092e-01 1.904908e-01 0.000000e+00 0.000000e+00
 0.000000e+00 0.000000e+00 5.721247e-01 4.278754e-01 0.000000e+00
 0.000000e+00 0.000000e+00 0.000000e+00 9.048429e-01 9.515707e-02
 0.000000e+00 0.000000e+00 0.000000e+00 0.000000e+00 0.000000e+00
<ENDHMM>
~h "ee"
<BEGINHMM>
<NUMSTATES> 5
<STATE> 2
<MEAN> 39
 -1.059061e+01 -5.166725e+00 2.641385e+00 1.107000e+00 -7.707973e+00 -1.304605e+01 -1.784650e+00 4.366170e+00 -6.708594e+00 5.837800e+00 3.207633e+00 7.122164e-01 6.650276e+01 1.791244e-01 1.126875e-02 2.014154e+00 6.494700e-01 -2.081057e+00 -3.292371e+00 -6.411183e-02 5.081922e-01 -2.299099e+00 -1.285128e+00 6.466068e-01 8.428740e-01 2.436816e+00 4.260243e-01 3.225822e-01 -3.301542e-02 1.758124e-01 -1.726460e-01 -1.157745e-01 -1.955333e-04 3.161736e-02 3.927125e-01 -3.281448e-01 4.206204e-01 -7.241079e-02 -1.102944e-01
<VARIANCE> 39
 3.274643e+01 3.420307e+01 5.173530e+01 2.424197e+01 4.933112e+01 9.152945e+01 3.028452e+01 5.836224e+01 8.168635e+01 3.960839e+01 3.808400e+01 3.596037e+01 5.865471e+01 5.806278e+00 6.431906e+00 3.625059e+00 2.920876e+00 2.984512e+00 4.209497e+00 2.800826e+00 4.442552e+00 5.422457e+00 4.514669e+00 6.208050e+00 3.263166e+00 2.755169e+00 9.267373e-01 1.255808e+00 8.090243e-01 5.537095e-01 6.411299e-01 9.884464e-01 4.821023e-01 8.574703e-01 1.096271e+00 7.050768e-01 1.003651e+00 5.558546e-01 6.784706e-01
<GCONST> 1.361328e+02
<STATE> 3
<MEAN> 39
 -5.151830e+00 -2.644463e+00 9.342948e+00 4.676442e+00 -1.711475e+01 -2.557563e+01 -1.934173e+00 7.477520e+00 -1.017275e+01 -2.118935e+00 1.006939e+01 3.388787e+00 7.424712e+01 6.528608e-01 2.189725e-04 1.155144e-02 5.984529e-01 -7.895203e-01 -8.763534e-01 2.496817e-01 1.042260e+00 8.168246e-01 -1.044798e+00 9.655020e-01 3.849234e-01 6.595022e-01 -3.259295e-01 -2.329353e-01 -4.700168e-01 -2.149776e-01 5.335773e-01 7.175257e-01 9.628937e-02 -2.795999e-02 2.826872e-01 4.825199e-01 -4.881117e-01 -1.370865e-01 -3.073388e-01
<VARIANCE> 39
 1.025354e+01 6.359161e+00 2.588043e+01 2.632265e+01 1.709585e+01 5.942740e+01 3.268730e+01 5.453936e+01 4.322063e+01 4.111699e+01 2.939381e+01 3.441878e+01 1.778381e+01 8.155497e-01 8.309105e-01 1.426738e+00 7.945530e-01 2.345756e+00 3.408578e+00 1.228418e+00 1.840143e+00 1.645432e+00 2.587716e+00 2.907243e+00 1.090015e+00 6.546544e-01 1.703901e-01 2.378146e-01 3.949119e-01 1.776192e-01 3.175519e-01 3.926025e-01 2.485789e-01 3.507565e-01 5.153162e-01 3.849230e-01 4.215078e-01 2.361647e-01 6.059290e-02
<GCONST> 1.017646e+02
<STATE> 4
<MEAN> 39
 -3.625600e+00 -2.539489e+00 6.780874e+00 8.124044e+00 -1.384674e+01 -2.126001e+01 7.480791e-01 7.729483e+00 -6.108271e+00 -2.716594e+00 8.483195e+00 3.574883e+00 6.669795e+01 6.085091e-02 -2.254596e-02 -5.181884e-01 -1.380779e-02 6.128675e-01 6.424832e-01 2.181529e-01 -2.578000e-01 2.933137e-01 3.054655e-01 -1.875613e-01 -4.776015e-02 -7.300306e-01 -3.846648e-02 -2.261103e-02 -1.604339e-01 -1.013226e-01 1.870962e-01 7.990547e-02 -3.652938e-02 -1.289452e-01 -3.258166e-02 1.494693e-01 -7.174722e-02 -7.480791e-03 8.868814e-03
<VARIANCE> 39
 5.978819e+00 8.105683e+00 1.406379e+01 1.634774e+01 2.432100e+01 5.452935e+01 3.261554e+01 3.739657e+01 3.159874e+01 3.441736e+01 2.984470e+01 2.201051e+01 6.446484e+01 2.707107e-01 5.054482e-01 1.778760e+00 1.073501e+00 2.254792e+00 1.471285e+00 1.302036e+00 2.285981e+00 1.612022e+00 1.927635e+00 1.691008e+00 1.327943e+00 6.672023e-01 4.313345e-02 9.646969e-02 2.851649e-01 1.757859e-01 3.789782e-01 2.659329e-01 2.665190e-01 3.617596e-01 2.900990e-01 3.735953e-01 3.495663e-01 2.475996e-01 9.173705e-02
<GCONST> 9.525632e+01
<TRANSP> 5
 0.000000e+00 1.000000e+00 0.000000e+00 0.000000e+00 0.000000e+00
 0.000000e+00 8.326725e-01 1.673275e-01 0.000000e+00 0.000000e+00
 0.000000e+00 0.000000e+00 6.354414e-01 3.645586e-01 0.000000e+00
 0.000000e+00 0.000000e+00 0.000000e+00 9.495504e-01 5.044956e-02
 0.000000e+00 0.000000e+00 0.000000e+00 0.000000e+00 0.000000e+00
<ENDHMM>
~h "ei"
<BEGINHMM>
<NUMSTATES> 5
<STATE> 2
<MEAN> 39
 -3.244971e+00 -3.756925e+00 8.082974e-01 2.813250e+00 -4.440265e+00 -1.595016e+01 -2.414424e-01 7.457072e+00 1.164248e+00 -1.617641e+00 1.256198e+00 -2.030077e+00 6.719688e+01 2.027121e-01 1.161332e-02 -1.085511e-01 1.138148e-01 7.270857e-02 -6.752312e-01 3.510693e-01 2.388347e-01 1.768453e-01 2.344314e-02 -3.033039e-01 -7.279323e-02 3.147480e-01 2.114748e-03 1.368022e-01 6.449231e-02 8.523799e-02 -5.897106e-02 2.536776e-02 -7.897975e-02 -1.074108e-01 -4.593367e-02 4.789801e-02 3.219328e-02 -9.133372e-03 -8.175115e-02
<VARIANCE> 39
 2.332565e+01 3.396006e+01 3.041296e+01 2.748375e+01 4.096080e+01 1.284402e+02 3.591393e+01 6.528394e+01 4.405420e+01 5.338302e+01 2.657311e+01 4.449503e+01 1.075013e+02 9.601482e-01 1.459775e+00 1.986698e+00 1.593443e+00 3.490658e+00 5.763670e+00 2.337309e+00 2.956919e+00 2.509261e+00 2.176166e+00 2.709166e+00 2.994922e+00 1.864239e+00 2.479910e-01 2.956629e-01 2.626327e-01 3.461379e-01 5.313231e-01 9.665921e-01 4.265073e-01 5.061840e-01 4.638913e-01 4.101119e-01 5.002089e-01 5.606491e-01 2.410790e-01
<GCONST> 1.201992e+02
<STATE> 3
<MEAN> 39
 -2.560824e+00 -3.737580e+00 3.285914e-01 3.401477e+00 -4.005988e+00 -1.775990e+01 7.675717e-01 8.205557e+00 1.131700e+00 -8.135624e-01 6.138861e-01 -1.932799e+00 6.762474e+01 2.500056e-01 3.474716e-01 4.414498e-02 3.303320e-01 -2.619628e-02 -3.044459e-01 9.147589e-02 -3.656294e-02 9.072518e-02 2.441219e-02 -1.331101e-01 7.317397e-02 -1.737112e-02 1.834112e-02 7.198413e-02 5.210292e-02 2.475137e-02 -8.554747e-02 8.783978e-02 -1.734079e-01 -5.565885e-02 6.562972e-03 1.870099e-02 9.443814e-02 -5.256771e-02 -2.204292e-02
<VARIANCE> 39
 2.353844e+01 3.458886e+01 2.596460e+01 2.968327e+01 3.792749e+01 1.275419e+02 3.888922e+01 6.924576e+01 4.078615e+01 5.439053e+01 2.821668e+01 4.056112e+01 9.792313e+01 1.368257e+00 1.675032e+00 1.795923e+00 1.650198e+00 3.090353e+00 5.313456e+00 2.597491e+00 2.793582e+00 2.360078e+00 2.180805e+00 2.202176e+00 3.001075e+00 2.043503e+00 2.749399e-01 3.048333e-01 2.771904e-01 4.016088e-01 4.744645e-01 8.884788e-01 4.176677e-01 4.853889e-01 4.770220e-01 4.302218e-01 4.270156e-01 5.674908e-01 2.556149e-01
<GCONST> 1.201789e+02
<STATE> 4
<MEAN> 39
 -3.414200e+00 -1.194535e+00 4.645104e-01 4.265957e+00 -4.094861e+00 -1.698829e+01 2.187759e-01 7.489379e+00 1.263167e+00 -8.618867e-01 8.805484e-01 -8.620410e-01 6.683121e+01 2.537479e-01 3.512873e-01 1.454170e-01 3.125566e-01 -2.647332e-01 -1.178099e-01 -3.454251e-01 -3.259854e-02 1.783754e-01 6.126805e-02 5.562160e-02 -1.381837e-01 1.294300e-03 -2.452666e-02 -1.419892e-01 -1.360307e-02 -5.042449e-02 -5.883243e-02 4.792728e-02 -6.984812e-02 -8.644285e-03 5.945710e-03 5.491315e-02 5.468527e-02 -7.370848e-02 4.525870e-02
<VARIANCE> 39
 4.900903e+01 4.977156e+01 2.271914e+01 3.267821e+01 3.703538e+01 9.850800e+01 4.528545e+01 5.931967e+01 3.415705e+01 4.147856e+01 3.109458e+01 3.227344e+01 7.782500e+01 2.661519e+00 2.024004e+00 1.705070e+00 2.395889e+00 3.404759e+00 6.618786e+00 3.321313e+00 2.975124e+00 2.487217e+00 2.670894e+00 2.308835e+00 2.709629e+00 3.135797e+00 3.152427e-01 3.524579e-01 3.032906e-01 4.194520e-01 4.753519e-01 8.336362e-01 4.978327e-01 4.689022e-01 4.730031e-01 4.484873e-01 4.275291e-01 5.027867e-01 2.376674e-01
<GCONST> 1.229091e+02
<TRANSP> 5
 0.000000e+00 1.000000e+00 0.000000e+00 0.000000e+00 0.000000e+00
 0.000000e+00 4.941275e-01 5.058725e-01 0.000000e+00 0.000000e+00
 0.000000e+00 0.000000e+00 5.190188e-01 4.809812e-01 0.000000e+00
 0.000000e+00 0.000000e+00 0.000000e+00 6.047494e-01 3.952506e-01
 0.000000e+00 0.000000e+00 0.000000e+00 0.000000e+00 0.000000e+00
<ENDHMM>
~h "ii"
<BEGINHMM>
<NUMSTATES> 5
<STATE> 2
<MEAN> 39
 -9.103540e+00 5.845928e+00 1.748706e+01 5.146193e+00 -1.570887e+01 -1.729299e+01 -3.394247e+00 2.114188e+00 -1.595098e+01 -4.164534e+00 5.338998e+00 -3.091990e+00 6.958074e+01 8.506358e-01 6.071057e-02 3.460495e-01 6.043700e-01 -5.208451e-01 -4.273604e-01 -1.169381e-01 -3.690166e-01 -6.049740e-01 -1.873131e-01 2.987305e-01 2.757859e-02 2.592790e-01 -3.021137e-01 4.614392e-02 -3.485736e-01 -2.904781e-01 4.707662e-01 4.245232e-01 1.360936e-01 9.999806e-02 3.423634e-01 2.003998e-01 -2.094801e-01 -4.048707e-02 -2.162706e-01
<VARIANCE> 39
 1.134623e+01 1.050959e+01 5.727851e+01 2.390849e+01 4.431154e+01 7.738579e+01 3.369608e+01 5.050488e+01 5.552057e+01 2.910244e+01 2.848024e+01 2.934702e+01 3.007297e+01 2.276742e+00 5.147136e-01 1.651319e+00 2.121071e+00 3.392429e+00 4.205434e+00 1.965740e+00 1.612362e+00 3.031199e+00 1.965248e+00 2.153187e+00 1.098544e+00 8.747991e-01 2.627963e-01 8.846898e-02 2.653758e-01 2.920432e-01 5.521718e-01 6.408430e-01 3.251348e-01 3.078281e-01 4.109544e-01 2.937890e-01 3.726916e-01 2.137104e-01 1.166479e-01
<GCONST> 1.080626e+02
<STATE> 3
<MEAN> 39
 -7.710111e+00 7.019302e+00 1.773744e+01 5.533897e+00 -1.534661e+01 -1.422338e+01 -1.749303e+00 2.817917e-01 -1.662828e+01 -2.081180e+00 4.169361e+00 -3.914145e+00 6.796534e+01 2.663777e-01 1.876093e-01 -3.511513e-01 6.756419e-02 4.814752e-01 5.292495e-01 1.717533e-01 -2.258557e-01 2.087662e-01 3.927715e-01 -3.344332e-01 -7.228913e-02 -5.229197e-01 -5.719894e-02 4.238864e-03 -9.331370e-02 -5.611341e-02 1.424529e-01 1.133501e-01 1.912729e-02 1.446786e-04 1.002636e-01 9.441795e-02 -3.107875e-02 1.465856e-02 -1.028141e-01
<VARIANCE> 39
 9.434914e+00 1.129431e+01 5.358339e+01 2.294226e+01 4.761074e+01 6.559393e+01 3.668681e+01 4.097332e+01 5.004560e+01 3.116654e+01 2.740725e+01 2.709173e+01 2.909261e+01 3.804623e-01 4.155223e-01 7.804842e-01 9.061439e-01 1.643204e+00 1.626646e+00 1.455089e+00 1.279894e+00 1.540531e+00 1.274229e+00 1.375172e+00 1.114949e+00 4.760426e-01 8.373602e-02 8.314444e-02 1.472618e-01 1.712510e-01 3.256868e-01 3.126488e-01 2.776809e-01 2.244186e-01 3.313746e-01 2.597396e-01 2.933334e-01 2.282863e-01 6.767324e-02
<GCONST> 9.437177e+01
<STATE> 4
<MEAN> 39
 -7.019935e+00 5.303687e+00 1.101453e+01 5.382628e+00 -7.019033e+00 -6.076334e+00 5.668084e-01 -4.256487e-01 -1.012333e+01 3.470750e-01 2.220570e+00 -3.726868e+00 5.905665e+01 -1.963468e-04 -1.929308e-01 -6.600808e-01 -3.869162e-02 6.736346e-01 4.573925e-01 4.101402e-02 -8.073770e-02 5.518035e-01 1.869277e-01 -1.346843e-01 6.119588e-02 -5.413479e-01 -6.456876e-03 -3.836826e-02 -4.609107e-02 -1.161283e-02 -1.836802e-02 -4.597171e-02 -4.893135e-02 -3.773577e-04 4.577906e-03 2.450742e-02 4.464381e-02 1.627261e-02 5.941313e-02
<VARIANCE> 39
 9.469034e+00 1.619265e+01 5.510274e+01 1.722742e+01 5.457026e+01 7.799040e+01 2.883022e+01 2.533701e+01 5.605947e+01 2.522328e+01 2.427935e+01 2.138647e+01 5.753715e+01 3.583302e-01 5.378432e-01 8.269637e-01 9.299896e-01 1.356373e+00 1.619841e+00 1.768444e+00 1.697379e+00 1.951142e+00 2.003765e+00 1.540756e+00 1.431678e+00 2.878189e-01 5.920643e-02 8.312877e-02 1.481497e-01 1.884084e-01 2.635923e-01 2.833552e-01 3.397976e-01 3.139465e-01 3.727583e-01 3.633958e-01 3.116216e-01 2.687954e-01 4.764737e-02
<GCONST> 9.571278e+01
<TRANSP> 5
 0.000000e+00 1.000000e+00 0.000000e+00 0.000000e+00 0.000000e+00
 0.000000e+00 7.056865e-01 2.943136e-01 0.000000e+00 0.000000e+00
 0.000000e+00 0.000000e+00 7.240965e-01 2.759034e-01 0.000000e+00
 0.000000e+00 0.000000e+00 0.000000e+00 8.490324e-01 1.509676e-01
 0.000000e+00 0.000000e+00 0.000000e+00 0.000000e+00 0.000000e+00
<ENDHMM>
~h "th"
<BEGINHMM>
<NUMSTATES> 5
<STATE> 2
<MEAN> 39
 -1.602125e+01 1.664506e-02 1.587563e-02 -2.724936e+00 -1.034697e+00 -7.982705e+00 1.142125e+00 7.354569e+00 -2.419813e+00 -1.910846e-01 3.814231e+00 3.474172e+00 5.873269e+01 -7.481869e-01 2.637354e-02 5.351282e-01 -3.807262e-01 -6.900573e-01 -1.674063e+00 -1.430419e-01 1.227658e+00 -6.010875e-01 -4.318190e-01 3.745664e-01 6.356429e-01 1.574928e+00 2.976990e-01 6.879941e-02 2.701458e-01 4.352645e-01 -1.515484e-01 7.334923e-02 -1.278437e-01 -1.588517e-01 2.192771e-03 -1.567509e-01 -9.902128e-02 -1.196668e-01 -8.097239e-02
<VARIANCE> 39
 2.501136e+01 1.031793e+01 2.307508e+01 4.923108e+01 3.163650e+01 7.352694e+01 2.735678e+01 4.995206e+01 4.001480e+01 2.805238e+01 2.473822e+01 3.539787e+01 5.168538e+01 4.299909e+00 1.264978e+00 3.047467e+00 7.027972e+00 4.152174e+00 1.028446e+01 2.916047e+00 5.602626e+00 3.930447e+00 2.503849e+00 2.777170e+00 4.267522e+00 5.531824e+00 8.506945e-01 2.793965e-01 5.368019e-01 1.080258e+00 9.293336e-01 2.212838e+00 5.761686e-01 1.219042e+00 8.235601e-01 4.521151e-01 5.801677e-01 9.161775e-01 1.292969e+00
<GCONST> 1.317793e+02
<STATE> 3
<MEAN> 39
 -1.288921e+01 1.657284e+00 7.473868e+00 3.900048e+00 -4.923582e+00 -1.258439e+01 -1.816178e+00 8.161611e+00 -5.351585e+00 -4.162353e+00 2.862010e+00 2.461151e+00 6.280564e+01 2.135072e+00 8.426397e-01 2.639005e+00 2.201519e+00 -1.630309e+00 -1.555407e+00 -1.373313e+00 -1.429251e+00 -8.957762e-01 -9.787889e-01 -4.795587e-01 -5.391147e-01 9.070205e-01 8.094243e-02 -7.998556e-02 4.828018e-02 -1.296905e-01 -3.830346e-01 -2.764929e-01 4.142477e-02 -2.584985e-01 -5.184824e-02 2.724272e-02 3.864063e-02 5.903673e-02 1.526350e-01
<VARIANCE> 39
 3.313216e+01 2.058257e+01 5.871426e+01 5.557665e+01 3.978427e+01 6.762177e+01 4.252719e+01 3.299672e+01 3.901965e+01 3.241608e+01 2.790879e+01 3.526065e+01 2.155244e+01 2.873532e+00 2.580096e+00 2.569473e+00 2.677317e+00 5.534011e+00 7.762295e+00 4.882332e+00 3.714903e+00 3.522991e+00 3.559587e+00 3.458511e+00 2.845198e+00 1.961218e+00 8.251441e-01 6.187184e-01 6.278336e-01 7.481804e-01 9.942537e-01 1.653297e+00 1.067623e+00 8.609354e-01 6.555947e-01 6.359239e-01 7.896781e-01 6.212399e-01 4.528384e-01
<GCONST> 1.312260e+02
<STATE> 4
<MEAN> 39
 -7.288647e+00 4.238651e+00 2.047244e+01 8.851325e+00 -1.750592e+01 -1.517586e+01 -5.618056e+00 -1.205227e+00 -1.461814e+01 -8.345015e+00 4.722273e+00 -4.579701e-01 6.823252e+01 1.024545e-01 1.445583e-01 6.175178e-01 -8.224574e-02 -7.473064e-01 1.052387e-01 2.029563e-01 -4.321060e-01 -7.258250e-01 2.337588e-01 2.776073e-01 -4.400758e-01 3.040487e-01 -1.488725e-01 4.046702e-03 -1.850849e-01 -1.349758e-01 2.185420e-01 2.042665e-01 1.159890e-01 8.711608e-02 6.200060e-02 1.481063e-01 -2.696363e-02 -9.164755e-03 -1.120603e-01
<VARIANCE> 39
 6.910771e+00 1.379362e+01 2.620621e+01 1.489671e+01 2.601136e+01 5.735089e+01 2.489337e+01 4.292236e+01 4.619047e+01 2.258660e+01 3.410480e+01 2.337115e+01 1.681221e+01 6.951861e-01 1.084020e+00 1.679719e+00 1.350927e+00 2.044364e+00 3.007042e+00 2.037334e+00 1.902021e+00 2.706762e+00 2.065975e+00 3.141789e+00 1.290195e+00 7.230911e-01 1.525346e-01 2.480492e-01 2.297499e-01 2.683329e-01 2.749608e-01 5.336119e-01 4.133932e-01 3.824601e-01 4.867827e-01 3.698080e-01 6.144494e-01 2.526733e-01 6.235000e-02
<GCONST> 1.032635e+02
<TRANSP> 5
 0.000000e+00 1.000000e+00 0.000000e+00 0.000000e+00 0.000000e+00
 0.000000e+00 8.608178e-01 1.391822e-01 0.000000e+00 0.000000e+00
 0.000000e+00 0.000000e+00 7.306663e-01 2.693338e-01 0.000000e+00
 0.000000e+00 0.000000e+00 0.000000e+00 9.180776e-01 8.192236e-02
 0.000000e+00 0.000000e+00 0.000000e+00 0.000000e+00 0.000000e+00
<ENDHMM>
~h "tx"
<BEGINHMM>
<NUMSTATES> 5
<STATE> 2
<MEAN> 39
 -2.119705e+00 -3.869471e+00 1.269942e-01 5.513128e+00 -3.245624e+00 -1.032718e+01 -4.009807e-01 5.909053e+00 6.877896e-01 -1.633960e+00 9.484582e-01 -8.978584e-01 6.235315e+01 2.184772e-02 -2.319374e-01 -6.301173e-02 1.211135e-01 -9.280354e-01 -3.233539e-01 -8.792341e-01 -1.761219e-01 2.913376e-01 5.341042e-01 2.920741e-01 -1.020098e-01 5.194751e-01 1.052386e-01 4.222971e-02 -1.028702e-01 -1.386904e-01 -1.023964e-01 -1.849378e-01 -2.693308e-01 -2.092473e-01 -3.369225e-03 1.480913e-01 2.347830e-01 -5.867067e-02 3.288705e-01
<VARIANCE> 39
 2.640442e+01 1.961320e+01 1.704228e+01 4.197381e+01 5.008490e+01 8.366640e+01 5.314931e+01 4.041394e+01 4.898513e+01 3.673844e+01 2.899632e+01 3.376472e+01 6.264053e+01 1.524920e+00 1.893377e+00 2.200467e+00 3.524626e+00 5.636651e+00 7.046169e+00 5.643210e+00 4.927995e+00 3.922385e+00 3.148215e+00 3.578751e+00 3.561960e+00 4.361821e+00 2.254599e-01 3.783446e-01 4.714576e-01 6.347432e-01 1.263840e+00 1.063834e+00 1.105086e+00 8.660441e-01 7.941690e-01 6.074741e-01 6.691140e-01 7.289922e-01 4.724200e-01
<GCONST> 1.300670e+02
<STATE> 3
<MEAN> 39
 -2.282561e+00 -3.739316e+00 -1.733045e-01 5.490322e+00 -6.981838e+00 -1.155893e+01 -4.583912e+00 3.663766e+00 2.913685e+00 1.121447e-01 2.585754e+00 -8.622119e-01 6.445096e+01 5.499279e-01 3.350744e-01 -7.331184e-01 -8.573023e-01 -3.260791e-01 -3.583116e-01 -1.211392e+00 -1.314262e+00 -1.305241e-01 1.138435e+00 1.402862e+00 -6.529441e-01 1.257865e+00 -1.965468e-03 2.081440e-01 -1.945179e-01 -2.961478e-01 4.092484e-01 2.766604e-01 4.207263e-01 -1.998472e-01 -4.656927e-01 5.333324e-03 1.632215e-01 3.772467e-03 -6.001958e-02
<VARIANCE> 39
 2.130074e+01 1.818049e+01 2.484118e+01 4.406168e+01 4.990511e+01 6.571215e+01 9.482774e+01 5.674850e+01 5.913103e+01 4.221940e+01 4.298326e+01 3.608923e+01 4.261421e+01 3.627398e+00 2.260171e+00 2.601664e+00 3.806051e+00 6.414290e+00 6.017642e+00 6.762779e+00 6.475025e+00 5.841811e+00 3.883226e+00 4.383336e+00 3.952496e+00 4.399330e+00 4.145825e-01 4.042922e-01 5.509383e-01 7.034392e-01 1.269435e+00 1.284537e+00 1.640817e+00 9.923985e-01 1.023269e+00 7.600341e-01 8.047714e-01 8.793036e-01 7.096037e-01
<GCONST> 1.368290e+02
<STATE> 4
<MEAN> 39
 -8.214584e-01 -2.145062e+00 -2.874202e+00 1.948862e+00 -5.766917e+00 -1.167641e+01 -4.859288e+00 1.296232e-01 6.481825e-01 3.197365e+00 6.685757e+00 -2.931746e+00 6.651195e+01 -2.677893e-03 4.695738e-01 -8.489516e-01 -1.168659e+00 3.894646e-01 7.949591e-01 7.308939e-01 -1.201392e+00 -1.610430e+00 5.600434e-01 1.064190e+00 -3.556339e-02 5.023870e-01 -3.974171e-01 -1.081172e-02 2.305600e-01 1.017469e-01 -1.904769e-02 3.070065e-01 4.776588e-01 2.387617e-01 -1.827587e-01 -4.168989e-01 -5.082244e-01 4.384838e-01 -1.596135e-01
<VARIANCE> 39
 3.109741e+01 1.355799e+01 2.302522e+01 3.640687e+01 2.428440e+01 4.973413e+01 8.411429e+01 7.337009e+01 8.064912e+01 4.876071e+01 5.707553e+01 3.519969e+01 2.629146e+01 3.518188e+00 1.437446e+00 2.118377e+00 2.098250e+00 3.036316e+00 3.921345e+00 4.838193e+00 3.772380e+00 5.050435e+00 3.473571e+00 3.542866e+00 3.073317e+00 1.776848e+00 3.778327e-01 2.726311e-01 4.315991e-01 4.373663e-01 6.482658e-01 7.545555e-01 1.020446e+00 7.534082e-01 8.482132e-01 6.847827e-01 7.500882e-01 5.782289e-01 5.299402e-01
<GCONST> 1.268178e+02
<TRANSP> 5
 0.000000e+00 1.000000e+00 0.000000e+00 0.000000e+00 0.000000e+00
 0.000000e+00 7.056146e-01 2.943855e-01 0.000000e+00 0.000000e+00
 0.000000e+00 0.000000e+00 6.004855e-01 3.995144e-01 0.000000e+00
 0.000000e+00 0.000000e+00 0.000000e+00 5.429008e-01 4.570992e-01
 0.000000e+00 0.000000e+00 0.000000e+00 0.000000e+00 0.000000e+00
<ENDHMM>
~h "uu"
<BEGINHMM>
<NUMSTATES> 5
<STATE> 2
<MEAN> 39
 2.437476e+00 6.518690e+00 -2.885804e+00 4.256212e+00 -3.930103e+00 -6.693480e+00 -8.389631e+00 -2.169615e+01 -1.143829e+01 -7.029218e+00 8.246225e+00 3.852222e+00 6.561495e+01 3.733186e-01 1.251610e+00 -9.431748e-01 -1.867512e+00 5.697561e-01 1.336601e+00 2.811572e+00 -7.678635e-01 -2.385662e+00 -6.201261e-01 -5.637981e-01 1.236452e+00 -2.126511e-02 -2.666517e-01 -1.782967e-02 3.071893e-01 1.265319e-01 -2.836243e-01 -2.473469e-01 -6.018708e-02 1.046186e+00 2.993428e-01 -1.317051e-02 -7.996021e-01 -1.285998e-01 -1.089318e-01
<VARIANCE> 39
 4.645863e+00 9.760958e+00 1.294065e+01 2.999906e+01 1.539067e+01 2.271668e+01 3.460193e+01 5.188923e+01 4.504012e+01 2.584396e+01 3.411871e+01 2.858798e+01 1.177787e+01 3.133451e-01 3.678786e-01 7.075685e-01 1.078977e+00 9.417322e-01 1.487462e+00 1.338384e+00 3.430837e+00 1.413295e+00 1.492277e+00 2.690073e+00 1.137533e+00 1.386834e-01 8.507088e-02 9.107307e-02 1.119992e-01 1.926612e-01 1.923804e-01 3.576600e-01 4.065921e-01 4.407631e-01 2.821856e-01 3.675084e-01 4.197602e-01 3.594268e-01 2.199694e-02
<GCONST> 8.946527e+01
<STATE> 3
<MEAN> 39
 2.432694e+00 1.229891e+01 -4.355054e+00 -4.356024e+00 -3.272847e+00 -7.364855e+00 3.326910e+00 -1.552481e+01 -1.802813e+01 -6.442707e+00 1.290016e+00 3.938888e+00 6.588329e+01 8.682173e-02 5.761787e-01 -1.058938e-02 -7.661127e-01 7.247584e-03 -5.761990e-03 9.414905e-01 7.710494e-01 -7.295750e-01 1.326074e-01 -9.154158e-01 6.346540e-02 -1.533124e-01 -1.834250e-02 -1.176504e-01 8.211348e-02 1.725366e-01 -4.764623e-02 -8.467922e-02 -2.410809e-01 6.365343e-02 2.252138e-01 8.081268e-02 4.896306e-02 -8.674423e-02 -1.634646e-02
<VARIANCE> 39
 1.023156e+01 1.415130e+01 1.356993e+01 4.374470e+01 1.756669e+01 2.998859e+01 5.113029e+01 8.434605e+01 5.059540e+01 2.064922e+01 4.035155e+01 2.340626e+01 1.761336e+01 1.965598e-01 5.147649e-01 5.413193e-01 1.033323e+00 8.337149e-01 1.137596e+00 2.062152e+00 9.992193e-01 1.422515e+00 1.125508e+00 1.446819e+00 9.249418e-01 9.445258e-02 3.284451e-02 5.636654e-02 1.057063e-01 1.068377e-01 1.544875e-01 2.070614e-01 2.410463e-01 2.203094e-01 2.103776e-01 2.211576e-01 2.741431e-01 1.877456e-01 1.329752e-02
<GCONST> 8.303830e+01
<STATE> 4
<MEAN> 39
 -1.561075e+00 8.105690e+00 -5.708950e-01 -6.105750e-01 -2.007778e+00 -1.948929e+00 1.498901e+00 -5.271384e+00 -1.043661e+01 -3.870042e+00 -2.624889e+00 1.406095e+00 5.594400e+01 -3.244385e-01 -2.668827e-01 6.866407e-02 1.768134e-01 9.926409e-02 1.469701e-01 -5.861595e-02 3.391828e-01 4.473807e-01 1.185453e-01 2.078834e-02 -1.276636e-01 -3.489275e-01 -9.792948e-03 -1.688575e-02 -9.823907e-03 9.355375e-03 2.648109e-03 6.445583e-04 -1.620169e-02 -1.534173e-02 1.108767e-02 1.463421e-03 3.310455e-02 1.186681e-03 5.283462e-03
<VARIANCE> 39
 3.389726e+01 2.768167e+01 1.496680e+01 2.773890e+01 1.768765e+01 2.477913e+01 2.604416e+01 4.952787e+01 8.600214e+01 2.390502e+01 1.976285e+01 2.170983e+01 4.289672e+01 2.760162e-01 4.536596e-01 6.581449e-01 1.017997e+00 1.121865e+00 1.347426e+00 1.460291e+00 1.481908e+00 1.839211e+00 1.803947e+00 1.565938e+00 1.416957e+00 1.127733e-01 3.747372e-02 7.361931e-02 1.148165e-01 1.708271e-01 2.161958e-01 2.616463e-01 2.652643e-01 2.799700e-01 3.223696e-01 3.362985e-01 2.941636e-01 2.796984e-01 1.326296e-02
<GCONST> 8.942573e+01
<TRANSP> 5
 0.000000e+00 1.000000e+00 0.000000e+00 0.000000e+00 0.000000e+00
 0.000000e+00 6.588041e-01 3.411959e-01 0.000000e+00 0.000000e+00
 0.000000e+00 0.000000e+00 8.652245e-01 1.347756e-01 0.000000e+00
 0.000000e+00 0.000000e+00 0.000000e+00 9.747853e-01 2.521469e-02
 0.000000e+00 0.000000e+00 0.000000e+00 0.000000e+00 0.000000e+00
<ENDHMM>
~h "sil"
<BEGINHMM>
<NUMSTATES> 5
<STATE> 2
<MEAN> 39
 -8.652360e+00 3.830939e-01 -1.288716e+00 1.864155e+00 2.133221e+00 4.819705e-01 6.570278e-01 1.391275e+00 1.195498e+00 6.854241e-01 1.225907e+00 -1.836354e-01 5.201834e+01 -7.479740e-02 1.864505e-02 3.937906e-02 6.319755e-02 1.828907e-02 1.383588e-01 2.867143e-02 -3.691205e-02 6.580155e-04 -8.891033e-02 -5.328585e-02 4.314703e-02 -1.347669e-01 -6.287212e-03 -5.330718e-04 -5.626068e-03 -2.413714e-03 -1.313383e-02 -2.014732e-02 -9.117905e-03 -1.152782e-02 -1.568713e-02 7.592768e-04 2.166042e-03 -1.640536e-03 -1.053596e-03
<VARIANCE> 39
 1.665923e+01 8.084080e+00 1.232645e+01 1.486800e+01 1.847285e+01 2.264899e+01 1.787699e+01 2.019898e+01 2.056747e+01 2.221332e+01 1.670632e+01 1.366634e+01 3.574766e+01 3.463804e-01 3.244714e-01 6.006509e-01 8.524366e-01 1.159873e+00 1.241089e+00 1.336522e+00 1.521957e+00 1.592159e+00 1.605657e+00 1.436128e+00 1.248962e+00 1.060710e+00 3.511483e-02 5.520467e-02 1.005224e-01 1.537907e-01 2.009410e-01 2.102071e-01 2.437017e-01 2.749382e-01 2.955738e-01 2.997557e-01 2.676184e-01 2.286725e-01 8.615762e-02
<GCONST> 8.469758e+01
<STATE> 3
<MEAN> 39
 -9.620961e+00 5.977259e-01 -1.220968e+00 2.047948e+00 1.664556e+00 1.243486e+00 5.779302e-01 9.349766e-01 8.460974e-01 -6.046477e-02 6.922448e-01 9.344547e-02 5.086654e+01 -7.297970e-02 6.017237e-03 2.241068e-02 2.535859e-02 -7.494988e-02 2.099728e-02 5.119828e-03 -2.039454e-02 -4.435216e-02 -8.973282e-02 -3.234126e-02 4.674621e-02 -1.085778e-01 2.160400e-02 1.079872e-02 1.644779e-02 2.278530e-04 -1.565949e-02 -4.808300e-02 -2.923124e-02 1.214524e-02 -1.340677e-02 2.748361e-03 -1.098341e-02 -8.455385e-03 3.410110e-02
<VARIANCE> 39
 6.170458e+00 6.714129e+00 9.933039e+00 1.711707e+01 1.700619e+01 1.913883e+01 1.815178e+01 1.824738e+01 1.932841e+01 1.976264e+01 1.660029e+01 1.336413e+01 1.499760e+01 2.478165e-01 4.546756e-01 7.731686e-01 1.118192e+00 1.299553e+00 1.546803e+00 1.696806e+00 1.772570e+00 1.850318e+00 1.879477e+00 1.673336e+00 1.379817e+00 1.214907e-01 5.086981e-02 9.591072e-02 1.616754e-01 2.236626e-01 2.670579e-01 3.130443e-01 3.526734e-01 3.706770e-01 3.885978e-01 3.845951e-01 3.472780e-01 2.895446e-01 3.614588e-02
<GCONST> 8.494930e+01
<STATE> 4
<MEAN> 39
 -1.029108e+01 1.559854e-01 -4.498774e-01 2.966789e+00 1.295769e+00 3.942674e-01 8.201002e-01 1.570393e+00 5.029352e-01 -2.338999e-01 9.048841e-01 4.936991e-01 5.251549e+01 3.592463e-01 3.712370e-01 3.952031e-01 1.808835e-01 -1.665765e-01 -3.502926e-01 -4.097213e-01 -2.124904e-01 -2.361448e-01 -1.767998e-01 -1.591095e-01 -1.230844e-01 2.478269e-01 1.846656e-01 1.285486e-01 1.055030e-01 -4.637264e-02 -1.961777e-01 -2.928291e-01 -2.159187e-01 -1.120053e-01 -1.073645e-01 2.717047e-03 3.143457e-03 -3.111459e-02 2.687665e-01
<VARIANCE> 39
 8.823068e+00 1.326661e+01 1.684402e+01 2.536279e+01 1.988710e+01 2.361775e+01 2.120418e+01 1.989070e+01 2.060721e+01 2.070754e+01 1.963621e+01 1.540393e+01 2.678410e+01 8.711382e-01 1.515663e+00 1.623675e+00 1.607627e+00 1.583032e+00 2.119275e+00 2.172394e+00 2.523145e+00 1.940463e+00 1.829802e+00 1.829335e+00 1.567719e+00 4.118654e-01 2.203968e-01 2.436812e-01 3.127701e-01 3.631363e-01 4.099879e-01 4.575652e-01 4.159102e-01 4.483134e-01 3.394023e-01 3.565674e-01 3.157482e-01 3.014882e-01 1.422609e-01
<GCONST> 1.004661e+02
<TRANSP> 5
 0.000000e+00 1.000000e+00 0.000000e+00 0.000000e+00 0.000000e+00
 0.000000e+00 8.921819e-01 1.078181e-01 0.000000e+00 0.000000e+00
 0.000000e+00 0.000000e+00 8.686482e-01 1.313517e-01 0.000000e+00
 0.000000e+00 0.000000e+00 0.000000e+00 4.035425e-01 5.964575e-01
 0.000000e+00 0.000000e+00 0.000000e+00 0.000000e+00 0.000000e+00
<ENDHMM>
